{"learner":{"attributes":{"best_iteration":"43","best_ntree_limit":"44","scikit_learn":"{\"use_label_encoder\": false, \"n_estimators\": 44, \"objective\": \"binary:logistic\", \"max_depth\": 4, \"max_leaves\": null, \"max_bin\": null, \"grow_policy\": null, \"learning_rate\": 0.1, \"verbosity\": 0, \"booster\": null, \"tree_method\": \"hist\", \"gamma\": 4.15832, \"min_child_weight\": 1, \"max_delta_step\": 4, \"subsample\": 1, \"sampling_method\": null, \"colsample_bytree\": null, \"colsample_bylevel\": 1, \"colsample_bynode\": null, \"reg_alpha\": null, \"reg_lambda\": null, \"scale_pos_weight\": 3.957271, \"base_score\": null, \"missing\": NaN, \"num_parallel_tree\": null, \"random_state\": 868474, \"n_jobs\": null, \"monotone_constraints\": null, \"interaction_constraints\": null, \"importance_type\": null, \"gpu_id\": null, \"validate_parameters\": null, \"predictor\": null, \"enable_categorical\": true, \"max_cat_to_onehot\": 1, \"eval_metric\": [\"logloss\"], \"early_stopping_rounds\": null, \"callbacks\": null, \"classes_\": [0, 1], \"n_classes_\": 2, \"evals_result_\": {\"validation_0\": {\"logloss\": [0.6862203539443131, 0.6805734740754289, 0.6758603855701267, 0.6719339363356144, 0.6687334952433384, 0.665973150058845, 0.6636456702442761, 0.6615887483084724, 0.6598980955170879, 0.6579676473867154, 0.6559175146971665, 0.6547348717324295, 0.6523108653695496, 0.6506205507505054, 0.6494151227859517, 0.6476158302370429, 0.6464885571122339, 0.645028487176056, 0.644296454554677, 0.6435633350033916, 0.6425176850942408, 0.641609409209569, 0.6409259941526534, 0.6397578993495083, 0.6385859216216211, 0.6381747536464785, 0.637420362457907, 0.6366374034290319, 0.6361590544799302, 0.6348456046630186, 0.6343127734449273, 0.6335263865472089, 0.6325666444440678, 0.63224000728418, 0.631702779800637, 0.630934766088612, 0.6304421916925316, 0.629791596205696, 0.6291771728459876, 0.6282172108311852, 0.6273924008933998, 0.6263143040705, 0.6259990908685155, 0.625286931430284]}}, \"_estimator_type\": \"classifier\"}"},"feature_names":["adf_pass_rate","last_residual","residual_mean_max","industry","vix","betas_rsquared","arima_forecast_normalized","residual_inter"],"feature_types":["float","float","float","c","float","float","float","float"],"gradient_booster":{"model":{"gbtree_model_param":{"num_parallel_tree":"1","num_trees":"44","size_leaf_vector":"0"},"tree_info":[0,0,0,0,0,0,0,0,0,0,0,0,0,0,0,0,0,0,0,0,0,0,0,0,0,0,0,0,0,0,0,0,0,0,0,0,0,0,0,0,0,0,0,0],"trees":[{"base_weights":[7.046842E-2,1.3255864E0,-5.438891E-3,1.3507816E0,4.20874E-1,-1.4474516E-1,7.91819E-1,1.3698876E0,3.2318312E-1,1.792829E-1,-5.8874327E-1,3.5233876E-1,-3.1447557E-1,1.4610216E-1,9.323527E-1,1.09428E-1,1.4343429E-1,7.125756E-2,-1.11604236E-1,1.4620696E-1,-1.3138865E-1,8.75501E-3,5.3073376E-2,-8.0356084E-2,-1.3681412E-2,-1.156715E-2,1.1682352E-1,1.05540685E-1,2.898919E-2],"categories":[3,0,3,4,5,8,9],"categories_nodes":[1,5],"categories_segments":[0,1],"categories_sizes":[1,6],"default_left":[0,0,0,0,0,0,0,0,0,0,0,0,0,0,0,0,0,0,0,0,0,0,0,0,0,0,0,0,0],"id":0,"left_children":[1,3,5,7,9,11,13,15,17,-1,19,21,23,25,27,-1,-1,-1,-1,-1,-1,-1,-1,-1,-1,-1,-1,-1,-1],"loss_changes":[2.6827063E3,3.60354E1,2.9492034E3,3.0222168E1,6.333402E1,1.9072625E3,3.582827E2,2.5664307E1,1.7506203E1,0E0,4.155882E1,2.7176532E2,1.4641293E3,1.8934782E2,2.5612354E2,0E0,0E0,0E0,0E0,0E0,0E0,0E0,0E0,0E0,0E0,0E0,0E0,0E0,0E0],"parents":[2147483647,0,0,1,1,2,2,3,3,4,4,5,5,6,6,7,7,8,8,10,10,11,11,12,12,13,13,14,14],"right_children":[2,4,6,8,10,12,14,16,18,-1,20,22,24,26,28,-1,-1,-1,-1,-1,-1,-1,-1,-1,-1,-1,-1,-1,-1],"split_conditions":[-8.3325833E-1,NaN,9.945148E-1,4.534207E0,3.1686175E0,NaN,1.3565705E0,1.7881344E-1,2.4800441E0,1.792829E-1,1.6868503E0,1.677E0,1.2076409E0,9.3035716E-1,5.503359E0,1.09428E-1,1.4343429E-1,7.125756E-2,-1.11604236E-1,1.4620696E-1,-1.3138865E-1,8.75501E-3,5.3073376E-2,-8.0356084E-2,-1.3681412E-2,-1.156715E-2,1.1682352E-1,1.05540685E-1,2.898919E-2],"split_indices":[4,3,4,2,2,3,6,5,6,0,6,6,6,7,2,0,0,0,0,0,0,0,0,0,0,0,0,0,0],"split_type":[0,1,0,0,0,1,0,0,0,0,0,0,0,0,0,0,0,0,0,0,0,0,0,0,0,0,0,0,0],"sum_hessian":[2.8157129E4,1.6048397E3,2.655229E4,1.560878E3,4.396158E1,2.260355E4,3.9487393E3,1.5320597E3,2.8818401E1,1.830772E1,2.565386E1,5.753217E3,1.6850334E4,7.061587E2,3.2425806E3,2.937931E2,1.2382666E3,2.3079084E1,5.739318E0,6.4359064E0,1.9217953E1,2.3164463E3,3.4367705E3,4.4890044E3,1.2361329E4,5.6288715E2,1.4327155E2,2.7208066E3,5.21774E2],"tree_param":{"num_deleted":"0","num_feature":"8","num_nodes":"29","size_leaf_vector":"0"}},{"base_weights":[6.351892E-2,1.1991211E0,-4.8855753E-3,1.2217429E0,3.8551265E-1,-1.3033813E-1,7.142494E-1,1.2367406E0,1.2258756E-1,1.6356818E-1,-5.317198E-1,3.1725886E-1,-2.831766E-1,2.4947262E-1,8.7743825E-1,1.2530552E-1,3.4782108E-2,-1.21886946E-1,6.674778E-2,1.341935E-1,-1.1940601E-1,1.9143632E-2,6.8079025E-2,-6.5861374E-2,-9.112677E-3,-2.6543986E-3,7.417621E-2,9.987495E-2,2.2333961E-2],"categories":[3,0,3,4,5,8,9],"categories_nodes":[1,5],"categories_segments":[0,1],"categories_sizes":[1,6],"default_left":[0,0,0,0,0,0,0,0,0,0,0,0,0,0,0,0,0,0,0,0,0,0,0,0,0,0,0,0,0],"id":1,"left_children":[1,3,5,7,9,11,13,15,17,-1,19,21,23,25,27,-1,-1,-1,-1,-1,-1,-1,-1,-1,-1,-1,-1,-1,-1],"loss_changes":[2.1853186E3,2.8946045E1,2.3939946E3,2.5475342E1,5.2125046E1,1.5457648E3,2.9873413E2,2.1804688E1,1.692129E1,0E0,3.4534546E1,2.6295752E2,1.2144021E3,1.393901E2,2.3122949E2,0E0,0E0,0E0,0E0,0E0,0E0,0E0,0E0,0E0,0E0,0E0,0E0,0E0,0E0],"parents":[2147483647,0,0,1,1,2,2,3,3,4,4,5,5,6,6,7,7,8,8,10,10,11,11,12,12,13,13,14,14],"right_children":[2,4,6,8,10,12,14,16,18,-1,20,22,24,26,28,-1,-1,-1,-1,-1,-1,-1,-1,-1,-1,-1,-1,-1,-1],"split_conditions":[-8.3325833E-1,NaN,9.945148E-1,1.2549297E0,3.1686175E0,NaN,1.6198142E0,4.534207E0,2.009488E0,1.6356818E-1,1.6868503E0,4.4395237E0,1.420275E0,3.6019256E0,5.503359E0,1.2530552E-1,3.4782108E-2,-1.21886946E-1,6.674778E-2,1.341935E-1,-1.1940601E-1,1.9143632E-2,6.8079025E-2,-6.5861374E-2,-9.112677E-3,-2.6543986E-3,7.417621E-2,9.987495E-2,2.2333961E-2],"split_indices":[4,3,4,7,2,3,6,2,6,0,6,2,6,4,2,0,0,0,0,0,0,0,0,0,0,0,0,0,0],"split_type":[0,1,0,0,0,1,0,0,0,0,0,0,0,0,0,0,0,0,0,0,0,0,0,0,0,0,0,0,0],"sum_hessian":[2.8131135E4,1.5973044E3,2.653383E4,1.5536062E3,4.3698277E1,2.259327E4,3.9405605E3,1.5325695E3,2.1036789E1,1.816139E1,2.5536884E1,5.7507534E3,1.6842516E4,1.0246873E3,2.9158733E3,1.5045463E3,2.8023167E1,5.7193933E0,1.5317395E1,6.401634E0,1.913525E1,4.273255E3,1.4774983E3,5.699049E3,1.1143468E4,6.57171E2,3.6751627E2,2.4592466E3,4.566267E2],"tree_param":{"num_deleted":"0","num_feature":"8","num_nodes":"29","size_leaf_vector":"0"}},{"base_weights":[5.7371214E-2,1.0933381E0,-4.3791994E-3,1.2028548E0,9.343473E-1,-1.1745172E-1,6.464653E-1,1.5400327E0,1.1492307E0,1.1489499E0,5.408403E-1,2.858343E-1,-2.5519064E-1,8.884867E-1,3.5760418E-1,-1.4319743E-2,1.5681182E-1,1.1687835E-1,-3.353517E-2,1.173568E-1,-1.0414906E-1,6.689932E-2,-4.8381828E-2,4.7942935E-3,4.4634692E-2,-7.1884885E-2,-1.2418295E-2,7.774794E-2,1.4960895E-1,1.3735039E-3,7.582194E-2],"categories":[3,4,6,7,0,3,4,5,8,9,0,2,4,6,8,1,3],"categories_nodes":[4,5,6,8,10],"categories_segments":[0,4,10,15,16],"categories_sizes":[4,6,5,1,1],"default_left":[0,0,0,0,0,0,0,0,0,0,0,0,0,0,0,0,0,0,0,0,0,0,0,0,0,0,0,0,0,0,0],"id":2,"left_children":[1,3,5,7,9,11,13,15,17,19,21,23,25,27,29,-1,-1,-1,-1,-1,-1,-1,-1,-1,-1,-1,-1,-1,-1,-1,-1],"loss_changes":[1.7955148E3,2.636792E1,1.9495079E3,1.5071045E1,5.4140076E1,1.2537654E3,2.7380444E2,6.127472E0,2.3833618E1,2.3802246E1,3.0621994E1,2.1940265E2,1.02185046E3,1.426925E2,2.4647096E2,0E0,0E0,0E0,0E0,0E0,0E0,0E0,0E0,0E0,0E0,0E0,0E0,0E0,0E0,0E0,0E0],"parents":[2147483647,0,0,1,1,2,2,3,3,4,4,5,5,6,6,7,7,8,8,9,9,10,10,11,11,12,12,13,13,14,14],"right_children":[2,4,6,8,10,12,14,16,18,20,22,24,26,28,30,-1,-1,-1,-1,-1,-1,-1,-1,-1,-1,-1,-1,-1,-1,-1,-1],"split_conditions":[-8.3325833E-1,-9.9860466E-1,9.945148E-1,3.2739298E0,NaN,NaN,NaN,6.45871E-3,NaN,4.5788627E0,NaN,1.677E0,1.0501673E0,1.0082694E0,3.6019256E0,-1.4319743E-2,1.5681182E-1,1.1687835E-1,-3.353517E-2,1.173568E-1,-1.0414906E-1,6.689932E-2,-4.8381828E-2,4.7942935E-3,4.4634692E-2,-7.1884885E-2,-1.2418295E-2,7.774794E-2,1.4960895E-1,1.3735039E-3,7.582194E-2],"split_indices":[4,4,4,2,3,3,3,5,3,1,3,6,6,7,4,0,0,0,0,0,0,0,0,0,0,0,0,0,0,0,0],"split_type":[0,0,0,0,1,1,1,0,1,0,1,0,0,0,0,0,0,0,0,0,0,0,0,0,0,0,0,0,0,0,0],"sum_hessian":[2.8066395E4,1.5778926E3,2.6488502E4,9.3042676E2,6.4746576E2,2.2568459E4,3.920044E3,1.2386523E2,8.065616E2,4.1773206E2,2.297337E2,5.745404E3,1.6823055E4,2.1318252E3,1.7882189E3,1.9655674E0,1.2189966E2,7.9628674E2,1.0274798E1,4.1354843E2,4.183601E0,2.0450375E2,2.5229942E1,2.3152832E3,3.4301206E3,3.7052092E3,1.3117845E4,1.804439E3,3.2738623E2,9.6281683E2,8.2540204E2],"tree_param":{"num_deleted":"0","num_feature":"8","num_nodes":"31","size_leaf_vector":"0"}},{"base_weights":[5.189552E-2,1.0024626E0,-3.9194296E-3,1.1329083E0,8.819445E-1,-1.05906084E-1,5.8637756E-1,1.438423E0,1.0806763E0,9.23953E-1,-3.685208E-1,-3.9291066E-1,5.8253344E-2,-1.2615351E-2,6.9584435E-1,-1.3357577E-2,1.469674E-1,1.1039356E-1,-3.0361502E-2,9.53875E-2,-8.44312E-2,1.3139398E-1,-1.0536914E-1,6.791936E-3,-5.161188E-2,4.372635E-2,-4.6079773E-3,-4.8186947E-2,5.8011472E-2,1.1087052E-1,5.613224E-2],"categories":[3,1,0,2,3,4,5,8,9,0,1,3,4,5,8,9,0,2,4,5,6,8],"categories_nodes":[4,8,11,12,14],"categories_segments":[0,1,2,9,16],"categories_sizes":[1,1,7,7,6],"default_left":[0,0,0,0,0,0,0,0,0,0,0,0,0,0,0,0,0,0,0,0,0,0,0,0,0,0,0,0,0,0,0],"id":3,"left_children":[1,3,5,7,9,11,13,15,17,19,21,23,25,27,29,-1,-1,-1,-1,-1,-1,-1,-1,-1,-1,-1,-1,-1,-1,-1,-1],"loss_changes":[1.4843098E3,2.3393433E1,1.5909525E3,1.0279846E1,4.2942627E1,1.0616787E3,2.5528271E2,5.3670654E0,2.085608E1,4.2335754E1,3.2595078E1,4.6556506E2,5.668895E2,1.6786783E2,1.8219153E2,0E0,0E0,0E0,0E0,0E0,0E0,0E0,0E0,0E0,0E0,0E0,0E0,0E0,0E0,0E0,0E0],"parents":[2147483647,0,0,1,1,2,2,3,3,4,4,5,5,6,6,7,7,8,8,9,9,10,10,11,11,12,12,13,13,14,14],"right_children":[2,4,6,8,10,12,14,16,18,20,22,24,26,28,30,-1,-1,-1,-1,-1,-1,-1,-1,-1,-1,-1,-1,-1,-1,-1,-1],"split_conditions":[-8.3325833E-1,-9.9913526E-1,9.945148E-1,3.2739298E0,NaN,1.5116733E0,1.254861E0,6.45871E-3,NaN,4.5788627E0,1.6868503E0,NaN,NaN,7.433781E-1,NaN,-1.3357577E-2,1.469674E-1,1.1039356E-1,-3.0361502E-2,9.53875E-2,-8.44312E-2,1.3139398E-1,-1.0536914E-1,6.791936E-3,-5.161188E-2,4.372635E-2,-4.6079773E-3,-4.8186947E-2,5.8011472E-2,1.1087052E-1,5.613224E-2],"split_indices":[4,4,4,2,3,6,6,5,3,1,6,3,3,7,3,0,0,0,0,0,0,0,0,0,0,0,0,0,0,0,0],"split_type":[0,0,0,0,1,0,0,0,1,0,0,1,1,0,1,0,0,0,0,0,0,0,0,0,0,0,0,0,0,0,0],"sum_hessian":[2.7975285E4,1.5505966E3,2.642469E4,7.4059515E2,8.100014E2,2.2532525E4,3.8921636E3,1.0425425E2,6.3634094E2,7.83927E2,2.6074368E1,8.198122E3,1.4334403E4,6.0152985E2,3.2906338E3,1.9683179E0,1.02285934E2,6.260248E2,1.03161335E1,7.7133527E2,1.2591733E1,7.2801123E0,1.8794254E1,1.7295632E3,6.468559E3,3.0934949E3,1.1240908E4,3.35839E2,2.6569086E2,8.069098E2,2.4837239E3],"tree_param":{"num_deleted":"0","num_feature":"8","num_nodes":"31","size_leaf_vector":"0"}},{"base_weights":[4.698946E-2,9.232743E-1,-3.5038183E-3,1.0800426E0,8.242584E-1,-9.5518604E-2,5.3264177E-1,1.0897923E0,-1.3948417E-1,9.574914E-1,4.387237E-1,-4.5772335E-1,1.4280638E-2,-1.1283826E-2,6.327998E-1,1.0143653E-1,1.317603E-1,9.8613895E-2,-2.809294E-2,7.653072E-2,1.3790313E-3,-7.108264E-2,-2.601479E-2,3.9994814E-2,-7.4881217E-3,-4.3356407E-2,5.2538443E-2,1.0173061E-1,5.0892413E-2],"categories":[3,4,7,0,1,2,3,4,5,8,9,0,2,4,5,6,8],"categories_nodes":[4,12,14],"categories_segments":[0,3,11],"categories_sizes":[3,8,6],"default_left":[0,0,0,0,0,0,0,0,0,0,0,0,0,0,0,0,0,0,0,0,0,0,0,0,0,0,0,0,0],"id":4,"left_children":[1,3,5,7,9,11,13,15,-1,17,19,21,23,25,27,-1,-1,-1,-1,-1,-1,-1,-1,-1,-1,-1,-1,-1,-1],"loss_changes":[1.2330624E3,2.26781E1,1.3000149E3,1.562439E1,4.7596313E1,8.944915E2,2.1029785E2,8.677795E0,0E0,2.489392E1,3.3562813E1,2.614563E2,5.935626E2,1.3648376E2,1.5475122E2,0E0,0E0,0E0,0E0,0E0,0E0,0E0,0E0,0E0,0E0,0E0,0E0,0E0,0E0],"parents":[2147483647,0,0,1,1,2,2,3,3,4,4,5,5,6,6,7,7,9,9,10,10,11,11,12,12,13,13,14,14],"right_children":[2,4,6,8,10,12,14,16,-1,18,20,22,24,26,28,-1,-1,-1,-1,-1,-1,-1,-1,-1,-1,-1,-1,-1,-1],"split_conditions":[-8.3325833E-1,2.6691774E-1,9.945148E-1,5.0377936E0,NaN,1.1299975E0,1.254861E0,2.1912997E0,-1.3948417E-1,1.2549297E0,-9.9860466E-1,2.9510915E0,NaN,7.433781E-1,NaN,1.0143653E-1,1.317603E-1,9.8613895E-2,-2.809294E-2,7.653072E-2,1.3790313E-3,-7.108264E-2,-2.601479E-2,3.9994814E-2,-7.4881217E-3,-4.3356407E-2,5.2538443E-2,1.0173061E-1,5.0892413E-2],"split_indices":[4,0,4,2,3,6,6,6,0,7,4,1,3,7,3,0,0,0,0,0,0,0,0,0,0,0,0,0,0],"split_type":[0,0,0,0,1,0,0,0,0,0,0,0,1,0,1,0,0,0,0,0,0,0,0,0,0,0,0,0,0],"sum_hessian":[2.7866953E4,1.5173223E3,2.634963E4,5.835308E2,9.337914E2,2.249056E4,3.85907E3,5.817985E2,1.7323096E0,6.92867E2,2.4092441E2,5.2310967E3,1.7259463E4,6.002414E2,3.2588286E3,4.411791E2,1.4061945E2,6.774008E2,1.5466161E1,1.35774E2,1.05150406E2,2.292151E3,2.9389458E3,3.2402695E3,1.4019194E4,3.3602805E2,2.6421332E2,7.9231E2,2.4665186E3],"tree_param":{"num_deleted":"0","num_feature":"8","num_nodes":"29","size_leaf_vector":"0"}},{"base_weights":[4.256836E-2,8.522036E-1,-3.1281856E-3,1.0008347E0,7.5891626E-1,-2.4898426E-1,1.6963747E-1,1.0102105E0,-1.299773E-1,8.846236E-1,4.0004334E-1,3.5062924E-2,-3.6355296E-1,7.3122576E-2,6.213286E-1,5.685821E-2,1.0439787E-1,9.11722E-2,-2.5361046E-2,-5.9192028E-2,5.360631E-2,-1.0016487E-2,6.0761657E-2,-1.4537488E-2,-4.9686756E-2,3.381239E-2,-2.8252264E-3,7.289066E-2,5.2149696E-3],"categories":[3,4,7,0,2,4,5,8,9,3,4,5,8,9],"categories_nodes":[4,5,13],"categories_segments":[0,3,9],"categories_sizes":[3,6,5],"default_left":[0,0,0,0,0,0,0,0,0,0,0,0,0,0,0,0,0,0,0,0,0,0,0,0,0,0,0,0,0],"id":5,"left_children":[1,3,5,7,9,11,13,15,-1,17,19,21,23,25,27,-1,-1,-1,-1,-1,-1,-1,-1,-1,-1,-1,-1,-1,-1],"loss_changes":[1.0268566E3,1.980017E1,1.1159941E3,1.35789795E1,4.0931396E1,3.5288342E2,6.7265063E2,7.86084E0,0E0,2.1110596E1,3.2595818E1,2.4142879E2,2.2467206E2,3.4159375E2,1.6629749E2,0E0,0E0,0E0,0E0,0E0,0E0,0E0,0E0,0E0,0E0,0E0,0E0,0E0,0E0],"parents":[2147483647,0,0,1,1,2,2,3,3,4,4,5,5,6,6,7,7,9,9,10,10,11,11,12,12,13,13,14,14],"right_children":[2,4,6,8,10,12,14,16,-1,18,20,22,24,26,28,-1,-1,-1,-1,-1,-1,-1,-1,-1,-1,-1,-1,-1,-1],"split_conditions":[-8.3325833E-1,2.6691774E-1,1.6868503E0,5.0377936E0,NaN,NaN,9.945148E-1,3.960667E-1,-1.299773E-1,1.2549297E0,1.421575E-1,3.71157E0,3.2208246E-1,NaN,5.503359E0,5.685821E-2,1.0439787E-1,9.11722E-2,-2.5361046E-2,-5.9192028E-2,5.360631E-2,-1.0016487E-2,6.0761657E-2,-1.4537488E-2,-4.9686756E-2,3.381239E-2,-2.8252264E-3,7.289066E-2,5.2149696E-3],"split_indices":[4,0,6,2,3,3,4,6,0,7,5,1,5,3,2,0,0,0,0,0,0,0,0,0,0,0,0,0,0],"split_type":[0,0,0,0,1,1,0,0,0,0,0,0,0,1,0,0,0,0,0,0,0,0,0,0,0,0,0,0,0],"sum_hessian":[2.7753658E4,1.4818107E3,2.6271848E4,5.6765674E2,9.1415393E2,1.0842238E4,1.5429608E4,5.659114E2,1.7454044E0,6.759238E2,2.382301E2,3.1164353E3,7.725803E3,1.2714093E4,2.7155159E3,4.1464622E1,5.244467E2,6.604004E2,1.552345E1,2.8323196E1,2.099069E2,2.5216807E3,5.947546E2,2.9310454E3,4.794758E3,3.5172932E3,9.1968E3,2.2836187E3,4.318972E2],"tree_param":{"num_deleted":"0","num_feature":"8","num_nodes":"29","size_leaf_vector":"0"}},{"base_weights":[3.8577765E-2,7.87961E-1,-2.7845495E-3,9.139917E-1,6.73324E-1,-3.021948E-1,1.1515699E-1,1.2344707E0,8.606089E-1,7.124497E-1,-4.3598068E-1,-3.7750587E-1,1.9475067E-1,3.167686E-2,5.3828824E-1,-2.4966145E-2,1.267419E-1,8.8432565E-2,-4.6357702E-2,7.404675E-2,-8.326398E-2,1.121689E-1,-1.03378594E-1,-6.939673E-2,-2.7041746E-2,6.40003E-2,-1.0433908E-3,1.6552186E-2,-1.5935166E-2,7.268199E-2,3.0438567E-2],"categories":[3,1,0,1,2,4,5,8,0,2,4,6,8],"categories_nodes":[4,8,12,14],"categories_segments":[0,1,2,8],"categories_sizes":[1,1,6,5],"default_left":[0,0,0,0,0,0,0,0,0,0,0,0,0,0,0,0,0,0,0,0,0,0,0,0,0,0,0,0,0,0,0],"id":6,"left_children":[1,3,5,7,9,11,13,15,17,19,21,23,25,27,29,-1,-1,-1,-1,-1,-1,-1,-1,-1,-1,-1,-1,-1,-1,-1,-1],"loss_changes":[8.566533E2,2.027118E1,9.249725E2,1.0670532E1,3.3333008E1,2.7710376E2,6.6375415E2,4.992325E0,1.8976349E1,3.2447754E1,2.5874588E1,2.1766559E2,8.906464E1,4.013457E2,1.3632458E2,0E0,0E0,0E0,0E0,0E0,0E0,0E0,0E0,0E0,0E0,0E0,0E0,0E0,0E0,0E0,0E0],"parents":[2147483647,0,0,1,1,2,2,3,3,4,4,5,5,6,6,7,7,8,8,9,9,10,10,11,11,12,12,13,13,14,14],"right_children":[2,4,6,8,10,12,14,16,18,20,22,24,26,28,30,-1,-1,-1,-1,-1,-1,-1,-1,-1,-1,-1,-1,-1,-1,-1,-1],"split_conditions":[-8.3325833E-1,-9.9913526E-1,1.346145E0,3.2739298E0,NaN,3.9810932E0,9.945148E-1,6.45871E-3,NaN,4.5788627E0,1.6868503E0,4.883093E-1,NaN,4.638182E-1,NaN,-2.4966145E-2,1.267419E-1,8.8432565E-2,-4.6357702E-2,7.404675E-2,-8.326398E-2,1.121689E-1,-1.03378594E-1,-6.939673E-2,-2.7041746E-2,6.40003E-2,-1.0433908E-3,1.6552186E-2,-1.5935166E-2,7.268199E-2,3.0438567E-2],"split_indices":[4,4,6,2,3,1,4,5,3,1,6,6,3,5,3,0,0,0,0,0,0,0,0,0,0,0,0,0,0,0,0],"split_type":[0,0,0,0,1,0,0,0,1,0,0,0,1,0,1,0,0,0,0,0,0,0,0,0,0,0,0,0,0,0,0],"sum_hessian":[2.7636277E4,1.444654E3,2.6191623E4,6.848094E2,7.5984467E2,7.401181E3,1.8790443E4,9.462308E1,5.9018634E2,7.3430316E2,2.5541506E1,6.427367E3,9.738141E2,1.5695024E4,3.0954177E3,1.912194E0,9.2710884E1,5.801282E2,1.0058169E1,7.217364E2,1.2566799E1,6.8407025E0,1.8700802E1,1.6236807E3,4.8036865E3,3.0652756E2,6.6728656E2,9.228892E3,6.466133E3,1.7127711E3,1.3826466E3],"tree_param":{"num_deleted":"0","num_feature":"8","num_nodes":"31","size_leaf_vector":"0"}},{"base_weights":[3.4948513E-2,7.3022074E-1,-2.489988E-3,7.46558E-1,-9.4522424E-2,-6.378507E-2,4.878391E-1,8.9852977E-1,6.528484E-1,2.5815773E-1,-1.2815496E-1,-2.8048646E-1,5.529973E-2,5.976055E-1,-3.654413E-2,8.2518555E-2,1.1295264E-1,8.2231216E-2,3.820514E-2,8.620724E-2,-5.0773628E-2,7.077567E-3,-3.7415177E-2,9.438935E-3,-4.7260202E-2,1.01724185E-1,4.1931693E-2,-4.2418107E-2,5.306527E-2],"categories":[1,2,3,4,7,0,2,3,4,5,8,9,0,1,2,4,5,6],"categories_nodes":[8,11,13],"categories_segments":[0,5,12],"categories_sizes":[5,7,6],"default_left":[0,0,0,0,0,0,0,0,0,0,0,0,0,0,0,0,0,0,0,0,0,0,0,0,0,0,0,0,0],"id":7,"left_children":[1,3,5,7,9,11,13,15,17,19,-1,21,23,25,27,-1,-1,-1,-1,-1,-1,-1,-1,-1,-1,-1,-1,-1,-1],"loss_changes":[7.1648364E2,1.9020874E1,7.850571E2,1.9055237E1,1.2139159E1,5.991849E2,1.6708801E2,7.9358826E0,3.9005066E1,1.0880722E1,0E0,2.7094836E2,3.0926575E2,1.791438E2,1.1089279E2,0E0,0E0,0E0,0E0,0E0,0E0,0E0,0E0,0E0,0E0,0E0,0E0,0E0,0E0],"parents":[2147483647,0,0,1,1,2,2,3,3,4,4,5,5,6,6,7,7,8,8,9,9,11,11,12,12,13,13,14,14],"right_children":[2,4,6,8,10,12,14,16,18,20,-1,22,24,26,28,-1,-1,-1,-1,-1,-1,-1,-1,-1,-1,-1,-1,-1,-1],"split_conditions":[-8.3325833E-1,4.534207E0,9.95725E-1,2.6691774E-1,2.4800441E0,1.5020902E0,5.503359E0,2.1912997E0,NaN,2.6249522E-1,-1.2815496E-1,NaN,8.780212E-1,NaN,4.0769404E-1,8.2518555E-2,1.1295264E-1,8.2231216E-2,3.820514E-2,8.620724E-2,-5.0773628E-2,7.077567E-3,-3.7415177E-2,9.438935E-3,-4.7260202E-2,1.01724185E-1,4.1931693E-2,-4.2418107E-2,5.306527E-2],"split_indices":[4,2,4,0,6,6,2,6,3,5,0,3,5,3,5,0,0,0,0,0,0,0,0,0,0,0,0,0,0],"split_type":[0,0,0,0,0,0,0,0,1,0,0,1,0,1,0,0,0,0,0,0,0,0,0,0,0,0,0,0,0],"sum_hessian":[2.7524287E4,1.4054323E3,2.6118855E4,1.378226E3,2.7206316E1,2.3217367E4,2.9014878E3,5.2241705E2,8.558089E2,2.1577806E1,5.62851E0,8.233437E3,1.4983932E4,2.3991472E3,5.0234055E2,3.9998816E2,1.2242889E2,5.2514105E2,3.3066782E2,1.1994473E1,9.583333E0,1.7333396E3,6.5000967E3,1.3951671E4,1.0322601E3,7.139719E2,1.6851753E3,2.985535E2,2.0378703E2],"tree_param":{"num_deleted":"0","num_feature":"8","num_nodes":"29","size_leaf_vector":"0"}},{"base_weights":[3.1679388E-2,6.7649734E-1,-2.2171384E-3,7.9976296E-1,5.6596786E-1,-1.9122349E-1,1.3024664E-1,1.1322451E0,7.457127E-1,6.0294497E-1,-4.5352286E-1,-2.4544524E-1,2.2816397E-1,5.689821E-2,4.867209E-1,-2.9207563E-2,1.166744E-1,7.690349E-2,-4.803304E-2,6.292724E-2,-7.7562325E-2,1.0141654E-1,-9.906591E-2,-5.2123148E-2,-1.4415993E-2,8.810312E-2,1.2671675E-2,2.3732558E-2,-6.8510375E-3,5.794887E-2,1.5778615E-3],"categories":[3,1,0,1,2,4,5,6,8,9],"categories_nodes":[4,8,12],"categories_segments":[0,1,2],"categories_sizes":[1,1,8],"default_left":[0,0,0,0,0,0,0,0,0,0,0,0,0,0,0,0,0,0,0,0,0,0,0,0,0,0,0,0,0,0,0],"id":8,"left_children":[1,3,5,7,9,11,13,15,17,19,21,23,25,27,29,-1,-1,-1,-1,-1,-1,-1,-1,-1,-1,-1,-1,-1,-1,-1,-1],"loss_changes":[5.991027E2,1.819806E1,6.520256E2,1.074234E1,2.7610626E1,2.4408221E2,4.0032806E2,4.6761017E0,1.6311249E1,2.5901703E1,2.146392E1,2.6537524E2,8.129295E1,2.873816E2,1.1413983E2,0E0,0E0,0E0,0E0,0E0,0E0,0E0,0E0,0E0,0E0,0E0,0E0,0E0,0E0,0E0,0E0],"parents":[2147483647,0,0,1,1,2,2,3,3,4,4,5,5,6,6,7,7,8,8,9,9,10,10,11,11,12,12,13,13,14,14],"right_children":[2,4,6,8,10,12,14,16,18,20,22,24,26,28,30,-1,-1,-1,-1,-1,-1,-1,-1,-1,-1,-1,-1,-1,-1,-1,-1],"split_conditions":[-8.3325833E-1,-9.9913526E-1,1.6868503E0,3.2739298E0,NaN,3.9810932E0,9.945148E-1,6.45871E-3,NaN,4.5788627E0,1.6868503E0,7.17964E-1,NaN,2.7008212E-1,5.503359E0,-2.9207563E-2,1.166744E-1,7.690349E-2,-4.803304E-2,6.292724E-2,-7.7562325E-2,1.0141654E-1,-9.906591E-2,-5.2123148E-2,-1.4415993E-2,8.810312E-2,1.2671675E-2,2.3732558E-2,-6.8510375E-3,5.794887E-2,1.5778615E-3],"split_indices":[4,4,6,2,3,1,4,5,3,1,6,6,3,5,2,0,0,0,0,0,0,0,0,0,0,0,0,0,0,0,0],"split_type":[0,0,0,0,1,0,0,0,1,0,0,0,1,0,0,0,0,0,0,0,0,0,0,0,0,0,0,0,0,0,0],"sum_hessian":[2.7408926E4,1.3679165E3,2.604101E4,6.437513E2,7.241653E2,1.0730178E4,1.5310832E4,8.7228775E1,5.5652246E2,6.9921326E2,2.4952007E1,9.502087E3,1.2280903E3,1.2699029E4,2.6118027E3,1.8862619E0,8.5342514E1,5.464995E2,1.0022954E1,6.8664355E2,1.2569745E1,6.4472466E0,1.850476E1,2.5512449E3,6.950843E3,1.6413152E2,1.0639589E3,5.206894E3,7.4921353E3,2.1817947E3,4.300079E2],"tree_param":{"num_deleted":"0","num_feature":"8","num_nodes":"31","size_leaf_vector":"0"}},{"base_weights":[2.8708432E-2,5.0883704E-1,-9.666492E-3,5.8339417E-1,-3.2669368E-1,-6.324287E-2,4.148711E-1,2.930841E-1,6.8016446E-1,4.428379E-1,-1.1267273E0,1.8165271E-1,-1.4451718E-1,7.935538E-1,2.8464523E-1,5.5813428E-2,1.1261259E-2,7.439514E-2,4.678386E-2,9.536392E-2,1.9001985E-2,-1.4451386E-1,6.1276764E-2,7.323733E-3,4.709753E-2,2.6023197E-3,-3.4806706E-2,5.8038153E-2,1.15643255E-1,3.727263E-2,-3.0192654E-3],"categories":[3,8,0,3,4,5,8,9,0,2,4,5,6,8],"categories_nodes":[1,5,6],"categories_segments":[0,2,8],"categories_sizes":[2,6,6],"default_left":[0,0,0,0,0,0,0,0,0,0,0,0,0,0,0,0,0,0,0,0,0,0,0,0,0,0,0,0,0,0,0],"id":9,"left_children":[1,3,5,7,9,11,13,15,17,19,21,23,25,27,29,-1,-1,-1,-1,-1,-1,-1,-1,-1,-1,-1,-1,-1,-1,-1,-1],"loss_changes":[5.0295163E2,1.2604486E2,5.7497485E2,5.1918213E1,1.0278964E2,4.4678726E2,1.3946701E2,2.2206093E1,1.848584E1,1.0848293E1,4.616088E1,1.7541737E2,5.8505566E2,5.5358246E1,5.8507523E1,0E0,0E0,0E0,0E0,0E0,0E0,0E0,0E0,0E0,0E0,0E0,0E0,0E0,0E0,0E0,0E0],"parents":[2147483647,0,0,1,1,2,2,3,3,4,4,5,5,6,6,7,7,8,8,9,9,10,10,11,11,12,12,13,13,14,14],"right_children":[2,4,6,8,10,12,14,16,18,20,22,24,26,28,30,-1,-1,-1,-1,-1,-1,-1,-1,-1,-1,-1,-1,-1,-1,-1,-1],"split_conditions":[-8.302678E-1,NaN,9.95725E-1,1.8318655E-1,-8.3325833E-1,NaN,NaN,3.7656424E0,4.3447747E0,1.5210246E0,6.7117053E-1,4.4395237E0,4.638182E-1,9.1456044E-1,5.48375E0,5.5813428E-2,1.1261259E-2,7.439514E-2,4.678386E-2,9.536392E-2,1.9001985E-2,-1.4451386E-1,6.1276764E-2,7.323733E-3,4.709753E-2,2.6023197E-3,-3.4806706E-2,5.8038153E-2,1.15643255E-1,3.727263E-2,-3.0192654E-3],"split_indices":[4,3,4,5,4,3,3,2,2,6,0,2,5,7,2,0,0,0,0,0,0,0,0,0,0,0,0,0,0,0,0],"split_type":[0,1,0,0,0,1,1,0,0,0,0,0,0,0,0,0,0,0,0,0,0,0,0,0,0,0,0,0,0,0,0],"sum_hessian":[2.7296117E4,2.0193035E3,2.5276814E4,1.8541531E3,1.6515039E2,2.2445107E4,2.8317075E3,4.6454633E2,1.3896068E3,8.440749E1,8.07429E1,5.5925156E3,1.6852592E4,7.23309E2,2.1083984E3,1.8733034E2,2.77216E2,1.0666578E3,3.22949E2,2.7027756E1,5.7379738E1,6.839292E1,1.2349977E1,4.0690198E3,1.5234958E3,9.170301E3,7.68229E3,4.5728015E2,2.660289E2,1.6473434E3,4.6105508E2],"tree_param":{"num_deleted":"0","num_feature":"8","num_nodes":"31","size_leaf_vector":"0"}},{"base_weights":[2.6036818E-2,-2.2036006E-1,9.510438E-2,5.043585E-1,-2.6874444E-1,4.5953397E-2,3.7959614E-1,7.39269E-1,1.6484936E-1,-5.176065E-1,-9.3204625E-2,2.0478612E-1,-1.1146024E-1,3.2048944E-1,9.238934E-1,1.0167966E-1,3.9585087E-2,3.8823973E-2,-3.7640348E-2,-8.835951E-2,-4.1464534E-2,1.7910551E-2,-2.2828523E-2,3.5325136E-2,-5.094061E-3,-6.4621724E-2,6.9259165E-4,3.9666865E-2,-2.9976736E-3,1.1243737E-1,-4.5114473E-2],"categories":[2,4,7,9,0,2,4,5,8,3,4,8,9,0,2,6,8,2,4],"categories_nodes":[3,10,11,13,14],"categories_segments":[0,4,9,13,17],"categories_sizes":[4,5,4,4,2],"default_left":[0,0,0,0,0,0,0,0,0,0,0,0,0,0,0,0,0,0,0,0,0,0,0,0,0,0,0,0,0,0,0],"id":10,"left_children":[1,3,5,7,9,11,13,15,17,19,21,23,25,27,29,-1,-1,-1,-1,-1,-1,-1,-1,-1,-1,-1,-1,-1,-1,-1,-1],"loss_changes":[4.6266943E2,2.0885461E2,2.9690485E2,2.961631E1,2.4373553E2,4.5275208E2,1.0033798E2,2.0574608E1,1.8739084E1,8.660327E1,1.20453064E2,3.422267E2,5.757877E2,7.538541E1,8.482791E1,0E0,0E0,0E0,0E0,0E0,0E0,0E0,0E0,0E0,0E0,0E0,0E0,0E0,0E0,0E0,0E0],"parents":[2147483647,0,0,1,1,2,2,3,3,4,4,5,5,6,6,7,7,8,8,9,9,10,10,11,11,12,12,13,13,14,14],"right_children":[2,4,6,8,10,12,14,16,18,20,22,24,26,28,30,-1,-1,-1,-1,-1,-1,-1,-1,-1,-1,-1,-1,-1,-1,-1,-1],"split_conditions":[1.1299975E0,-8.3325833E-1,9.945148E-1,NaN,2.9510915E0,-4.177273E-1,1.1416901E0,3.679645E0,5.041787E-1,3.779024E-1,NaN,NaN,-3.3902922E-1,NaN,NaN,1.0167966E-1,3.9585087E-2,3.8823973E-2,-3.7640348E-2,-8.835951E-2,-4.1464534E-2,1.7910551E-2,-2.2828523E-2,3.5325136E-2,-5.094061E-3,-6.4621724E-2,6.9259165E-4,3.9666865E-2,-2.9976736E-3,1.1243737E-1,-4.5114473E-2],"split_indices":[6,4,4,3,1,4,7,2,0,6,3,3,4,3,3,0,0,0,0,0,0,0,0,0,0,0,0,0,0,0,0],"split_type":[0,0,0,1,0,0,0,0,0,0,1,1,0,1,1,0,0,0,0,0,0,0,0,0,0,0,0,0,0,0,0],"sum_hessian":[2.7184783E4,5.951338E3,2.1233445E4,3.7187262E2,5.5794653E3,1.8106406E4,3.12704E3,2.1909833E2,1.5277429E2,2.3069553E3,3.2725098E3,9.012429E3,9.093978E3,2.8221626E3,3.0487744E2,1.20089355E2,9.900898E1,1.0834142E2,4.4432873E1,5.0484332E2,1.802112E3,1.0849745E3,2.1875352E3,5.701799E3,3.3106296E3,1.6475303E3,7.446447E3,2.318146E3,5.040166E2,2.6624176E2,3.8635693E1],"tree_param":{"num_deleted":"0","num_feature":"8","num_nodes":"31","size_leaf_vector":"0"}},{"base_weights":[2.3552261E-2,5.5943173E-1,-3.0001646E-3,8.085185E-1,5.012871E-1,-1.5825115E-1,1.05630554E-1,-6.6811436E-1,8.369362E-1,8.99878E-1,4.478089E-1,-2.4488498E-1,4.926875E-2,5.0343245E-2,3.8449097E-1,6.896324E-2,-2.2560208E-1,8.820645E-2,4.8648673E-3,-1.7354526E-1,9.551955E-2,4.7359403E-2,-6.5644644E-2,-6.45939E-2,-1.7442198E-2,3.2779697E-2,-6.8337545E-3,8.060297E-3,-5.8055528E-2,4.3716457E-2,-2.2328787E-2],"categories":[3,0,2,4,5,8,9],"categories_nodes":[10,12],"categories_segments":[0,1],"categories_sizes":[1,6],"default_left":[0,0,0,0,0,0,0,0,0,0,0,0,0,0,0,0,0,0,0,0,0,0,0,0,0,0,0,0,0,0,0],"id":11,"left_children":[1,3,5,7,9,11,13,15,17,19,21,23,25,27,29,-1,-1,-1,-1,-1,-1,-1,-1,-1,-1,-1,-1,-1,-1,-1,-1],"loss_changes":[3.8542105E2,1.8115417E1,4.3529117E2,1.0646225E1,2.17529E1,1.9103394E2,2.3409644E2,1.254026E1,8.362854E0,1.9438095E1,2.6461884E1,2.1172104E2,1.0255554E2,2.4199954E2,8.052762E1,0E0,0E0,0E0,0E0,0E0,0E0,0E0,0E0,0E0,0E0,0E0,0E0,0E0,0E0,0E0,0E0],"parents":[2147483647,0,0,1,1,2,2,3,3,4,4,5,5,6,6,7,7,8,8,9,9,10,10,11,11,12,12,13,13,14,14],"right_children":[2,4,6,8,10,12,14,16,18,20,22,24,26,28,30,-1,-1,-1,-1,-1,-1,-1,-1,-1,-1,-1,-1,-1,-1,-1,-1],"split_conditions":[-8.3325833E-1,1.142807E-1,1.6868503E0,1.690224E-1,3.3413377E0,3.3494651E0,9.945148E-1,1.05922E-1,4.5221763E0,6.45871E-3,NaN,4.883093E-1,NaN,9.158781E-1,5.8629456E0,6.896324E-2,-2.2560208E-1,8.820645E-2,4.8648673E-3,-1.7354526E-1,9.551955E-2,4.7359403E-2,-6.5644644E-2,-6.45939E-2,-1.7442198E-2,3.2779697E-2,-6.8337545E-3,8.060297E-3,-5.8055528E-2,4.3716457E-2,-2.2328787E-2],"split_indices":[4,0,6,6,2,1,4,6,2,5,3,6,3,5,2,0,0,0,0,0,0,0,0,0,0,0,0,0,0,0,0],"split_type":[0,0,0,0,0,0,0,0,0,0,1,0,1,0,0,0,0,0,0,0,0,0,0,0,0,0,0,0,0,0,0],"sum_hessian":[2.7086082E4,1.2777872E3,2.5808295E4,2.3938321E2,1.038404E3,1.062417E4,1.5184125E4,4.094881E0,2.3528833E2,1.2096739E2,9.174367E2,7.495024E3,3.1291458E3,1.267278E4,2.511345E3,2.512367E0,1.582514E0,2.2243527E2,1.2853053E1,1.8625535E0,1.1910484E2,8.9706085E2,2.0375864E1,1.1188278E3,6.3761963E3,9.28465E2,2.2006807E3,1.2093608E4,5.791722E2,2.311314E3,2.0003111E2],"tree_param":{"num_deleted":"0","num_feature":"8","num_nodes":"31","size_leaf_vector":"0"}},{"base_weights":[2.131438E-2,1.8355893E-1,-5.652259E-2,2.0318126E-2,3.5568336E-1,1.1157596E-1,-1.7982447E-1,8.980278E-2,-5.741199E-1,2.8844178E-1,9.064029E-1,2.5371803E-2,5.589136E-1,-3.7425473E-1,1.4764495E-1,4.9248274E-2,2.6918615E-3,-4.1813448E-2,-1.12524346E-1,4.406619E-2,2.2618182E-2,6.886316E-2,1.120698E-1,1.0359178E-2,-6.650039E-2,1.1800533E-2,7.3074795E-2,-1.6065581E-3,-5.1441837E-2,6.710519E-2,2.2341984E-3],"categories":[0,2,4,5,8,0,1,2,4,5,6,8,9],"categories_nodes":[0,9],"categories_segments":[0,5],"categories_sizes":[5,8],"default_left":[0,0,0,0,0,0,0,0,0,0,0,0,0,0,0,0,0,0,0,0,0,0,0,0,0,0,0,0,0,0,0],"id":12,"left_children":[1,3,5,7,9,11,13,15,17,19,21,23,25,27,29,-1,-1,-1,-1,-1,-1,-1,-1,-1,-1,-1,-1,-1,-1,-1,-1],"loss_changes":[3.4075842E2,2.4579593E2,3.7797543E2,1.8554933E2,1.574231E2,2.975528E2,6.698336E2,1.0182875E2,3.9947296E1,3.5878418E1,2.0829224E1,3.4950003E2,9.436835E1,3.3138715E2,2.5705624E2,0E0,0E0,0E0,0E0,0E0,0E0,0E0,0E0,0E0,0E0,0E0,0E0,0E0,0E0,0E0,0E0],"parents":[2147483647,0,0,1,1,2,2,3,3,4,4,5,5,6,6,7,7,8,8,9,9,10,10,11,11,12,12,13,13,14,14],"right_children":[2,4,6,8,10,12,14,16,18,20,22,24,26,28,30,-1,-1,-1,-1,-1,-1,-1,-1,-1,-1,-1,-1,-1,-1,-1,-1],"split_conditions":[NaN,4.1524105E0,-4.1849777E-1,9.07314E-1,1.0150965E0,-4.9446934E-1,4.192637E-1,-8.2985294E-1,9.76176E-1,NaN,5.3678107E0,-4.9986023E-1,4.1962104E0,4.0969744E0,6.95733E-1,4.9248274E-2,2.6918615E-3,-4.1813448E-2,-1.12524346E-1,4.406619E-2,2.2618182E-2,6.886316E-2,1.120698E-1,1.0359178E-2,-6.650039E-2,1.1800533E-2,7.3074795E-2,-1.6065581E-3,-5.1441837E-2,6.710519E-2,2.2341984E-3],"split_indices":[3,2,4,5,7,4,4,4,5,3,1,4,2,2,4,0,0,0,0,0,0,0,0,0,0,0,0,0,0,0,0],"split_type":[1,0,0,0,0,0,0,0,0,1,0,0,0,0,0,0,0,0,0,0,0,0,0,0,0,0,0,0,0,0,0],"sum_hessian":[2.6981195E4,8.747148E3,1.8234047E4,4.4900015E3,4.257147E3,7.7155137E3,1.0518533E4,4.0208484E3,4.6915335E2,3.7952764E3,4.6187076E2,6.4698066E3,1.2457068E3,6.5998335E3,3.918699E3,5.421768E2,3.4786714E3,3.6703073E2,1.0212265E2,1.0999406E3,2.6953357E3,2.3116713E2,2.3070363E2,5.812138E3,6.576687E2,3.498125E2,8.9589435E2,1.8565421E3,4.7432915E3,7.5608356E2,3.1626155E3],"tree_param":{"num_deleted":"0","num_feature":"8","num_nodes":"31","size_leaf_vector":"0"}},{"base_weights":[1.9223254E-2,5.580107E-2,-3.0397755E-1,-3.6711976E-2,1.8549168E-1,-2.8793901E-2,-5.260387E-1,1.1757818E-1,-1.6738544E-1,1.4876972E-1,5.071124E-1,-2.8165492E-1,3.413409E-1,-6.882221E-1,2.2197698E-1,1.8788729E-2,-5.429655E-2,-3.1753182E-2,1.1390015E-2,1.0338646E-2,3.8456496E-2,7.532825E-2,2.9644346E-2,-1.3396404E-2,-8.255934E-2,8.49456E-3,1.0467543E-1,5.1055033E-2,-8.0229595E-2,-1.5144016E-1,3.1427916E-2],"categories":[0,4,5,8,9,0,3,8,0,2,4,5],"categories_nodes":[2,7,10],"categories_segments":[0,5,8],"categories_sizes":[5,3,4],"default_left":[0,0,0,0,0,0,0,0,0,0,0,0,0,0,0,0,0,0,0,0,0,0,0,0,0,0,0,0,0,0,0],"id":13,"left_children":[1,3,5,7,9,11,13,15,17,19,21,23,25,27,29,-1,-1,-1,-1,-1,-1,-1,-1,-1,-1,-1,-1,-1,-1,-1,-1],"loss_changes":[3.182942E2,2.9019452E2,1.6725468E2,2.846468E2,1.1885599E2,1.1460583E2,1.8392307E2,3.007796E2,3.228745E2,9.669234E1,5.327191E1,5.8328808E1,8.980826E1,1.7068042E2,4.3856956E1,0E0,0E0,0E0,0E0,0E0,0E0,0E0,0E0,0E0,0E0,0E0,0E0,0E0,0E0,0E0,0E0],"parents":[2147483647,0,0,1,1,2,2,3,3,4,4,5,5,6,6,7,7,8,8,9,9,10,10,11,11,12,12,13,13,14,14],"right_children":[2,4,6,8,10,12,14,16,18,20,22,24,26,28,30,-1,-1,-1,-1,-1,-1,-1,-1,-1,-1,-1,-1,-1,-1,-1,-1],"split_conditions":[8.616452E-1,2.0713212E0,NaN,-4.1755128E-1,1.9397477E0,4.332019E0,4.192637E-1,NaN,4.192637E-1,8.201661E-1,NaN,9.6582115E-1,8.968023E-1,-8.327462E-1,3.84018E0,1.8788729E-2,-5.429655E-2,-3.1753182E-2,1.1390015E-2,1.0338646E-2,3.8456496E-2,7.532825E-2,2.9644346E-2,-1.3396404E-2,-8.255934E-2,8.49456E-3,1.0467543E-1,5.1055033E-2,-8.0229595E-2,-1.5144016E-1,3.1427916E-2],"split_indices":[5,6,3,4,4,2,4,3,4,0,3,5,7,4,2,0,0,0,0,0,0,0,0,0,0,0,0,0,0,0,0],"split_type":[0,0,1,0,0,0,0,1,0,0,1,0,0,0,0,0,0,0,0,0,0,0,0,0,0,0,0,0,0,0,0],"sum_hessian":[2.6921498E4,2.4185197E4,2.7363E3,1.4116266E4,1.0068932E4,1.22249E3,1.51381E3,6.473228E3,7.6430376E3,9.038408E3,1.0305236E3,7.264488E2,4.9604123E2,1.2441382E3,2.696719E2,5.8511406E3,6.220872E2,4.983034E3,2.6600037E3,7.5807817E3,1.4576262E3,4.740327E2,5.564908E2,5.723027E2,1.5414612E2,3.646302E2,1.3141106E2,1.07801735E2,1.1363364E3,1.2833957E1,2.5683795E2],"tree_param":{"num_deleted":"0","num_feature":"8","num_nodes":"31","size_leaf_vector":"0"}},{"base_weights":[1.7343413E-2,3.7164667E-1,-1.3212255E-2,4.657601E-1,-2.5342742E-1,-4.3216113E-2,3.832249E-1,5.7735837E-1,2.0864509E-1,4.0905628E-1,-9.1631097E-1,-2.4350667E-1,1.3957511E-2,6.646842E-1,1.7695618E-1,8.613222E-2,4.9275544E-2,-3.765285E-2,3.050643E-2,8.7503016E-2,1.7946618E-2,-1.10587895E-1,3.7330072E-2,-4.2395186E-2,-1.1310994E-2,1.4837715E-2,-6.7127147E-3,4.7888562E-2,1.07370056E-1,-1.4515564E-1,2.2037033E-2],"categories":[1,3,8,0,2,4,5,0,1,2,3,4,5,7,8,9],"categories_nodes":[1,6,7],"categories_segments":[0,3,7],"categories_sizes":[3,4,9],"default_left":[0,0,0,0,0,0,0,0,0,0,0,0,0,0,0,0,0,0,0,0,0,0,0,0,0,0,0,0,0,0,0],"id":14,"left_children":[1,3,5,7,9,11,13,15,17,19,21,23,25,27,29,-1,-1,-1,-1,-1,-1,-1,-1,-1,-1,-1,-1,-1,-1,-1,-1],"loss_changes":[2.9059198E2,1.2548685E2,2.939515E2,5.3036957E1,1.2312883E2,2.6308374E2,1.0082913E2,3.05979E1,3.1840235E1,1.4873735E1,3.464579E1,1.1999249E2,1.9481502E2,5.5341522E1,7.1358246E1,0E0,0E0,0E0,0E0,0E0,0E0,0E0,0E0,0E0,0E0,0E0,0E0,0E0,0E0,0E0,0E0],"parents":[2147483647,0,0,1,1,2,2,3,3,4,4,5,5,6,6,7,7,8,8,9,9,10,10,11,11,12,12,13,13,14,14],"right_children":[2,4,6,8,10,12,14,16,18,20,22,24,26,28,30,-1,-1,-1,-1,-1,-1,-1,-1,-1,-1,-1,-1,-1,-1,-1,-1],"split_conditions":[-8.2985294E-1,NaN,1.9397477E0,4.435429E0,-8.3325833E-1,1.1299975E0,NaN,NaN,3.2640766E-2,3.384804E0,7.8791004E-1,2.9510915E0,2.5787058E-1,1.1114864E0,4.1855507E0,8.613222E-2,4.9275544E-2,-3.765285E-2,3.050643E-2,8.7503016E-2,1.7946618E-2,-1.10587895E-1,3.7330072E-2,-4.2395186E-2,-1.1310994E-2,1.4837715E-2,-6.7127147E-3,4.7888562E-2,1.07370056E-1,-1.4515564E-1,2.2037033E-2],"split_indices":[4,3,4,2,4,6,3,3,5,2,0,1,5,7,2,0,0,0,0,0,0,0,0,0,0,0,0,0,0,0,0],"split_type":[0,1,0,0,0,0,1,1,0,0,0,0,0,0,0,0,0,0,0,0,0,0,0,0,0,0,0,0,0,0,0],"sum_hessian":[2.6840654E4,2.130113E3,2.4710541E4,1.8515864E3,2.7852667E2,2.2972768E4,1.7377745E3,1.2902991E3,5.612873E2,1.3949687E2,1.3902982E2,5.1007095E3,1.7872059E4,7.339954E2,1.0037791E3,2.9407538E2,9.9622375E2,7.898964E1,4.8229767E2,4.511686E1,9.438001E1,1.2133632E2,1.76935E1,2.1387795E3,2.96193E3,6.7241465E3,1.1147911E4,5.062147E2,2.2778072E2,2.522244E1,9.785567E2],"tree_param":{"num_deleted":"0","num_feature":"8","num_nodes":"31","size_leaf_vector":"0"}},{"base_weights":[1.5720122E-2,1.6073146E-1,-5.3566236E-2,2.0466048E-2,3.0904543E-1,8.7786704E-2,-1.6099378E-1,7.7443704E-2,-4.7184303E-1,2.517995E-1,7.9840696E-1,1.3488042E-1,-6.3570756E-1,-6.6039973E-1,-7.014878E-2,1.1563063E-2,-3.9089106E-2,-5.7186216E-2,3.4029108E-2,2.7508885E-2,-1.3897044E-2,3.0135134E-2,8.782732E-2,1.9703796E-2,-4.429241E-2,4.7079835E-2,-1.0426644E-1,-4.28774E-2,-9.249307E-2,-2.7267655E-2,5.891438E-3],"categories":[0,2,4,5,8,8],"categories_nodes":[0,5],"categories_segments":[0,5],"categories_sizes":[5,1],"default_left":[0,0,0,0,0,0,0,0,0,0,0,0,0,0,0,0,0,0,0,0,0,0,0,0,0,0,0,0,0,0,0],"id":15,"left_children":[1,3,5,7,9,11,13,15,17,19,21,23,25,27,29,-1,-1,-1,-1,-1,-1,-1,-1,-1,-1,-1,-1,-1,-1,-1,-1],"loss_changes":[2.6876047E2,1.7991277E2,2.7488257E2,1.2474859E2,1.1755884E2,2.6642654E2,4.6657263E2,7.132548E1,3.766729E1,3.4301163E1,1.7193695E1,2.6370587E2,2.1569058E2,9.658826E1,2.2750874E2,0E0,0E0,0E0,0E0,0E0,0E0,0E0,0E0,0E0,0E0,0E0,0E0,0E0,0E0,0E0,0E0],"parents":[2147483647,0,0,1,1,2,2,3,3,4,4,5,5,6,6,7,7,8,8,9,9,10,10,11,11,12,12,13,13,14,14],"right_children":[2,4,6,8,10,12,14,16,18,20,22,24,26,28,30,-1,-1,-1,-1,-1,-1,-1,-1,-1,-1,-1,-1,-1,-1,-1,-1],"split_conditions":[NaN,4.1524105E0,-4.177273E-1,9.07314E-1,1.0150965E0,NaN,-3.3902922E-1,4.104681E0,8.160275E-1,5.503359E0,4.302454E0,8.415997E-1,3.596503E0,4.6643586E0,4.4395237E0,1.1563063E-2,-3.9089106E-2,-5.7186216E-2,3.4029108E-2,2.7508885E-2,-1.3897044E-2,3.0135134E-2,8.782732E-2,1.9703796E-2,-4.429241E-2,4.7079835E-2,-1.0426644E-1,-4.28774E-2,-9.249307E-2,-2.7267655E-2,5.891438E-3],"split_indices":[3,2,4,5,7,3,4,2,0,2,2,5,2,2,2,0,0,0,0,0,0,0,0,0,0,0,0,0,0,0,0],"split_type":[1,0,0,0,0,1,0,0,0,0,0,0,0,0,0,0,0,0,0,0,0,0,0,0,0,0,0,0,0,0,0],"sum_hessian":[2.6747648E4,8.647576E3,1.8100072E4,4.4449644E3,4.202612E3,7.815991E3,1.0284081E4,3.9846423E3,4.60322E2,3.7638303E3,4.3878146E2,7.3390884E3,4.7690265E2,1.581849E3,8.702232E3,3.6849343E3,2.9970786E2,4.1011032E2,5.0211674E1,3.5524077E3,2.1142256E2,6.140348E1,3.77378E2,6.6268604E3,7.122281E2,1.2819276E2,3.4870987E2,8.447761E2,7.370729E2,3.3866848E3,5.3155474E3],"tree_param":{"num_deleted":"0","num_feature":"8","num_nodes":"31","size_leaf_vector":"0"}},{"base_weights":[1.4158819E-2,-2.450569E-1,4.824198E-2,-3.9931044E-1,2.6853051E-2,3.603037E-1,2.2052059E-2,-2.588324E-2,-5.1109046E-1,5.5813116E-1,-6.0607854E-2,4.4988745E-1,-2.7810124E-1,-3.1703655E-2,2.0148791E-1,2.7892102E-2,-5.9568077E-2,-4.249263E-2,-8.719788E-2,3.080229E-3,8.686512E-2,1.795618E-2,-2.6972383E-2,5.754867E-2,1.7665815E-2,2.700606E-2,-8.266192E-2,1.1527552E-2,-1.2873614E-2,6.3734286E-2,1.087954E-2],"categories":[0,3,4,5,8,9,0,1,2,4,5,6,8,1,3,8],"categories_nodes":[3,4,5],"categories_segments":[0,6,13],"categories_sizes":[6,7,3],"default_left":[0,0,0,0,0,0,0,0,0,0,0,0,0,0,0,0,0,0,0,0,0,0,0,0,0,0,0,0,0,0,0],"id":16,"left_children":[1,3,5,7,9,11,13,15,17,19,21,23,25,27,29,-1,-1,-1,-1,-1,-1,-1,-1,-1,-1,-1,-1,-1,-1,-1,-1],"loss_changes":[2.357655E2,1.300786E2,1.9274382E2,8.257968E1,5.223341E1,1.0455565E2,2.0989038E2,7.951732E1,4.698117E1,2.5991402E1,4.8538948E1,5.4864044E1,6.797167E1,2.388164E2,2.0258484E2,0E0,0E0,0E0,0E0,0E0,0E0,0E0,0E0,0E0,0E0,0E0,0E0,0E0,0E0,0E0,0E0],"parents":[2147483647,0,0,1,1,2,2,3,3,4,4,5,5,6,6,7,7,8,8,9,9,10,10,11,11,12,12,13,13,14,14],"right_children":[2,4,6,8,10,12,14,16,18,20,22,24,26,28,30,-1,-1,-1,-1,-1,-1,-1,-1,-1,-1,-1,-1,-1,-1,-1,-1],"split_conditions":[7.17964E-1,3.3934922E0,-8.2985294E-1,NaN,NaN,NaN,4.192637E-1,-1.9824363E-1,1.470159E-1,8.968023E-1,-3.8954574E-1,4.435429E0,-8.3325833E-1,2.9180223E-1,6.95733E-1,2.7892102E-2,-5.9568077E-2,-4.249263E-2,-8.719788E-2,3.080229E-3,8.686512E-2,1.795618E-2,-2.6972383E-2,5.754867E-2,1.7665815E-2,2.700606E-2,-8.266192E-2,1.1527552E-2,-1.2873614E-2,6.3734286E-2,1.087954E-2],"split_indices":[6,1,4,3,3,3,4,4,4,7,4,2,4,5,4,0,0,0,0,0,0,0,0,0,0,0,0,0,0,0,0],"split_type":[0,0,0,1,1,1,0,0,0,0,0,0,0,0,0,0,0,0,0,0,0,0,0,0,0,0,0,0,0,0,0],"sum_hessian":[2.668339E4,3.1000574E3,2.3583334E4,1.9776659E3,1.1223914E3,1.8250067E3,2.1758326E4,4.558901E2,1.5217758E3,1.5789322E2,9.6449817E2,1.6006868E3,2.2431996E2,1.6743193E4,5.015133E3,2.973421E2,1.5854799E2,1.230229E3,2.9154675E2,5.8925106E1,9.8968124E1,4.4898282E2,5.155153E2,1.0958401E3,5.048467E2,1.1245031E2,1.1186965E2,6.657942E3,1.0085252E4,8.784843E2,4.1366484E3],"tree_param":{"num_deleted":"0","num_feature":"8","num_nodes":"31","size_leaf_vector":"0"}},{"base_weights":[1.278158E-2,1.4420213E-1,-4.9964793E-2,1.1319611E-1,7.362071E-1,7.6033674E-2,-1.4857717E-1,9.75923E-3,2.3129898E-1,7.557031E-1,-1.1231624E0,1.1869314E-1,-5.847269E-1,-6.483495E-1,-6.600433E-2,5.919234E-3,-4.149809E-2,3.778892E-2,1.7058013E-2,3.6032923E-2,8.603304E-2,-1.8344526E-1,5.3991336E-2,1.7531993E-2,-4.035754E-2,4.2682208E-2,-9.519343E-2,-2.097638E-2,-7.966055E-2,-1.9677088E-2,9.545931E-3],"categories":[0,2,4,5,8,8,0,1,2,4,5,6,8,9],"categories_nodes":[0,5,8],"categories_segments":[0,5,6],"categories_sizes":[5,1,8],"default_left":[0,0,0,0,0,0,0,0,0,0,0,0,0,0,0,0,0,0,0,0,0,0,0,0,0,0,0,0,0,0,0],"id":17,"left_children":[1,3,5,7,9,11,13,15,17,19,21,23,25,27,29,-1,-1,-1,-1,-1,-1,-1,-1,-1,-1,-1,-1,-1,-1,-1,-1],"loss_changes":[2.1944359E2,1.5777023E2,2.2381094E2,9.983929E1,1.6356903E1,2.2299464E2,4.1694284E2,9.1526344E1,3.3899902E1,1.7228195E1,6.717404E0,2.1980283E2,1.7862434E2,9.298682E1,1.8313658E2,0E0,0E0,0E0,0E0,0E0,0E0,0E0,0E0,0E0,0E0,0E0,0E0,0E0,0E0,0E0,0E0],"parents":[2147483647,0,0,1,1,2,2,3,3,4,4,5,5,6,6,7,7,8,8,9,9,10,10,11,11,12,12,13,13,14,14],"right_children":[2,4,6,8,10,12,14,16,18,20,22,24,26,28,30,-1,-1,-1,-1,-1,-1,-1,-1,-1,-1,-1,-1,-1,-1,-1,-1],"split_conditions":[NaN,4.9124136E0,-4.1738576E-1,4.1524105E0,6.0184593E0,NaN,-3.3902922E-1,9.07314E-1,NaN,4.302454E0,4.0769404E-1,8.415997E-1,3.596503E0,4.0969744E0,4.192637E-1,5.919234E-3,-4.149809E-2,3.778892E-2,1.7058013E-2,3.6032923E-2,8.603304E-2,-1.8344526E-1,5.3991336E-2,1.7531993E-2,-4.035754E-2,4.2682208E-2,-9.519343E-2,-2.097638E-2,-7.966055E-2,-1.9677088E-2,9.545931E-3],"split_indices":[3,1,4,2,2,3,4,5,3,2,5,5,2,2,4,0,0,0,0,0,0,0,0,0,0,0,0,0,0,0,0],"split_type":[1,0,0,0,0,1,0,0,1,0,0,0,0,0,0,0,0,0,0,0,0,0,0,0,0,0,0,0,0,0,0],"sum_hessian":[2.6609725E4,8.598695E3,1.801103E4,8.171887E3,4.2680807E2,7.907601E3,1.0103428E4,4.357011E3,3.8148762E3,4.2296674E2,3.8413348E0,7.428809E3,4.7879218E2,1.4316302E3,8.671798E3,3.9035588E3,4.5345255E2,1.115811E3,2.699065E3,8.943742E1,3.335293E2,2.6184058E0,1.2229291E0,6.702732E3,7.260769E2,1.2747458E2,3.513176E2,3.622881E2,1.0693422E3,4.7912393E3,3.8805588E3],"tree_param":{"num_deleted":"0","num_feature":"8","num_nodes":"31","size_leaf_vector":"0"}},{"base_weights":[1.15093645E-2,4.0905005E-1,-6.67838E-3,1.5584277E-1,4.7380215E-1,-1.1845128E-1,7.121335E-2,3.03116E-1,-4.310304E-1,4.990753E-1,-3.7810925E-1,-2.3046781E-1,-1.614856E-2,8.253053E-2,-7.2105384E-1,3.5453133E-2,-1.1734956E-1,3.9992888E-2,-1.1979035E-1,5.168089E-2,-4.9161784E-2,8.10762E-2,-9.408899E-2,-6.474508E-2,-1.835855E-2,1.3881247E-2,-1.3469273E-2,2.067667E-2,1.4198943E-3,-1.010381E-1,4.1082777E-2],"categories":[4,7,3,4,5,8],"categories_nodes":[3,4,13],"categories_segments":[0,2,3],"categories_sizes":[2,1,3],"default_left":[0,0,0,0,0,0,0,0,0,0,0,0,0,0,0,0,0,0,0,0,0,0,0,0,0,0,0,0,0,0,0],"id":18,"left_children":[1,3,5,7,9,11,13,15,17,19,21,23,25,27,29,-1,-1,-1,-1,-1,-1,-1,-1,-1,-1,-1,-1,-1,-1,-1,-1],"loss_changes":[1.9187167E2,1.8960983E1,2.2094153E2,2.0694206E1,2.0083893E1,1.194288E2,1.3415396E2,1.4900049E1,3.1156244E1,1.6028046E1,1.8956467E1,9.7133606E1,1.0010227E2,1.2517775E2,6.942473E1,0E0,0E0,0E0,0E0,0E0,0E0,0E0,0E0,0E0,0E0,0E0,0E0,0E0,0E0,0E0,0E0],"parents":[2147483647,0,0,1,1,2,2,3,3,4,4,5,5,6,6,7,7,8,8,9,9,10,10,11,11,12,12,13,13,14,14],"right_children":[2,4,6,8,10,12,14,16,18,20,22,24,26,28,30,-1,-1,-1,-1,-1,-1,-1,-1,-1,-1,-1,-1,-1,-1,-1,-1],"split_conditions":[-8.3325833E-1,1.7881344E-1,1.6868503E0,NaN,NaN,2.9611967E0,9.6582115E-1,1.3018622E0,2.927941E-1,4.534207E0,1.7337452E0,3.960667E-1,-4.170367E-1,NaN,4.1565976E0,3.5453133E-2,-1.1734956E-1,3.9992888E-2,-1.1979035E-1,5.168089E-2,-4.9161784E-2,8.10762E-2,-9.408899E-2,-6.474508E-2,-1.835855E-2,1.3881247E-2,-1.3469273E-2,2.067667E-2,1.4198943E-3,-1.010381E-1,4.1082777E-2],"split_indices":[4,5,6,3,3,1,5,7,0,2,6,6,4,3,1,0,0,0,0,0,0,0,0,0,0,0,0,0,0,0,0],"split_type":[0,0,0,1,1,0,0,0,0,0,0,0,0,1,0,0,0,0,0,0,0,0,0,0,0,0,0,0,0,0,0],"sum_hessian":[2.6535533E4,1.1599655E3,2.5375568E4,2.3691951E2,9.2304596E2,1.042106E4,1.4954509E4,1.8977884E2,4.714066E1,8.968537E2,2.6192268E1,4.9737695E3,5.4472896E3,1.4744782E4,2.0972665E2,1.8412747E2,5.651378E0,2.2854618E1,2.4286041E1,8.815521E2,1.5301617E1,8.27363E0,1.7918638E1,5.013984E2,4.472371E3,2.360921E3,3.0863687E3,5.2313843E3,9.513397E3,1.6711636E2,4.261029E1],"tree_param":{"num_deleted":"0","num_feature":"8","num_nodes":"31","size_leaf_vector":"0"}},{"base_weights":[1.0386932E-2,-2.0935072E-1,3.896178E-2,-3.041788E-1,1.453313E-1,6.057957E-2,-2.4309437E-1,-2.0908032E-1,-5.7493746E-1,5.924881E-1,-9.36098E-3,1.9077441E-1,1.290192E-2,-3.3604452E-1,3.2053435E-1,-1.2201388E-2,-7.342424E-2,-1.2689448E-2,-6.961261E-2,-1.48225E-1,6.224383E-2,-1.5293992E-2,5.9902348E-2,1.3439879E-2,4.416171E-2,1.2753345E-2,-7.109827E-3,-3.711858E-2,1.02435365E-1,4.564255E-2,-6.442553E-2],"categories":[0,2,4,5,6,8,9,0,2,4,5,8,9,0,3,8,9,0,1,4,5,6,8,1,2,8],"categories_nodes":[4,5,7,8,14],"categories_segments":[0,7,13,17,23],"categories_sizes":[7,6,4,6,3],"default_left":[0,0,0,0,0,0,0,0,0,0,0,0,0,0,0,0,0,0,0,0,0,0,0,0,0,0,0,0,0,0,0],"id":19,"left_children":[1,3,5,7,9,11,13,15,17,19,21,23,25,27,29,-1,-1,-1,-1,-1,-1,-1,-1,-1,-1,-1,-1,-1,-1,-1,-1],"loss_changes":[1.6618053E2,1.0248059E2,1.4281819E2,6.1765762E1,4.4495434E1,1.3503197E2,8.746335E1,8.131237E1,3.3802505E1,1.1196098E1,4.1919662E1,8.2398026E1,1.5334166E2,6.883206E1,3.1309294E1,0E0,0E0,0E0,0E0,0E0,0E0,0E0,0E0,0E0,0E0,0E0,0E0,0E0,0E0,0E0,0E0],"parents":[2147483647,0,0,1,1,2,2,3,3,4,4,5,5,6,6,7,7,8,8,9,9,10,10,11,11,12,12,13,13,14,14],"right_children":[2,4,6,8,10,12,14,16,18,20,22,24,26,28,30,-1,-1,-1,-1,-1,-1,-1,-1,-1,-1,-1,-1,-1,-1,-1,-1],"split_conditions":[7.17964E-1,8.936061E-1,8.780212E-1,5.6432027E-2,NaN,NaN,7.8791004E-1,NaN,NaN,2.012256E-3,4.787403E0,3.8764215E0,-4.170367E-1,5.834424E0,NaN,-1.2201388E-2,-7.342424E-2,-1.2689448E-2,-6.961261E-2,-1.48225E-1,6.224383E-2,-1.5293992E-2,5.9902348E-2,1.3439879E-2,4.416171E-2,1.2753345E-2,-7.109827E-3,-3.711858E-2,1.02435365E-1,4.564255E-2,-6.442553E-2],"split_indices":[6,7,5,4,3,3,0,3,3,5,2,1,4,1,3,0,0,0,0,0,0,0,0,0,0,0,0,0,0,0,0],"split_type":[0,0,0,0,1,1,0,1,1,0,0,0,0,0,1,0,0,0,0,0,0,0,0,0,0,0,0,0,0,0,0],"sum_hessian":[2.6463908E4,3.044637E3,2.3419271E4,2.4024565E3,6.421804E2,2.1752842E4,1.6664299E3,1.7792894E3,6.2316705E2,1.6433115E2,4.7784924E2,5.8299136E3,1.5922928E4,1.4308644E3,2.355655E2,1.5273097E3,2.5197977E2,1.3310721E2,4.9005988E2,1.6484414E0,1.6268271E2,3.87215E2,9.063426E1,4.761358E3,1.0685553E3,6.7334937E3,9.189435E3,1.3955425E3,3.5321945E1,2.0694421E2,2.862129E1],"tree_param":{"num_deleted":"0","num_feature":"8","num_nodes":"31","size_leaf_vector":"0"}},{"base_weights":[9.355154E-3,-1.1279763E-2,3.1439975E-1,2.699917E-1,-3.6268827E-2,5.536809E-1,1.5041487E-1,3.43462E-1,-2.1742526E-1,-4.0109006E-1,-1.1061355E-2,3.804605E-1,9.9010015E-1,-1.2371306E0,1.8959205E-1,5.7201865E-3,4.4207532E-2,3.2526292E-2,-7.527568E-2,-1.3684009E-2,-8.427354E-2,1.175383E-2,-8.698578E-3,4.697759E-2,-5.5916723E-2,1.02857366E-1,2.9933158E-2,-1.6766252E-1,3.7489314E-2,-3.6705226E-2,2.4293741E-2],"categories":[0,2,4,5,1,3,8,3,4,8,9,0,2,4,5,6],"categories_nodes":[2,3,9,12],"categories_segments":[0,4,7,11],"categories_sizes":[4,3,4,5],"default_left":[0,0,0,0,0,0,0,0,0,0,0,0,0,0,0,0,0,0,0,0,0,0,0,0,0,0,0,0,0,0,0],"id":20,"left_children":[1,3,5,7,9,11,13,15,17,19,21,23,25,27,29,-1,-1,-1,-1,-1,-1,-1,-1,-1,-1,-1,-1,-1,-1,-1,-1],"loss_changes":[1.6626117E2,1.7390239E2,6.5584015E1,7.236865E1,2.0895708E2,5.1041138E1,5.428933E1,4.950917E1,7.7247154E1,1.712685E2,2.0754112E2,4.1261345E1,4.8115997E0,2.006786E1,2.8831703E1,0E0,0E0,0E0,0E0,0E0,0E0,0E0,0E0,0E0,0E0,0E0,0E0,0E0,0E0,0E0,0E0],"parents":[2147483647,0,0,1,1,2,2,3,3,4,4,5,5,6,6,7,7,8,8,9,9,10,10,11,11,12,12,13,13,14,14],"right_children":[2,4,6,8,10,12,14,16,18,20,22,24,26,28,30,-1,-1,-1,-1,-1,-1,-1,-1,-1,-1,-1,-1,-1,-1,-1,-1],"split_conditions":[1.9397477E0,-8.2985294E-1,NaN,NaN,-7.5632817E-1,1.1272727E0,4.1855507E0,1.6715494E-1,-8.3325833E-1,NaN,-4.1849777E-1,8.201661E-1,NaN,3.2370427E0,2.67535E0,5.7201865E-3,4.4207532E-2,3.2526292E-2,-7.527568E-2,-1.3684009E-2,-8.427354E-2,1.175383E-2,-8.698578E-3,4.697759E-2,-5.5916723E-2,1.02857366E-1,2.9933158E-2,-1.6766252E-1,3.7489314E-2,-3.6705226E-2,2.4293741E-2],"split_indices":[4,4,3,3,4,7,2,5,4,3,4,0,3,6,1,0,0,0,0,0,0,0,0,0,0,0,0,0,0,0,0],"split_type":[0,0,1,1,0,0,0,0,0,1,0,0,1,0,0,0,0,0,0,0,0,0,0,0,0,0,0,0,0,0,0],"sum_hessian":[2.6411867E4,2.4739324E4,1.6725427E3,2.017784E3,2.2721541E4,6.7915967E2,9.933831E2,1.7537324E3,2.640517E2,1.4675247E3,2.1254016E4,4.875261E2,1.9163358E2,2.643821E1,9.669449E2,4.49751E2,1.3039814E3,1.3131973E2,1.3273195E2,9.189804E2,5.485443E2,7.889816E3,1.33642E4,4.45664E2,4.18621E1,1.810601E2,1.057347E1,2.0742891E1,5.695318E0,8.404784E1,8.8289703E2],"tree_param":{"num_deleted":"0","num_feature":"8","num_nodes":"31","size_leaf_vector":"0"}},{"base_weights":[8.475313E-3,-5.420934E-2,9.978363E-2,3.3154437E-1,-7.484051E-2,1.3436766E-1,-2.257095E-1,3.4647816E-1,-1.5981181E0,1.3420598E-1,-1.1583149E-1,1.0839235E-1,3.7672326E-1,2.5175002E-1,-5.8528864E-1,4.735722E-2,1.5034673E-2,2.3998877E-2,-2.0044687E-1,7.210076E-2,9.285002E-3,-1.685149E-2,8.355371E-3,6.417914E-3,3.1637285E-2,3.0934647E-2,8.092863E-2,-1.3923451E-1,3.3181388E-2,-8.59812E-2,1.0512845E-2],"categories":[0,1,2,3,4,5,8,9,4,5,7,8,9,1,2,3,4,7],"categories_nodes":[4,6,7],"categories_segments":[0,8,13],"categories_sizes":[8,5,5],"default_left":[0,0,0,0,0,0,0,0,0,0,0,0,0,0,0,0,0,0,0,0,0,0,0,0,0,0,0,0,0,0,0],"id":21,"left_children":[1,3,5,7,9,11,13,15,17,19,21,23,25,27,29,-1,-1,-1,-1,-1,-1,-1,-1,-1,-1,-1,-1,-1,-1,-1,-1],"loss_changes":[1.5083981E2,1.2438754E2,1.2078971E2,2.3419937E1,1.2712679E2,6.1009995E1,1.7710603E2,1.9576912E1,5.165636E0,5.895971E1,1.3029353E2,8.053692E1,2.7098602E1,5.8838566E1,1.1158266E2,0E0,0E0,0E0,0E0,0E0,0E0,0E0,0E0,0E0,0E0,0E0,0E0,0E0,0E0,0E0,0E0],"parents":[2147483647,0,0,1,1,2,2,3,3,4,4,5,5,6,6,7,7,8,8,9,9,10,10,11,11,12,12,13,13,14,14],"right_children":[2,4,6,8,10,12,14,16,18,20,22,24,26,28,30,-1,-1,-1,-1,-1,-1,-1,-1,-1,-1,-1,-1,-1,-1,-1,-1],"split_conditions":[2.0713212E0,-8.3325833E-1,8.3747095E-1,1.2549297E0,NaN,1.9397477E0,NaN,NaN,2.5657308E-1,-8.295952E-1,4.192637E-1,8.044432E-1,1.3018622E0,6.0307708E-2,1.272274E-1,4.735722E-2,1.5034673E-2,2.3998877E-2,-2.0044687E-1,7.210076E-2,9.285002E-3,-1.685149E-2,8.355371E-3,6.417914E-3,3.1637285E-2,3.0934647E-2,8.092863E-2,-1.3923451E-1,3.3181388E-2,-8.59812E-2,1.0512845E-2],"split_indices":[6,4,5,7,3,4,3,3,0,4,4,0,7,0,4,0,0,0,0,0,0,0,0,0,0,0,0,0,0,0,0],"split_type":[0,0,0,0,1,0,1,1,0,0,0,0,0,0,0,0,0,0,0,0,0,0,0,0,0,0,0,0,0,0,0],"sum_hessian":[2.6351928E4,1.5625306E4,1.0726622E4,7.924935E2,1.4832812E4,9.696901E3,1.0297202E3,7.872216E2,5.271909E0,2.4313086E3,1.2401503E4,8.759518E3,9.3738464E2,4.4248108E2,5.8723914E2,4.7682336E2,3.1039825E2,1.0285805E0,4.243329E0,1.5898793E2,2.2723208E3,9.809659E3,2.591844E3,7.224926E3,1.5345913E3,8.1253754E2,1.2484713E2,1.9786146E1,4.2269495E2,4.1999545E2,1.6724373E2],"tree_param":{"num_deleted":"0","num_feature":"8","num_nodes":"31","size_leaf_vector":"0"}},{"base_weights":[7.665804E-3,-1.2559588E-1,4.401716E-2,-2.6269573E-1,-9.455E-3,5.257272E-2,-6.061279E-1,-1.0054228E-1,-4.1980892E-1,1.332675E-1,-1.320993E-1,1.6600965E-1,1.1295148E-2,-8.0509615E-1,3.4163746E-1,2.5892664E-2,-2.8109008E-2,-7.141449E-2,-2.9912611E-2,1.9212066E-3,5.783368E-2,3.932503E-2,-2.3979757E-2,7.4040466E-3,3.0854141E-2,1.3801083E-2,-5.742555E-3,9.141426E-3,-9.079322E-2,8.811947E-2,-1.0450083E-1],"categories":[0,3,5,8,9,0,1,2,4,5,8,0,1,2,4,5,6,8,0,1,2,4,7,8],"categories_nodes":[3,5,10,14],"categories_segments":[0,5,11,18],"categories_sizes":[5,6,7,6],"default_left":[0,0,0,0,0,0,0,0,0,0,0,0,0,0,0,0,0,0,0,0,0,0,0,0,0,0,0,0,0,0,0],"id":22,"left_children":[1,3,5,7,9,11,13,15,17,19,21,23,25,27,29,-1,-1,-1,-1,-1,-1,-1,-1,-1,-1,-1,-1,-1,-1,-1,-1],"loss_changes":[1.2728514E2,8.9665306E1,1.1486129E2,6.5753586E1,5.340089E1,9.541054E1,5.0853867E1,8.264261E1,4.6368286E1,7.156419E1,9.292711E1,7.124075E1,1.3011739E2,2.054773E1,3.6264503E1,0E0,0E0,0E0,0E0,0E0,0E0,0E0,0E0,0E0,0E0,0E0,0E0,0E0,0E0,0E0,0E0],"parents":[2147483647,0,0,1,1,2,2,3,3,4,4,5,5,6,6,7,7,8,8,9,9,10,10,11,11,12,12,13,13,14,14],"right_children":[2,4,6,8,10,12,14,16,18,20,22,24,26,28,30,-1,-1,-1,-1,-1,-1,-1,-1,-1,-1,-1,-1,-1,-1,-1,-1],"split_conditions":[1.1299975E0,3.0160213E0,9.6582115E-1,NaN,-4.1755128E-1,NaN,4.1032743E0,3.8131428E0,4.883093E-1,4.916083E0,NaN,2.3853837E-2,2.0814098E-1,-8.2845676E-1,NaN,2.5892664E-2,-2.8109008E-2,-7.141449E-2,-2.9912611E-2,1.9212066E-3,5.783368E-2,3.932503E-2,-2.3979757E-2,7.4040466E-3,3.0854141E-2,1.3801083E-2,-5.742555E-3,9.141426E-3,-9.079322E-2,8.811947E-2,-1.0450083E-1],"split_indices":[6,1,5,3,4,3,1,2,6,2,3,4,5,4,3,0,0,0,0,0,0,0,0,0,0,0,0,0,0,0,0],"split_type":[0,0,0,1,0,1,0,0,0,0,1,0,0,0,1,0,0,0,0,0,0,0,0,0,0,0,0,0,0,0,0],"sum_hessian":[2.6273408E4,5.6303735E3,2.0643033E4,2.5816147E3,3.0487588E3,2.0375818E4,2.6721564E2,1.2712365E3,1.3103783E3,1.4090016E3,1.6397572E3,5.435428E3,1.4940391E4,2.209758E2,4.6239822E1,4.248768E2,8.463597E2,3.7961328E2,9.3076495E2,1.1224108E3,2.8659082E2,2.785152E2,1.361242E3,3.3046252E3,2.130803E3,5.2530894E3,9.687301E3,2.2750566E1,1.9822523E2,3.354979E1,1.2690032E1],"tree_param":{"num_deleted":"0","num_feature":"8","num_nodes":"31","size_leaf_vector":"0"}},{"base_weights":[6.885501E-3,-3.5883352E-2,1.1205216E-1,3.0026823E-1,-5.2595716E-2,1.7310661E-1,-1.0172199E-1,4.223536E-1,1.21028244E-1,-9.306807E-2,1.0739985E-1,2.0927012E-1,-1.17221996E-1,-3.3842865E-1,4.5254546E-1,3.0005107E-2,7.093051E-2,3.7565213E-2,-3.1928796E-2,1.0470428E-3,-2.1649163E-2,5.844385E-2,-6.7228224E-4,1.7954243E-2,4.196043E-2,-5.8746614E-2,1.4510666E-2,9.4567565E-3,-6.438016E-2,7.4317895E-2,-6.29979E-3],"categories":[0,1,2,3,4,7,0,4,5,8,1,2,4,7,8,9],"categories_nodes":[3,13,14],"categories_segments":[0,6,10],"categories_sizes":[6,4,6],"default_left":[0,0,0,0,0,0,0,0,0,0,0,0,0,0,0,0,0,0,0,0,0,0,0,0,0,0,0,0,0,0,0],"id":23,"left_children":[1,3,5,7,9,11,13,15,17,19,21,23,25,27,29,-1,-1,-1,-1,-1,-1,-1,-1,-1,-1,-1,-1,-1,-1,-1,-1],"loss_changes":[1.1794677E2,1.04743546E2,9.896563E1,1.9272636E1,1.15011604E2,6.1942307E1,2.2119899E2,1.8207764E1,4.039002E1,1.8114328E2,1.9522778E2,3.271707E1,8.074334E1,1.5624419E2,7.565692E1,0E0,0E0,0E0,0E0,0E0,0E0,0E0,0E0,0E0,0E0,0E0,0E0,0E0,0E0,0E0,0E0],"parents":[2147483647,0,0,1,1,2,2,3,3,4,4,5,5,6,6,7,7,8,8,9,9,10,10,11,11,12,12,13,13,14,14],"right_children":[2,4,6,8,10,12,14,16,18,20,22,24,26,28,30,-1,-1,-1,-1,-1,-1,-1,-1,-1,-1,-1,-1,-1,-1,-1,-1],"split_conditions":[2.321392E0,-8.3325833E-1,6.765243E-1,NaN,4.192637E-1,5.236575E0,7.0095956E-1,8.2820517E-1,4.801148E-1,-4.170367E-1,5.822663E-1,9.947824E-1,5.457714E0,NaN,NaN,3.0005107E-2,7.093051E-2,3.7565213E-2,-3.1928796E-2,1.0470428E-3,-2.1649163E-2,5.844385E-2,-6.7228224E-4,1.7954243E-2,4.196043E-2,-5.8746614E-2,1.4510666E-2,9.4567565E-3,-6.438016E-2,7.4317895E-2,-6.29979E-3],"split_indices":[6,4,5,3,4,2,0,7,0,4,4,4,2,3,3,0,0,0,0,0,0,0,0,0,0,0,0,0,0,0,0],"split_type":[0,0,0,1,0,0,0,0,0,0,0,0,0,1,1,0,0,0,0,0,0,0,0,0,0,0,0,0,0,0,0],"sum_hessian":[2.6220984E4,1.8640842E4,7.580142E3,8.8206506E2,1.7758777E4,5.896326E3,1.683816E3,5.2387964E2,3.581854E2,1.4173802E4,3.5849758E3,5.243475E3,6.528511E2,1.1801907E3,5.0362537E2,3.687564E2,1.5512323E2,2.2704044E2,1.3114496E2,7.70831E3,6.4654917E3,6.912778E2,2.893698E3,4.5957817E3,6.476934E2,2.3333711E2,4.1951398E2,4.883859E2,6.9180475E2,3.2178186E2,1.8184349E2],"tree_param":{"num_deleted":"0","num_feature":"8","num_nodes":"31","size_leaf_vector":"0"}},{"base_weights":[6.241434E-3,1.0732177E-1,-3.320289E-2,-1.4368682E-2,2.3083806E-1,4.43371E-2,-1.3933119E-1,-5.1296588E-2,4.1865006E-1,1.6229936E-1,5.074819E-1,1.6151306E-1,-4.7468234E-2,-2.1904644E-1,1.7588666E-1,1.7609019E-3,-3.0651528E-2,-2.547088E-4,5.3902186E-2,-9.416429E-3,2.0188306E-2,7.001366E-2,3.237098E-2,6.164434E-3,5.063014E-2,-4.6151783E-2,8.3722797E-4,3.9249998E-2,-2.6554888E-2,3.9627604E-4,5.4318022E-2],"categories":[0,2,4,5,8,9,3,0,2,4,5,6,8,9],"categories_nodes":[0,7,10],"categories_segments":[0,6,7],"categories_sizes":[6,1,7],"default_left":[0,0,0,0,0,0,0,0,0,0,0,0,0,0,0,0,0,0,0,0,0,0,0,0,0,0,0,0,0,0,0],"id":24,"left_children":[1,3,5,7,9,11,13,15,17,19,21,23,25,27,29,-1,-1,-1,-1,-1,-1,-1,-1,-1,-1,-1,-1,-1,-1,-1,-1],"loss_changes":[1.0430795E2,1.1038021E2,1.5486647E2,5.9185963E1,6.901878E1,1.1698909E2,1.9967513E2,5.9975998E1,1.4747555E1,2.9685165E1,2.537642E1,1.6447179E2,1.4099715E2,1.8045197E2,1.0129697E2,0E0,0E0,0E0,0E0,0E0,0E0,0E0,0E0,0E0,0E0,0E0,0E0,0E0,0E0,0E0,0E0],"parents":[2147483647,0,0,1,1,2,2,3,3,4,4,5,5,6,6,7,7,8,8,9,9,10,10,11,11,12,12,13,13,14,14],"right_children":[2,4,6,8,10,12,14,16,18,20,22,24,26,28,30,-1,-1,-1,-1,-1,-1,-1,-1,-1,-1,-1,-1,-1,-1,-1,-1],"split_conditions":[NaN,4.1524105E0,4.638182E-1,8.540077E-1,8.9037657E-1,-4.170367E-1,5.8114123E-1,NaN,3.5326618E-1,2.6380348E0,NaN,-4.9446934E-1,-3.3902922E-1,-8.3325833E-1,5.3812466E0,1.7609019E-3,-3.0651528E-2,-2.547088E-4,5.3902186E-2,-9.416429E-3,2.0188306E-2,7.001366E-2,3.237098E-2,6.164434E-3,5.063014E-2,-4.6151783E-2,8.3722797E-4,3.9249998E-2,-2.6554888E-2,3.9627604E-4,5.4318022E-2],"split_indices":[3,2,5,0,7,4,4,3,5,1,3,4,4,4,2,0,0,0,0,0,0,0,0,0,0,0,0,0,0,0,0],"split_type":[1,0,0,0,0,0,0,1,0,0,1,0,0,0,0,0,0,0,0,0,0,0,0,0,0,0,0,0,0,0,0],"sum_hessian":[2.6159824E4,7.3424033E3,1.8817422E4,3.6989832E3,3.6434202E3,1.087353E4,7.943891E3,3.4091333E3,2.8984988E2,2.9212622E3,7.221581E2,4.776401E3,6.09713E3,6.3407E3,1.6031909E3,2.6851184E3,7.240148E2,6.4641045E1,2.2520885E2,3.9040967E2,2.5308525E3,3.5118683E2,3.7097125E2,3.7045486E3,1.0718522E3,7.237037E2,5.3734263E3,4.4755334E2,5.893147E3,1.0927186E3,5.104723E2],"tree_param":{"num_deleted":"0","num_feature":"8","num_nodes":"31","size_leaf_vector":"0"}},{"base_weights":[5.654206E-3,-2.5447875E-1,2.0176582E-2,-3.6582842E-1,2.1716385E-1,2.8898045E-2,-3.8429657E-1,-2.389567E-1,-6.8188304E-1,3.1842116E-1,-6.638115E-1,1.3608153E-1,-2.2303693E-3,1.3505883E0,-4.2056262E-1,-3.851972E-2,1.630663E-2,-5.856768E-2,-1.23092316E-1,4.251219E-2,-1.3757931E-2,-1.14848986E-1,6.2221017E-2,2.7178063E-3,2.2500454E-2,8.431624E-3,-6.704441E-3,6.607227E-2,2.1313858E-1,-4.6238285E-2,1.1011111E-1],"categories":[0,8,0,1,2,4,5,8,9,0,1,3,4,5,6,7,8,9,0,1,8],"categories_nodes":[4,5,6,8],"categories_segments":[0,2,9,18],"categories_sizes":[2,7,9,3],"default_left":[0,0,0,0,0,0,0,0,0,0,0,0,0,0,0,0,0,0,0,0,0,0,0,0,0,0,0,0,0,0,0],"id":25,"left_children":[1,3,5,7,9,11,13,15,17,19,21,23,25,27,29,-1,-1,-1,-1,-1,-1,-1,-1,-1,-1,-1,-1,-1,-1,-1,-1],"loss_changes":[9.852738E1,7.2502365E1,8.714838E1,4.458737E1,2.3763155E1,8.067949E1,3.3376694E1,4.697194E1,1.613594E1,1.1613049E1,1.788142E1,5.2696373E1,1.0512602E2,4.4709396E0,3.306196E1,0E0,0E0,0E0,0E0,0E0,0E0,0E0,0E0,0E0,0E0,0E0,0E0,0E0,0E0,0E0,0E0],"parents":[2147483647,0,0,1,1,2,2,3,3,4,4,5,5,6,6,7,7,8,8,9,9,10,10,11,11,12,12,13,13,14,14],"right_children":[2,4,6,8,10,12,14,16,18,20,22,24,26,28,30,-1,-1,-1,-1,-1,-1,-1,-1,-1,-1,-1,-1,-1,-1,-1,-1],"split_conditions":[3.779024E-1,9.185E-1,9.564832E-1,-1.9824363E-1,NaN,NaN,NaN,4.790667E0,NaN,5.618507E-1,5.817288E-1,4.1627707E0,-4.170367E-1,9.707117E-1,5.834424E0,-3.851972E-2,1.630663E-2,-5.856768E-2,-1.23092316E-1,4.251219E-2,-1.3757931E-2,-1.14848986E-1,6.2221017E-2,2.7178063E-3,2.2500454E-2,8.431624E-3,-6.704441E-3,6.607227E-2,2.1313858E-1,-4.6238285E-2,1.1011111E-1],"split_indices":[6,7,5,4,3,3,3,2,3,0,4,2,4,5,1,0,0,0,0,0,0,0,0,0,0,0,0,0,0,0,0],"split_type":[0,0,0,0,1,1,1,0,1,0,0,0,0,0,0,0,0,0,0,0,0,0,0,0,0,0,0,0,0,0,0],"sum_hessian":[2.607862E4,1.378031E3,2.4700588E4,1.115013E3,2.630181E2,2.418013E4,5.204562E2,7.9688196E2,3.1813104E2,2.3647656E2,2.6541517E1,5.4412104E3,1.873892E4,9.914783E0,5.1054138E2,5.843571E2,2.1252481E2,2.724563E2,4.5674747E1,1.9169019E2,4.4786377E1,1.935421E1,7.1873074E0,2.4464106E3,2.9947998E3,8.024052E3,1.0714869E4,6.2440925E0,3.6706903E0,4.97563E2,1.2978407E1],"tree_param":{"num_deleted":"0","num_feature":"8","num_nodes":"31","size_leaf_vector":"0"}},{"base_weights":[5.0883843E-3,-9.2789885E-3,2.6455215E-1,9.0156095E-3,-2.8282246E-1,5.748424E-1,1.4506602E-1,1.1220282E-1,-3.959365E-2,-7.470088E-2,-4.7737938E-1,2.0556389E-1,8.4139943E-1,6.840033E-1,1.06925674E-1,1.9918673E-2,-4.048602E-3,-1.9688565E-2,3.6682251E-3,-4.8150577E-2,2.1881653E-2,-5.3890686E-2,1.3879775E-2,6.758384E-2,-2.6385674E-2,-8.7439306E-2,8.564112E-2,4.0016897E-2,1.0688146E-1,-8.194796E-2,1.4477128E-2],"categories":[0,8,0,1,2,4,5,6,0,1,3,7,8,9,3,8],"categories_nodes":[1,2,7,11],"categories_segments":[0,2,8,14],"categories_sizes":[2,6,6,2],"default_left":[0,0,0,0,0,0,0,0,0,0,0,0,0,0,0,0,0,0,0,0,0,0,0,0,0,0,0,0,0,0,0],"id":26,"left_children":[1,3,5,7,9,11,13,15,17,19,21,23,25,27,29,-1,-1,-1,-1,-1,-1,-1,-1,-1,-1,-1,-1,-1,-1,-1,-1],"loss_changes":[9.709084E1,1.2350435E2,5.058114E1,1.1603477E2,6.2608055E1,3.7190895E1,2.0234303E1,9.839685E1,1.8867824E2,8.949973E1,3.0382065E1,3.5599495E1,6.418762E0,6.683796E0,3.25086E1,0E0,0E0,0E0,0E0,0E0,0E0,0E0,0E0,0E0,0E0,0E0,0E0,0E0,0E0,0E0,0E0],"parents":[2147483647,0,0,1,1,2,2,3,3,4,4,5,5,6,6,7,7,8,8,9,9,10,10,11,11,12,12,13,13,14,14],"right_children":[2,4,6,8,10,12,14,16,18,20,22,24,26,28,30,-1,-1,-1,-1,-1,-1,-1,-1,-1,-1,-1,-1,-1,-1,-1,-1],"split_conditions":[3.6019256E0,NaN,NaN,4.0768743E0,2.9180223E-1,8.968023E-1,3.859557E0,NaN,4.4395237E0,2.5025415E-1,8.540077E-1,NaN,3.3340678E0,4.1836915E0,4.2927914E0,1.9918673E-2,-4.048602E-3,-1.9688565E-2,3.6682251E-3,-4.8150577E-2,2.1881653E-2,-5.3890686E-2,1.3879775E-2,6.758384E-2,-2.6385674E-2,-8.7439306E-2,8.564112E-2,4.0016897E-2,1.0688146E-1,-8.194796E-2,1.4477128E-2],"split_indices":[4,3,3,2,5,7,2,3,2,0,0,3,1,1,2,0,0,0,0,0,0,0,0,0,0,0,0,0,0,0,0],"split_type":[0,1,1,0,0,0,0,1,0,0,0,1,0,0,0,0,0,0,0,0,0,0,0,0,0,0,0,0,0,0,0],"sum_hessian":[2.6043328E4,2.46778E4,1.3655277E3,2.3131717E4,1.5460833E3,3.7858362E2,9.8694415E2,7.4069707E3,1.5724746E4,7.4766956E2,7.9841364E2,1.5945358E2,2.1913004E2,6.411014E1,9.22834E2,4.718581E3,2.68839E3,5.1346895E3,1.0590057E4,3.1309305E2,4.345765E2,7.260412E2,7.237243E1,7.9434685E1,8.001889E1,1.4040648E0,2.1772598E2,3.8069916E1,2.604022E1,3.5409435E1,8.8742456E2],"tree_param":{"num_deleted":"0","num_feature":"8","num_nodes":"31","size_leaf_vector":"0"}},{"base_weights":[4.6090125E-3,-3.2123845E-2,9.517187E-2,-6.877514E-2,7.826089E-2,2.6323827E-2,2.561446E-1,-3.651362E-1,-4.3563277E-2,2.21947E-1,2.2491677E-2,1.1659547E-1,-3.2334465E-1,3.525259E-2,3.3273894E-1,1.8315975E-3,-4.803281E-2,4.211962E-2,-5.4862886E-3,7.165331E-2,1.3613805E-2,-7.366591E-2,6.1881817E-3,1.6161999E-2,-2.4414951E-2,4.8041E-3,-5.841737E-2,-2.5396317E-2,1.7514888E-2,3.565977E-2,-4.0210452E-2],"categories":[0,3,4,5,8,9,0,4,5,8],"categories_nodes":[7,12],"categories_segments":[0,6],"categories_sizes":[6,4],"default_left":[0,0,0,0,0,0,0,0,0,0,0,0,0,0,0,0,0,0,0,0,0,0,0,0,0,0,0,0,0,0,0],"id":27,"left_children":[1,3,5,7,9,11,13,15,17,19,21,23,25,27,29,-1,-1,-1,-1,-1,-1,-1,-1,-1,-1,-1,-1,-1,-1,-1,-1],"loss_changes":[8.653083E1,7.487453E1,8.31792E1,1.0379252E2,3.696279E1,1.660228E2,3.803029E1,4.8116074E1,6.727092E1,5.464179E1,9.945882E1,6.793631E1,1.04573906E2,2.351282E1,2.9412598E1,0E0,0E0,0E0,0E0,0E0,0E0,0E0,0E0,0E0,0E0,0E0,0E0,0E0,0E0,0E0,0E0],"parents":[2147483647,0,0,1,1,2,2,3,3,4,4,5,5,6,6,7,7,8,8,9,9,10,10,11,11,12,12,13,13,14,14],"right_children":[2,4,6,8,10,12,14,16,18,20,22,24,26,28,30,-1,-1,-1,-1,-1,-1,-1,-1,-1,-1,-1,-1,-1,-1,-1,-1],"split_conditions":[2.321392E0,3.384484E0,6.475757E-1,4.883093E-1,-5.309736E-1,6.851492E-1,-4.9446934E-1,NaN,-9.9913526E-1,7.4826735E-1,-4.9666974E-1,5.236575E0,NaN,3.973575E0,5.845474E0,1.8315975E-3,-4.803281E-2,4.211962E-2,-5.4862886E-3,7.165331E-2,1.3613805E-2,-7.366591E-2,6.1881817E-3,1.6161999E-2,-2.4414951E-2,4.8041E-3,-5.841737E-2,-2.5396317E-2,1.7514888E-2,3.565977E-2,-4.0210452E-2],"split_indices":[6,1,0,6,4,5,4,3,4,7,4,2,3,2,2,0,0,0,0,0,0,0,0,0,0,0,0,0,0,0,0],"split_type":[0,0,0,0,0,0,0,1,0,0,0,0,1,0,0,0,0,0,0,0,0,0,0,0,0,0,0,0,0,0,0],"sum_hessian":[2.6009615E4,1.8504658E4,7.5049585E3,1.3892332E4,4.6123257E3,5.2574927E3,2.247466E3,1.0881254E3,1.2804206E4,1.288808E3,3.3235176E3,4.1792334E3,1.078259E3,5.79035E2,1.668431E3,2.5156235E2,8.36563E2,3.0305606E2,1.250115E4,1.894581E2,1.0993499E3,1.6306812E2,3.1604495E3,3.7159932E3,4.6324026E2,4.4518747E2,6.330716E2,1.8850734E2,3.9052762E2,1.6164628E3,5.1968323E1],"tree_param":{"num_deleted":"0","num_feature":"8","num_nodes":"31","size_leaf_vector":"0"}},{"base_weights":[4.147541E-3,3.6281008E-1,-4.217882E-3,8.121632E-1,3.0243495E-1,-1.8885886E-2,2.165669E-1,-5.3215038E-2,8.532984E-2,7.735363E-1,2.313961E-1,-3.7424482E-2,2.1350032E-1,4.8048902E-1,1.1808146E-1,-7.955193E-2,8.448691E-2,2.5646929E-2,-1.0546064E-1,4.0775826E-3,-9.430181E-3,3.582385E-2,-1.0271046E-3,2.8710846E-2,9.386123E-2,6.5685384E-2,8.074299E-3],"categories":[0,1,2,4,5,6,1,2,4,7,8,9],"categories_nodes":[6,10,12],"categories_segments":[0,6,7],"categories_sizes":[6,1,5],"default_left":[0,0,0,0,0,0,0,0,0,0,0,0,0,0,0,0,0,0,0,0,0,0,0,0,0,0,0],"id":28,"left_children":[1,3,5,7,9,11,13,-1,-1,15,17,19,21,23,25,-1,-1,-1,-1,-1,-1,-1,-1,-1,-1,-1,-1],"loss_changes":[7.789971E1,1.5808861E1,8.217107E1,4.2972755E0,1.7332958E1,1.025086E2,4.102932E1,0E0,0E0,8.298584E0,1.4977966E1,9.801387E1,5.6940994E1,3.7757057E1,2.3130877E1,0E0,0E0,0E0,0E0,0E0,0E0,0E0,0E0,0E0,0E0,0E0,0E0],"parents":[2147483647,0,0,1,1,2,2,3,3,4,4,5,5,6,6,9,9,10,10,11,11,12,12,13,13,14,14],"right_children":[2,4,6,8,10,12,14,-1,-1,16,18,20,22,24,26,-1,-1,-1,-1,-1,-1,-1,-1,-1,-1,-1,-1],"split_conditions":[-9.9860466E-1,3.2739298E0,1.9397477E0,6.45871E-3,6.767176E-2,8.540077E-1,NaN,-5.3215038E-2,8.532984E-2,2.920715E-1,NaN,3.2208246E-1,NaN,1.1114864E0,3.9518902E0,-7.955193E-2,8.448691E-2,2.5646929E-2,-1.0546064E-1,4.0775826E-3,-9.430181E-3,3.582385E-2,-1.0271046E-3,2.8710846E-2,9.386123E-2,6.5685384E-2,8.074299E-3],"split_indices":[4,2,4,5,0,0,3,0,0,6,3,5,3,7,2,0,0,0,0,0,0,0,0,0,0,0,0],"split_type":[0,0,0,0,0,0,1,0,0,0,1,0,1,0,0,0,0,0,0,0,0,0,0,0,0,0,0],"sum_hessian":[2.5961912E4,5.907668E2,2.5371146E4,6.849892E1,5.222679E2,2.3791457E4,1.579689E3,1.6793836E0,6.6819534E1,6.71391E1,4.5512875E2,2.2034496E4,1.7569614E3,4.282316E2,1.1514574E3,2.4780917E0,6.466101E1,4.4721008E2,7.9186816E0,9.278216E3,1.275628E4,1.066521E3,6.904404E2,3.02267E2,1.2596462E2,7.355206E1,1.0779053E3],"tree_param":{"num_deleted":"0","num_feature":"8","num_nodes":"27","size_leaf_vector":"0"}},{"base_weights":[3.783682E-3,4.0566243E-2,-7.5505495E-2,-9.3384795E-2,9.385123E-2,-2.2201353E-1,1.3587846E-1,-1.624787E-1,1.502757E-1,1.6672324E-1,3.1466685E-2,-3.4329433E-2,-5.779199E-1,-2.1812059E-1,1.725984E-1,3.7987542E-3,-2.9371878E-2,6.877787E-2,5.175589E-3,2.3442972E-2,-1.9522037E-2,-3.3162802E-2,1.0244719E-2,9.210627E-3,-3.332517E-2,-4.6859507E-2,-8.314132E-2,1.0839494E-2,-6.2249668E-2,6.94124E-2,1.0688366E-2],"categories":[0,4,8,3,9,0,8],"categories_nodes":[0,9,11],"categories_segments":[0,3,5],"categories_sizes":[3,2,2],"default_left":[0,0,0,0,0,0,0,0,0,0,0,0,0,0,0,0,0,0,0,0,0,0,0,0,0,0,0,0,0,0,0],"id":29,"left_children":[1,3,5,7,9,11,13,15,17,19,21,23,25,27,29,-1,-1,-1,-1,-1,-1,-1,-1,-1,-1,-1,-1,-1,-1,-1,-1],"loss_changes":[7.559015E1,1.26379364E2,2.5439622E2,8.4860115E1,5.7579414E1,3.2405322E2,4.375156E1,1.0331023E2,5.8943356E1,1.4321227E2,1.7595137E2,1.2012348E2,4.6030334E1,4.1855206E1,1.0436678E2,0E0,0E0,0E0,0E0,0E0,0E0,0E0,0E0,0E0,0E0,0E0,0E0,0E0,0E0,0E0,0E0],"parents":[2147483647,0,0,1,1,2,2,3,3,4,4,5,5,6,6,7,7,8,8,9,9,10,10,11,11,12,12,13,13,14,14],"right_children":[2,4,6,8,10,12,14,16,18,20,22,24,26,28,30,-1,-1,-1,-1,-1,-1,-1,-1,-1,-1,-1,-1,-1,-1,-1,-1],"split_conditions":[NaN,6.444603E-1,4.4516277E0,5.8114123E-1,-4.2982265E-1,4.137276E0,-5.5585515E-1,4.654923E0,6.965392E-1,NaN,-3.3902922E-1,NaN,4.392191E0,4.7313514E0,-5.3164876E-1,3.7987542E-3,-2.9371878E-2,6.877787E-2,5.175589E-3,2.3442972E-2,-1.9522037E-2,-3.3162802E-2,1.0244719E-2,9.210627E-3,-3.332517E-2,-4.6859507E-2,-8.314132E-2,1.0839494E-2,-6.2249668E-2,6.94124E-2,1.0688366E-2],"split_indices":[3,7,2,4,4,2,4,2,4,3,4,3,2,2,4,0,0,0,0,0,0,0,0,0,0,0,0,0,0,0,0],"split_type":[1,0,0,0,0,0,0,0,0,1,0,1,0,0,0,0,0,0,0,0,0,0,0,0,0,0,0,0,0,0,0],"sum_hessian":[2.5916418E4,1.7703967E4,8.212451E3,5.0381094E3,1.2665857E4,4.850541E3,3.3619104E3,3.9253467E3,1.1127627E3,5.8411177E3,6.8247397E3,3.1765251E3,1.6740161E3,3.154896E2,3.0464207E3,1.5533502E3,2.3719963E3,1.7144029E2,9.413224E2,4.920941E3,9.201767E2,1.1153893E3,5.7093506E3,2.232804E3,9.4372125E2,1.1715894E3,5.0242667E2,1.7495403E2,1.4053557E2,3.3983762E2,2.706583E3],"tree_param":{"num_deleted":"0","num_feature":"8","num_nodes":"31","size_leaf_vector":"0"}},{"base_weights":[3.3843215E-3,-1.4095664E-1,2.1677224E-2,-2.1792835E-1,1.1386385E-1,3.3342045E-2,-2.3395717E-1,-1.3881846E-1,-4.94263E-1,5.320535E-1,-2.8263746E-2,6.836578E-2,-3.2183625E-2,7.978738E-2,-4.2337117E-1,-4.6628725E-2,-8.455406E-4,-5.5121977E-2,7.2691776E-2,9.4533324E-2,3.70874E-2,-1.6278727E-2,4.3730583E-2,-4.0307953E-3,1.1287894E-2,-9.771052E-3,1.8938527E-2,-6.6227496E-2,2.3964835E-2,-5.42309E-2,2.0732459E-2],"categories":[0,2,4,5,6,8,9,0,2,4,8,0,1,4,5,7,8,9],"categories_nodes":[4,5,6],"categories_segments":[0,7,11],"categories_sizes":[7,4,7],"default_left":[0,0,0,0,0,0,0,0,0,0,0,0,0,0,0,0,0,0,0,0,0,0,0,0,0,0,0,0,0,0,0],"id":30,"left_children":[1,3,5,7,9,11,13,15,17,19,21,23,25,27,29,-1,-1,-1,-1,-1,-1,-1,-1,-1,-1,-1,-1,-1,-1,-1,-1],"loss_changes":[6.828843E1,5.708227E1,6.8453766E1,4.877951E1,4.0165077E1,5.0382816E1,5.95689E1,7.421541E1,3.4964745E1,1.1066635E1,3.1706608E1,6.921059E1,1.1104823E2,4.499636E1,4.698365E1,0E0,0E0,0E0,0E0,0E0,0E0,0E0,0E0,0E0,0E0,0E0,0E0,0E0,0E0,0E0,0E0],"parents":[2147483647,0,0,1,1,2,2,3,3,4,4,5,5,6,6,7,7,8,8,9,9,10,10,11,11,12,12,13,13,14,14],"right_children":[2,4,6,8,10,12,14,16,18,20,22,24,26,28,30,-1,-1,-1,-1,-1,-1,-1,-1,-1,-1,-1,-1,-1,-1,-1,-1],"split_conditions":[7.17964E-1,8.8060874E-1,9.158781E-1,1.470159E-1,NaN,NaN,NaN,-7.106985E-1,6.0184593E0,-7.04874E-1,4.713017E0,6.413865E-1,4.916083E0,1.5870856E-1,5.8114123E-1,-4.6628725E-2,-8.455406E-4,-5.5121977E-2,7.2691776E-2,9.4533324E-2,3.70874E-2,-1.6278727E-2,4.3730583E-2,-4.0307953E-3,1.1287894E-2,-9.771052E-3,1.8938527E-2,-6.6227496E-2,2.3964835E-2,-5.42309E-2,2.0732459E-2],"split_indices":[6,7,5,4,3,3,3,4,2,4,2,7,2,0,4,0,0,0,0,0,0,0,0,0,0,0,0,0,0,0,0],"split_type":[0,0,0,0,1,1,1,0,0,0,0,0,0,0,0,0,0,0,0,0,0,0,0,0,0,0,0,0,0,0,0],"sum_hessian":[2.5860604E4,2.9080217E3,2.2952582E4,2.2335078E3,6.7451404E2,2.1951773E4,1.000809E3,1.7375728E3,4.9593503E2,1.7039835E2,5.041157E2,1.4305423E4,7.6463506E3,3.7697238E2,6.238367E2,4.940228E2,1.2435499E3,4.743592E2,2.1575848E1,4.6444664E1,1.2395368E2,3.916121E2,1.125036E2,4.156907E3,1.0148516E4,5.901575E3,1.7447755E3,6.625924E1,3.1071313E2,5.249759E2,9.8860794E1],"tree_param":{"num_deleted":"0","num_feature":"8","num_nodes":"31","size_leaf_vector":"0"}},{"base_weights":[3.039818E-3,1.8003736E-1,-1.1018878E-2,2.4115373E-1,-2.212802E-1,-3.5190532E-1,1.0707596E-2,-1.16984226E-1,3.118361E-1,2.3789321E-1,-6.6681683E-1,-1.8021534E-1,-7.726547E-1,5.304694E-1,-1.167032E-3,1.1949464E-2,-3.3399194E-2,5.540053E-2,2.4586186E-2,8.28168E-2,5.405138E-3,-8.657551E-2,2.5162458E-2,4.8674676E-3,-4.739901E-2,-1.5056348E-2,-8.428051E-2,6.8500236E-2,2.5066535E-3,-4.338102E-2,1.8631369E-3],"categories":[1,3,8,4,8,9,1,2,3,4,5,7,8,9,0,2,4,7,9],"categories_nodes":[1,5,8,13],"categories_segments":[0,3,6,14],"categories_sizes":[3,3,8,5],"default_left":[0,0,0,0,0,0,0,0,0,0,0,0,0,0,0,0,0,0,0,0,0,0,0,0,0,0,0,0,0,0,0],"id":31,"left_children":[1,3,5,7,9,11,13,15,17,19,21,23,25,27,29,-1,-1,-1,-1,-1,-1,-1,-1,-1,-1,-1,-1,-1,-1,-1,-1],"loss_changes":[6.425699E1,4.6658855E1,1.771846E2,4.179236E1,5.1641224E1,1.03408615E2,1.3881273E2,1.40299635E1,2.1878372E1,1.34836855E1,2.3602482E1,6.856395E1,1.7988083E1,3.9217377E1,1.8836093E2,0E0,0E0,0E0,0E0,0E0,0E0,0E0,0E0,0E0,0E0,0E0,0E0,0E0,0E0,0E0,0E0],"parents":[2147483647,0,0,1,1,2,2,3,3,4,4,5,5,6,6,7,7,8,8,9,9,10,10,11,11,12,12,13,13,14,14],"right_children":[2,4,6,8,10,12,14,16,18,20,22,24,26,28,30,-1,-1,-1,-1,-1,-1,-1,-1,-1,-1,-1,-1,-1,-1,-1,-1],"split_conditions":[-8.2985294E-1,NaN,-7.5632817E-1,8.079294E-2,-8.3325833E-1,NaN,-7.366332E-1,4.2370605E0,NaN,1.025058E0,6.789395E-1,-8.2097954E-1,3.4500682E0,NaN,-7.106985E-1,1.1949464E-2,-3.3399194E-2,5.540053E-2,2.4586186E-2,8.28168E-2,5.405138E-3,-8.657551E-2,2.5162458E-2,4.8674676E-3,-4.739901E-2,-1.5056348E-2,-8.428051E-2,6.8500236E-2,2.5066535E-3,-4.338102E-2,1.8631369E-3],"split_indices":[4,3,4,5,4,3,4,2,3,6,0,4,2,3,4,0,0,0,0,0,0,0,0,0,0,0,0,0,0,0,0],"split_type":[0,1,0,0,0,1,0,0,1,0,0,0,0,1,0,0,0,0,0,0,0,0,0,0,0,0,0,0,0,0,0],"sum_hessian":[2.5821281E4,1.8991661E3,2.3922115E4,1.6485143E3,2.5065195E2,1.4324174E3,2.2489697E4,2.716163E2,1.376898E3,1.23666435E2,1.2698551E2,1.0183147E3,4.141027E2,5.013543E2,2.1988344E4,1.3019205E2,1.4142426E2,2.9321335E2,1.0836846E3,2.8536705E1,9.512973E1,1.04424164E2,2.2561348E1,5.7283417E2,4.454805E2,4.2283195E1,3.7181952E2,3.8368326E2,1.1767106E2,9.612733E2,2.102707E4],"tree_param":{"num_deleted":"0","num_feature":"8","num_nodes":"31","size_leaf_vector":"0"}},{"base_weights":[2.737746E-3,-2.7451899E-2,7.732582E-2,5.3802237E-2,-6.733056E-2,1.7635418E-2,2.1708708E-1,1.2110632E-1,-2.9558942E-1,-5.896141E-1,-3.8457323E-2,1.0607022E-1,-2.526206E-1,1.4683757E-2,2.8752565E-1,-1.9508168E-3,3.0694515E-2,-6.489297E-2,-4.3222387E-3,-3.4847584E-2,-9.504879E-2,2.414804E-2,-7.7202353E-3,1.5037998E-2,-2.4348693E-2,8.889145E-3,-4.933244E-2,-4.7078724E-3,6.901958E-2,3.8251005E-2,9.49116E-3],"categories":[2,3,7,8,0,4,5,8],"categories_nodes":[3,12],"categories_segments":[0,4],"categories_sizes":[4,4],"default_left":[0,0,0,0,0,0,0,0,0,0,0,0,0,0,0,0,0,0,0,0,0,0,0,0,0,0,0,0,0,0,0],"id":32,"left_children":[1,3,5,7,9,11,13,15,17,19,21,23,25,27,29,-1,-1,-1,-1,-1,-1,-1,-1,-1,-1,-1,-1,-1,-1,-1,-1],"loss_changes":[5.8072575E1,5.9491962E1,6.198645E1,1.4217651E2,1.8569229E2,1.24498535E2,3.1699486E1,1.3246619E2,8.705665E1,5.5804596E1,1.2660696E2,6.082529E1,1.0561957E2,2.4028313E1,3.0143341E1,0E0,0E0,0E0,0E0,0E0,0E0,0E0,0E0,0E0,0E0,0E0,0E0,0E0,0E0,0E0,0E0],"parents":[2147483647,0,0,1,1,2,2,3,3,4,4,5,5,6,6,7,7,8,8,9,9,10,10,11,11,12,12,13,13,14,14],"right_children":[2,4,6,8,10,12,14,16,18,20,22,24,26,28,30,-1,-1,-1,-1,-1,-1,-1,-1,-1,-1,-1,-1,-1,-1,-1,-1],"split_conditions":[2.321392E0,-5.309736E-1,6.475757E-1,NaN,-4.9666974E-1,6.244614E-1,-4.9446934E-1,-7.106985E-1,7.7939695E-1,-4.9844193E-1,-4.1849777E-1,5.236575E0,NaN,8.5809773E-1,5.818609E-1,-1.9508168E-3,3.0694515E-2,-6.489297E-2,-4.3222387E-3,-3.4847584E-2,-9.504879E-2,2.414804E-2,-7.7202353E-3,1.5037998E-2,-2.4348693E-2,8.889145E-3,-4.933244E-2,-4.7078724E-3,6.901958E-2,3.8251005E-2,9.49116E-3],"split_indices":[6,4,0,3,4,5,4,4,7,4,4,2,3,5,4,0,0,0,0,0,0,0,0,0,0,0,0,0,0,0,0],"split_type":[0,0,0,1,0,0,0,0,0,0,0,0,1,0,0,0,0,0,0,0,0,0,0,0,0,0,0,0,0,0,0],"sum_hessian":[2.5787605E4,1.8357863E4,7.4297427E3,6.0435576E3,1.2314305E4,5.2070137E3,2.2227288E3,5.067959E3,9.755987E2,6.440873E2,1.1670218E4,3.9236885E3,1.2833254E3,5.741456E2,1.6485831E3,2.885527E3,2.182432E3,4.0582706E2,5.6977167E2,3.872739E2,2.568134E2,1.4182135E3,1.0252004E4,3.482782E3,4.409065E2,5.308222E2,7.525032E2,5.26901E2,4.7244576E1,1.1034497E3,5.4513354E2],"tree_param":{"num_deleted":"0","num_feature":"8","num_nodes":"31","size_leaf_vector":"0"}},{"base_weights":[2.4510445E-3,-1.9663109E-1,1.3314962E-2,-2.875207E-1,1.8062824E-1,1.9934194E-2,-3.011846E-1,-1.7087446E-1,-5.8267486E-1,2.8521827E-1,-4.7993958E-1,1.0180768E-1,-3.7366075E-3,1.21171914E-1,-3.3462012E-1,-2.9490117E-2,1.5717149E-2,1.1067839E-1,-6.105056E-2,9.3036825E-3,5.1215738E-2,-7.503324E-2,1.0182965E-1,-7.09868E-2,1.1314428E-2,7.1838135E-3,-6.026047E-3,7.136736E-2,-3.8576107E-2],"categories":[0,7,8,0,1,2,4,5,8,9,0,1,3,4,5,6,7,8,9],"categories_nodes":[4,5,6],"categories_segments":[0,3,10],"categories_sizes":[3,7,9],"default_left":[0,0,0,0,0,0,0,0,0,0,0,0,0,0,0,0,0,0,0,0,0,0,0,0,0,0,0,0,0],"id":33,"left_children":[1,3,5,7,9,11,13,15,17,19,21,23,25,-1,27,-1,-1,-1,-1,-1,-1,-1,-1,-1,-1,-1,-1,-1,-1],"loss_changes":[5.571943E1,4.576299E1,5.0861317E1,3.690017E1,1.8060852E1,4.6370304E1,2.5881027E1,3.1443336E1,1.4969307E1,9.74789E0,1.528124E1,4.945749E1,7.929457E1,0E0,2.6733025E1,0E0,0E0,0E0,0E0,0E0,0E0,0E0,0E0,0E0,0E0,0E0,0E0,0E0,0E0],"parents":[2147483647,0,0,1,1,2,2,3,3,4,4,5,5,6,6,7,7,8,8,9,9,10,10,11,11,12,12,14,14],"right_children":[2,4,6,8,10,12,14,16,18,20,22,24,26,-1,28,-1,-1,-1,-1,-1,-1,-1,-1,-1,-1,-1,-1,-1,-1],"split_conditions":[3.779024E-1,9.185E-1,9.564832E-1,-1.9824363E-1,NaN,NaN,NaN,4.790667E0,2.5067225E0,6.678758E-1,9.707117E-1,3.0602221E0,-4.170367E-1,1.21171914E-1,-8.3325833E-1,-2.9490117E-2,1.5717149E-2,1.1067839E-1,-6.105056E-2,9.3036825E-3,5.1215738E-2,-7.503324E-2,1.0182965E-1,-7.09868E-2,1.1314428E-2,7.1838135E-3,-6.026047E-3,7.136736E-2,-3.8576107E-2],"split_indices":[6,7,5,4,3,3,3,2,1,5,5,2,4,0,4,0,0,0,0,0,0,0,0,0,0,0,0,0,0],"split_type":[0,0,0,0,1,1,1,0,0,0,0,0,0,0,0,0,0,0,0,0,0,0,0,0,0,0,0,0,0],"sum_hessian":[2.5760283E4,1.3321129E3,2.442817E4,1.0736792E3,2.5843375E2,2.3925549E4,5.0262134E2,7.706814E2,3.0299777E2,2.235988E2,3.4834957E1,5.3651294E3,1.856042E4,1.0105888E1,4.9251544E2,5.5931726E2,2.113641E2,4.2821474E0,2.987156E2,1.2183436E2,1.01764435E2,2.9932167E1,4.9027915E0,7.305333E1,5.292076E3,7.9417285E3,1.061869E4,2.2307068E1,4.7020837E2],"tree_param":{"num_deleted":"0","num_feature":"8","num_nodes":"29","size_leaf_vector":"0"}},{"base_weights":[2.2060687E-3,-8.4742345E-3,2.0073014E-1,-2.3488771E-2,1.7914172E-1,4.795782E-1,9.9903844E-2,-8.703042E-3,-2.476051E-1,5.1508226E-2,3.7522852E-1,1.4716256E-1,7.4162626E-1,1.5089664E-1,-3.148016E-1,5.633011E-3,-6.513133E-3,-4.4044178E-2,-4.275133E-3,1.1968407E-2,-3.444586E-2,5.368082E-2,9.802824E-3,6.1130274E-2,-2.9834425E-2,5.257913E-2,8.899012E-2,1.8284453E-2,-5.611482E-2,-9.076139E-2,2.6452541E-2],"categories":[0,1,2,4,5,6,0,8,1,2,4,7,8,9,3,8],"categories_nodes":[2,3,10,11],"categories_segments":[0,6,8,14],"categories_sizes":[6,2,6,2],"default_left":[0,0,0,0,0,0,0,0,0,0,0,0,0,0,0,0,0,0,0,0,0,0,0,0,0,0,0,0,0,0,0],"id":34,"left_children":[1,3,5,7,9,11,13,15,17,19,21,23,25,27,29,-1,-1,-1,-1,-1,-1,-1,-1,-1,-1,-1,-1,-1,-1,-1,-1],"loss_changes":[5.4562954E1,6.8794754E1,3.688854E1,7.492605E1,4.526992E1,3.0258514E1,2.0478373E1,7.784952E1,5.526194E1,2.9662842E1,3.1896591E1,3.2216972E1,5.762871E0,1.9689438E1,3.6682877E1,0E0,0E0,0E0,0E0,0E0,0E0,0E0,0E0,0E0,0E0,0E0,0E0,0E0,0E0,0E0,0E0],"parents":[2147483647,0,0,1,1,2,2,3,3,4,4,5,5,6,6,7,7,8,8,9,9,10,10,11,11,12,12,13,13,14,14],"right_children":[2,4,6,8,10,12,14,16,18,20,22,24,26,28,30,-1,-1,-1,-1,-1,-1,-1,-1,-1,-1,-1,-1,-1,-1,-1,-1],"split_conditions":[3.6019256E0,8.540077E-1,NaN,NaN,5.987046E-1,8.968023E-1,8.73434E-1,-4.1849777E-1,2.4227915E-2,6.95733E-1,NaN,NaN,1.1114864E0,5.2344775E0,2.528804E0,5.633011E-3,-6.513133E-3,-4.4044178E-2,-4.275133E-3,1.1968407E-2,-3.444586E-2,5.368082E-2,9.802824E-3,6.1130274E-2,-2.9834425E-2,5.257913E-2,8.899012E-2,1.8284453E-2,-5.611482E-2,-9.076139E-2,2.6452541E-2],"split_indices":[4,0,3,3,5,7,0,4,4,4,3,3,7,6,6,0,0,0,0,0,0,0,0,0,0,0,0,0,0,0,0],"split_type":[0,0,1,1,0,0,0,0,0,0,1,1,0,0,0,0,0,0,0,0,0,0,0,0,0,0,0,0,0,0,0],"sum_hessian":[2.5731832E4,2.4419078E4,1.3127532E3,2.261048E4,1.8085977E3,3.4761707E2,9.651361E2,2.1212086E4,1.3983959E3,1.096285E3,7.123126E2,1.5392291E2,1.9369417E2,8.600226E2,1.05113495E2,9.854664E3,1.1357421E4,7.1973334E2,6.786625E2,9.358519E2,1.6043317E2,4.494135E2,2.628991E2,7.5202705E1,7.872021E1,8.072855E1,1.1296561E2,8.238035E2,3.6219067E1,5.1672012E1,5.3441483E1],"tree_param":{"num_deleted":"0","num_feature":"8","num_nodes":"31","size_leaf_vector":"0"}},{"base_weights":[2.01486E-3,3.3439505E-1,-3.9426475E-3,7.604261E-2,2.7663195E-1,-4.1367475E-2,5.500997E-2,3.05203E-1,-8.649864E-1,2.6618471E-2,-2.0349096E-1,3.1556875E-1,5.1972736E-3,4.419523E-2,6.7618615E-3,1.1128559E-1,-1.7374992E-1,-3.346939E-3,2.647238E-2,-4.1343663E-2,-5.0351964E-3,7.708865E-2,2.1949485E-2,-1.5078395E-2,9.661413E-3],"categories":[1,0,1,2,4,5,6,8],"categories_nodes":[4,6],"categories_segments":[0,1],"categories_sizes":[1,7],"default_left":[0,0,0,0,0,0,0,0,0,0,0,0,0,0,0,0,0,0,0,0,0,0,0,0,0],"id":35,"left_children":[1,3,5,-1,7,9,11,13,15,17,19,21,23,-1,-1,-1,-1,-1,-1,-1,-1,-1,-1,-1,-1],"loss_changes":[5.0894463E1,1.0926861E1,5.5711124E1,0E0,1.3314348E1,1.7024878E2,1.2726382E2,1.2675987E1,1.9241766E1,1.5571571E2,1.4670062E2,6.8670364E1,1.1740718E2,0E0,0E0,0E0,0E0,0E0,0E0,0E0,0E0,0E0,0E0,0E0,0E0],"parents":[2147483647,0,0,1,1,2,2,4,4,5,5,6,6,7,7,8,8,9,9,10,10,11,11,12,12],"right_children":[2,4,6,-1,8,10,12,14,16,18,20,22,24,-1,-1,-1,-1,-1,-1,-1,-1,-1,-1,-1,-1],"split_conditions":[-9.9913526E-1,3.2739298E0,-1.1651693E-2,7.604261E-2,NaN,-4.1755128E-1,NaN,4.801148E-1,5.079797E-1,-4.9446934E-1,-3.3902922E-1,3.7486062E0,1.677E0,4.419523E-2,6.7618615E-3,1.1128559E-1,-1.7374992E-1,-3.346939E-3,2.647238E-2,-4.1343663E-2,-5.0351964E-3,7.708865E-2,2.1949485E-2,-1.5078395E-2,9.661413E-3],"split_indices":[4,2,4,0,3,4,3,0,6,4,4,2,6,0,0,0,0,0,0,0,0,0,0,0,0],"split_type":[0,0,0,0,1,0,1,0,0,0,0,0,0,0,0,0,0,0,0,0,0,0,0,0,0],"sum_hessian":[2.5700564E4,4.5156915E2,2.5248994E4,5.246318E1,3.99106E2,1.5444608E4,9.804386E3,3.9007626E2,9.029699E0,1.088208E4,4.5625283E3,1.5726869E3,8.231699E3,2.4703003E2,1.4304623E2,2.679731E0,6.349969E0,8.689957E3,2.1921235E3,1.9236305E3,2.638898E3,2.7279944E2,1.2998875E3,3.0414814E3,5.190218E3],"tree_param":{"num_deleted":"0","num_feature":"8","num_nodes":"25","size_leaf_vector":"0"}},{"base_weights":[1.8237466E-3,1.607939E-2,-1.303959E-1,-1.9829962E-2,7.241687E-2,-1.5194505E-1,7.8095585E-1,-7.788121E-2,3.896437E-2,-6.3237995E-2,1.06656104E-1,1.9893428E-2,-2.676525E-1,1.0459198E0,-2.1855052E-1,-3.70319E-2,-4.734372E-3,1.2572586E-2,-3.1657182E-3,8.734389E-3,-3.890369E-2,2.5639514E-2,5.7953447E-3,-1.4648772E-2,2.3274204E-2,-1.4123983E-2,-6.975474E-2,-1.2848601E-2,1.1724358E-1,-1.2396931E-1,2.084664E-2],"categories":[0,4,5,7,8,9,1,2,5,8],"categories_nodes":[5,6],"categories_segments":[0,6],"categories_sizes":[6,4],"default_left":[0,0,0,0,0,0,0,0,0,0,0,0,0,0,0,0,0,0,0,0,0,0,0,0,0,0,0,0,0,0,0],"id":36,"left_children":[1,3,5,7,9,11,13,15,17,19,21,23,25,27,29,-1,-1,-1,-1,-1,-1,-1,-1,-1,-1,-1,-1,-1,-1,-1,-1],"loss_changes":[4.835562E1,4.685025E1,4.9153282E1,4.8276733E1,4.187833E1,4.8519444E1,1.5545757E1,6.3541027E1,4.306342E1,8.919563E1,5.248127E1,3.4837914E1,7.914669E1,6.969082E0,5.903754E0,0E0,0E0,0E0,0E0,0E0,0E0,0E0,0E0,0E0,0E0,0E0,0E0,0E0,0E0,0E0,0E0],"parents":[2147483647,0,0,1,1,2,2,3,3,4,4,5,5,6,6,7,7,8,8,9,9,10,10,11,11,12,12,13,13,14,14],"right_children":[2,4,6,8,10,12,14,16,18,20,22,24,26,28,30,-1,-1,-1,-1,-1,-1,-1,-1,-1,-1,-1,-1,-1,-1,-1,-1],"split_conditions":[8.616452E-1,2.1219702E0,9.568704E-1,2.9611967E0,-6.279625E-1,NaN,NaN,6.672712E-1,-4.170367E-1,-7.366332E-1,-4.1849777E-1,4.332019E0,2.3021865E0,3.4726572E0,8.8234544E-1,-3.70319E-2,-4.734372E-3,1.2572586E-2,-3.1657182E-3,8.734389E-3,-3.890369E-2,2.5639514E-2,5.7953447E-3,-1.4648772E-2,2.3274204E-2,-1.4123983E-2,-6.975474E-2,-1.2848601E-2,1.1724358E-1,-1.2396931E-1,2.084664E-2],"split_indices":[5,6,0,1,4,3,3,6,4,4,4,2,6,2,5,0,0,0,0,0,0,0,0,0,0,0,0,0,0,0,0],"split_type":[0,0,0,0,0,1,1,0,0,0,0,0,0,0,0,0,0,0,0,0,0,0,0,0,0,0,0,0,0,0,0],"sum_hessian":[2.5652418E4,2.31566E4,2.4958174E3,1.4142719E4,9.013881E3,2.4389805E3,5.683704E1,7.116166E3,7.0265522E3,1.8164219E3,7.197459E3,9.817703E2,1.4572101E3,4.4890396E1,1.1946643E1,6.717856E2,6.444381E3,3.1526326E3,3.8739197E3,1.2427594E3,5.736625E2,1.7653937E3,5.4320654E3,5.5120886E2,4.3056143E2,1.1271072E3,3.3010287E2,4.3641243E0,4.052627E1,2.9615126E0,8.98513E0],"tree_param":{"num_deleted":"0","num_feature":"8","num_nodes":"31","size_leaf_vector":"0"}},{"base_weights":[1.6319389E-3,1.4998668E-1,-9.981268E-3,2.017633E-1,-1.9081832E-1,-3.2222578E-1,9.842601E-3,-4.872847E-2,2.9243606E-1,2.2416438E-1,-6.038126E-1,-1.1922084E-1,-6.158827E-1,4.7214085E-1,-7.113945E-4,-6.511942E-2,3.7632275E-3,4.878626E-2,2.2504777E-2,7.937494E-2,5.446594E-3,-7.839074E-2,1.957698E-2,1.0929172E-2,-3.8328376E-2,-5.355708E-2,-1.110661E-1,2.9267091E-2,8.534661E-2,-3.7920423E-2,1.6589513E-3],"categories":[1,3,8,1,3,4,8,9,1,3,4,5,7,8,9],"categories_nodes":[1,5,8],"categories_segments":[0,3,8],"categories_sizes":[3,5,7],"default_left":[0,0,0,0,0,0,0,0,0,0,0,0,0,0,0,0,0,0,0,0,0,0,0,0,0,0,0,0,0,0,0],"id":37,"left_children":[1,3,5,7,9,11,13,15,17,19,21,23,25,27,29,-1,-1,-1,-1,-1,-1,-1,-1,-1,-1,-1,-1,-1,-1,-1,-1],"loss_changes":[4.4142696E1,3.2860416E1,1.4708514E2,3.6700325E1,4.226722E1,8.449202E1,1.0901913E2,2.2404451E1,1.5510208E1,1.1879456E1,1.793488E1,5.0727486E1,2.2435608E1,3.3880714E1,1.430621E2,0E0,0E0,0E0,0E0,0E0,0E0,0E0,0E0,0E0,0E0,0E0,0E0,0E0,0E0,0E0,0E0],"parents":[2147483647,0,0,1,1,2,2,3,3,4,4,5,5,6,6,7,7,8,8,9,9,10,10,11,11,12,12,13,13,14,14],"right_children":[2,4,6,8,10,12,14,16,18,20,22,24,26,28,30,-1,-1,-1,-1,-1,-1,-1,-1,-1,-1,-1,-1,-1,-1,-1,-1],"split_conditions":[-8.2985294E-1,NaN,-7.5632817E-1,1.6715494E-1,-8.3325833E-1,NaN,-7.366332E-1,1.0372081E0,NaN,1.025058E0,6.789395E-1,-8.2097954E-1,4.392191E0,4.268E0,-7.106985E-1,-6.511942E-2,3.7632275E-3,4.878626E-2,2.2504777E-2,7.937494E-2,5.446594E-3,-7.839074E-2,1.957698E-2,1.0929172E-2,-3.8328376E-2,-5.355708E-2,-1.110661E-1,2.9267091E-2,8.534661E-2,-3.7920423E-2,1.6589513E-3],"split_indices":[4,3,4,5,4,3,4,6,3,6,0,4,2,2,4,0,0,0,0,0,0,0,0,0,0,0,0,0,0,0,0],"split_type":[0,1,0,0,0,1,0,0,1,0,0,0,0,0,0,0,0,0,0,0,0,0,0,0,0,0,0,0,0,0,0],"sum_hessian":[2.5619672E4,1.8590485E3,2.3760625E4,1.6142174E3,2.4483109E2,1.4175547E3,2.234307E4,4.2914047E2,1.1850769E3,1.2234962E2,1.22481476E2,8.3897644E2,5.785782E2,4.97718E2,2.1845352E4,5.2982944E1,3.7615753E2,3.022655E2,8.8281146E2,2.724055E1,9.510907E1,9.9981606E1,2.2499865E1,4.500779E2,3.8889853E2,4.995708E2,7.90074E1,3.3963635E2,1.5808163E2,9.539881E2,2.0891363E4],"tree_param":{"num_deleted":"0","num_feature":"8","num_nodes":"31","size_leaf_vector":"0"}},{"base_weights":[1.468284E-3,7.850289E-2,-2.0910854E-2,1.5923159E-1,-2.62136E-2,1.7691515E-1,-3.720428E-2,-6.171231E-2,2.124569E-1,2.2391649E-1,-1.0096736E-1,2.5126985E-1,-2.6296413E-1,-3.5825598E-1,-1.8960888E-2,1.6471487E-2,-4.4675313E-2,2.5853386E-2,-1.3969498E-2,-3.54439E-4,5.2098304E-2,-2.1492803E-2,6.105431E-3,4.546652E-2,1.966895E-2,6.91828E-2,-4.1290548E-2,-4.635941E-2,1.131105E-2,1.9976437E-2,-4.2808405E-3],"categories":[0,4,6,9,1,3,8,1,2,3,4,5,7,8,9],"categories_nodes":[1,5,11],"categories_segments":[0,4,7],"categories_sizes":[4,3,8],"default_left":[0,0,0,0,0,0,0,0,0,0,0,0,0,0,0,0,0,0,0,0,0,0,0,0,0,0,0,0,0,0,0],"id":38,"left_children":[1,3,5,7,9,11,13,15,17,19,21,23,25,27,29,-1,-1,-1,-1,-1,-1,-1,-1,-1,-1,-1,-1,-1,-1,-1,-1],"loss_changes":[4.4115215E1,4.8700787E1,6.392052E1,3.826687E1,4.6927246E1,4.942297E1,1.07299995E2,5.51977E1,4.2575233E1,3.9024426E1,3.5685955E1,1.4246574E1,3.1593655E1,4.8962036E1,9.043855E1,0E0,0E0,0E0,0E0,0E0,0E0,0E0,0E0,0E0,0E0,0E0,0E0,0E0,0E0,0E0,0E0],"parents":[2147483647,0,0,1,1,2,2,3,3,4,4,5,5,6,6,7,7,8,8,9,9,10,10,11,11,12,12,13,13,14,14],"right_children":[2,4,6,8,10,12,14,16,18,20,22,24,26,28,30,-1,-1,-1,-1,-1,-1,-1,-1,-1,-1,-1,-1,-1,-1,-1,-1],"split_conditions":[1.2605365E-1,NaN,-8.295952E-1,-7.106985E-1,3.877996E0,NaN,-7.5632817E-1,4.302454E0,5.268554E0,-1.9791743E-1,5.4483715E-2,NaN,3.384804E0,3.6441572E0,-6.412565E-1,1.6471487E-2,-4.4675313E-2,2.5853386E-2,-1.3969498E-2,-3.54439E-4,5.2098304E-2,-2.1492803E-2,6.105431E-3,4.546652E-2,1.966895E-2,6.91828E-2,-4.1290548E-2,-4.635941E-2,1.131105E-2,1.9976437E-2,-4.2808405E-3],"split_indices":[5,3,4,4,2,3,4,2,2,4,5,3,2,1,4,0,0,0,0,0,0,0,0,0,0,0,0,0,0,0,0],"split_type":[0,1,0,0,0,1,0,0,0,0,0,1,0,0,0,0,0,0,0,0,0,0,0,0,0,0,0,0,0,0,0],"sum_hessian":[2.558739E4,5.7594414E3,1.982795E4,3.2519258E3,2.5075156E3,1.5080583E3,1.831989E4,6.3127545E2,2.6206504E3,5.765047E2,1.9310109E3,1.2903704E3,2.1768808E2,9.840312E2,1.733586E4,3.9787387E2,2.3340155E2,2.3176638E3,3.029866E2,3.270635E2,2.4944118E2,1.1334519E3,7.97559E2,2.7145493E2,1.0189154E3,2.9055471E1,1.886326E2,8.043063E2,1.7972496E2,1.7035765E3,1.5632283E4],"tree_param":{"num_deleted":"0","num_feature":"8","num_nodes":"31","size_leaf_vector":"0"}},{"base_weights":[1.3348418E-3,-1.4611588E-2,1.10400975E-1,1.5461215E-4,-5.5123746E-1,2.5508314E-1,-4.0689453E-2,-1.8630581E-2,2.7963015E-1,-9.74386E-2,-7.8436923E-1,1.0914606E-1,4.2528802E-1,-1.7041059E-1,1.3870184E-1,-4.666104E-4,-2.9291615E-2,4.6381403E-2,-1.8601723E-2,5.3359848E-2,-8.854725E-2,-8.9815214E-2,7.05372E-2,1.1212002E-3,6.891811E-2,5.0833046E-2,-5.1259827E-2,-6.018329E-3,-6.343103E-2,-2.3204105E-1,1.5523465E-2],"categories":[0,2,4,6,8,0,1,4,5,0,2,6],"categories_nodes":[2,4,13],"categories_segments":[0,5,9],"categories_sizes":[5,4,3],"default_left":[0,0,0,0,0,0,0,0,0,0,0,0,0,0,0,0,0,0,0,0,0,0,0,0,0,0,0,0,0,0,0],"id":39,"left_children":[1,3,5,7,9,11,13,15,17,19,21,23,25,27,29,-1,-1,-1,-1,-1,-1,-1,-1,-1,-1,-1,-1,-1,-1,-1,-1],"loss_changes":[4.4463856E1,1.7673885E2,7.12982E1,1.1397298E2,6.3115906E1,4.1336E1,3.7165802E1,7.791306E1,1.1735188E2,1.0184674E2,6.749599E1,5.1020077E1,6.0131653E1,4.7349304E1,2.7614315E1,0E0,0E0,0E0,0E0,0E0,0E0,0E0,0E0,0E0,0E0,0E0,0E0,0E0,0E0,0E0,0E0],"parents":[2147483647,0,0,1,1,2,2,3,3,4,4,5,5,6,6,7,7,8,8,9,9,10,10,11,11,12,12,13,13,14,14],"right_children":[2,4,6,8,10,12,14,16,18,20,22,24,26,28,30,-1,-1,-1,-1,-1,-1,-1,-1,-1,-1,-1,-1,-1,-1,-1,-1],"split_conditions":[9.945148E-1,7.1847045E-1,NaN,4.192637E-1,NaN,5.2071805E0,3.6019256E0,5.236575E0,6.95733E-1,9.909274E-1,4.534207E0,1.0553236E0,5.694382E0,NaN,4.9111533E-1,-4.666104E-4,-2.9291615E-2,4.6381403E-2,-1.8601723E-2,5.3359848E-2,-8.854725E-2,-8.9815214E-2,7.05372E-2,1.1212002E-3,6.891811E-2,5.0833046E-2,-5.1259827E-2,-6.018329E-3,-6.343103E-2,-2.3204105E-1,1.5523465E-2],"split_indices":[4,4,3,4,3,2,4,2,4,4,2,7,2,3,7,0,0,0,0,0,0,0,0,0,0,0,0,0,0,0,0],"split_type":[0,0,1,0,1,0,0,0,0,0,0,0,0,1,0,0,0,0,0,0,0,0,0,0,0,0,0,0,0,0,0],"sum_hessian":[2.556354E4,2.2303445E4,3.2600942E3,2.1707135E4,5.963101E2,1.6650123E3,1.5950819E3,2.0340842E4,1.3662941E3,2.0285806E2,3.934521E2,8.972948E2,7.6771747E2,9.2572394E2,6.693579E2,1.9356383E4,9.8445874E2,9.790436E2,3.8725052E2,1.1282978E2,9.002828E1,3.6590244E2,2.7549652E1,7.685508E2,1.2874403E2,7.05692E2,6.2025463E1,7.48906E2,1.7681795E2,3.5394788E0,6.658184E2],"tree_param":{"num_deleted":"0","num_feature":"8","num_nodes":"31","size_leaf_vector":"0"}},{"base_weights":[1.2098388E-3,-1.660882E-1,1.0218844E-2,-3.108272E-1,2.6780376E-2,-2.195109E-2,6.0979705E-2,1.77523E-2,-3.9769113E-1,9.625754E-2,-5.4236007E-1,4.3916654E-2,-1.8009408E-1,6.1122197E-1,4.1350957E-2,3.758054E-2,-6.3572675E-2,-7.5713664E-2,-2.9538939E-2,-1.2443907E-2,5.465587E-2,8.873634E-2,-6.581876E-2,8.501344E-3,-2.305495E-2,-3.6347497E-2,-4.153531E-3,1.5749772E-1,-6.53234E-3,2.9154072E-2,-6.2038813E-4],"categories":[0,2,3,4,5,8,9,3,8,9,0,1,2,3,5,6,7,8,9,0,1,2,4,5,6,8],"categories_nodes":[3,11,13,14],"categories_segments":[0,7,10,19],"categories_sizes":[7,3,9,7],"default_left":[0,0,0,0,0,0,0,0,0,0,0,0,0,0,0,0,0,0,0,0,0,0,0,0,0,0,0,0,0,0,0],"id":40,"left_children":[1,3,5,7,9,11,13,15,17,19,21,23,25,27,29,-1,-1,-1,-1,-1,-1,-1,-1,-1,-1,-1,-1,-1,-1,-1,-1],"loss_changes":[3.8488E1,3.6434383E1,3.9570408E1,2.128553E1,2.2209366E1,1.5450992E2,1.01498985E2,3.693554E1,2.1460228E1,4.9780777E1,1.0704275E1,1.1813936E2,1.1080612E2,2.111627E2,1.0799992E2,0E0,0E0,0E0,0E0,0E0,0E0,0E0,0E0,0E0,0E0,0E0,0E0,0E0,0E0,0E0,0E0],"parents":[2147483647,0,0,1,1,2,2,3,3,4,4,5,5,6,6,7,7,8,8,9,9,10,10,11,11,12,12,13,13,14,14],"right_children":[2,4,6,8,10,12,14,16,18,20,22,24,26,28,30,-1,-1,-1,-1,-1,-1,-1,-1,-1,-1,-1,-1,-1,-1,-1,-1],"split_conditions":[3.779024E-1,3.3757472E0,-1.1651693E-2,NaN,5.2910132E0,-4.177273E-1,3.6674358E-2,-1.9824363E-1,2.6682343E0,4.7596817E0,-5.563056E-1,NaN,-3.3902922E-1,NaN,NaN,3.758054E-2,-6.3572675E-2,-7.5713664E-2,-2.9538939E-2,-1.2443907E-2,5.465587E-2,8.873634E-2,-6.581876E-2,8.501344E-3,-2.305495E-2,-3.6347497E-2,-4.153531E-3,1.5749772E-1,-6.53234E-3,2.9154072E-2,-6.2038813E-4],"split_indices":[6,1,4,3,2,4,4,4,1,2,4,3,4,3,3,0,0,0,0,0,0,0,0,0,0,0,0,0,0,0,0],"split_type":[0,0,0,1,0,0,0,0,0,0,0,1,0,1,1,0,0,0,0,0,0,0,0,0,0,0,0,0,0,0,0],"sum_hessian":[2.553416E4,1.3038635E3,2.4230297E4,7.4452216E2,5.593413E2,1.4831397E4,9.3989E3,1.5583647E2,5.8868567E2,4.9922934E2,6.0111973E1,1.0470908E4,4.3604893E3,3.2269946E2,9.0762E3,1.0094939E2,5.4887093E1,1.2900725E2,4.5967844E2,3.355144E2,1.6371494E2,4.0057445E0,5.6106228E1,9.107848E3,1.36306E3,1.876001E3,2.4844883E3,1.3255034E2,1.9014912E2,1.4488029E3,7.6273975E3],"tree_param":{"num_deleted":"0","num_feature":"8","num_nodes":"31","size_leaf_vector":"0"}},{"base_weights":[1.0708296E-3,-3.4780953E-2,4.1478172E-2,5.847361E-3,-5.830881E-1,1.9262792E-1,-1.4602699E-2,1.4434761E-1,-6.627589E-2,9.034571E-1,-6.8885773E-1,2.1920799E-1,-5.314116E-1,-1.9658463E-1,6.4247884E-2,8.353454E-3,3.548194E-2,-2.2447538E-3,-3.6178783E-2,4.0990483E-2,1.3521807E-1,-8.5006304E-2,-2.729719E-2,-6.278787E-3,2.723885E-2,-2.7715764E-3,-1.0065011E-1,-7.81492E-2,-1.558034E-2,2.2626003E-2,-5.382434E-3],"categories":[0,1,3,4,6,8,0,1,2,4,5,6,7,9,1,9,1,2,5,7,8],"categories_nodes":[3,4,5,14],"categories_segments":[0,6,14,16],"categories_sizes":[6,8,2,5],"default_left":[0,0,0,0,0,0,0,0,0,0,0,0,0,0,0,0,0,0,0,0,0,0,0,0,0,0,0,0,0,0,0],"id":41,"left_children":[1,3,5,7,9,11,13,15,17,19,21,23,25,27,29,-1,-1,-1,-1,-1,-1,-1,-1,-1,-1,-1,-1,-1,-1,-1,-1],"loss_changes":[3.6929665E1,3.0090604E2,1.0159142E2,1.25638466E2,1.4713602E2,6.253473E1,1.2545831E2,5.5096138E1,1.07112625E2,1.3249828E1,5.8129333E1,4.694478E1,2.7525562E1,6.2923653E1,1.1670337E2,0E0,0E0,0E0,0E0,0E0,0E0,0E0,0E0,0E0,0E0,0E0,0E0,0E0,0E0,0E0,0E0],"parents":[2147483647,0,0,1,1,2,2,3,3,4,4,5,5,6,6,7,7,8,8,9,9,10,10,11,11,12,12,13,13,14,14],"right_children":[2,4,6,8,10,12,14,16,18,20,22,24,26,28,30,-1,-1,-1,-1,-1,-1,-1,-1,-1,-1,-1,-1,-1,-1,-1,-1],"split_conditions":[4.4395237E0,4.392191E0,4.654923E0,NaN,NaN,NaN,4.916083E0,1.2862976E-1,3.352873E-1,-1.9824363E-1,4.4295344E0,-7.1112686E-1,3.8988563E-1,-8.0295956E-1,NaN,8.353454E-3,3.548194E-2,-2.2447538E-3,-3.6178783E-2,4.0990483E-2,1.3521807E-1,-8.5006304E-2,-2.729719E-2,-6.278787E-3,2.723885E-2,-2.7715764E-3,-1.0065011E-1,-7.81492E-2,-1.558034E-2,2.2626003E-2,-5.382434E-3],"split_indices":[2,2,2,3,3,3,2,4,4,4,2,4,0,4,3,0,0,0,0,0,0,0,0,0,0,0,0,0,0,0,0],"split_type":[0,0,0,1,1,1,0,0,0,0,0,0,0,0,1,0,0,0,0,0,0,0,0,0,0,0,0,0,0,0,0],"sum_hessian":[2.549003E4,1.3506448E4,1.1983581E4,1.2575613E4,9.308351E2,3.2423447E3,8.741236E3,4.3058906E3,8.269723E3,6.1329823E1,8.6950525E2,3.1282031E3,1.1414162E2,2.6420552E3,6.099181E3,3.3417366E3,9.641543E2,7.2025625E3,1.0671598E3,3.0117258E1,3.1212564E1,6.2586426E2,2.4364098E2,4.9630524E2,2.631898E3,5.5916534E1,5.822508E1,1.7102043E2,2.4710347E3,2.5707815E3,3.5283997E3],"tree_param":{"num_deleted":"0","num_feature":"8","num_nodes":"31","size_leaf_vector":"0"}},{"base_weights":[9.450673E-4,5.817524E-3,-2.8637832E-1,-5.7140306E-2,2.793281E-2,-3.913885E-1,2.879188E-1,-1.6482216E-1,2.2749828E-2,2.2157665E-2,3.6829975E-1,8.0285735E-2,-4.4654077E-1,6.070465E-1,-5.798283E-1,-1.3508151E-2,-5.3125102E-2,3.834204E-4,4.1842084E-2,-5.620262E-2,2.5561415E-3,6.4155124E-2,-5.2169627E-3,-3.0438324E-2,-8.180248E-2,-1.0446533E-2,8.239444E-2,8.139335E-2,-1.1067396E-1],"categories":[0,1,4,8,0,2,4,5,0,5,9],"categories_nodes":[6,10,12],"categories_segments":[0,4,8],"categories_sizes":[4,4,3],"default_left":[0,0,0,0,0,0,0,0,0,0,0,0,0,0,0,0,0,0,0,0,0,0,0,0,0,0,0,0,0],"id":42,"left_children":[1,3,5,7,9,11,13,15,17,19,21,-1,23,25,27,-1,-1,-1,-1,-1,-1,-1,-1,-1,-1,-1,-1,-1,-1],"loss_changes":[3.5647385E1,3.486298E1,2.5719223E1,5.6000156E1,3.6415676E1,2.4029842E1,1.8687828E1,3.014228E1,2.7972488E1,3.624707E1,3.554674E1,0E0,1.7926224E1,7.632305E0,1.4351045E1,0E0,0E0,0E0,0E0,0E0,0E0,0E0,0E0,0E0,0E0,0E0,0E0,0E0,0E0],"parents":[2147483647,0,0,1,1,2,2,3,3,4,4,5,5,6,6,7,7,8,8,9,9,10,10,12,12,13,13,14,14],"right_children":[2,4,6,8,10,12,14,16,18,20,22,-1,24,26,28,-1,-1,-1,-1,-1,-1,-1,-1,-1,-1,-1,-1,-1,-1],"split_conditions":[9.6582115E-1,1.3008883E0,9.431635E-1,2.9611967E0,1.3018622E0,-8.325117E-1,NaN,7.1960115E-1,3.6019256E0,2.9067562E0,NaN,8.0285735E-2,NaN,-6.728666E-1,4.883093E-1,-1.3508151E-2,-5.3125102E-2,3.834204E-4,4.1842084E-2,-5.620262E-2,2.5561415E-3,6.4155124E-2,-5.2169627E-3,-3.0438324E-2,-8.180248E-2,-1.0446533E-2,8.239444E-2,8.139335E-2,-1.1067396E-1],"split_indices":[5,6,7,1,7,4,3,4,4,2,3,0,3,4,6,0,0,0,0,0,0,0,0,0,0,0,0,0,0],"split_type":[0,0,0,0,0,0,1,0,0,0,1,0,1,0,0,0,0,0,0,0,0,0,0,0,0,0,0,0,0],"sum_hessian":[2.5460756E4,2.5037154E4,4.2360263E2,6.508152E3,1.8529002E4,3.583896E2,6.521302E1,2.771481E3,3.7366711E3,1.8220904E4,3.0809637E2,1.5221966E1,3.4316763E2,4.789815E1,1.7314867E1,2.5646902E3,2.0679065E2,3.5671482E3,1.6952298E2,1.0459844E2,1.8116307E4,1.8642084E2,1.2167554E2,2.4950697E2,9.366065E1,1.1311217E1,3.6586933E1,4.600666E0,1.27142E1],"tree_param":{"num_deleted":"0","num_feature":"8","num_nodes":"29","size_leaf_vector":"0"}},{"base_weights":[8.4882864E-4,2.7096358E-1,-3.783581E-3,3.9057162E-1,6.993264E-2,-9.174584E-2,1.4137959E-2,2.9497892E-1,8.971596E-2,-5.3692555E-1,2.0523371E-1,-2.009263E-2,-4.6500358E-1,6.6911614E-1,-6.440685E-3,3.86521E-2,-1.6570093E-2,-6.922372E-2,8.6794436E-2,3.1429365E-2,-3.9208822E-2,8.679812E-3,-2.1221802E-2,-9.472474E-3,-7.2645836E-2,9.083428E-2,-2.4309874E-2,-5.4927333E-3,6.403347E-3],"categories":[3,4,8,9,3,5,6,8,9],"categories_nodes":[11,12],"categories_segments":[0,4],"categories_sizes":[4,5],"default_left":[0,0,0,0,0,0,0,0,0,0,0,0,0,0,0,0,0,0,0,0,0,0,0,0,0,0,0,0,0],"id":43,"left_children":[1,3,5,7,9,11,13,15,-1,17,19,21,23,25,27,-1,-1,-1,-1,-1,-1,-1,-1,-1,-1,-1,-1,-1,-1],"loss_changes":[3.1826845E1,1.0284502E1,3.9422344E1,1.2745602E1,1.3345646E1,1.1319429E2,2.8002176E2,9.658218E0,0E0,7.0731745E0,8.756817E0,7.296493E1,6.592079E1,1.3832587E2,6.883385E1,0E0,0E0,0E0,0E0,0E0,0E0,0E0,0E0,0E0,0E0,0E0,0E0,0E0,0E0],"parents":[2147483647,0,0,1,1,2,2,3,3,4,4,5,5,6,6,7,7,9,9,10,10,11,11,12,12,13,13,14,14],"right_children":[2,4,6,8,10,12,14,16,-1,18,20,22,24,26,28,-1,-1,-1,-1,-1,-1,-1,-1,-1,-1,-1,-1,-1,-1],"split_conditions":[-9.9913526E-1,4.801148E-1,-7.106985E-1,2.4680994E0,5.5627257E-1,-7.357687E-1,-6.7247915E-1,3.1603606E0,8.971596E-2,3.457642E0,2.3899686E0,NaN,NaN,2.1638508E0,2.0964346E0,3.86521E-2,-1.6570093E-2,-6.922372E-2,8.6794436E-2,3.1429365E-2,-3.9208822E-2,8.679812E-3,-2.1221802E-2,-9.472474E-3,-7.2645836E-2,9.083428E-2,-2.4309874E-2,-5.4927333E-3,6.403347E-3],"split_indices":[4,0,4,6,0,4,4,1,0,6,6,3,3,6,6,0,0,0,0,0,0,0,0,0,0,0,0,0,0],"split_type":[0,0,0,0,0,0,0,0,0,0,0,1,1,0,0,0,0,0,0,0,0,0,0,0,0,0,0,0,0],"sum_hessian":[2.5433562E4,4.2785645E2,2.5005707E4,2.6766193E2,1.6019452E2,4.231686E3,2.0774021E4,2.2650327E2,4.1158676E1,2.8663479E1,1.3153104E2,3.5510542E3,6.806317E2,6.318531E2,2.0142168E4,1.8909001E2,3.741325E1,2.6266874E1,2.396604E0,1.1162434E2,1.9906708E1,2.281994E3,1.2690603E3,2.8225592E2,3.9837576E2,5.005809E2,1.3127219E2,1.1932651E4,8.209516E3],"tree_param":{"num_deleted":"0","num_feature":"8","num_nodes":"29","size_leaf_vector":"0"}}]},"name":"gbtree"},"learner_model_param":{"base_score":"5E-1","num_class":"0","num_feature":"8","num_target":"1"},"objective":{"name":"binary:logistic","reg_loss_param":{"scale_pos_weight":"3.9572711"}}},"version":[1,6,1]}