{"learner":{"attributes":{"best_iteration":"24","best_ntree_limit":"25","scikit_learn":"{\"use_label_encoder\": false, \"n_estimators\": 25, \"objective\": \"binary:logistic\", \"max_depth\": 4, \"max_leaves\": null, \"max_bin\": null, \"grow_policy\": null, \"learning_rate\": 0.1, \"verbosity\": null, \"booster\": null, \"tree_method\": \"hist\", \"gamma\": 0.190072, \"min_child_weight\": 10, \"max_delta_step\": 2, \"subsample\": 0.75, \"sampling_method\": null, \"colsample_bytree\": null, \"colsample_bylevel\": 0.75, \"colsample_bynode\": null, \"reg_alpha\": null, \"reg_lambda\": null, \"scale_pos_weight\": 5.5304, \"base_score\": null, \"missing\": NaN, \"num_parallel_tree\": null, \"random_state\": null, \"n_jobs\": null, \"monotone_constraints\": null, \"interaction_constraints\": null, \"importance_type\": null, \"gpu_id\": null, \"validate_parameters\": null, \"predictor\": null, \"enable_categorical\": true, \"max_cat_to_onehot\": 1, \"eval_metric\": [\"logloss\"], \"early_stopping_rounds\": null, \"callbacks\": null, \"classes_\": [0, 1], \"n_classes_\": 2, \"evals_result_\": {\"validation_0\": {\"logloss\": [0.6695998454368624, 0.6495091193407749, 0.6323980417023831, 0.6176070169529573, 0.6043215850433875, 0.5929118410557181, 0.5825927297727583, 0.574071299467666, 0.5661180621694871, 0.5590824781112615, 0.5527427249975454, 0.5470403644395785, 0.5420123978847711, 0.5377510692861739, 0.5340881078624253, 0.5304379326265444, 0.5273042334050175, 0.5245126504304025, 0.521840309274561, 0.5196541183190911, 0.5177676209266937, 0.5157630574047041, 0.5138932035802162, 0.5124628528725492, 0.5110880152203476]}}, \"_estimator_type\": \"classifier\"}"},"feature_names":["adf_pass_rate","last_residual","residual_mean_max","industry","residual_inter"],"feature_types":["float","float","float","c","float"],"gradient_booster":{"model":{"gbtree_model_param":{"num_parallel_tree":"1","num_trees":"25","size_leaf_vector":"0"},"tree_info":[0,0,0,0,0,0,0,0,0,0,0,0,0,0,0,0,0,0,0,0,0,0,0,0,0],"trees":[{"base_weights":[-4.5411193E-1,-9.779054E-2,-9.321022E-1,2.2780915E-1,-3.1387824E-1,-9.641023E-1,3.33258E-2,9.649163E-2,7.891845E-1,-4.0983936E-1,-2.0604663E-2,-1.030605E0,-5.535831E-1,1.00485764E-1,-1.8596493E-1,2.2703616E-2,-1.024122E-2,1.0692604E-1,7.051638E-2,-5.0544698E-2,-2.1030214E-2,-1.1569394E-1,1.6514644E-3,-5.895291E-2,-1.0541614E-1,1.04387544E-1,-5.7071354E-2,1.0862502E-1,-1.359E-2],"categories":[3,4,9,10,0,5,6,0,1,2,3,4,5,6,8,9,10,3,4,9,0,1,2,3,4,5,6,7,8],"categories_nodes":[0,1,7,11,13],"categories_segments":[0,4,7,17,20],"categories_sizes":[4,3,10,3,9],"default_left":[0,0,0,0,0,0,0,0,0,0,0,0,0,0,0,0,0,0,0,0,0,0,0,0,0,0,0,0,0],"id":0,"left_children":[1,3,5,7,9,11,13,15,17,19,21,23,25,27,-1,-1,-1,-1,-1,-1,-1,-1,-1,-1,-1,-1,-1,-1,-1],"loss_changes":[5.1390645E3,1.2164354E3,3.981494E2,5.0836804E2,2.9245422E2,3.3995898E2,5.2871082E1,1.4519102E2,3.0011597E1,1.4926855E2,1.0813032E2,1.1089551E2,4.8240784E1,9.362506E1,0E0,0E0,0E0,0E0,0E0,0E0,0E0,0E0,0E0,0E0,0E0,0E0,0E0,0E0,0E0],"parents":[2147483647,0,0,1,1,2,2,3,3,4,4,5,5,6,6,7,7,8,8,9,9,10,10,11,11,12,12,13,13],"right_children":[2,4,6,8,10,12,14,16,18,20,22,24,26,28,-1,-1,-1,-1,-1,-1,-1,-1,-1,-1,-1,-1,-1,-1,-1],"split_conditions":[NaN,NaN,2.3910312E-1,1.5952428E-1,1.3354684E-1,6.7963177E-1,7.883322E-1,NaN,8.277635E-1,5.0612557E-1,6.533865E-1,NaN,4.0404043E-1,NaN,-1.8596493E-1,2.2703616E-2,-1.024122E-2,1.0692604E-1,7.051638E-2,-5.0544698E-2,-2.1030214E-2,-1.1569394E-1,1.6514644E-3,-5.895291E-2,-1.0541614E-1,1.04387544E-1,-5.7071354E-2,1.0862502E-1,-1.359E-2],"split_indices":[3,3,1,1,1,0,2,3,4,0,4,3,4,3,0,0,0,0,0,0,0,0,0,0,0,0,0,0,0],"split_type":[1,1,0,0,0,0,0,1,0,0,0,1,0,1,0,0,0,0,0,0,0,0,0,0,0,0,0,0,0],"sum_hessian":[3.0172848E4,1.728719E4,1.2885658E4,6.896113E3,1.0391076E4,1.2472254E4,4.1340518E2,5.5897295E3,1.3063834E3,7.8289824E3,2.5620942E3,1.0732171E4,1.740083E3,4.0015518E2,1.325E1,3.3747034E3,2.215026E3,2.987616E2,1.00762177E3,5.291868E3,2.5371145E3,8.00912E1,2.482003E3,5.454314E2,1.0186739E4,1.7826E1,1.722257E3,7.67018E1,3.234534E2],"tree_param":{"num_deleted":"0","num_feature":"5","num_nodes":"29","size_leaf_vector":"0"}},{"base_weights":[-4.0631354E-1,-5.050262E-1,-4.8068974E-2,-1.9764589E-1,-9.267594E-1,2.885192E-1,-5.520959E-1,1.9126323E-1,-3.525815E-1,-9.312109E-1,7.5332695E-1,2.0940831E-1,6.7773914E-1,-7.0609206E-1,4.6521448E-2,1.2812674E-2,6.718689E-2,-4.456127E-2,-1.3700369E-2,-9.8191075E-2,-5.9914596E-2,-1.9059367E-3,1.3529922E-1,1.834687E-2,1.0948557E-1,-3.9890893E-2,7.689547E-2,-7.534907E-2,1.3140254E-2,-1.1176626E-1,1.4660956E-2],"categories":[3,4,9,0,3,4,9,10,1,2,5,6,10],"categories_nodes":[1,2,3],"categories_segments":[0,3,8],"categories_sizes":[3,5,5],"default_left":[0,0,0,0,0,0,0,0,0,0,0,0,0,0,0,0,0,0,0,0,0,0,0,0,0,0,0,0,0,0,0],"id":1,"left_children":[1,3,5,7,9,11,13,15,17,19,21,23,25,27,29,-1,-1,-1,-1,-1,-1,-1,-1,-1,-1,-1,-1,-1,-1,-1,-1],"loss_changes":[1.0671631E3,3.0667515E3,1.1063046E3,8.247239E2,7.529492E1,1.2025635E2,2.4073358E2,1.18242966E2,1.9622742E2,1.6688965E2,1.2489205E1,7.446997E1,6.512857E1,8.25426E1,6.2526176E1,0E0,0E0,0E0,0E0,0E0,0E0,0E0,0E0,0E0,0E0,0E0,0E0,0E0,0E0,0E0,0E0],"parents":[2147483647,0,0,1,1,2,2,3,3,4,4,5,5,6,6,7,7,8,8,9,9,10,10,11,11,12,12,13,13,14,14],"right_children":[2,4,6,8,10,12,14,16,18,20,22,24,26,28,30,-1,-1,-1,-1,-1,-1,-1,-1,-1,-1,-1,-1,-1,-1,-1,-1],"split_conditions":[7.692307E-1,NaN,NaN,NaN,9.0965366E-1,1.0502392E0,7.150372E-1,7.223579E-1,5.206404E-1,6.7963177E-1,7.16597E-1,2.9318154E-1,1.8375874E-1,1.138158E0,1.7241263E-1,1.2812674E-2,6.718689E-2,-4.456127E-2,-1.3700369E-2,-9.8191075E-2,-5.9914596E-2,-1.9059367E-3,1.3529922E-1,1.834687E-2,1.0948557E-1,-3.9890893E-2,7.689547E-2,-7.534907E-2,1.3140254E-2,-1.1176626E-1,1.4660956E-2],"split_indices":[4,3,3,3,2,4,2,0,0,0,0,1,1,4,0,0,0,0,0,0,0,0,0,0,0,0,0,0,0,0,0],"split_type":[0,1,1,1,0,0,0,0,0,0,0,0,0,0,0,0,0,0,0,0,0,0,0,0,0,0,0,0,0,0,0],"sum_hessian":[3.0176867E4,2.365769E4,6.5191787E3,1.368491E4,9.972779E3,3.9091104E3,2.6100686E3,3.8986191E3,9.786291E3,9.94687E3,2.5908758E1,3.2500579E3,6.590525E2,2.0758662E3,5.342025E2,3.4470515E3,4.515677E2,6.835436E3,2.9508545E3,8.627642E3,1.3192286E3,1.1746779E1,1.4161979E1,3.1587285E3,9.132928E1,5.1211555E1,6.0784094E2,1.9647688E3,1.11097305E2,4.1486122E1,4.927164E2],"tree_param":{"num_deleted":"0","num_feature":"5","num_nodes":"31","size_leaf_vector":"0"}},{"base_weights":[-3.6229536E-1,-6.844781E-2,-7.6051545E-1,-1.7556484E-1,2.0997751E-1,-8.154858E-1,-4.6209434E-1,-1.918132E-1,5.1033276E-1,1.3686071E-1,9.694034E-1,-8.1906414E-1,6.1923814E-1,-6.3004243E-1,9.729168E-2,1.616681E-2,-3.171482E-2,2.107808E-2,1.08225964E-1,3.983081E-2,4.158825E-3,1.1433645E-1,7.4983644E-3,-3.977486E-2,-8.400034E-2,1.1272957E-1,1.806738E-2,-2.6353559E-2,-7.062984E-2,1.574378E-1,-7.686092E-3],"categories":[3,4,9,10,0,1,2,5,6,0,1,3,4,5,6,8,9,10,0,2,3,4,5,9,10,3,4,9,4,9,10,0,1,2,3,4,5,6,7,8,10],"categories_nodes":[0,7,9,10,11,13,14],"categories_segments":[0,4,9,18,25,28,31],"categories_sizes":[4,5,9,7,3,3,10],"default_left":[0,0,0,0,0,0,0,0,0,0,0,0,0,0,0,0,0,0,0,0,0,0,0,0,0,0,0,0,0,0,0],"id":2,"left_children":[1,3,5,7,9,11,13,15,17,19,21,23,25,27,29,-1,-1,-1,-1,-1,-1,-1,-1,-1,-1,-1,-1,-1,-1,-1,-1],"loss_changes":[3.5378176E3,5.189156E2,2.1020508E2,1.4012857E2,2.6829575E2,5.615576E1,1.8787506E2,5.438656E2,4.9632446E1,1.09851456E2,6.594745E1,9.5052246E1,5.9316998E0,4.2788452E1,1.1908944E2,0E0,0E0,0E0,0E0,0E0,0E0,0E0,0E0,0E0,0E0,0E0,0E0,0E0,0E0,0E0,0E0],"parents":[2147483647,0,0,1,1,2,2,3,3,4,4,5,5,6,6,7,7,8,8,9,9,10,10,11,11,12,12,13,13,14,14],"right_children":[2,4,6,8,10,12,14,16,18,20,22,24,26,28,30,-1,-1,-1,-1,-1,-1,-1,-1,-1,-1,-1,-1,-1,-1,-1,-1],"split_conditions":[NaN,7.405661E-1,7.994792E-1,9.0965366E-1,2.9318154E-1,9.0965366E-1,7.150372E-1,NaN,1.1204255E-1,NaN,NaN,NaN,2.0558907E-2,NaN,NaN,1.616681E-2,-3.171482E-2,2.107808E-2,1.08225964E-1,3.983081E-2,4.158825E-3,1.1433645E-1,7.4983644E-3,-3.977486E-2,-8.400034E-2,1.1272957E-1,1.806738E-2,-2.6353559E-2,-7.062984E-2,1.574378E-1,-7.686092E-3],"split_indices":[3,4,4,2,1,2,2,3,1,3,3,3,1,3,3,0,0,0,0,0,0,0,0,0,0,0,0,0,0,0,0],"split_type":[1,0,0,0,0,0,0,1,0,1,1,1,0,1,1,0,0,0,0,0,0,0,0,0,0,0,0,0,0,0,0],"sum_hessian":[3.023307E4,1.7396975E4,1.2836095E4,1.2563759E4,4.833216E3,1.0837967E4,1.9981279E3,1.2273725E4,2.9003445E2,4.4098223E3,4.233932E2,1.0811432E4,2.6535608E1,1.5366449E3,4.614831E2,3.212695E3,9.061029E3,1.9123953E2,9.8794914E1,1.1769224E3,3.2329E3,3.542204E2,6.91728E1,5.128327E2,1.0298599E4,1.1566223E1,1.4969386E1,2.6542017E2,1.2712247E3,4.782364E1,4.1365945E2],"tree_param":{"num_deleted":"0","num_feature":"5","num_nodes":"31","size_leaf_vector":"0"}},{"base_weights":[-3.2852975E-1,-6.4587325E-2,-6.8556416E-1,-1.3758984E-1,2.785943E-1,-7.230918E-1,-1.1841964E-1,1.5303399E-1,-2.5100526E-1,6.3488513E-1,5.797979E-2,-7.686243E-1,-3.661479E-1,2.7888862E-2,-5.124419E-1,1.034144E-2,5.2108582E-2,-3.2251477E-2,-6.8355054E-3,1.1219888E-1,5.8484275E-2,-1.7323785E-2,2.5455384E-2,-4.732111E-2,-7.843353E-2,-4.3212116E-2,1.5081563E-3,-1.1035222E-1,9.533918E-3,-5.102517E-3,-7.0113145E-2],"categories":[3,4,9,10,0,1,2,5,6,0,3,4,5,6,8,9,10,3,4,9],"categories_nodes":[0,3,4,11],"categories_segments":[0,4,9,17],"categories_sizes":[4,5,8,3],"default_left":[0,0,0,0,0,0,0,0,0,0,0,0,0,0,0,0,0,0,0,0,0,0,0,0,0,0,0,0,0,0,0],"id":3,"left_children":[1,3,5,7,9,11,13,15,17,19,21,23,25,27,29,-1,-1,-1,-1,-1,-1,-1,-1,-1,-1,-1,-1,-1,-1,-1,-1],"loss_changes":[2.8344163E3,4.3332513E2,2.720127E2,4.701226E2,2.3844319E2,1.9460059E2,4.5823944E1,7.30685E1,1.3397052E2,2.7622772E1,8.525898E1,4.897998E1,3.4172577E1,4.4398964E1,1.8702164E1,0E0,0E0,0E0,0E0,0E0,0E0,0E0,0E0,0E0,0E0,0E0,0E0,0E0,0E0,0E0,0E0],"parents":[2147483647,0,0,1,1,2,2,3,3,4,4,5,5,6,6,7,7,8,8,9,9,10,10,11,11,12,12,13,13,14,14],"right_children":[2,4,6,8,10,12,14,16,18,20,22,24,26,28,30,-1,-1,-1,-1,-1,-1,-1,-1,-1,-1,-1,-1,-1,-1,-1,-1],"split_conditions":[NaN,1.5952428E-1,2.016609E-1,NaN,NaN,7.110042E-1,5.811982E-1,7.16597E-1,6.6976744E-1,7.1772426E-1,8.5557985E-1,NaN,7.692307E-1,1.5355662E-1,9.168831E-1,1.034144E-2,5.2108582E-2,-3.2251477E-2,-6.8355054E-3,1.1219888E-1,5.8484275E-2,-1.7323785E-2,2.5455384E-2,-4.732111E-2,-7.843353E-2,-4.3212116E-2,1.5081563E-3,-1.1035222E-1,9.533918E-3,-5.102517E-3,-7.0113145E-2],"split_indices":[3,1,1,3,3,0,0,0,4,4,4,3,4,0,4,0,0,0,0,0,0,0,0,0,0,0,0,0,0,0,0],"split_type":[1,0,0,1,1,0,0,0,0,0,0,1,0,0,0,0,0,0,0,0,0,0,0,0,0,0,0,0,0,0,0],"sum_hessian":[3.0077152E4,1.729372E4,1.2783431E4,1.4260737E4,3.032984E3,1.1989798E4,7.9363324E2,4.0029475E3,1.025779E4,1.159126E3,1.8738578E3,1.0632357E4,1.35744E3,5.794141E2,2.1421909E2,3.528524E3,4.7442352E2,7.371143E3,2.886647E3,1.059925E2,1.0531335E3,8.611087E2,1.01274915E3,5.384771E2,1.0093881E4,1.1570708E3,2.0036908E2,3.1734776E1,5.476794E2,6.254457E1,1.5167451E2],"tree_param":{"num_deleted":"0","num_feature":"5","num_nodes":"31","size_leaf_vector":"0"}},{"base_weights":[-3.0442005E-1,-3.8237387E-1,-3.625285E-2,-4.337029E-1,-1.483088E-1,-1.1145015E-1,3.629611E-1,-1.5705474E-1,-7.3545396E-1,4.0363622E-1,-2.8738648E-1,1.766206E-1,-5.0676554E-1,1.1205568E0,1.5238795E-1,5.2776067E-3,-2.6391415E-2,-7.959898E-2,-4.831374E-2,3.2580115E-2,7.058968E-2,-4.5643743E-2,-1.6528554E-2,1.2340909E-2,5.89112E-2,-5.7066448E-2,2.0184323E-2,9.59565E-2,1.2922865E-1,1.7766198E-2,-1.3341363E-1],"categories":[3,4,9,1,2,3,4,5,6,0,3,4,9,10,0,2,3,4,5,6,8,9,10,1,5,6,10,3],"categories_nodes":[3,4,5,6,7,14],"categories_segments":[0,3,9,14,23,27],"categories_sizes":[3,6,5,9,4,1],"default_left":[0,0,0,0,0,0,0,0,0,0,0,0,0,0,0,0,0,0,0,0,0,0,0,0,0,0,0,0,0,0,0],"id":4,"left_children":[1,3,5,7,9,11,13,15,17,19,21,23,25,27,29,-1,-1,-1,-1,-1,-1,-1,-1,-1,-1,-1,-1,-1,-1,-1,-1],"loss_changes":[6.220176E2,2.7691333E2,2.0125476E2,1.57823E3,3.1851813E2,6.424864E2,1.6935461E2,2.2121355E2,1.3773975E2,1.9419922E1,6.83219E1,7.156755E1,1.0779663E2,5.145508E0,3.1521673E1,0E0,0E0,0E0,0E0,0E0,0E0,0E0,0E0,0E0,0E0,0E0,0E0,0E0,0E0,0E0,0E0],"parents":[2147483647,0,0,1,1,2,2,3,3,4,4,5,5,6,6,7,7,8,8,9,9,10,10,11,11,12,12,13,13,14,14],"right_children":[2,4,6,8,10,12,14,16,18,20,22,24,26,28,30,-1,-1,-1,-1,-1,-1,-1,-1,-1,-1,-1,-1,-1,-1,-1,-1],"split_conditions":[7.6283616E-1,7.678236E-1,7.437807E-1,NaN,NaN,NaN,NaN,NaN,6.1036265E-1,6.242038E-1,3.2663694E-1,7.223579E-1,1.1036469E0,9.5990574E-1,NaN,5.2776067E-3,-2.6391415E-2,-7.959898E-2,-4.831374E-2,3.2580115E-2,7.058968E-2,-4.5643743E-2,-1.6528554E-2,1.2340909E-2,5.89112E-2,-5.7066448E-2,2.0184323E-2,9.59565E-2,1.2922865E-1,1.7766198E-2,-1.3341363E-1],"split_indices":[4,2,2,3,3,3,3,3,0,4,0,0,4,4,3,0,0,0,0,0,0,0,0,0,0,0,0,0,0,0,0],"split_type":[0,0,0,1,1,1,1,1,0,0,0,0,0,0,1,0,0,0,0,0,0,0,0,0,0,0,0,0,0,0,0],"sum_hessian":[2.9754682E4,2.3052965E4,6.701717E3,1.890612E4,4.146846E3,5.640057E3,1.0616595E3,9.864122E3,9.041996E3,8.342262E2,3.31262E3,3.2628992E3,2.377158E3,2.2996716E2,8.316924E2,3.3285789E3,6.5355435E3,7.290665E3,1.7513317E3,6.650477E2,1.6917847E2,1.3880719E3,1.9245483E3,2.8912288E3,3.7167026E2,2.180707E3,1.9645102E2,1.22094574E2,1.0787259E2,8.1865405E2,1.3038358E1],"tree_param":{"num_deleted":"0","num_feature":"5","num_nodes":"31","size_leaf_vector":"0"}},{"base_weights":[-2.6732996E-1,-3.196778E-1,4.376035E-2,-1.08883284E-1,-6.26186E-1,4.6535474E-1,-2.1026334E-1,6.965794E-2,-2.1664968E-1,-6.832133E-1,-3.091367E-1,2.0921607E-1,6.949044E-1,-4.0467873E-2,-4.0820193E-1,-1.1529202E-3,2.543478E-2,-1.9537143E-2,-5.935623E-2,-7.3125616E-2,-5.778851E-2,-3.4805987E-2,6.0416233E-2,9.3493104E-2,5.7515777E-3,8.636181E-2,2.3532245E-2,2.7957964E-3,-9.389251E-2,-7.020297E-2,-1.5643772E-2],"categories":[3,4,9,0,3,4,6,9,10,0,5,6,10,0,4,10,0,2,3,4,5,6,8,9,10],"categories_nodes":[1,2,3,6,12],"categories_segments":[0,3,9,13,16],"categories_sizes":[3,6,4,3,9],"default_left":[0,0,0,0,0,0,0,0,0,0,0,0,0,0,0,0,0,0,0,0,0,0,0,0,0,0,0,0,0,0,0],"id":5,"left_children":[1,3,5,7,9,11,13,15,17,19,21,23,25,27,29,-1,-1,-1,-1,-1,-1,-1,-1,-1,-1,-1,-1,-1,-1,-1,-1],"loss_changes":[4.8368628E2,1.6425103E3,4.58338E2,2.8986865E2,1.8708862E2,9.4463684E1,8.9744194E1,8.503749E1,7.522827E1,4.4003418E1,5.6415344E1,8.382826E1,6.556116E1,8.847241E1,9.110591E1,0E0,0E0,0E0,0E0,0E0,0E0,0E0,0E0,0E0,0E0,0E0,0E0,0E0,0E0,0E0,0E0],"parents":[2147483647,0,0,1,1,2,2,3,3,4,4,5,5,6,6,7,7,8,8,9,9,10,10,11,11,12,12,13,13,14,14],"right_children":[2,4,6,8,10,12,14,16,18,20,22,24,26,28,30,-1,-1,-1,-1,-1,-1,-1,-1,-1,-1,-1,-1,-1,-1,-1,-1],"split_conditions":[1.635188E-1,NaN,NaN,NaN,6.645474E-1,6.719087E-1,NaN,6.801253E-1,8.377815E-1,7.035043E-1,7.80351E-1,5.4349566E-1,NaN,8.4790087E-1,7.0046E-1,-1.1529202E-3,2.543478E-2,-1.9537143E-2,-5.935623E-2,-7.3125616E-2,-5.778851E-2,-3.4805987E-2,6.0416233E-2,9.3493104E-2,5.7515777E-3,8.636181E-2,2.3532245E-2,2.7957964E-3,-9.389251E-2,-7.020297E-2,-1.5643772E-2],"split_indices":[1,3,3,3,0,2,3,2,2,2,2,2,3,2,2,0,0,0,0,0,0,0,0,0,0,0,0,0,0,0,0],"split_type":[0,1,1,1,0,0,1,0,0,0,0,0,1,0,0,0,0,0,0,0,0,0,0,0,0,0,0,0,0,0,0],"sum_hessian":[2.9699693E4,2.5421873E4,4.277821E3,1.5063574E4,1.0358299E4,1.6080927E3,2.669728E3,5.6700728E3,9.393501E3,8.778217E3,1.580082E3,7.6093225E2,8.4716046E2,1.4376711E3,1.2320569E3,3.9393335E3,1.7307395E3,8.892975E3,5.0052603E2,6.0243965E3,2.75382E3,1.516088E3,6.399407E1,1.3066837E2,6.302639E2,6.1903284E2,2.2812761E2,1.3368281E3,1.00842964E2,5.677092E2,6.643477E2],"tree_param":{"num_deleted":"0","num_feature":"5","num_nodes":"31","size_leaf_vector":"0"}},{"base_weights":[-2.5409022E-1,-2.990953E-1,1.3708702E-1,-1.0246811E-1,-5.629155E-1,4.970527E-1,-9.951632E-2,-1.5146971E-1,1.0636466E-1,-6.992477E-1,-4.5000258E-1,2.642031E-1,6.832702E-1,-7.03824E-2,-1.7649521E-1,5.813213E-3,-2.4645057E-2,4.14648E-2,8.6667866E-4,-5.74039E-2,-7.440827E-2,-5.0984986E-2,-2.5688363E-2,8.931302E-2,1.1275121E-2,8.0720134E-2,3.148321E-2,-3.3700947E-2,7.984615E-3],"categories":[3,4,9,10,0,3,4,6,9,10,0,1,5,6,0,1,2,3,4,5,6,8,9,10,0,2,3,4,5,6,8,9,10],"categories_nodes":[1,2,7,8,12],"categories_segments":[0,4,10,14,24],"categories_sizes":[4,6,4,10,9],"default_left":[0,0,0,0,0,0,0,0,0,0,0,0,0,0,0,0,0,0,0,0,0,0,0,0,0,0,0,0,0],"id":6,"left_children":[1,3,5,7,9,11,13,15,17,19,21,23,25,27,-1,-1,-1,-1,-1,-1,-1,-1,-1,-1,-1,-1,-1,-1,-1],"loss_changes":[5.1921875E2,1.3719092E3,2.5926108E2,1.550989E2,1.7354077E2,5.2166107E1,8.90207E1,2.4439032E2,8.67621E1,2.8285156E1,7.1299805E1,5.1152702E1,3.0345856E1,7.2394714E1,0E0,0E0,0E0,0E0,0E0,0E0,0E0,0E0,0E0,0E0,0E0,0E0,0E0,0E0,0E0],"parents":[2147483647,0,0,1,1,2,2,3,3,4,4,5,5,6,6,7,7,8,8,9,9,10,10,11,11,12,12,13,13],"right_children":[2,4,6,8,10,12,14,16,18,20,22,24,26,28,-1,-1,-1,-1,-1,-1,-1,-1,-1,-1,-1,-1,-1,-1,-1],"split_conditions":[1.864446E-1,NaN,NaN,6.1932254E-1,3.4318906E-1,6.69582E-1,8.5853434E-1,NaN,NaN,6.010722E-1,6.952983E-1,5.50972E-1,NaN,7.0046E-1,-1.7649521E-1,5.813213E-3,-2.4645057E-2,4.14648E-2,8.6667866E-4,-5.74039E-2,-7.440827E-2,-5.0984986E-2,-2.5688363E-2,8.931302E-2,1.1275121E-2,8.0720134E-2,3.148321E-2,-3.3700947E-2,7.984615E-3],"split_indices":[1,3,3,0,0,2,2,3,3,2,0,2,3,2,0,0,0,0,0,0,0,0,0,0,0,0,0,0,0],"split_type":[0,1,1,0,0,0,0,1,1,0,0,0,1,0,0,0,0,0,0,0,0,0,0,0,0,0,0,0,0],"sum_hessian":[2.9489434E4,2.644694E4,3.0424941E3,1.5153963E4,1.1292976E4,1.2062373E3,1.8362568E3,1.2274165E4,2.8797986E3,5.113587E3,6.1793887E3,5.370809E2,6.6915643E2,1.8057113E3,3.054553E1,3.8276877E3,8.446477E3,6.9223224E2,2.1875664E3,1.3519261E3,3.7616606E3,4.7162036E3,1.4631849E3,1.0328345E2,4.3379742E2,4.9983624E2,1.693202E2,6.503034E2,1.1554078E3],"tree_param":{"num_deleted":"0","num_feature":"5","num_nodes":"29","size_leaf_vector":"0"}},{"base_weights":[-2.1396032E-1,-3.0353658E-2,-4.76847E-1,-9.982616E-2,1.8035614E-1,-5.283893E-1,-2.711505E-1,9.107925E-2,-1.7254183E-1,1.3681957E-1,7.8592527E-1,-5.7714176E-1,-1.5240027E-1,-1.3140842E-1,-3.5151836E-1,-5.3354944E-3,2.614292E-2,-2.4535276E-2,-2.4706617E-3,-3.6856133E-2,1.7207405E-2,6.3695416E-2,1.21174715E-1,-4.917054E-2,-6.07417E-2,-1.232672E-2,-1.4608122E-1,9.634466E-2,-1.5842848E-2,-4.0082697E-2,2.0419996E-2],"categories":[3,4,9,10,0,1,2,5,6],"categories_nodes":[0,3],"categories_segments":[0,4],"categories_sizes":[4,5],"default_left":[0,0,0,0,0,0,0,0,0,0,0,0,0,0,0,0,0,0,0,0,0,0,0,0,0,0,0,0,0,0,0],"id":7,"left_children":[1,3,5,7,9,11,13,15,17,19,21,23,25,27,29,-1,-1,-1,-1,-1,-1,-1,-1,-1,-1,-1,-1,-1,-1,-1,-1],"loss_changes":[1.4201766E3,2.5362888E2,1.2813452E2,1.8089207E2,1.1315762E2,1.7723975E2,2.7203781E1,8.845922E1,1.0156372E2,7.149509E1,1.7493591E1,2.1850342E1,4.2197685E1,2.6408346E1,4.227603E1,0E0,0E0,0E0,0E0,0E0,0E0,0E0,0E0,0E0,0E0,0E0,0E0,0E0,0E0,0E0,0E0],"parents":[2147483647,0,0,1,1,2,2,3,3,4,4,5,5,6,6,7,7,8,8,9,9,10,10,11,11,12,12,13,13,14,14],"right_children":[2,4,6,8,10,12,14,16,18,20,22,24,26,28,30,-1,-1,-1,-1,-1,-1,-1,-1,-1,-1,-1,-1,-1,-1,-1,-1],"split_conditions":[NaN,7.6283616E-1,6.14659E-1,NaN,3.2126513E-1,1.635188E-1,4.7035694E-2,6.7908186E-1,4.9745294E-1,4.6186784E-1,8.377815E-1,5.977337E-1,7.8454536E-1,4.811575E-1,7.6162946E-1,-5.3354944E-3,2.614292E-2,-2.4535276E-2,-2.4706617E-3,-3.6856133E-2,1.7207405E-2,6.3695416E-2,1.21174715E-1,-4.917054E-2,-6.07417E-2,-1.232672E-2,-1.4608122E-1,9.634466E-2,-1.5842848E-2,-4.0082697E-2,2.0419996E-2],"split_indices":[3,4,0,3,1,1,1,2,0,2,2,2,2,2,2,0,0,0,0,0,0,0,0,0,0,0,0,0,0,0,0],"split_type":[1,0,0,1,0,0,0,0,0,0,0,0,0,0,0,0,0,0,0,0,0,0,0,0,0,0,0,0,0,0,0],"sum_hessian":[2.9422193E4,1.7323877E4,1.2098316E4,1.3028737E4,4.2951396E3,9.672953E3,2.4253635E3,3.5936997E3,9.435038E3,4.0082017E3,2.869383E2,8.562202E3,1.1107502E3,8.865255E2,1.5388379E3,1.9451536E3,1.648546E3,6.3211313E3,3.1139062E3,2.6075558E2,3.747446E3,2.1442049E2,7.251782E1,2.2447573E3,6.3174453E3,1.0876273E3,2.3122873E1,2.0517035E1,8.660085E2,1.4136814E3,1.25156494E2],"tree_param":{"num_deleted":"0","num_feature":"5","num_nodes":"31","size_leaf_vector":"0"}},{"base_weights":[-2.0245677E-1,-4.684976E-2,-4.483704E-1,-1.317263E-1,1.06418535E-1,-4.879647E-1,-1.470227E-1,4.3468297E-2,-2.3701347E-1,2.5280082E-1,-1.8805824E-2,-5.367753E-1,-2.0128609E-1,-1.2774318E-1,-1.2391983E0,-7.1409866E-3,2.3619274E-2,-2.0886242E-2,-5.963824E-2,1.40005145E-2,6.187725E-2,-4.259544E-2,9.197361E-3,-5.552098E-2,-3.1538036E-2,-3.8300708E-2,1.402525E-2,1.0374529E-2,-2.2076547E-2,-6.594203E-2,-1.6546248E-1],"categories":[3,4,9,2,5,6,0,3,4,5,6,9,10],"categories_nodes":[0,3,4],"categories_segments":[0,3,6],"categories_sizes":[3,3,7],"default_left":[0,0,0,0,0,0,0,0,0,0,0,0,0,0,0,0,0,0,0,0,0,0,0,0,0,0,0,0,0,0,0],"id":8,"left_children":[1,3,5,7,9,11,13,15,17,19,21,23,25,27,29,-1,-1,-1,-1,-1,-1,-1,-1,-1,-1,-1,-1,-1,-1,-1,-1],"loss_changes":[1.1148384E3,2.321542E2,1.3464673E2,2.1186339E2,1.1659764E2,1.3952979E2,2.7481825E1,9.5487274E1,7.245245E1,1.209713E2,1.5469731E2,3.4625244E1,9.0263245E1,2.7822832E1,4.365406E0,0E0,0E0,0E0,0E0,0E0,0E0,0E0,0E0,0E0,0E0,0E0,0E0,0E0,0E0,0E0,0E0],"parents":[2147483647,0,0,1,1,2,2,3,3,4,4,5,5,6,6,7,7,8,8,9,9,10,10,11,11,12,12,13,13,14,14],"right_children":[2,4,6,8,10,12,14,16,18,20,22,24,26,28,30,-1,-1,-1,-1,-1,-1,-1,-1,-1,-1,-1,-1,-1,-1,-1,-1],"split_conditions":[NaN,6.9736844E-1,7.16597E-1,NaN,NaN,8.1088823E-1,1.0736041E0,6.8624866E-1,8.377815E-1,6.801253E-1,5.825153E-1,7.557737E-1,6.987408E-1,6.1605805E-1,7.587634E-1,-7.1409866E-3,2.3619274E-2,-2.0886242E-2,-5.963824E-2,1.40005145E-2,6.187725E-2,-4.259544E-2,9.197361E-3,-5.552098E-2,-3.1538036E-2,-3.8300708E-2,1.402525E-2,1.0374529E-2,-2.2076547E-2,-6.594203E-2,-1.6546248E-1],"split_indices":[3,4,0,3,3,4,4,2,2,2,2,2,2,2,0,0,0,0,0,0,0,0,0,0,0,0,0,0,0,0,0],"split_type":[1,0,0,1,1,0,0,0,0,0,0,0,0,0,0,0,0,0,0,0,0,0,0,0,0,0,0,0,0,0,0],"sum_hessian":[2.9133566E4,1.784375E4,1.1289817E4,1.1484199E4,6.3595503E3,9.978159E3,1.3116577E3,4.3111562E3,7.173043E3,2.9316038E3,3.4279465E3,8.525685E3,1.4524751E3,1.290003E3,2.1654676E1,2.7014937E3,1.6096626E3,6.6534297E3,5.196131E2,2.2419866E3,6.8961725E2,7.325937E2,2.6953528E3,7.8689644E3,6.567198E2,9.479708E2,5.0450424E2,3.6975146E2,9.2025165E2,1.0119296E1,1.1535379E1],"tree_param":{"num_deleted":"0","num_feature":"5","num_nodes":"31","size_leaf_vector":"0"}},{"base_weights":[-1.8624005E-1,-4.6284464E-3,-3.6337984E-1,-2.1123271E-2,6.2786967E-1,-3.916484E-1,-9.176064E-2,1.0125239E-1,-9.448132E-2,7.060952E-1,-8.70594E-2,-4.026711E-1,8.507574E-2,-2.9246867E-1,8.607254E-2,3.6172386E-2,3.3874486E-3,5.9138895E-3,-2.1419177E-2,6.0259398E-2,1.01040676E-1,-1.4415394E-1,9.728845E-2,-3.0724416E-2,-4.2870533E-2,7.825169E-2,-4.87784E-2,-4.2218238E-2,6.2592584E-3,1.2524523E-2,-9.351507E-2],"categories":[3,4,5,9,10,0,1,6,0,2,3,4,9,4,3],"categories_nodes":[0,3,4,11,12,14],"categories_segments":[0,5,8,10,13,14],"categories_sizes":[5,3,2,3,1,1],"default_left":[0,0,0,0,0,0,0,0,0,0,0,0,0,0,0,0,0,0,0,0,0,0,0,0,0,0,0,0,0,0,0],"id":9,"left_children":[1,3,5,7,9,11,13,15,17,19,21,23,25,27,29,-1,-1,-1,-1,-1,-1,-1,-1,-1,-1,-1,-1,-1,-1,-1,-1],"loss_changes":[9.290205E2,1.4878714E2,1.1221228E2,1.2478008E2,2.0332611E1,6.961084E1,4.9257454E1,9.1413666E1,1.59823E2,9.685059E0,5.4003605E1,3.2019775E1,1.2026354E2,2.9881187E1,2.9404911E1,0E0,0E0,0E0,0E0,0E0,0E0,0E0,0E0,0E0,0E0,0E0,0E0,0E0,0E0,0E0,0E0],"parents":[2147483647,0,0,1,1,2,2,3,3,4,4,5,5,6,6,7,7,8,8,9,9,10,10,11,11,12,12,13,13,14,14],"right_children":[2,4,6,8,10,12,14,16,18,20,22,24,26,28,30,-1,-1,-1,-1,-1,-1,-1,-1,-1,-1,-1,-1,-1,-1,-1,-1],"split_conditions":[NaN,2.9318154E-1,7.5988334E-1,NaN,NaN,2.464036E-1,8.0154836E-2,5.6108934E-1,6.909324E-1,8.32989E-1,1.29E0,NaN,NaN,8.017397E-1,NaN,3.6172386E-2,3.3874486E-3,5.9138895E-3,-2.1419177E-2,6.0259398E-2,1.01040676E-1,-1.4415394E-1,9.728845E-2,-3.0724416E-2,-4.2870533E-2,7.825169E-2,-4.87784E-2,-4.2218238E-2,6.2592584E-3,1.2524523E-2,-9.351507E-2],"split_indices":[3,1,2,3,3,1,1,2,2,2,4,3,3,2,3,0,0,0,0,0,0,0,0,0,0,0,0,0,0,0,0],"split_type":[1,0,0,1,1,0,0,0,0,0,0,1,1,0,1,0,0,0,0,0,0,0,0,0,0,0,0,0,0,0,0],"sum_hessian":[2.8876947E4,1.4259006E4,1.4617942E4,1.389754E4,3.614653E2,1.3239599E4,1.3783435E3,5.2084463E3,8.689094E3,3.2582663E2,3.563868E1,1.2940546E4,2.990527E2,6.47223E2,7.311205E2,1.069515E3,4.138931E3,3.805778E3,4.8833154E3,2.4535695E2,8.046968E1,1.5487507E1,2.0151175E1,2.7764468E3,1.01641E4,1.346969E2,1.643558E2,4.7390378E2,1.7331923E2,7.0495667E2,2.6163786E1],"tree_param":{"num_deleted":"0","num_feature":"5","num_nodes":"31","size_leaf_vector":"0"}},{"base_weights":[-1.6838881E-1,-3.227432E-2,-3.7010336E-1,1.1638147E-1,-9.056952E-2,-3.8729888E-1,1.8072619E-1,-1.3868905E-2,3.015476E-1,-1.724423E-1,5.960855E-2,-4.2581606E-1,-1.634289E-1,3.2208037E-1,-5.7420194E-1,4.5850813E-2,-1.8281521E-2,2.2893835E-2,5.49695E-2,-1.4803936E-2,-4.5444973E-2,1.0182287E-2,-2.5795717E-2,-5.2113093E-2,-3.809672E-2,1.11241676E-1,-1.8076854E-2,1.0862525E-1,1.5297308E-2,-8.261522E-2,-2.0950621E-2],"categories":[3,4,9,10,0,1,2,5,6,0,1,2,3,4,5,6,7,8],"categories_nodes":[0,1,13],"categories_segments":[0,4,9],"categories_sizes":[4,5,9],"default_left":[0,0,0,0,0,0,0,0,0,0,0,0,0,0,0,0,0,0,0,0,0,0,0,0,0,0,0,0,0,0,0],"id":10,"left_children":[1,3,5,7,9,11,13,15,17,19,21,23,25,27,29,-1,-1,-1,-1,-1,-1,-1,-1,-1,-1,-1,-1,-1,-1,-1,-1],"loss_changes":[7.8803577E2,1.4853345E2,1.0960327E2,1.1645002E2,1.5138696E2,9.663037E1,3.7615086E1,2.2636299E2,3.5798523E1,5.4767166E1,5.8268364E1,4.0700684E1,3.6655872E1,3.809536E1,4.942894E0,0E0,0E0,0E0,0E0,0E0,0E0,0E0,0E0,0E0,0E0,0E0,0E0,0E0,0E0,0E0,0E0],"parents":[2147483647,0,0,1,1,2,2,3,3,4,4,5,5,6,6,7,7,8,8,9,9,10,10,11,11,12,12,13,13,14,14],"right_children":[2,4,6,8,10,12,14,16,18,20,22,24,26,28,30,-1,-1,-1,-1,-1,-1,-1,-1,-1,-1,-1,-1,-1,-1,-1,-1],"split_conditions":[NaN,NaN,2.464036E-1,6.812723E-1,6.953908E-1,6.7963177E-1,6.601882E-1,5.626253E-1,5.7741374E-1,8.190887E-1,7.779612E-1,2.4416529E-1,4.811575E-1,NaN,7.331526E-1,4.5850813E-2,-1.8281521E-2,2.2893835E-2,5.49695E-2,-1.4803936E-2,-4.5444973E-2,1.0182287E-2,-2.5795717E-2,-5.2113093E-2,-3.809672E-2,1.11241676E-1,-1.8076854E-2,1.0862525E-1,1.5297308E-2,-8.261522E-2,-2.0950621E-2],"split_indices":[3,3,1,2,4,0,0,2,0,2,2,0,2,3,2,0,0,0,0,0,0,0,0,0,0,0,0,0,0,0,0],"split_type":[1,1,0,0,0,0,0,0,0,0,0,0,0,1,0,0,0,0,0,0,0,0,0,0,0,0,0,0,0,0,0],"sum_hessian":[2.870091E4,1.7137736E4,1.1563174E4,4.82718E3,1.2310556E4,1.1213416E4,3.4975772E2,2.8343525E3,1.9928274E3,7.9670176E3,4.3435386E3,9.566571E3,1.6468456E3,2.9507977E2,5.4677937E1,7.46213E2,2.0881394E3,1.5432012E3,4.4962628E2,7.3339165E3,6.331008E2,3.8344949E3,5.0904364E2,3.0576646E3,6.5089062E3,2.1234863E1,1.6256107E3,5.248482E1,2.4259496E2,3.1589207E1,2.3088732E1],"tree_param":{"num_deleted":"0","num_feature":"5","num_nodes":"31","size_leaf_vector":"0"}},{"base_weights":[-1.5871422E-1,-1.7971906E-1,2.1171434E-1,-2.0244148E-1,9.935568E-4,9.771668E-2,3.660281E-1,-7.396573E-2,-3.9207467E-1,2.1859029E-1,-1.6012736E-1,4.4817713E-1,-2.7865615E-1,4.2311898E-1,-8.287082E-1,2.539544E-3,-1.3818349E-2,-4.0995833E-2,-1.8592387E-2,-1.2056368E-1,2.385829E-2,-2.2218456E-2,5.8309627E-3,-1.5001264E-2,6.1143514E-2,-1.7296111E-2,-9.795476E-2,7.754095E-2,2.8101195E-2,5.9758436E-2,-1.6526638E-1],"categories":[3,4,9,10,2,3,4,5,8,9,10,0,2,4,7,10,0,3,0,5,6,0,2,3,4,5,6,8,9,10],"categories_nodes":[3,4,5,6,7,13],"categories_segments":[0,4,11,16,18,21],"categories_sizes":[4,7,5,2,3,9],"default_left":[0,0,0,0,0,0,0,0,0,0,0,0,0,0,0,0,0,0,0,0,0,0,0,0,0,0,0,0,0,0,0],"id":11,"left_children":[1,3,5,7,9,11,13,15,17,19,21,23,25,27,29,-1,-1,-1,-1,-1,-1,-1,-1,-1,-1,-1,-1,-1,-1,-1,-1],"loss_changes":[2.2200714E2,1.10858154E2,2.6901955E1,5.8425244E2,1.0578984E2,1.1647189E2,4.4702568E1,9.12328E1,3.563147E1,3.6840714E1,2.3514462E1,4.4735306E1,3.1383282E1,3.0883583E1,3.6235306E1,0E0,0E0,0E0,0E0,0E0,0E0,0E0,0E0,0E0,0E0,0E0,0E0,0E0,0E0,0E0,0E0],"parents":[2147483647,0,0,1,1,2,2,3,3,4,4,5,5,6,6,7,7,8,8,9,9,10,10,11,11,12,12,13,13,14,14],"right_children":[2,4,6,8,10,12,14,16,18,20,22,24,26,28,30,-1,-1,-1,-1,-1,-1,-1,-1,-1,-1,-1,-1,-1,-1,-1,-1],"split_conditions":[2.2702119E-1,7.16597E-1,7.437807E-1,NaN,NaN,NaN,NaN,NaN,7.50996E-1,4.509847E-1,8.5611147E-1,6.082475E-1,7.2214705E-1,NaN,8.017397E-1,2.539544E-3,-1.3818349E-2,-4.0995833E-2,-1.8592387E-2,-1.2056368E-1,2.385829E-2,-2.2218456E-2,5.8309627E-3,-1.5001264E-2,6.1143514E-2,-1.7296111E-2,-9.795476E-2,7.754095E-2,2.8101195E-2,5.9758436E-2,-1.6526638E-1],"split_indices":[1,0,2,3,3,3,3,3,2,2,0,2,2,3,2,0,0,0,0,0,0,0,0,0,0,0,0,0,0,0,0],"split_type":[0,0,0,1,1,1,1,1,0,0,0,0,0,1,0,0,0,0,0,0,0,0,0,0,0,0,0,0,0,0,0],"sum_hessian":[2.852681E4,2.6996512E4,1.5302998E3,2.3981062E4,3.0154487E3,8.810596E2,6.4924023E2,1.4296577E4,9.684485E3,1.282735E3,1.7327136E3,4.5613635E2,4.2492325E2,6.202474E2,2.899289E1,5.6127827E3,8.683794E3,8.910508E3,7.739774E2,1.6936184E1,1.2657988E3,1.3493506E3,3.8336304E2,9.781516E1,3.583212E2,3.703247E2,5.4598522E1,1.769997E2,4.4324765E2,1.0716695E1,1.8276194E1],"tree_param":{"num_deleted":"0","num_feature":"5","num_nodes":"31","size_leaf_vector":"0"}},{"base_weights":[-1.4089899E-1,-7.697501E-4,-2.8113723E-1,-9.802902E-2,8.541672E-2,-3.1262293E-1,-4.0618097E-3,4.716692E-2,-1.7000304E-1,5.8777913E-2,6.2078714E-1,-2.2480203E-1,-3.7112802E-1,-4.566469E-1,6.683694E-2,-2.8053424E-3,4.099129E-2,-1.2935251E-2,-4.014799E-2,1.9138152E-2,-3.476403E-4,1.0281018E-1,5.483398E-2,-2.6840717E-2,1.5890326E-2,-4.332212E-2,-3.138666E-2,6.561131E-2,-5.659556E-2,9.368829E-3,-6.552353E-2],"categories":[3,4,5,9,10,1,2,6,8,4,0,1,3,4,5,6,8,9,10,0,2,3,4,5,6,7,8,9,10,0,1,2,3,6,7,8,9],"categories_nodes":[0,3,5,9,10,14],"categories_segments":[0,5,9,10,19,29],"categories_sizes":[5,4,1,9,10,8],"default_left":[0,0,0,0,0,0,0,0,0,0,0,0,0,0,0,0,0,0,0,0,0,0,0,0,0,0,0,0,0,0,0],"id":12,"left_children":[1,3,5,7,9,11,13,15,17,19,21,23,25,27,29,-1,-1,-1,-1,-1,-1,-1,-1,-1,-1,-1,-1,-1,-1,-1,-1],"loss_changes":[5.575817E2,1.1898269E2,1.2371484E2,6.969877E1,1.0728989E2,6.534473E1,4.6495914E1,6.033864E1,4.1904114E1,5.9189537E1,9.959122E0,8.52731E1,2.7032349E1,2.4242027E1,2.4351927E1,0E0,0E0,0E0,0E0,0E0,0E0,0E0,0E0,0E0,0E0,0E0,0E0,0E0,0E0,0E0,0E0],"parents":[2147483647,0,0,1,1,2,2,3,3,4,4,5,5,6,6,7,7,8,8,9,9,10,10,11,11,12,12,13,13,14,14],"right_children":[2,4,6,8,10,12,14,16,18,20,22,24,26,28,30,-1,-1,-1,-1,-1,-1,-1,-1,-1,-1,-1,-1,-1,-1,-1,-1],"split_conditions":[NaN,6.182336E-1,7.584128E-1,NaN,2.9318154E-1,NaN,4.325397E-1,7.431087E-2,8.152317E-2,NaN,NaN,1.716705E-1,5.8679706E-1,3.7847868E-1,NaN,-2.8053424E-3,4.099129E-2,-1.2935251E-2,-4.014799E-2,1.9138152E-2,-3.476403E-4,1.0281018E-1,5.483398E-2,-2.6840717E-2,1.5890326E-2,-4.332212E-2,-3.138666E-2,6.561131E-2,-5.659556E-2,9.368829E-3,-6.552353E-2],"split_indices":[3,4,2,3,1,3,4,1,1,3,3,1,4,4,3,0,0,0,0,0,0,0,0,0,0,0,0,0,0,0,0],"split_type":[1,0,0,1,0,1,0,0,0,1,1,0,0,0,1,0,0,0,0,0,0,0,0,0,0,0,0,0,0,0,0],"sum_hessian":[2.8372547E4,1.4192292E4,1.4180255E4,6.6677573E3,7.524534E3,1.2733181E4,1.4470743E3,2.2099287E3,4.4578286E3,7.1689346E3,3.5559995E2,5.0930063E3,7.640174E3,1.9524959E2,1.2518247E3,1.8311395E3,3.7878915E2,3.7932417E3,6.645868E2,2.2897092E3,4.879225E3,5.1706093E1,3.0389386E2,4.5735576E3,5.194489E2,3.6622917E3,3.977882E3,1.7016773E1,1.7823282E2,1.2077817E3,4.4042957E1],"tree_param":{"num_deleted":"0","num_feature":"5","num_nodes":"31","size_leaf_vector":"0"}},{"base_weights":[-1.22711495E-1,-2.5542013E-2,-2.8403053E-1,-7.375139E-2,1.1707806E-1,-3.1958666E-1,-2.9673435E-2,-8.9733936E-2,3.115882E-1,-1.4216647E-1,1.4334339E-1,-3.431153E-1,3.5337456E-2,-1.3124286E-1,2.3519093E-1,-1.596045E-2,-5.1990557E-3,2.826311E-2,1.1872373E-1,-2.4290957E-2,3.9346274E-2,-1.0225596E-3,2.0948317E-2,-1.7970053E-2,-3.8826607E-2,-1.6652994E-2,2.9684195E-2,-4.4467804E-4,-4.2936172E-2,-5.58863E-2,3.695573E-2],"categories":[3,4,9],"categories_nodes":[0],"categories_segments":[0],"categories_sizes":[3],"default_left":[0,0,0,0,0,0,0,0,0,0,0,0,0,0,0,0,0,0,0,0,0,0,0,0,0,0,0,0,0,0,0],"id":13,"left_children":[1,3,5,7,9,11,13,15,17,19,21,23,25,27,29,-1,-1,-1,-1,-1,-1,-1,-1,-1,-1,-1,-1,-1,-1,-1,-1],"loss_changes":[4.4467606E2,1.2174459E2,9.643518E1,8.1526825E1,3.047987E1,7.814313E1,3.5245125E1,3.350164E1,1.3032993E1,2.2328737E1,4.126301E1,6.467053E1,3.0803177E1,3.5787125E1,3.8956253E1,0E0,0E0,0E0,0E0,0E0,0E0,0E0,0E0,0E0,0E0,0E0,0E0,0E0,0E0,0E0,0E0],"parents":[2147483647,0,0,1,1,2,2,3,3,4,4,5,5,6,6,7,7,8,8,9,9,10,10,11,11,12,12,13,13,14,14],"right_children":[2,4,6,8,10,12,14,16,18,20,22,24,26,28,30,-1,-1,-1,-1,-1,-1,-1,-1,-1,-1,-1,-1,-1,-1,-1,-1],"split_conditions":[NaN,5.5961037E-1,8.412409E-1,1.0502392E0,4.6361747E-1,7.920332E-1,7.1401775E-1,5.6153846E-1,8.5853434E-1,8.6223614E-1,6.0000426E-1,5.977337E-1,6.9755507E-1,6.642641E-1,2.1858606E-1,-1.596045E-2,-5.1990557E-3,2.826311E-2,1.1872373E-1,-2.4290957E-2,3.9346274E-2,-1.0225596E-3,2.0948317E-2,-1.7970053E-2,-3.8826607E-2,-1.6652994E-2,2.9684195E-2,-4.4467804E-4,-4.2936172E-2,-5.58863E-2,3.695573E-2],"split_indices":[3,0,4,4,4,0,2,4,2,2,2,2,2,2,0,0,0,0,0,0,0,0,0,0,0,0,0,0,0,0,0],"split_type":[1,0,0,0,0,0,0,0,0,0,0,0,0,0,0,0,0,0,0,0,0,0,0,0,0,0,0,0,0,0,0],"sum_hessian":[2.836743E4,1.7704436E4,1.0662994E4,1.3232112E4,4.472323E3,9.355017E3,1.3079773E3,1.2705884E4,5.2622864E2,4.110232E2,4.0613003E3,8.77344E3,5.815761E2,9.457921E2,3.6218512E2,4.4551963E3,8.2506875E3,5.106641E2,1.5564534E1,3.4641473E2,6.460845E1,1.2228433E3,2.838457E3,1.9003726E3,6.873068E3,3.2841815E2,2.5315796E2,6.642766E2,2.8151553E2,5.1960308E1,3.1022482E2],"tree_param":{"num_deleted":"0","num_feature":"5","num_nodes":"31","size_leaf_vector":"0"}},{"base_weights":[-1.0335915E-1,-1.1784624E-1,3.0439767E-1,-2.7156258E-2,-2.6901707E-1,5.9295267E-1,1.1102756E-1,-7.730242E-2,8.738278E-2,-3.0125162E-1,-3.2314334E-2,2.7109444E-2,8.1835353E-1,1.3781716E-1,-1.1490361E-1,1.3108616E-3,-1.3208734E-2,1.6692802E-2,-5.255703E-3,-3.184854E-2,-1.8018138E-2,1.1452175E-3,-7.369596E-2,5.4579645E-2,-5.5463683E-2,1.5227488E-1,7.0061475E-2,2.799765E-3,3.5674155E-2],"categories":[3,4,9,0,2,3,4,5,6,10,2,5,6,10,0,1,3,4,5,8,9,10,9,0,2,3,4,5,6,7,9,0,1,2,3,4,5,6,7,8,10],"categories_nodes":[1,2,7,8,10,11,12],"categories_segments":[0,3,10,14,22,23,31],"categories_sizes":[3,7,4,8,1,8,10],"default_left":[0,0,0,0,0,0,0,0,0,0,0,0,0,0,0,0,0,0,0,0,0,0,0,0,0,0,0,0,0],"id":14,"left_children":[1,3,5,7,9,11,13,15,17,19,21,23,25,27,-1,-1,-1,-1,-1,-1,-1,-1,-1,-1,-1,-1,-1,-1,-1],"loss_changes":[1.6666135E2,3.7344534E2,5.394989E1,9.780482E1,7.792334E1,4.9489258E1,1.9766235E1,5.8661446E1,5.7727516E1,1.8699646E1,3.7798462E1,3.398342E1,2.1954025E1,1.3685904E1,0E0,0E0,0E0,0E0,0E0,0E0,0E0,0E0,0E0,0E0,0E0,0E0,0E0,0E0,0E0],"parents":[2147483647,0,0,1,1,2,2,3,3,4,4,5,5,6,6,7,7,8,8,9,9,10,10,11,11,12,12,13,13],"right_children":[2,4,6,8,10,12,14,16,18,20,22,24,26,28,-1,-1,-1,-1,-1,-1,-1,-1,-1,-1,-1,-1,-1,-1,-1],"split_conditions":[2.5581315E-1,NaN,NaN,5.206404E-1,7.16597E-1,6.612101E-1,8.548964E-1,NaN,NaN,8.1088823E-1,NaN,NaN,NaN,1.138158E0,-1.1490361E-1,1.3108616E-3,-1.3208734E-2,1.6692802E-2,-5.255703E-3,-3.184854E-2,-1.8018138E-2,1.1452175E-3,-7.369596E-2,5.4579645E-2,-5.5463683E-2,1.5227488E-1,7.0061475E-2,2.799765E-3,3.5674155E-2],"split_indices":[1,3,3,0,0,2,2,3,3,4,3,3,3,4,0,0,0,0,0,0,0,0,0,0,0,0,0,0,0],"split_type":[0,1,1,0,0,0,0,1,1,0,1,1,1,0,0,0,0,0,0,0,0,0,0,0,0,0,0,0,0],"sum_hessian":[2.8206127E4,2.7239066E4,9.670594E2,1.7026035E4,1.0213032E4,3.8719873E2,5.7986066E2,1.1841884E4,5.184152E3,8.988669E3,1.2243629E3,1.1062002E2,2.7657874E2,5.6866125E2,1.1199401E1,4.468432E3,7.373451E3,3.3052012E3,1.8789507E3,7.8671826E3,1.1214862E3,1.1536893E3,7.067352E1,5.8512165E1,5.2107853E1,3.790019E1,2.3867854E2,3.7944653E2,1.892147E2],"tree_param":{"num_deleted":"0","num_feature":"5","num_nodes":"29","size_leaf_vector":"0"}},{"base_weights":[-1.0289037E-1,3.6999397E-4,-2.1827474E-1,-1.2452531E-2,5.2272344E-1,-2.4510294E-1,-6.9626356E-3,-6.6798575E-2,1.2040851E-1,6.077961E-1,-2.6891178E-1,-1.6574189E-1,-3.0124512E-1,-2.3737486E-1,1.15005605E-1,1.51719E-3,-1.44672785E-2,-7.920788E-3,1.5411603E-2,9.5326826E-2,5.04934E-2,-1.3644437E-1,7.239083E-2,-1.0157626E-2,-5.394825E-2,4.0825576E-2,-3.3399485E-2,9.590042E-4,-3.5415266E-2,2.247307E-2,-5.3197304E-3],"categories":[3,4,5,9,0,2,6,10,0,2,3,4,5,6,7,9,10,9,3,4,5],"categories_nodes":[0,4,7,9,11,12],"categories_segments":[0,4,6,8,17,18],"categories_sizes":[4,2,2,9,1,3],"default_left":[0,0,0,0,0,0,0,0,0,0,0,0,0,0,0,0,0,0,0,0,0,0,0,0,0,0,0,0,0,0,0],"id":15,"left_children":[1,3,5,7,9,11,13,15,17,19,21,23,25,27,29,-1,-1,-1,-1,-1,-1,-1,-1,-1,-1,-1,-1,-1,-1,-1,-1],"loss_changes":[3.3325754E2,9.887879E1,7.488599E1,1.0404785E2,2.3984299E1,5.2175293E1,4.1878216E1,6.528333E1,2.8159698E1,1.0879173E1,3.9073044E1,1.1646388E2,1.5962329E2,1.4878426E1,1.7995945E1,0E0,0E0,0E0,0E0,0E0,0E0,0E0,0E0,0E0,0E0,0E0,0E0,0E0,0E0,0E0,0E0],"parents":[2147483647,0,0,1,1,2,2,3,3,4,4,5,5,6,6,7,7,8,8,9,9,10,10,11,11,12,12,13,13,14,14],"right_children":[2,4,6,8,10,12,14,16,18,20,22,24,26,28,30,-1,-1,-1,-1,-1,-1,-1,-1,-1,-1,-1,-1,-1,-1,-1,-1],"split_conditions":[NaN,2.9318154E-1,7.5705343E-1,5.297261E-1,NaN,6.375117E-1,3.0724284E-1,NaN,4.8946133E-1,NaN,1.29E0,NaN,NaN,7.7293026E-1,7.8361994E-1,1.51719E-3,-1.44672785E-2,-7.920788E-3,1.5411603E-2,9.5326826E-2,5.04934E-2,-1.3644437E-1,7.239083E-2,-1.0157626E-2,-5.394825E-2,4.0825576E-2,-3.3399485E-2,9.590042E-4,-3.5415266E-2,2.247307E-2,-5.3197304E-3],"split_indices":[3,1,2,0,3,2,0,3,4,3,4,3,3,2,2,0,0,0,0,0,0,0,0,0,0,0,0,0,0,0,0],"split_type":[1,0,0,0,1,0,0,1,0,1,0,1,1,0,0,0,0,0,0,0,0,0,0,0,0,0,0,0,0,0,0],"sum_hessian":[2.7969438E4,1.4760707E4,1.32087295E4,1.4408002E4,3.5270572E2,1.172053E4,1.4881987E3,1.0225725E4,4.182277E3,3.186901E2,3.4015636E1,4.8577295E3,6.8628013E3,5.147776E2,9.734211E2,4.9822295E3,5.243495E3,6.040046E2,3.5782722E3,7.12208E1,2.474693E2,1.5993369E1,1.8022266E1,4.1470205E3,7.107091E2,3.0229572E2,6.5605054E3,1.6556146E2,3.4921613E2,5.889141E2,3.8450696E2],"tree_param":{"num_deleted":"0","num_feature":"5","num_nodes":"31","size_leaf_vector":"0"}},{"base_weights":[-9.395625E-2,-5.05436E-3,-1.9313572E-1,-5.218568E-2,1.0382527E-1,-2.4780773E-1,-7.742184E-2,-6.1573748E-2,3.654693E-1,9.2560485E-2,7.701721E-1,-2.5111282E-1,9.3066615E-1,-1.4708401E-1,7.669383E-2,2.031871E-3,-9.748079E-3,4.1415785E-2,-2.6237546E-2,1.0499823E-2,-3.1246303E-2,9.05859E-2,4.9832515E-2,-2.416027E-2,-5.3786933E-2,1.1396655E-1,6.8441816E-2,6.5299505E-3,-2.4451299E-2,1.1435044E-1,2.5161046E-3],"categories":[3,4,5,9,1,2,6,8,10,2,0,0,2,3,4,5,6,8,9,10,4,9,0,1,2,3,4,5,6,7,8,10],"categories_nodes":[0,7,8,9,10,13,14],"categories_segments":[0,4,9,10,11,20,22],"categories_sizes":[4,5,1,1,9,2,10],"default_left":[0,0,0,0,0,0,0,0,0,0,0,0,0,0,0,0,0,0,0,0,0,0,0,0,0,0,0,0,0,0,0],"id":16,"left_children":[1,3,5,7,9,11,13,15,17,19,21,23,25,27,29,-1,-1,-1,-1,-1,-1,-1,-1,-1,-1,-1,-1,-1,-1,-1,-1],"loss_changes":[2.4531036E2,7.52972E1,8.317633E1,4.0174294E1,3.3202473E1,3.5018005E1,4.5329628E1,2.945419E1,6.994753E0,2.199789E1,2.261757E0,2.4158508E1,5.163498E-1,6.0177666E1,7.224792E1,0E0,0E0,0E0,0E0,0E0,0E0,0E0,0E0,0E0,0E0,0E0,0E0,0E0,0E0,0E0,0E0],"parents":[2147483647,0,0,1,1,2,2,3,3,4,4,5,5,6,6,7,7,8,8,9,9,10,10,11,11,12,12,13,13,14,14],"right_children":[2,4,6,8,10,12,14,16,18,20,22,24,26,28,30,-1,-1,-1,-1,-1,-1,-1,-1,-1,-1,-1,-1,-1,-1,-1,-1],"split_conditions":[NaN,5.206404E-1,1.00705035E-1,2.9318154E-1,3.2126513E-1,9.0965366E-1,7.1819794E-1,NaN,NaN,NaN,NaN,9.555573E-2,2.0558907E-2,NaN,NaN,2.031871E-3,-9.748079E-3,4.1415785E-2,-2.6237546E-2,1.0499823E-2,-3.1246303E-2,9.05859E-2,4.9832515E-2,-2.416027E-2,-5.3786933E-2,1.1396655E-1,6.8441816E-2,6.5299505E-3,-2.4451299E-2,1.1435044E-1,2.5161046E-3],"split_indices":[3,0,1,1,1,2,2,3,3,3,3,1,1,3,3,0,0,0,0,0,0,0,0,0,0,0,0,0,0,0,0],"split_type":[1,0,0,0,0,0,0,1,1,1,1,0,0,1,1,0,0,0,0,0,0,0,0,0,0,0,0,0,0,0,0],"sum_hessian":[2.7820777E4,1.4671067E4,1.314971E4,1.0239263E4,4.431805E3,8.929564E3,4.220145E3,1.0014998E4,2.2426497E2,4.3592495E3,7.2555466E1,8.905376E3,2.4188751E1,2.9064429E3,1.3137021E3,3.0528528E3,6.962145E3,2.08441E2,1.582398E1,4.23009E3,1.2915971E2,4.6842663E1,2.5712801E1,8.621298E3,2.8407858E2,1.1121458E1,1.3067293E1,9.141138E2,1.9923291E3,5.9558422E1,1.2541438E3],"tree_param":{"num_deleted":"0","num_feature":"5","num_nodes":"31","size_leaf_vector":"0"}},{"base_weights":[-8.348571E-2,-1.2336187E-1,1.2424656E-2,-5.1199812E-2,-2.4772497E-1,1.3922794E-1,-1.06151864E-1,-5.9851754E-2,3.7399146E-1,-2.9588404E-1,-3.4341376E-2,-1.9677235E-2,1.958104E-1,-1.4211185E-1,1.2646791E-1,6.231133E-4,-1.0605169E-2,4.576464E-2,-1.6400715E-2,-2.8607134E-2,-6.9201365E-2,-7.465076E-2,-1.144658E-3,-2.054173E-2,1.2478503E-2,1.6742775E-2,4.6010748E-2,3.4366485E-2,-1.6038535E-2,1.6071012E-2,-9.5888615E-2],"categories":[3,4,9,0,3,4,5,9,10,5,6,10,2,5],"categories_nodes":[1,2,7,8],"categories_segments":[0,3,9,12],"categories_sizes":[3,6,3,2],"default_left":[0,0,0,0,0,0,0,0,0,0,0,0,0,0,0,0,0,0,0,0,0,0,0,0,0,0,0,0,0,0,0],"id":17,"left_children":[1,3,5,7,9,11,13,15,17,19,21,23,25,27,29,-1,-1,-1,-1,-1,-1,-1,-1,-1,-1,-1,-1,-1,-1,-1,-1],"loss_changes":[1.0600551E2,1.7568036E2,1.224137E2,4.5601894E1,7.3859924E1,3.5377205E1,3.5211662E1,3.7075947E1,1.120179E1,2.2598328E1,2.1591473E1,2.7768896E1,2.1686577E1,3.240603E1,2.1109013E1,0E0,0E0,0E0,0E0,0E0,0E0,0E0,0E0,0E0,0E0,0E0,0E0,0E0,0E0,0E0,0E0],"parents":[2147483647,0,0,1,1,2,2,3,3,4,4,5,5,6,6,7,7,8,8,9,9,10,10,11,11,12,12,13,13,14,14],"right_children":[2,4,6,8,10,12,14,16,18,20,22,24,26,28,30,-1,-1,-1,-1,-1,-1,-1,-1,-1,-1,-1,-1,-1,-1,-1,-1],"split_conditions":[5.297261E-1,NaN,NaN,2.9318154E-1,1.3622911E-1,4.2673454E-2,7.5225633E-1,NaN,NaN,1.2832832E-1,7.0391065E-1,4.8946133E-1,9.707866E-1,1.1255542E-2,9.957627E-1,6.231133E-4,-1.0605169E-2,4.576464E-2,-1.6400715E-2,-2.8607134E-2,-6.9201365E-2,-7.465076E-2,-1.144658E-3,-2.054173E-2,1.2478503E-2,1.6742775E-2,4.6010748E-2,3.4366485E-2,-1.6038535E-2,1.6071012E-2,-9.5888615E-2],"split_indices":[0,3,3,1,1,1,2,3,3,1,4,4,4,1,4,0,0,0,0,0,0,0,0,0,0,0,0,0,0,0,0],"split_type":[0,1,1,0,0,0,0,1,1,0,0,0,0,0,0,0,0,0,0,0,0,0,0,0,0,0,0,0,0,0,0],"sum_hessian":[2.7715814E4,1.9576363E4,8.13945E3,1.2389014E4,7.18735E3,3.9331968E3,4.2062534E3,1.2142788E4,2.4622643E2,5.863594E3,1.3237559E3,1.0329451E3,2.9002515E3,3.6434175E3,5.628358E2,4.9966323E3,7.1461553E3,2.1322137E2,3.300505E1,5.7235356E3,1.4005843E2,4.0246334E1,1.2835095E3,4.5172498E2,5.8122015E2,2.620474E3,2.7977734E2,1.3144043E2,3.511977E3,5.464477E2,1.6388132E1],"tree_param":{"num_deleted":"0","num_feature":"5","num_nodes":"31","size_leaf_vector":"0"}},{"base_weights":[-7.856145E-2,-1.4625748E-2,-1.8931723E-1,-2.9797763E-2,2.3059322E-1,-3.148027E-1,-1.4385976E-1,-8.110187E-2,1.3562295E-2,3.5936478E-1,7.6512635E-2,-2.8110167E-1,-6.096843E-1,-2.0329684E-1,-5.3235937E-2,-7.737455E-3,-1.17304526E-1,1.0740168E-2,-4.0566553E-3,2.1425413E-2,4.724954E-2,-7.4472176E-3,5.216952E-2,9.066259E-4,-3.5432916E-2,-8.283572E-2,8.046481E-3,-3.697097E-3,-3.2044496E-2,9.446492E-2,-9.487285E-3],"categories":[3,4,9,0,2,3,4,6,8,9,9,0,5,6,10,3,4],"categories_nodes":[0,4,5,8,14],"categories_segments":[0,3,10,11,15],"categories_sizes":[3,7,1,4,2],"default_left":[0,0,0,0,0,0,0,0,0,0,0,0,0,0,0,0,0,0,0,0,0,0,0,0,0,0,0,0,0,0,0],"id":18,"left_children":[1,3,5,7,9,11,13,15,17,19,21,23,25,27,29,-1,-1,-1,-1,-1,-1,-1,-1,-1,-1,-1,-1,-1,-1,-1,-1],"loss_changes":[1.9537436E2,6.509214E1,5.7555756E1,3.6651512E1,2.0198925E1,2.650586E1,3.9926773E1,3.0624008E1,4.536289E1,9.010658E0,3.1319136E1,5.123166E1,4.148903E1,8.722859E1,1.22165924E2,0E0,0E0,0E0,0E0,0E0,0E0,0E0,0E0,0E0,0E0,0E0,0E0,0E0,0E0,0E0,0E0],"parents":[2147483647,0,0,1,1,2,2,3,3,4,4,5,5,6,6,7,7,8,8,9,9,10,10,11,11,12,12,13,13,14,14],"right_children":[2,4,6,8,10,12,14,16,18,20,22,24,26,28,30,-1,-1,-1,-1,-1,-1,-1,-1,-1,-1,-1,-1,-1,-1,-1,-1],"split_conditions":[NaN,2.2702119E-1,2.4416529E-1,6.398963E-2,NaN,NaN,6.9755507E-1,8.508557E-1,NaN,6.769056E-1,1.138158E0,6.024003E-1,6.558825E-1,6.0527956E-1,NaN,-7.737455E-3,-1.17304526E-1,1.0740168E-2,-4.0566553E-3,2.1425413E-2,4.724954E-2,-7.4472176E-3,5.216952E-2,9.066259E-4,-3.5432916E-2,-8.283572E-2,8.046481E-3,-3.697097E-3,-3.2044496E-2,9.446492E-2,-9.487285E-3],"split_indices":[3,1,0,1,3,3,2,4,3,2,4,2,2,2,3,0,0,0,0,0,0,0,0,0,0,0,0,0,0,0,0],"split_type":[1,0,0,0,1,1,0,0,1,0,0,0,0,0,1,0,0,0,0,0,0,0,0,0,0,0,0,0,0,0,0],"sum_hessian":[2.758977E4,1.749285E4,1.009692E4,1.6474434E4,1.0184161E3,2.6834155E3,7.4135044E3,7.545565E3,8.928868E3,5.5404517E2,4.6437088E2,2.409944E3,2.7347144E2,4.4763657E3,2.9371387E3,7.520963E3,2.4601812E1,3.2659446E3,5.6629233E3,2.4398447E2,3.100607E2,3.4738657E2,1.1698433E2,4.8580246E2,1.9241417E3,2.0751904E2,6.595241E1,1.8504413E3,2.6259243E3,1.167752E2,2.8203635E3],"tree_param":{"num_deleted":"0","num_feature":"5","num_nodes":"31","size_leaf_vector":"0"}},{"base_weights":[-6.690136E-2,-9.003226E-2,8.5689396E-2,-3.0064575E-2,-1.9724424E-1,-1.2915479E-1,1.2382759E-1,-3.475353E-2,5.551907E-1,-2.2109966E-1,1.1411391E-1,-2.4088378E-1,3.4476867E-1,8.8490605E-1,1.096293E-1,-5.6137005E-3,4.6840883E-3,4.440681E-2,7.709016E-2,4.372902E-2,-2.2801694E-2,-1.456444E-1,1.5345538E-2,8.942826E-3,-3.5593715E-2,4.4624075E-2,-5.0752103E-2,1.3127576E-1,6.5922104E-3,4.1939455E-4,1.630328E-2],"categories":[3,4,9],"categories_nodes":[1],"categories_segments":[0],"categories_sizes":[3],"default_left":[0,0,0,0,0,0,0,0,0,0,0,0,0,0,0,0,0,0,0,0,0,0,0,0,0,0,0,0,0,0,0],"id":19,"left_children":[1,3,5,7,9,11,13,15,17,19,21,23,25,27,29,-1,-1,-1,-1,-1,-1,-1,-1,-1,-1,-1,-1,-1,-1,-1,-1],"loss_changes":[9.723274E1,1.5378471E2,2.9730583E1,4.2119484E1,6.375482E1,2.9057728E1,3.3188618E1,2.6558619E1,2.5819016E0,3.6396576E1,3.7992245E1,1.6882362E1,9.290313E0,1.9630833E1,1.7032024E1,0E0,0E0,0E0,0E0,0E0,0E0,0E0,0E0,0E0,0E0,0E0,0E0,0E0,0E0,0E0,0E0],"parents":[2147483647,0,0,1,1,2,2,3,3,4,4,5,5,6,6,7,7,8,8,9,9,10,10,11,11,12,12,13,13,14,14],"right_children":[2,4,6,8,10,12,14,16,18,20,22,24,26,28,30,-1,-1,-1,-1,-1,-1,-1,-1,-1,-1,-1,-1,-1,-1,-1,-1],"split_conditions":[6.952983E-1,NaN,4.9086758E-1,3.7146035E-1,2.016609E-1,8.6600274E-1,4.953917E-1,5.206404E-1,4.4426334E-1,7.90433E-3,1.3286203E-1,7.284619E-1,4.0287036E-2,3.475645E-2,6.1177816E-2,-5.6137005E-3,4.6840883E-3,4.440681E-2,7.709016E-2,4.372902E-2,-2.2801694E-2,-1.456444E-1,1.5345538E-2,8.942826E-3,-3.5593715E-2,4.4624075E-2,-5.0752103E-2,1.3127576E-1,6.5922104E-3,4.1939455E-4,1.630328E-2],"split_indices":[0,3,4,1,1,0,4,0,0,1,0,0,1,1,1,0,0,0,0,0,0,0,0,0,0,0,0,0,0,0,0],"split_type":[0,1,0,0,0,0,0,0,0,0,0,0,0,0,0,0,0,0,0,0,0,0,0,0,0,0,0,0,0,0,0],"sum_hessian":[2.7544932E4,2.3919445E4,3.6254858E3,1.5340314E4,8.579132E3,5.461981E2,3.0792878E3,1.521932E4,1.2099372E2,7.9688687E3,6.1026306E2,4.42394E2,1.038041E2,5.527048E1,3.0240173E3,1.2059259E4,3.1600615E3,8.187485E1,3.9118874E1,8.220636E1,7.886662E3,1.4032891E1,5.9623016E2,1.143433E2,3.2805072E2,9.318597E1,1.06181345E1,3.5908398E1,1.9362083E1,1.01707294E3,2.0069445E3],"tree_param":{"num_deleted":"0","num_feature":"5","num_nodes":"31","size_leaf_vector":"0"}},{"base_weights":[-5.614066E-2,-4.227164E-3,-1.504878E-1,-3.4428272E-2,1.4461762E-1,-2.529234E-1,-9.911472E-2,-7.4674614E-2,4.676516E-2,1.1334143E-1,5.07641E-1,3.0086827E-1,-2.7426302E-1,8.0758244E-1,-1.03605315E-1,-4.9873143E-2,-6.670553E-3,1.3027282E-2,-4.7931094E-3,2.7896553E-2,3.20981E-3,5.5292916E-2,-3.084499E-2,6.0048413E-2,-9.784847E-3,-3.7626017E-2,-1.196619E-2,1.2939213E-1,4.686684E-2,-1.3027884E-2,1.3041896E-2],"categories":[0,4,9,10,3,6,0,1,2,4,5,6,8,9,10,0,2,3],"categories_nodes":[0,8,9,10],"categories_segments":[0,4,6,15],"categories_sizes":[4,2,9,3],"default_left":[0,0,0,0,0,0,0,0,0,0,0,0,0,0,0,0,0,0,0,0,0,0,0,0,0,0,0,0,0,0,0],"id":20,"left_children":[1,3,5,7,9,11,13,15,17,19,21,23,25,27,29,-1,-1,-1,-1,-1,-1,-1,-1,-1,-1,-1,-1,-1,-1,-1,-1],"loss_changes":[1.3472423E2,7.977168E1,5.1352875E1,4.820997E1,3.3928463E1,3.8611877E1,2.6564789E1,3.3299225E1,3.8672966E1,3.7091057E1,8.93523E0,1.456705E1,4.9467087E1,4.6954937E0,4.0421066E1,0E0,0E0,0E0,0E0,0E0,0E0,0E0,0E0,0E0,0E0,0E0,0E0,0E0,0E0,0E0,0E0],"parents":[2147483647,0,0,1,1,2,2,3,3,4,4,5,5,6,6,7,7,8,8,9,9,10,10,11,11,12,12,13,13,14,14],"right_children":[2,4,6,8,10,12,14,16,18,20,22,24,26,28,30,-1,-1,-1,-1,-1,-1,-1,-1,-1,-1,-1,-1,-1,-1,-1,-1],"split_conditions":[NaN,6.5064824E-1,2.771577E-1,1.0904431E-1,2.0906985E-1,9.721672E-2,6.747361E-3,3.9539346E-1,NaN,NaN,NaN,6.801253E-1,6.9505954E-1,4.4753745E-1,7.5225633E-1,-4.9873143E-2,-6.670553E-3,1.3027282E-2,-4.7931094E-3,2.7896553E-2,3.20981E-3,5.5292916E-2,-3.084499E-2,6.0048413E-2,-9.784847E-3,-3.7626017E-2,-1.196619E-2,1.2939213E-1,4.686684E-2,-1.3027884E-2,1.3041896E-2],"split_indices":[3,0,0,1,1,0,1,4,3,3,3,2,2,4,2,0,0,0,0,0,0,0,0,0,0,0,0,0,0,0,0],"split_type":[1,0,0,0,0,0,0,0,1,1,1,0,0,0,0,0,0,0,0,0,0,0,0,0,0,0,0,0,0,0,0],"sum_hessian":[2.7505715E4,1.7743557E4,9.762157E3,1.4751248E4,2.9923093E3,3.2593113E3,6.5028457E3,9.862593E3,4.8886553E3,2.756165E3,2.3614441E2,1.20447075E2,3.1388643E3,3.1166515E1,6.471679E3,1.8078804E2,9.681805E3,2.597596E3,2.2910593E3,9.062447E2,1.8499203E3,2.2403432E2,1.2110093E1,6.848098E1,5.1966103E1,1.8903099E3,1.2485543E3,1.1642202E1,1.9524311E1,5.809922E3,6.6175745E2],"tree_param":{"num_deleted":"0","num_feature":"5","num_nodes":"31","size_leaf_vector":"0"}},{"base_weights":[-5.422855E-2,4.354645E-2,-9.28991E-2,-3.6737088E-2,2.1711549E-1,-7.838306E-2,-2.9384774E-1,9.057672E-2,-1.4595239E-1,3.8432665E-2,3.021825E-1,8.121613E-3,-1.1942487E-1,-3.1227085E-1,6.455185E-1,5.125184E-2,-4.5040608E-4,6.541402E-3,-2.0882392E-2,7.7800266E-3,-9.962498E-2,2.3960747E-2,4.954972E-2,-3.2089197E-3,9.981212E-3,-1.3717252E-2,1.54301E-2,-6.1855805E-3,-3.7811503E-2,1.0226998E-2,1.1472477E-1],"categories":[3,4,5,6,9,3,4,5,9,0,1,2,3,4,5,6,8,9,10,0,1,2,7,2,3,6],"categories_nodes":[0,5,7,8,9,13],"categories_segments":[0,5,9,19,23,24],"categories_sizes":[5,4,10,4,1,2],"default_left":[0,0,0,0,0,0,0,0,0,0,0,0,0,0,0,0,0,0,0,0,0,0,0,0,0,0,0,0,0,0,0],"id":21,"left_children":[1,3,5,7,9,11,13,15,17,19,21,23,25,27,29,-1,-1,-1,-1,-1,-1,-1,-1,-1,-1,-1,-1,-1,-1,-1,-1],"loss_changes":[1.0303392E2,1.0763292E2,5.6936127E1,7.3453476E1,3.7118706E1,6.466133E1,2.296199E1,9.786769E1,3.779825E1,3.2216393E1,1.9898499E1,2.1613796E1,6.0028183E1,2.1255653E1,6.8666754E0,0E0,0E0,0E0,0E0,0E0,0E0,0E0,0E0,0E0,0E0,0E0,0E0,0E0,0E0,0E0,0E0],"parents":[2147483647,0,0,1,1,2,2,3,3,4,4,5,5,6,6,7,7,8,8,9,9,10,10,11,11,12,12,13,13,14,14],"right_children":[2,4,6,8,10,12,14,16,18,20,22,24,26,28,30,-1,-1,-1,-1,-1,-1,-1,-1,-1,-1,-1,-1,-1,-1,-1,-1],"split_conditions":[NaN,6.779704E-1,7.9321784E-1,5.680266E-1,5.6708306E-2,NaN,9.0965366E-1,NaN,NaN,NaN,5.5961037E-1,5.206404E-1,7.988871E-1,NaN,7.5223815E-1,5.125184E-2,-4.5040608E-4,6.541402E-3,-2.0882392E-2,7.7800266E-3,-9.962498E-2,2.3960747E-2,4.954972E-2,-3.2089197E-3,9.981212E-3,-1.3717252E-2,1.54301E-2,-6.1855805E-3,-3.7811503E-2,1.0226998E-2,1.1472477E-1],"split_indices":[3,2,2,2,1,3,2,3,3,3,0,0,0,3,0,0,0,0,0,0,0,0,0,0,0,0,0,0,0,0,0],"split_type":[1,0,0,0,0,1,0,1,1,1,0,0,0,1,0,0,0,0,0,0,0,0,0,0,0,0,0,0,0,0,0],"sum_hessian":[2.7248275E4,7.7225E3,1.9525775E4,5.280718E3,2.4417827E3,1.8211604E4,1.3141716E3,2.438405E3,2.8423125E3,7.880142E2,1.6537684E3,5.8603745E3,1.23512295E4,1.2895482E3,2.4623404E1,4.4761697E2,1.9907881E3,6.516166E2,2.1906958E3,7.600217E2,2.79925E1,1.2510493E3,4.0271906E2,4.0742603E3,1.7861141E3,1.159964E4,7.515904E2,2.6888376E2,1.0206645E3,1.2400531E1,1.2222873E1],"tree_param":{"num_deleted":"0","num_feature":"5","num_nodes":"31","size_leaf_vector":"0"}},{"base_weights":[-4.9343113E-2,-7.9994984E-2,2.8449332E-2,5.956693E-2,-1.1530766E-1,5.3475354E-2,-2.0043643E-1,-3.0680837E-2,3.1216535E-1,-6.650877E-2,-1.6742674E-1,1.15763456E-1,-1.6892377E-2,-4.3748242E-1,5.5169845E-1,1.2119084E-2,-7.272301E-3,-2.4626798E-3,3.6815356E-2,-3.2408244E-3,-2.7574932E-2,-4.505485E-3,-2.0545833E-2,5.053767E-3,3.5172094E-2,-3.4886833E-2,4.4534933E-3,-2.9603837E-2,-8.7456554E-2,1.3983881E-1,-1.3191636E-2],"categories":[1,2,3,4,5,6,9,0,9,10,2,3,4,9,0,1,2,3,4,5,6,7,8,10],"categories_nodes":[1,2,4,14],"categories_segments":[0,7,10,14],"categories_sizes":[7,3,4,10],"default_left":[0,0,0,0,0,0,0,0,0,0,0,0,0,0,0,0,0,0,0,0,0,0,0,0,0,0,0,0,0,0,0],"id":22,"left_children":[1,3,5,7,9,11,13,15,17,19,21,23,25,27,29,-1,-1,-1,-1,-1,-1,-1,-1,-1,-1,-1,-1,-1,-1,-1,-1],"loss_changes":[6.5059875E1,9.646472E1,4.418871E1,9.012175E1,3.9716797E1,3.0478046E1,1.3580807E2,1.8610207E1,1.9631355E1,5.7563435E1,3.5140305E1,5.6749226E1,6.661083E1,3.551877E1,1.0590761E2,0E0,0E0,0E0,0E0,0E0,0E0,0E0,0E0,0E0,0E0,0E0,0E0,0E0,0E0,0E0,0E0],"parents":[2147483647,0,0,1,1,2,2,3,3,4,4,5,5,6,6,7,7,8,8,9,9,10,10,11,11,12,12,13,13,14,14],"right_children":[2,4,6,8,10,12,14,16,18,20,22,24,26,28,30,-1,-1,-1,-1,-1,-1,-1,-1,-1,-1,-1,-1,-1,-1,-1,-1],"split_conditions":[7.274472E-1,NaN,NaN,7.2214705E-1,NaN,6.52018E-1,6.503117E-1,5.680266E-1,1.9041187E-1,7.902697E-1,6.0527956E-1,6.1947095E-1,6.7307264E-1,5.8034325E-1,NaN,1.2119084E-2,-7.272301E-3,-2.4626798E-3,3.6815356E-2,-3.2408244E-3,-2.7574932E-2,-4.505485E-3,-2.0545833E-2,5.053767E-3,3.5172094E-2,-3.4886833E-2,4.4534933E-3,-2.9603837E-2,-8.7456554E-2,1.3983881E-1,-1.3191636E-2],"split_indices":[4,3,3,2,3,2,2,2,0,2,2,2,2,2,3,0,0,0,0,0,0,0,0,0,0,0,0,0,0,0,0],"split_type":[0,1,1,0,1,0,0,0,0,0,0,0,0,0,1,0,0,0,0,0,0,0,0,0,0,0,0,0,0,0,0],"sum_hessian":[2.7282723E4,1.9571219E4,7.7115034E3,3.951905E3,1.5619313E4,6.952134E3,7.5936945E2,2.912288E3,1.039617E3,8.067768E3,7.5515454E3,3.6874404E3,3.2646934E3,5.7771326E2,1.8165619E2,6.3100073E2,2.2812874E3,1.4827026E2,8.913467E2,6.938187E3,1.129581E3,1.790986E3,5.760559E3,2.8898208E3,7.9761975E2,5.0902957E2,2.7556638E3,4.3773544E2,1.3997784E2,8.0682045E1,1.0097415E2],"tree_param":{"num_deleted":"0","num_feature":"5","num_nodes":"31","size_leaf_vector":"0"}},{"base_weights":[-4.4891037E-2,-5.1218618E-2,2.938089E-1,3.0359256E-1,-5.586356E-2,3.650037E-1,-2.1640587E-1,-1.787078E-2,5.4714227E-1,-1.757722E-2,-8.256856E-2,9.657765E-2,3.367896E-1,-6.570461E-1,2.361672E-1,1.51734045E-2,-5.3011995E-2,1.0661743E-1,3.922543E-2,-4.4918056E-3,5.47352E-3,-1.2523782E-2,-1.8161824E-3,-1.2726544E-2,4.2536657E-2,-3.231072E-2,-1.2002956E-1,-2.263929E-2,6.878396E-2],"categories":[0,2,5],"categories_nodes":[2],"categories_segments":[0],"categories_sizes":[3],"default_left":[0,0,0,0,0,0,0,0,0,0,0,0,0,0,0,0,0,0,0,0,0,0,0,0,0,0,0,0,0],"id":23,"left_children":[1,3,5,7,9,11,13,15,17,19,21,-1,23,25,27,-1,-1,-1,-1,-1,-1,-1,-1,-1,-1,-1,-1,-1,-1],"loss_changes":[5.842613E1,4.4112564E1,1.8240692E1,2.7090893E1,2.700203E1,7.118141E0,1.2489773E1,1.3118337E1,1.5405273E1,2.1460781E1,4.2755028E1,0E0,1.7357903E1,5.3454227E0,6.6843004E0,0E0,0E0,0E0,0E0,0E0,0E0,0E0,0E0,0E0,0E0,0E0,0E0,0E0,0E0],"parents":[2147483647,0,0,1,1,2,2,3,3,4,4,5,5,6,6,7,7,8,8,9,9,10,10,12,12,13,13,14,14],"right_children":[2,4,6,8,10,12,14,16,18,20,22,-1,24,26,28,-1,-1,-1,-1,-1,-1,-1,-1,-1,-1,-1,-1,-1,-1],"split_conditions":[2.9318154E-1,9.721672E-2,NaN,5.8947366E-1,6.4937794E-1,5.626253E-1,3.7146035E-1,5.5106384E-1,6.19883E-1,1.00705035E-1,4.555947E-1,9.657765E-2,2.2573374E-1,1.138158E0,1.29E0,1.51734045E-2,-5.3011995E-2,1.0661743E-1,3.922543E-2,-4.4918056E-3,5.47352E-3,-1.2523782E-2,-1.8161824E-3,-1.2726544E-2,4.2536657E-2,-3.231072E-2,-1.2002956E-1,-2.263929E-2,6.878396E-2],"split_indices":[1,0,3,4,2,2,1,4,4,1,0,0,0,4,4,0,0,0,0,0,0,0,0,0,0,0,0,0,0],"split_type":[0,0,1,0,0,0,0,0,0,0,0,0,0,0,0,0,0,0,0,0,0,0,0,0,0,0,0,0,0],"sum_hessian":[2.7253775E4,2.6754793E4,4.9898325E2,3.448975E2,2.6409895E4,4.3813147E2,6.085178E1,1.4906801E2,1.9582948E2,1.0852533E4,1.5557361E4,1.8162426E1,4.1996902E2,3.0603445E1,3.0248335E1,1.12517456E2,3.655055E1,4.3655552E1,1.5217393E2,7.8753105E3,2.9772227E3,9.357262E3,6.2001E3,6.7243484E1,3.5272556E2,1.99406E1,1.0662846E1,1.5190466E1,1.505787E1],"tree_param":{"num_deleted":"0","num_feature":"5","num_nodes":"29","size_leaf_vector":"0"}},{"base_weights":[-3.954154E-2,-6.8110935E-2,4.001364E-2,-1.1599176E-1,5.0644684E-3,2.1632494E-1,3.4253076E-2,1.9883676E-2,-1.5043709E-1,6.899998E-2,-1.1394119E-1,4.0623522E-1,-4.7837698E-1,1.1935269E-1,-5.1348895E-2,3.1295944E-2,-2.2207422E-3,-1.3910863E-2,-4.556934E-2,5.1683937E-3,3.8307272E-2,-3.176991E-2,4.7142385E-5,5.68096E-2,-3.493805E-2,-9.645784E-2,-1.840731E-2,2.6770605E-2,8.8772485E-3,6.287638E-2,-6.5479497E-3],"categories":[1,2,3,4,5,6,9,0,6,8,9,10,0,1,2,3,8,9,10,0,2,3,4,5,10],"categories_nodes":[3,4,5,6],"categories_segments":[0,7,12,19],"categories_sizes":[7,5,7,6],"default_left":[0,0,0,0,0,0,0,0,0,0,0,0,0,0,0,0,0,0,0,0,0,0,0,0,0,0,0,0,0,0,0],"id":24,"left_children":[1,3,5,7,9,11,13,15,17,19,21,23,25,27,29,-1,-1,-1,-1,-1,-1,-1,-1,-1,-1,-1,-1,-1,-1,-1,-1],"loss_changes":[6.1789555E1,7.008234E1,7.288615E0,5.65916E1,6.021047E1,3.0154934E1,5.068931E1,3.0181969E1,3.3292496E1,2.7976017E1,6.447402E1,2.2076431E1,6.864237E0,1.5805977E1,3.3381634E1,0E0,0E0,0E0,0E0,0E0,0E0,0E0,0E0,0E0,0E0,0E0,0E0,0E0,0E0,0E0,0E0],"parents":[2147483647,0,0,1,1,2,2,3,3,4,4,5,5,6,6,7,7,8,8,9,9,10,10,11,11,12,12,13,13,14,14],"right_children":[2,4,6,8,10,12,14,16,18,20,22,24,26,28,30,-1,-1,-1,-1,-1,-1,-1,-1,-1,-1,-1,-1,-1,-1,-1,-1],"split_conditions":[5.5598766E-1,6.659751E-1,1.1255542E-2,NaN,NaN,NaN,NaN,5.680266E-1,8.377815E-1,7.8115684E-1,5.9560686E-1,7.50996E-1,6.553896E-1,5.93115E-1,4.7012246E-1,3.1295944E-2,-2.2207422E-3,-1.3910863E-2,-4.556934E-2,5.1683937E-3,3.8307272E-2,-3.176991E-2,4.7142385E-5,5.68096E-2,-3.493805E-2,-9.645784E-2,-1.840731E-2,2.6770605E-2,8.8772485E-3,6.287638E-2,-6.5479497E-3],"split_indices":[0,4,1,3,3,3,3,2,2,2,2,2,0,0,2,0,0,0,0,0,0,0,0,0,0,0,0,0,0,0,0],"split_type":[0,0,0,1,1,1,1,0,0,0,0,0,0,0,0,0,0,0,0,0,0,0,0,0,0,0,0,0,0,0,0],"sum_hessian":[2.7183809E4,2.0001227E4,7.182581E3,1.2089878E4,7.9113496E3,2.2609288E2,6.9564883E3,2.445118E3,9.64476E3,5.146711E3,2.7646384E3,1.7788092E2,4.8211967E1,3.4882825E3,3.4682058E3,3.0625592E2,2.138862E3,9.301042E3,3.4371808E2,4.878884E3,2.6782724E2,9.935121E2,1.7711263E3,1.4670364E2,3.1177279E1,1.732044E1,3.0891525E1,5.948313E2,2.8934512E3,6.97064E1,3.3984995E3],"tree_param":{"num_deleted":"0","num_feature":"5","num_nodes":"31","size_leaf_vector":"0"}}]},"name":"gbtree"},"learner_model_param":{"base_score":"5E-1","num_class":"0","num_feature":"5","num_target":"1"},"objective":{"name":"binary:logistic","reg_loss_param":{"scale_pos_weight":"5.5303998"}}},"version":[1,6,0]}