{"learner":{"attributes":{"best_iteration":"24","best_ntree_limit":"25","scikit_learn":"{\"use_label_encoder\": false, \"n_estimators\": 25, \"objective\": \"binary:logistic\", \"max_depth\": 4, \"max_leaves\": null, \"max_bin\": null, \"grow_policy\": null, \"learning_rate\": 0.1, \"verbosity\": null, \"booster\": null, \"tree_method\": \"hist\", \"gamma\": 4.03, \"min_child_weight\": 10, \"max_delta_step\": 2, \"subsample\": 1, \"sampling_method\": null, \"colsample_bytree\": null, \"colsample_bylevel\": 1, \"colsample_bynode\": null, \"reg_alpha\": null, \"reg_lambda\": null, \"scale_pos_weight\": 5.555772, \"base_score\": null, \"missing\": NaN, \"num_parallel_tree\": null, \"random_state\": null, \"n_jobs\": null, \"monotone_constraints\": null, \"interaction_constraints\": null, \"importance_type\": null, \"gpu_id\": null, \"validate_parameters\": null, \"predictor\": null, \"enable_categorical\": true, \"max_cat_to_onehot\": 1, \"eval_metric\": [\"logloss\"], \"early_stopping_rounds\": null, \"callbacks\": null, \"kwargs\": {\"seed\": 420}, \"classes_\": [0, 1], \"n_classes_\": 2, \"evals_result_\": {\"validation_0\": {\"logloss\": [0.669570721102253, 0.6494619642987758, 0.6319510821758991, 0.6168373247321763, 0.6036638747542185, 0.5922843761427047, 0.5822261818425494, 0.5733868172485588, 0.5656032687580506, 0.558640081077251, 0.5525764091925495, 0.547162762482816, 0.5423473234780719, 0.5380483576393544, 0.5341330980718118, 0.530636272790637, 0.5275210654416634, 0.524728499315213, 0.5222381943663011, 0.5200360664916924, 0.5180250341233821, 0.5161594964404395, 0.5145362049364071, 0.5130276431299752, 0.5116927256142739]}}, \"_estimator_type\": \"classifier\"}"},"feature_names":["adf_pass_rate","last_residual","residual_mean_max","industry","residual_inter"],"feature_types":["float","float","float","c","float"],"gradient_booster":{"model":{"gbtree_model_param":{"num_parallel_tree":"1","num_trees":"25","size_leaf_vector":"0"},"tree_info":[0,0,0,0,0,0,0,0,0,0,0,0,0,0,0,0,0,0,0,0,0,0,0,0,0],"trees":[{"base_weights":[-4.4610038E-1,-7.924879E-2,-9.4203484E-1,2.3463158E-1,-2.849964E-1,-9.724769E-1,8.615182E-3,1.1325435E-1,7.9370797E-1,-3.9312646E-1,3.8202804E-2,-1.0299692E0,-5.227572E-1,1.1005499E0,-2.3786336E-1,2.4683554E-2,-9.077281E-3,4.08608E-2,1.1439981E-1,-4.797335E-2,-1.771005E-2,-3.5793554E-2,1.4884136E-2,-6.0055036E-2,-1.0532852E-1,-5.419571E-2,1.360967E-1,-7.432278E-2,1.6845827E-1,-5.5515695E-2,2.4134964E-2],"categories":[3,4,9,10,0,5,6,3,4,0,1,2,3,4,5,6,8,9,10,3,4,9],"categories_nodes":[0,1,6,7,11],"categories_segments":[0,4,7,9,19],"categories_sizes":[4,3,2,10,3],"default_left":[0,0,0,0,0,0,0,0,0,0,0,0,0,0,0,0,0,0,0,0,0,0,0,0,0,0,0,0,0,0,0],"id":0,"left_children":[1,3,5,7,9,11,13,15,17,19,21,23,25,27,29,-1,-1,-1,-1,-1,-1,-1,-1,-1,-1,-1,-1,-1,-1,-1,-1],"loss_changes":[7.13271E3,1.4554773E3,4.8242578E2,6.054793E2,4.7577673E2,4.1709082E2,1.3973805E2,1.998845E2,2.142417E2,1.9076672E2,1.4966978E2,1.4275E2,6.702933E1,1.0421169E2,6.454567E1,0E0,0E0,0E0,0E0,0E0,0E0,0E0,0E0,0E0,0E0,0E0,0E0,0E0,0E0,0E0,0E0],"parents":[2147483647,0,0,1,1,2,2,3,3,4,4,5,5,6,6,7,7,8,8,9,9,10,10,11,11,12,12,13,13,14,14],"right_children":[2,4,6,8,10,12,14,16,18,20,22,24,26,28,30,-1,-1,-1,-1,-1,-1,-1,-1,-1,-1,-1,-1,-1,-1,-1,-1],"split_conditions":[NaN,NaN,2.3890628E-1,1.6329113E-1,7.2950816E-1,7.0283926E-1,NaN,NaN,6.7843217E-1,5.2214676E-1,5.897155E-1,NaN,9.125761E-1,6.5023524E-1,7.545011E-1,2.4683554E-2,-9.077281E-3,4.08608E-2,1.1439981E-1,-4.797335E-2,-1.771005E-2,-3.5793554E-2,1.4884136E-2,-6.0055036E-2,-1.0532852E-1,-5.419571E-2,1.360967E-1,-7.432278E-2,1.6845827E-1,-5.5515695E-2,2.4134964E-2],"split_indices":[3,3,1,1,4,0,3,3,2,0,2,3,2,2,2,0,0,0,0,0,0,0,0,0,0,0,0,0,0,0,0],"split_type":[1,1,0,0,0,0,1,1,0,0,0,1,0,0,0,0,0,0,0,0,0,0,0,0,0,0,0,0,0,0,0],"sum_hessian":[3.9204258E4,2.2535504E4,1.6668756E4,8.922916E3,1.3612588E4,1.6151522E4,5.1723236E2,7.3322617E3,1.5906544E3,1.0199882E4,3.4127065E3,1.4319607E4,1.8319152E3,9.4613976E1,4.2261835E2,4.430986E3,2.9012761E3,7.587122E2,8.3194214E2,7.2800244E3,2.9198574E3,7.4456744E2,2.6681392E3,7.388434E2,1.3580764E4,1.8141368E3,1.7778372E1,2.2694715E1,7.1919266E1,2.5417024E2,1.6844812E2],"tree_param":{"num_deleted":"0","num_feature":"5","num_nodes":"31","size_leaf_vector":"0"}},{"base_weights":[-4.0202403E-1,-7.134533E-2,-8.4997416E-1,2.1128947E-1,-2.5659868E-1,-8.774736E-1,7.933412E-3,1.0194199E-1,7.158665E-1,-3.431321E-1,7.6375015E-2,-9.295607E-1,-4.708109E-1,9.9739414E-1,-2.1427058E-1,8.36293E-5,3.290701E-2,3.679599E-2,1.0332294E-1,-4.2388644E-2,-1.4266691E-2,-3.0215457E-2,1.8489692E-2,-9.5347546E-2,-5.7566024E-2,-5.168732E-2,2.2540933E-2,-2.0827197E-2,1.761847E-1,-1.4087855E-2,-1.908731E-1],"categories":[3,4,9,10,0,5,6,3,4],"categories_nodes":[0,1,6],"categories_segments":[0,4,7],"categories_sizes":[4,3,2],"default_left":[0,0,0,0,0,0,0,0,0,0,0,0,0,0,0,0,0,0,0,0,0,0,0,0,0,0,0,0,0,0,0],"id":1,"left_children":[1,3,5,7,9,11,13,15,17,19,21,23,25,27,29,-1,-1,-1,-1,-1,-1,-1,-1,-1,-1,-1,-1,-1,-1,-1,-1],"loss_changes":[5.8000615E3,1.1795955E3,3.9232324E2,4.9208923E2,3.9214105E2,3.4086133E2,1.139864E2,1.6838345E2,1.7502362E2,1.7480432E2,1.1540327E2,1.203291E2,5.8851837E1,8.799503E1,5.2384842E1,0E0,0E0,0E0,0E0,0E0,0E0,0E0,0E0,0E0,0E0,0E0,0E0,0E0,0E0,0E0,0E0],"parents":[2147483647,0,0,1,1,2,2,3,3,4,4,5,5,6,6,7,7,8,8,9,9,10,10,11,11,12,12,13,13,14,14],"right_children":[2,4,6,8,10,12,14,16,18,20,22,24,26,28,30,-1,-1,-1,-1,-1,-1,-1,-1,-1,-1,-1,-1,-1,-1,-1,-1],"split_conditions":[NaN,NaN,2.3890628E-1,1.6329113E-1,7.594433E-1,7.0283926E-1,NaN,6.7729855E-1,6.7843217E-1,5.2214676E-1,5.897155E-1,1.761893E-1,7.6553625E-1,6.918508E-1,7.8885657E-1,8.36293E-5,3.290701E-2,3.679599E-2,1.0332294E-1,-4.2388644E-2,-1.4266691E-2,-3.0215457E-2,1.8489692E-2,-9.5347546E-2,-5.7566024E-2,-5.168732E-2,2.2540933E-2,-2.0827197E-2,1.761847E-1,-1.4087855E-2,-1.908731E-1],"split_indices":[3,3,1,1,4,0,3,2,2,0,2,1,2,2,2,0,0,0,0,0,0,0,0,0,0,0,0,0,0,0,0],"split_type":[1,1,0,0,0,0,1,0,0,0,0,0,0,0,0,0,0,0,0,0,0,0,0,0,0,0,0,0,0,0,0],"sum_hessian":[3.9155254E4,2.2526936E4,1.662832E4,8.919148E3,1.3607786E4,1.6111847E4,5.1647296E2,7.3315273E3,1.5876217E3,1.0800828E4,2.806958E3,1.4281346E4,1.8305017E3,9.407484E1,4.223981E2,5.073895E3,2.257632E3,7.583956E2,8.292261E2,7.698495E3,3.1023335E3,6.250321E2,2.181926E3,1.3375788E4,9.055576E2,1.7171516E3,1.1335011E2,3.6785576E1,5.728926E1,4.059005E2,1.6497597E1],"tree_param":{"num_deleted":"0","num_feature":"5","num_nodes":"31","size_leaf_vector":"0"}},{"base_weights":[-3.6309102E-1,-7.742243E-2,-7.890162E-1,2.434386E-1,-2.1618032E-1,-8.360062E-1,-3.374818E-1,8.730175E-2,4.7989923E-1,-3.0030337E-1,6.813424E-2,-8.891737E-1,-4.2100617E-1,-6.839672E-1,-4.6581306E-2,4.3612063E-2,-8.270239E-3,3.1500097E-2,9.0781055E-2,-2.6349112E-2,-6.245182E-2,1.5631637E-2,-4.9261488E-2,-7.433081E-2,-9.382229E-2,1.16000764E-1,-4.4166017E-2,5.9613585E-2,-8.3186306E-2,1.4917883E-1,-1.7051501E-2],"categories":[3,4,9,0,1,5,6,10,0,10,4,9,3,4],"categories_nodes":[0,1,10,13,14],"categories_segments":[0,3,8,10,12],"categories_sizes":[3,5,2,2,2],"default_left":[0,0,0,0,0,0,0,0,0,0,0,0,0,0,0,0,0,0,0,0,0,0,0,0,0,0,0,0,0,0,0],"id":2,"left_children":[1,3,5,7,9,11,13,15,17,19,21,23,25,27,29,-1,-1,-1,-1,-1,-1,-1,-1,-1,-1,-1,-1,-1,-1,-1,-1],"loss_changes":[4.748945E3,1.0402206E3,3.3217188E2,2.6038257E2,3.9012036E2,3.127461E2,1.489989E2,2.5204343E2,1.9764368E2,1.5005591E2,1.8426318E2,8.929883E1,5.320053E1,1.2824054E2,1.5370146E2,0E0,0E0,0E0,0E0,0E0,0E0,0E0,0E0,0E0,0E0,0E0,0E0,0E0,0E0,0E0,0E0],"parents":[2147483647,0,0,1,1,2,2,3,3,4,4,5,5,6,6,7,7,8,8,9,9,10,10,11,11,12,12,13,13,14,14],"right_children":[2,4,6,8,10,12,14,16,18,20,22,24,26,28,30,-1,-1,-1,-1,-1,-1,-1,-1,-1,-1,-1,-1,-1,-1,-1,-1],"split_conditions":[NaN,NaN,1.761893E-1,6.7729855E-1,7.654075E-1,7.0283926E-1,6.9841737E-1,5.637515E-1,1.5583967E-1,8.087852E-1,NaN,6.0092455E-1,4.0328467E-1,NaN,NaN,4.3612063E-2,-8.270239E-3,3.1500097E-2,9.0781055E-2,-2.6349112E-2,-6.245182E-2,1.5631637E-2,-4.9261488E-2,-7.433081E-2,-9.382229E-2,1.16000764E-1,-4.4166017E-2,5.9613585E-2,-8.3186306E-2,1.4917883E-1,-1.7051501E-2],"split_indices":[3,3,1,2,4,0,2,2,1,2,3,2,4,3,3,0,0,0,0,0,0,0,0,0,0,0,0,0,0,0,0],"split_type":[1,1,0,0,0,0,0,0,0,0,1,0,0,1,1,0,0,0,0,0,0,0,0,0,0,0,0,0,0,0,0],"sum_hessian":[3.9029758E4,2.336201E4,1.5667749E4,7.052709E3,1.6309301E4,1.4190163E4,1.4775859E3,4.2486562E3,2.8040527E3,1.2585458E4,3.723843E3,1.2577644E4,1.6125199E3,6.737479E2,8.03838E2,1.3916559E3,2.8570005E3,2.0253195E3,7.787332E2,1.1303806E4,1.2816519E3,3.2184397E3,5.054032E2,3.1691587E3,9.408484E3,2.0082567E1,1.5924374E3,6.9465256E1,6.0428265E2,5.9107605E1,7.447304E2],"tree_param":{"num_deleted":"0","num_feature":"5","num_nodes":"31","size_leaf_vector":"0"}},{"base_weights":[-3.2841504E-1,-5.753616E-2,-7.0021105E-1,2.4359828E-1,-1.770592E-1,-7.2360754E-1,2.3466893E-2,9.4966926E-2,4.7191593E-1,-2.997598E-1,5.2225307E-2,-7.734685E-1,-4.2371726E-1,8.75403E-1,-1.6251823E-1,5.224965E-2,-4.511531E-3,3.2259446E-2,8.6174645E-2,-3.707437E-2,-1.2084853E-2,1.3123079E-4,7.020151E-2,-8.013075E-2,-5.4203805E-2,-4.3627363E-2,1.082219E-1,-5.88393E-2,1.3572063E-1,-4.469792E-2,2.6569704E-2],"categories":[3,4,9,10,0,1,2,5,6,3,4],"categories_nodes":[0,1,6],"categories_segments":[0,4,9],"categories_sizes":[4,5,2],"default_left":[0,0,0,0,0,0,0,0,0,0,0,0,0,0,0,0,0,0,0,0,0,0,0,0,0,0,0,0,0,0,0],"id":3,"left_children":[1,3,5,7,9,11,13,15,17,19,21,23,25,27,29,-1,-1,-1,-1,-1,-1,-1,-1,-1,-1,-1,-1,-1,-1,-1,-1],"loss_changes":[3.9130186E3,8.0910736E2,2.7729443E2,2.1671191E2,4.527462E2,2.3687695E2,8.1558235E1,2.3179999E2,1.4631213E2,1.3308398E2,1.8561205E2,8.719287E1,4.3277496E1,6.5845406E1,5.159648E1,0E0,0E0,0E0,0E0,0E0,0E0,0E0,0E0,0E0,0E0,0E0,0E0,0E0,0E0,0E0,0E0],"parents":[2147483647,0,0,1,1,2,2,3,3,4,4,5,5,6,6,7,7,8,8,9,9,10,10,11,11,12,12,13,13,14,14],"right_children":[2,4,6,8,10,12,14,16,18,20,22,24,26,28,30,-1,-1,-1,-1,-1,-1,-1,-1,-1,-1,-1,-1,-1,-1,-1,-1],"split_conditions":[NaN,NaN,2.3890628E-1,6.8536234E-1,6.9515014E-1,6.655682E-1,NaN,5.637515E-1,1.5583967E-1,5.2214676E-1,1.0990783E0,1.5220328E-1,9.125761E-1,6.5023524E-1,7.545011E-1,5.224965E-2,-4.511531E-3,3.2259446E-2,8.6174645E-2,-3.707437E-2,-1.2084853E-2,1.3123079E-4,7.020151E-2,-8.013075E-2,-5.4203805E-2,-4.3627363E-2,1.082219E-1,-5.88393E-2,1.3572063E-1,-4.469792E-2,2.6569704E-2],"split_indices":[3,3,1,2,4,0,3,2,1,0,4,1,2,2,2,0,0,0,0,0,0,0,0,0,0,0,0,0,0,0,0],"split_type":[1,1,0,0,0,0,1,0,0,0,0,0,0,0,0,0,0,0,0,0,0,0,0,0,0,0,0,0,0,0,0],"sum_hessian":[3.8853066E4,2.2477686E4,1.6375382E4,6.3863774E3,1.6091309E4,1.5862546E4,5.128357E2,3.86908E3,2.517297E3,1.0481742E4,5.6095664E3,1.3599807E4,2.2627397E3,9.123081E1,4.216049E2,9.5418555E2,2.9148945E3,1.8214374E3,6.9585974E2,7.5035884E3,2.978154E3,5.2029053E3,4.0666138E2,1.2137332E4,1.4624739E3,2.2447336E3,1.8006136E1,2.253738E1,6.869343E1,2.532972E2,1.683077E2],"tree_param":{"num_deleted":"0","num_feature":"5","num_nodes":"31","size_leaf_vector":"0"}},{"base_weights":[-2.9736003E-1,-6.1795097E-2,-6.547527E-1,2.1986417E-1,-1.6787063E-1,-6.951191E-1,-2.7127883E-1,1.15525424E-1,4.926341E-1,-2.4445525E-1,6.80339E-2,-7.4147797E-1,-3.3936608E-1,-5.732796E-1,-1.877809E-2,4.7141165E-2,2.2784097E-3,2.9839745E-2,9.205487E-2,-2.084476E-2,-5.139029E-2,5.3862075E-4,6.1563004E-2,-6.04922E-2,-7.8756265E-2,-3.8988143E-2,2.1560783E-2,5.8620837E-2,-7.092618E-2,1.3165306E-1,-1.2088953E-2],"categories":[3,4,9,0,1,2,3,4,5,6,9,10,4,9,3,4],"categories_nodes":[0,1,13,14],"categories_segments":[0,3,12,14],"categories_sizes":[3,9,2,2],"default_left":[0,0,0,0,0,0,0,0,0,0,0,0,0,0,0,0,0,0,0,0,0,0,0,0,0,0,0,0,0,0,0],"id":4,"left_children":[1,3,5,7,9,11,13,15,17,19,21,23,25,27,29,-1,-1,-1,-1,-1,-1,-1,-1,-1,-1,-1,-1,-1,-1,-1,-1],"loss_changes":[3.2530718E3,6.959013E2,2.3743213E2,1.8130133E2,3.056965E2,2.2879297E2,1.1159901E2,1.5216055E2,1.462421E2,1.2382031E2,1.4227644E2,7.684082E1,4.5022934E1,1.0549518E2,1.0899093E2,0E0,0E0,0E0,0E0,0E0,0E0,0E0,0E0,0E0,0E0,0E0,0E0,0E0,0E0,0E0,0E0],"parents":[2147483647,0,0,1,1,2,2,3,3,4,4,5,5,6,6,7,7,8,8,9,9,10,10,11,11,12,12,13,13,14,14],"right_children":[2,4,6,8,10,12,14,16,18,20,22,24,26,28,30,-1,-1,-1,-1,-1,-1,-1,-1,-1,-1,-1,-1,-1,-1,-1,-1],"split_conditions":[NaN,NaN,1.761893E-1,7.174259E-1,7.594433E-1,7.0283926E-1,6.9841737E-1,5.637515E-1,1.5583967E-1,7.9572445E-1,1.0990783E0,6.0092455E-1,7.556075E-1,NaN,NaN,4.7141165E-2,2.2784097E-3,2.9839745E-2,9.205487E-2,-2.084476E-2,-5.139029E-2,5.3862075E-4,6.1563004E-2,-6.04922E-2,-7.8756265E-2,-3.8988143E-2,2.1560783E-2,5.8620837E-2,-7.092618E-2,1.3165306E-1,-1.2088953E-2],"split_indices":[3,3,1,2,4,0,2,2,1,2,4,2,2,3,3,0,0,0,0,0,0,0,0,0,0,0,0,0,0,0,0],"split_type":[1,1,0,0,0,0,0,0,0,0,0,0,0,1,1,0,0,0,0,0,0,0,0,0,0,0,0,0,0,0,0],"sum_hessian":[3.8639504E4,2.328985E4,1.5349652E4,6.371286E3,1.6918564E4,1.3887021E4,1.4626306E3,4.609503E3,1.7617831E3,1.2772146E4,4.1464175E3,1.2285049E4,1.6019725E3,6.654527E2,7.9717786E2,9.5204315E2,3.65746E3,1.2129191E3,5.488641E2,1.1268105E4,1.5040406E3,3.721652E3,4.2476547E2,3.103381E3,9.181668E3,1.4685942E3,1.3337827E2,6.9503334E1,5.959494E2,5.578505E1,7.413928E2],"tree_param":{"num_deleted":"0","num_feature":"5","num_nodes":"31","size_leaf_vector":"0"}},{"base_weights":[-2.6943746E-1,-5.5692013E-2,-5.973469E-1,1.4473774E-1,-1.7915937E-1,-6.464228E-1,-3.1667006E-1,7.810131E-2,6.226741E-1,-2.4824846E-1,-1.4130721E-2,-7.2535354E-1,-4.6699876E-1,-4.095092E-1,2.5591418E-1,1.9260995E-3,3.2763716E-2,3.8041133E-2,8.230952E-2,-2.0943934E-2,-5.6827046E-2,-1.906454E-2,7.475469E-3,-7.339414E-2,-5.084356E-3,-5.0325472E-2,-1.6517563E-3,-8.1254495E-3,-4.7628533E-2,3.7084676E-2,-1.7372511E-1],"categories":[3,4,9,0,5,6,10,4,9],"categories_nodes":[0,1,13],"categories_segments":[0,3,7],"categories_sizes":[3,4,2],"default_left":[0,0,0,0,0,0,0,0,0,0,0,0,0,0,0,0,0,0,0,0,0,0,0,0,0,0,0,0,0,0,0],"id":5,"left_children":[1,3,5,7,9,11,13,15,17,19,21,23,25,27,29,-1,-1,-1,-1,-1,-1,-1,-1,-1,-1,-1,-1,-1,-1,-1,-1],"loss_changes":[2.6916833E3,5.753929E2,2.0854443E2,2.8223425E2,1.6404337E2,1.823291E2,1.20103836E2,1.1422589E2,5.234085E1,1.2584161E2,6.664797E1,5.1841797E1,6.439838E1,4.2547302E1,7.293363E1,0E0,0E0,0E0,0E0,0E0,0E0,0E0,0E0,0E0,0E0,0E0,0E0,0E0,0E0,0E0,0E0],"parents":[2147483647,0,0,1,1,2,2,3,3,4,4,5,5,6,6,7,7,8,8,9,9,10,10,11,11,12,12,13,13,14,14],"right_children":[2,4,6,8,10,12,14,16,18,20,22,24,26,28,30,-1,-1,-1,-1,-1,-1,-1,-1,-1,-1,-1,-1,-1,-1,-1,-1],"split_conditions":[NaN,NaN,8.0229884E-1,1.9208819E-1,5.2214676E-1,5.0074154E-1,7.385455E-1,6.056661E-1,6.793902E-1,8.048361E-1,5.058071E-2,1.6754441E-1,7.599448E-1,NaN,7.8885657E-1,1.9260995E-3,3.2763716E-2,3.8041133E-2,8.230952E-2,-2.0943934E-2,-5.6827046E-2,-1.906454E-2,7.475469E-3,-7.339414E-2,-5.084356E-3,-5.0325472E-2,-1.6517563E-3,-8.1254495E-3,-4.7628533E-2,3.7084676E-2,-1.7372511E-1],"split_indices":[3,3,4,1,0,0,2,0,2,2,1,1,2,3,2,0,0,0,0,0,0,0,0,0,0,0,0,0,0,0,0],"split_type":[1,1,0,0,0,0,0,0,0,0,0,0,0,1,0,0,0,0,0,0,0,0,0,0,0,0,0,0,0,0,0],"sum_hessian":[3.84032E4,2.3249406E4,1.5153793E4,8.862449E3,1.4386958E4,1.2897399E4,2.2563933E3,7.77902E3,1.083429E3,1.0140953E4,4.2460044E3,8.954964E3,3.9424358E3,1.9418289E3,3.1456448E2,6.2956006E3,1.4834194E3,4.9182455E2,5.916044E2,9.045642E3,1.095312E3,1.4216501E3,2.8243542E3,8.842296E3,1.1266799E2,3.6486638E3,2.9377182E2,3.2862213E2,1.6132068E3,2.9818414E2,1.638035E1],"tree_param":{"num_deleted":"0","num_feature":"5","num_nodes":"31","size_leaf_vector":"0"}},{"base_weights":[-2.4417435E-1,-4.0815383E-2,-5.3209716E-1,1.8378584E-1,-1.297052E-1,-5.511628E-1,4.4720095E-2,5.3842004E-2,3.6763117E-1,-2.4093656E-1,4.011572E-2,-6.210441E-1,-4.0017143E-1,2.1720089E-1,-6.278915E-1,4.151536E-2,-6.998705E-3,2.1905815E-2,6.001714E-2,-3.1044489E-2,-1.0931775E-2,9.610384E-4,6.678992E-2,-6.52568E-2,-4.7356177E-2,-4.288003E-2,7.587594E-4,9.6647024E-2,4.7624377E-3,4.542711E-2,-7.9225674E-2],"categories":[3,4,9,10,0,1,2,5,6,0,1,2,3,4,5,6,7,8],"categories_nodes":[0,1,13],"categories_segments":[0,4,9],"categories_sizes":[4,5,9],"default_left":[0,0,0,0,0,0,0,0,0,0,0,0,0,0,0,0,0,0,0,0,0,0,0,0,0,0,0,0,0,0,0],"id":6,"left_children":[1,3,5,7,9,11,13,15,17,19,21,23,25,27,29,-1,-1,-1,-1,-1,-1,-1,-1,-1,-1,-1,-1,-1,-1,-1,-1],"loss_changes":[2.2347463E3,4.4662906E2,1.7377051E2,1.5151881E2,3.027575E2,1.6111914E2,5.8887096E1,1.6635918E2,9.061749E1,8.856488E1,1.2148542E2,4.828882E1,5.652057E1,5.126039E1,1.8789902E1,0E0,0E0,0E0,0E0,0E0,0E0,0E0,0E0,0E0,0E0,0E0,0E0,0E0,0E0,0E0,0E0],"parents":[2147483647,0,0,1,1,2,2,3,3,4,4,5,5,6,6,7,7,8,8,9,9,10,10,11,11,12,12,13,13,14,14],"right_children":[2,4,6,8,10,12,14,16,18,20,22,24,26,28,30,-1,-1,-1,-1,-1,-1,-1,-1,-1,-1,-1,-1,-1,-1,-1,-1],"split_conditions":[NaN,NaN,2.3890628E-1,6.7729855E-1,6.716792E-1,4.9814916E-1,6.2321216E-1,5.637515E-1,1.1583604E-1,4.7816157E-1,2.9299116E-1,1.2453573E-1,7.599448E-1,NaN,9.16E-1,4.151536E-2,-6.998705E-3,2.1905815E-2,6.001714E-2,-3.1044489E-2,-1.0931775E-2,9.610384E-4,6.678992E-2,-6.52568E-2,-4.7356177E-2,-4.288003E-2,7.587594E-4,9.6647024E-2,4.7624377E-3,4.542711E-2,-7.9225674E-2],"split_indices":[3,3,1,2,4,0,0,2,1,0,1,1,2,3,4,0,0,0,0,0,0,0,0,0,0,0,0,0,0,0,0],"split_type":[1,1,0,0,0,0,0,0,0,0,0,0,0,1,0,0,0,0,0,0,0,0,0,0,0,0,0,0,0,0,0],"sum_hessian":[3.8166457E4,2.2368676E4,1.5797783E4,6.3422944E3,1.6026381E4,1.5292366E4,5.0541672E2,3.7166323E3,2.6256624E3,9.683407E3,6.3429736E3,1.0451926E4,4.8404414E3,4.028016E2,1.0261514E2,9.480462E2,2.768586E3,1.6032603E3,1.0224021E3,6.3359907E3,3.3474163E3,6.0500063E3,2.929674E2,8.608473E3,1.8434525E3,4.52284E3,3.1760144E2,7.34713E1,3.293303E2,1.3298105E1,8.931704E1],"tree_param":{"num_deleted":"0","num_feature":"5","num_nodes":"31","size_leaf_vector":"0"}},{"base_weights":[-2.2135644E-1,-4.443544E-2,-4.9907663E-1,1.6599198E-1,-1.2346409E-1,-5.4280436E-1,-2.5259414E-1,4.853332E-2,3.329881E-1,-1.6161807E-1,2.018088E-1,-5.835733E-1,-2.4145035E-1,-3.3545005E-1,2.288891E-1,3.7524E-2,-6.298517E-3,2.7892295E-2,9.241185E-2,-2.070384E-2,-9.062329E-4,3.141984E-2,-2.9540697E-2,-6.0834993E-2,-3.9592266E-2,9.999473E-2,-2.5865043E-2,-1.3416478E-3,-4.0142328E-2,3.280736E-2,-1.60215E-1],"categories":[3,4,9,0,1,2,3,4,5,6,9,10,4,9],"categories_nodes":[0,1,13],"categories_segments":[0,3,12],"categories_sizes":[3,9,2],"default_left":[0,0,0,0,0,0,0,0,0,0,0,0,0,0,0,0,0,0,0,0,0,0,0,0,0,0,0,0,0,0,0],"id":7,"left_children":[1,3,5,7,9,11,13,15,17,19,21,23,25,27,29,-1,-1,-1,-1,-1,-1,-1,-1,-1,-1,-1,-1,-1,-1,-1,-1],"loss_changes":[1.8630205E3,3.852168E2,1.58896E2,1.240399E2,2.0901859E2,1.5381348E2,8.884511E1,1.3534346E2,8.3200745E1,1.04435394E2,9.891004E1,5.1074707E1,3.2179184E1,4.0336487E1,5.996408E1,0E0,0E0,0E0,0E0,0E0,0E0,0E0,0E0,0E0,0E0,0E0,0E0,0E0,0E0,0E0,0E0],"parents":[2147483647,0,0,1,1,2,2,3,3,4,4,5,5,6,6,7,7,8,8,9,9,10,10,11,11,12,12,13,13,14,14],"right_children":[2,4,6,8,10,12,14,16,18,20,22,24,26,28,30,-1,-1,-1,-1,-1,-1,-1,-1,-1,-1,-1,-1,-1,-1,-1,-1],"split_conditions":[NaN,NaN,8.0229884E-1,6.7729855E-1,1.8930025E-1,7.0283926E-1,7.338979E-1,5.637515E-1,2.6581967E-1,5.7320124E-1,7.8885657E-1,7.359592E-1,4.0328467E-1,NaN,7.8885657E-1,3.7524E-2,-6.298517E-3,2.7892295E-2,9.241185E-2,-2.070384E-2,-9.062329E-4,3.141984E-2,-2.9540697E-2,-6.0834993E-2,-3.9592266E-2,9.999473E-2,-2.5865043E-2,-1.3416478E-3,-4.0142328E-2,3.280736E-2,-1.60215E-1],"split_indices":[3,3,4,2,1,0,2,2,1,0,2,2,4,3,2,0,0,0,0,0,0,0,0,0,0,0,0,0,0,0,0],"split_type":[1,1,0,0,0,0,0,0,0,0,0,0,0,1,0,0,0,0,0,0,0,0,0,0,0,0,0,0,0,0,0],"sum_hessian":[3.791617E4,2.3162021E4,1.475415E4,6.323503E3,1.6838518E4,1.2530031E4,2.2241194E3,3.713125E3,2.6103782E3,1.5071195E4,1.7673234E3,1.1036071E4,1.4939602E3,1.8978345E3,3.26285E2,9.443053E2,2.7688196E3,2.3929858E3,2.1739224E2,1.1613236E4,3.4579583E3,1.4417919E3,3.2553146E2,9.746891E3,1.2891799E3,1.96357E1,1.4743245E3,3.2289557E2,1.574939E3,3.102975E2,1.59875E1],"tree_param":{"num_deleted":"0","num_feature":"5","num_nodes":"31","size_leaf_vector":"0"}},{"base_weights":[-2.0068789E-1,-4.004991E-2,-4.5592144E-1,1.1096123E-1,-1.329565E-1,-4.9655178E-1,-2.2897941E-1,4.3065555E-2,4.3829423E-1,-1.00999065E-1,-3.7072164E-1,-5.3468406E-1,-2.182288E-1,-3.4016603E-1,7.926939E-2,-1.0690254E-3,2.706178E-2,2.5368294E-2,6.203854E-2,-3.6397744E-2,-5.9323004E-3,-2.2005467E-3,-4.639068E-2,-6.0098566E-2,-4.734835E-2,4.6795732E-3,-2.8724318E-2,-2.2457484E-2,-6.3047774E-2,1.272737E-1,-3.4152158E-3],"categories":[3,4,9,0,5,6,10,6,0,1,2,3,4,5,6,7,8,10],"categories_nodes":[0,1,10,14],"categories_segments":[0,3,7,8],"categories_sizes":[3,4,1,10],"default_left":[0,0,0,0,0,0,0,0,0,0,0,0,0,0,0,0,0,0,0,0,0,0,0,0,0,0,0,0,0,0,0],"id":8,"left_children":[1,3,5,7,9,11,13,15,17,19,21,23,25,27,29,-1,-1,-1,-1,-1,-1,-1,-1,-1,-1,-1,-1,-1,-1,-1,-1],"loss_changes":[1.5443632E3,3.243717E2,1.3404565E2,1.9569864E2,1.0872212E2,1.30844E2,7.581184E1,8.923306E1,5.069452E1,1.3828151E2,5.508635E1,4.3749023E1,2.7240303E1,5.4397125E1,7.949873E1,0E0,0E0,0E0,0E0,0E0,0E0,0E0,0E0,0E0,0E0,0E0,0E0,0E0,0E0,0E0,0E0],"parents":[2147483647,0,0,1,1,2,2,3,3,4,4,5,5,6,6,7,7,8,8,9,9,10,10,11,11,12,12,13,13,14,14],"right_children":[2,4,6,8,10,12,14,16,18,20,22,24,26,28,30,-1,-1,-1,-1,-1,-1,-1,-1,-1,-1,-1,-1,-1,-1,-1,-1],"split_conditions":[NaN,NaN,8.0229884E-1,1.6329113E-1,7.9572445E-1,7.0283926E-1,7.046604E-1,6.056661E-1,6.7843217E-1,5.8118796E-1,NaN,3.1124765E-1,4.95671E-1,6.5906346E-1,NaN,-1.0690254E-3,2.706178E-2,2.5368294E-2,6.203854E-2,-3.6397744E-2,-5.9323004E-3,-2.2005467E-3,-4.639068E-2,-6.0098566E-2,-4.734835E-2,4.6795732E-3,-2.8724318E-2,-2.2457484E-2,-6.3047774E-2,1.272737E-1,-3.4152158E-3],"split_indices":[3,3,4,1,2,0,2,0,2,2,3,0,4,2,3,0,0,0,0,0,0,0,0,0,0,0,0,0,0,0,0],"split_type":[1,1,0,0,0,0,0,0,0,0,1,0,0,0,1,0,0,0,0,0,0,0,0,0,0,0,0,0,0,0,0],"sum_hessian":[3.7666652E4,2.311793E4,1.4548722E4,8.805388E3,1.4312542E4,1.2338519E4,2.2102026E3,7.2936616E3,1.5117255E3,1.2618011E4,1.6945316E3,1.0850939E4,1.4875792E3,1.6242318E3,5.859708E2,5.90067E3,1.3929918E3,7.518566E2,7.598689E2,1.7250586E3,1.0892952E4,3.5759192E2,1.3369397E3,5.2041787E3,5.6467607E3,3.0740897E2,1.1801703E3,1.1629589E3,4.6127295E2,4.9967823E1,5.36003E2],"tree_param":{"num_deleted":"0","num_feature":"5","num_nodes":"31","size_leaf_vector":"0"}},{"base_weights":[-1.8191372E-1,-3.6096055E-2,-4.164873E-1,1.6050279E-1,-9.535702E-2,-4.4987503E-1,-1.8025048E-1,7.058728E-1,1.0900065E-1,-1.3051142E-1,2.0443718E-1,-3.050338E-1,-5.0489986E-1,-2.7386346E-1,1.9597703E-1,6.367938E-2,1.0131236E-1,-8.764134E-3,2.843981E-2,-6.5690996E-3,-2.1636253E-2,4.6373013E-2,3.4865495E-3,-1.9378683E-2,-6.2269397E-2,-5.785773E-2,-3.843399E-2,-2.9442856E-2,6.711319E-2,2.7891368E-2,-1.5024452E-1],"categories":[3,4,9,0,1,2,3,4,5,6,8,9,10,0,3,4,6,7,9,10,9],"categories_nodes":[0,1,10,11],"categories_segments":[0,3,13,20],"categories_sizes":[3,10,7,1],"default_left":[0,0,0,0,0,0,0,0,0,0,0,0,0,0,0,0,0,0,0,0,0,0,0,0,0,0,0,0,0,0,0],"id":9,"left_children":[1,3,5,7,9,11,13,15,17,19,21,23,25,27,29,-1,-1,-1,-1,-1,-1,-1,-1,-1,-1,-1,-1,-1,-1,-1,-1],"loss_changes":[1.280178E3,2.6892413E2,1.1307959E2,1.5008809E2,1.8694522E2,1.0002637E2,6.2683968E1,9.142151E0,1.6855093E2,8.8328186E1,8.1846535E1,1.222608E2,8.067651E1,2.7878822E1,5.040976E1,0E0,0E0,0E0,0E0,0E0,0E0,0E0,0E0,0E0,0E0,0E0,0E0,0E0,0E0,0E0,0E0],"parents":[2147483647,0,0,1,1,2,2,3,3,4,4,5,5,6,6,7,7,8,8,9,9,10,10,11,11,12,12,13,13,14,14],"right_children":[2,4,6,8,10,12,14,16,18,20,22,24,26,28,30,-1,-1,-1,-1,-1,-1,-1,-1,-1,-1,-1,-1,-1,-1,-1,-1],"split_conditions":[NaN,NaN,7.359592E-1,5.5678785E-1,1.8930025E-1,6.0092455E-1,7.8492236E-1,6.914869E-1,6.7610115E-1,6.934556E-1,NaN,NaN,6.9841737E-1,9.125761E-1,7.8885657E-1,6.367938E-2,1.0131236E-1,-8.764134E-3,2.843981E-2,-6.5690996E-3,-2.1636253E-2,4.6373013E-2,3.4865495E-3,-1.9378683E-2,-6.2269397E-2,-5.785773E-2,-3.843399E-2,-2.9442856E-2,6.711319E-2,2.7891368E-2,-1.5024452E-1],"split_indices":[3,3,2,2,1,2,4,0,2,2,3,3,2,2,2,0,0,0,0,0,0,0,0,0,0,0,0,0,0,0,0],"split_type":[1,1,0,0,0,0,0,0,0,0,1,1,0,0,0,0,0,0,0,0,0,0,0,0,0,0,0,0,0,0,0],"sum_hessian":[3.74261E4,2.308004E4,1.4346061E4,5.345287E3,1.7734752E4,1.256879E4,1.7772701E3,4.60131E2,4.8851562E3,1.5873914E4,1.8608384E3,3.4620972E3,9.106692E3,1.4233772E3,3.5389288E2,3.7817813E2,8.1952896E1,2.3033357E3,2.5818206E3,9.045802E3,6.8281123E3,7.3508356E2,1.1257548E3,2.565315E3,8.9678235E2,5.650018E3,3.456675E3,1.3937351E3,2.9642181E1,3.382132E2,1.5679705E1],"tree_param":{"num_deleted":"0","num_feature":"5","num_nodes":"31","size_leaf_vector":"0"}},{"base_weights":[-1.6485283E-1,-2.5989141E-2,-3.706E-1,-4.1500982E-2,6.359395E-1,-4.7391957E-1,-2.9973286E-1,1.1181765E-1,-9.6869335E-2,7.8659254E-1,-7.4521564E-2,-4.9203482E-1,1.10927664E-1,-3.348416E-1,-5.4209113E-2,5.344287E-3,3.898488E-2,-7.0775114E-3,-3.7691575E-2,4.135986E-2,8.690932E-2,-6.523234E-2,4.3634847E-2,-5.31524E-2,-3.6635444E-2,-1.3996358E-2,7.279343E-2,-3.533692E-2,-1.588429E-3,-1.578579E-2,3.1024635E-2],"categories":[3,4,9,10,0,1,5,6,8,0,2,3,4,5,9,10],"categories_nodes":[0,3,4],"categories_segments":[0,4,9],"categories_sizes":[4,5,7],"default_left":[0,0,0,0,0,0,0,0,0,0,0,0,0,0,0,0,0,0,0,0,0,0,0,0,0,0,0,0,0,0,0],"id":10,"left_children":[1,3,5,7,9,11,13,15,17,19,21,23,25,27,29,-1,-1,-1,-1,-1,-1,-1,-1,-1,-1,-1,-1,-1,-1,-1,-1],"loss_changes":[1.0627502E3,2.2806735E2,1.0960571E2,1.8423802E2,5.4496536E1,6.464453E1,7.6643555E1,9.3437325E1,1.16489395E2,1.2555969E1,2.6820004E1,2.9153809E1,2.8581694E1,4.597412E1,4.2123783E1,0E0,0E0,0E0,0E0,0E0,0E0,0E0,0E0,0E0,0E0,0E0,0E0,0E0,0E0,0E0,0E0],"parents":[2147483647,0,0,1,1,2,2,3,3,4,4,5,5,6,6,7,7,8,8,9,9,10,10,11,11,12,12,13,13,14,14],"right_children":[2,4,6,8,10,12,14,16,18,20,22,24,26,28,30,-1,-1,-1,-1,-1,-1,-1,-1,-1,-1,-1,-1,-1,-1,-1,-1],"split_conditions":[NaN,2.9299116E-1,3.1124765E-1,NaN,NaN,2.3254946E-1,7.359592E-1,6.2775207E-1,8.087852E-1,6.5994984E-1,3.6841798E-1,1.0483557E-1,2.5089824E-1,8.336562E-1,7.8492236E-1,5.344287E-3,3.898488E-2,-7.0775114E-3,-3.7691575E-2,4.135986E-2,8.690932E-2,-6.523234E-2,4.3634847E-2,-5.31524E-2,-3.6635444E-2,-1.3996358E-2,7.279343E-2,-3.533692E-2,-1.588429E-3,-1.578579E-2,3.1024635E-2],"split_indices":[3,1,0,3,3,1,2,0,2,2,1,1,0,0,4,0,0,0,0,0,0,0,0,0,0,0,0,0,0,0,0],"split_type":[1,0,0,1,1,0,0,0,0,0,0,0,0,0,0,0,0,0,0,0,0,0,0,0,0,0,0,0,0,0,0],"sum_hessian":[3.719639E4,2.220848E4,1.4987909E4,2.1700873E4,5.076076E2,6.095453E3,8.892456E3,5.7573555E3,1.5943518E4,4.1871255E2,8.889505E1,5.9124766E3,1.8297626E2,7.77964E3,1.1128162E3,4.759297E3,9.9805884E2,1.4585701E4,1.3578165E3,7.692768E1,3.4178488E2,4.158495E1,4.73101E1,4.4964478E3,1.416029E3,1.3063127E2,5.234498E1,7.3524443E3,4.2719568E2,8.6685504E2,2.459611E2],"tree_param":{"num_deleted":"0","num_feature":"5","num_nodes":"31","size_leaf_vector":"0"}},{"base_weights":[-1.4932974E-1,-2.8673025E-2,-3.478325E-1,-4.2613164E-2,5.8840895E-1,-3.8312447E-1,-1.484372E-1,8.6940505E-2,-9.730754E-2,7.232474E-1,1.4766186E-2,-4.2399895E-1,-1.5459019E-1,-2.4777532E-1,6.258817E-2,-2.0250268E-3,1.9633649E-2,-1.3522433E-2,5.4222266E-3,3.7508514E-2,8.016028E-2,3.80102E-2,-6.334346E-2,-4.4878077E-2,-2.4020834E-2,3.5812412E-3,-2.2419592E-2,-1.3191356E-2,-6.361183E-2,1.2128005E-1,-2.701205E-3],"categories":[3,4,9,0,1,5,6,10,0,2,3,4,5,9,10,0,1,2,3,4,5,6,7,8,10],"categories_nodes":[0,3,4,14],"categories_segments":[0,3,8,15],"categories_sizes":[3,5,7,10],"default_left":[0,0,0,0,0,0,0,0,0,0,0,0,0,0,0,0,0,0,0,0,0,0,0,0,0,0,0,0,0,0,0],"id":11,"left_children":[1,3,5,7,9,11,13,15,17,19,21,23,25,27,29,-1,-1,-1,-1,-1,-1,-1,-1,-1,-1,-1,-1,-1,-1,-1,-1],"loss_changes":[8.857368E2,1.978955E2,9.832703E1,1.5940527E2,3.9299652E1,1.1088696E2,4.4122414E1,7.8314514E1,9.08891E1,1.0924515E1,2.3387949E1,4.578125E1,2.3912117E1,6.429402E1,6.951967E1,0E0,0E0,0E0,0E0,0E0,0E0,0E0,0E0,0E0,0E0,0E0,0E0,0E0,0E0,0E0,0E0],"parents":[2147483647,0,0,1,1,2,2,3,3,4,4,5,5,6,6,7,7,8,8,9,9,10,10,11,11,12,12,13,13,14,14],"right_children":[2,4,6,8,10,12,14,16,18,20,22,24,26,28,30,-1,-1,-1,-1,-1,-1,-1,-1,-1,-1,-1,-1,-1,-1,-1,-1],"split_conditions":[NaN,2.9299116E-1,8.062015E-1,NaN,NaN,6.655682E-1,6.9841737E-1,7.2015025E-2,6.056661E-1,6.5994984E-1,7.6553625E-1,7.359592E-1,6.147523E-1,6.5906346E-1,NaN,-2.0250268E-3,1.9633649E-2,-1.3522433E-2,5.4222266E-3,3.7508514E-2,8.016028E-2,3.80102E-2,-6.334346E-2,-4.4878077E-2,-2.4020834E-2,3.5812412E-3,-2.2419592E-2,-1.3191356E-2,-6.361183E-2,1.2128005E-1,-2.701205E-3],"split_indices":[3,1,4,3,3,0,2,1,0,2,2,2,2,2,3,0,0,0,0,0,0,0,0,0,0,0,0,0,0,0,0],"split_type":[1,0,0,1,1,0,0,0,0,0,0,0,0,0,1,0,0,0,0,0,0,0,0,0,0,0,0,0,0,0,0],"sum_hessian":[3.6981098E4,2.3001283E4,1.3979815E4,2.2494064E4,5.0721936E2,1.1876765E4,2.1030503E3,6.6772305E3,1.5816834E4,4.1047397E2,9.674539E1,1.0074106E4,1.8026584E3,1.4298082E3,6.7324225E2,3.3730195E3,3.304211E3,1.265126E4,3.1655742E3,7.6471176E1,3.340028E2,6.213741E1,3.460798E1,8.875867E3,1.1982388E3,4.8271216E2,1.3199464E3,1.1022828E3,3.2752536E2,4.7748714E1,6.254935E2],"tree_param":{"num_deleted":"0","num_feature":"5","num_nodes":"31","size_leaf_vector":"0"}},{"base_weights":[-1.3526003E-1,-2.5826266E-2,-3.1736502E-1,-5.6594823E-2,2.2385672E-1,-4.1125664E-1,-2.52689E-1,8.1508264E-2,-1.0262778E-1,3.7601668E-1,3.4406513E-2,-4.752664E-1,-2.6289558E-1,-2.871392E-1,-3.1651888E-2,3.1816524E-3,4.5860693E-2,-1.4041006E-2,3.199479E-3,8.810293E-2,3.326891E-2,9.331036E-3,-7.55605E-2,-4.8242494E-2,5.0513167E-2,-1.9317156E-2,-6.7172885E-2,-1.5789997E-2,-3.452291E-2,-1.2002602E-2,2.7702942E-2],"categories":[3,4,9,1,2,5,6,8,10,0,3,4,6,9,10,9],"categories_nodes":[0,3,4,12],"categories_segments":[0,3,9,15],"categories_sizes":[3,6,6,1],"default_left":[0,0,0,0,0,0,0,0,0,0,0,0,0,0,0,0,0,0,0,0,0,0,0,0,0,0,0,0,0,0,0],"id":12,"left_children":[1,3,5,7,9,11,13,15,17,19,21,23,25,27,29,-1,-1,-1,-1,-1,-1,-1,-1,-1,-1,-1,-1,-1,-1,-1,-1],"loss_changes":[7.327658E2,1.7646982E2,8.371069E1,1.300144E2,7.263491E1,5.332184E1,6.2243286E1,9.5794754E1,7.801877E1,3.0286163E1,5.2358215E1,2.782843E1,4.8288338E1,5.304413E1,3.0135563E1,0E0,0E0,0E0,0E0,0E0,0E0,0E0,0E0,0E0,0E0,0E0,0E0,0E0,0E0,0E0,0E0],"parents":[2147483647,0,0,1,1,2,2,3,3,4,4,5,5,6,6,7,7,8,8,9,9,10,10,11,11,12,12,13,13,14,14],"right_children":[2,4,6,8,10,12,14,16,18,20,22,24,26,28,30,-1,-1,-1,-1,-1,-1,-1,-1,-1,-1,-1,-1,-1,-1,-1,-1],"split_conditions":[NaN,1.8930025E-1,3.1124765E-1,NaN,NaN,6.8308353E-1,7.359592E-1,7.085337E-1,5.847226E-1,5.486412E-1,8.4880024E-1,7.909933E-1,NaN,6.1064744E-1,7.8492236E-1,3.1816524E-3,4.5860693E-2,-1.4041006E-2,3.199479E-3,8.810293E-2,3.326891E-2,9.331036E-3,-7.55605E-2,-4.8242494E-2,5.0513167E-2,-1.9317156E-2,-6.7172885E-2,-1.5789997E-2,-3.452291E-2,-1.2002602E-2,2.7702942E-2],"split_indices":[3,1,0,3,3,4,2,0,0,2,2,2,3,2,4,0,0,0,0,0,0,0,0,0,0,0,0,0,0,0,0],"split_type":[1,0,0,1,1,0,0,0,0,0,0,0,1,0,0,0,0,0,0,0,0,0,0,0,0,0,0,0,0,0,0],"sum_hessian":[3.6769285E4,2.2968055E4,1.3801231E4,2.04489E4,2.5191545E3,5.627011E3,8.17422E3,5.1119155E3,1.5336985E4,1.396527E3,1.1226277E3,3.9294583E3,1.6975526E3,7.07174E3,1.1024797E3,4.5176865E3,5.9422864E2,1.1975874E4,3.3611116E3,1.08820145E2,1.2877068E3,1.0455524E3,7.707529E1,3.901479E3,2.7979324E1,1.4514834E3,2.4606927E2,2.1940664E3,4.877674E3,8.5757184E2,2.4490796E2],"tree_param":{"num_deleted":"0","num_feature":"5","num_nodes":"31","size_leaf_vector":"0"}},{"base_weights":[-1.2247381E-1,-1.841917E-2,-2.8159058E-1,-9.204337E-2,9.079979E-2,-3.6874545E-1,-2.2289516E-1,6.3980445E-2,-1.5731725E-1,7.020929E-2,6.039835E-1,-3.8481945E-1,1.2842569E-1,-2.5121295E-1,-2.8565045E-2,-2.2955553E-3,2.6128069E-2,-2.141423E-2,-4.9949572E-3,-2.804683E-2,9.08131E-3,7.0177205E-2,-1.0716545E-2,-4.2909857E-2,-2.9468492E-2,8.812313E-2,-7.057052E-3,-2.359066E-2,-6.338156E-2,2.382477E-3,-5.1376697E-2],"categories":[3,4,9,10,1,2,5,6,2,5,3],"categories_nodes":[0,3,10,14],"categories_segments":[0,4,8,10],"categories_sizes":[4,4,2,1],"default_left":[0,0,0,0,0,0,0,0,0,0,0,0,0,0,0,0,0,0,0,0,0,0,0,0,0,0,0,0,0,0,0],"id":13,"left_children":[1,3,5,7,9,11,13,15,17,19,21,23,25,27,29,-1,-1,-1,-1,-1,-1,-1,-1,-1,-1,-1,-1,-1,-1,-1,-1],"loss_changes":[6.055329E2,1.7782855E2,7.389221E1,1.3454291E2,9.4053055E1,4.6543518E1,4.7558746E1,6.685071E1,5.681424E1,6.1892174E1,2.3954475E1,2.2367004E1,2.7470213E1,4.4030914E1,2.7986065E1,0E0,0E0,0E0,0E0,0E0,0E0,0E0,0E0,0E0,0E0,0E0,0E0,0E0,0E0,0E0,0E0],"parents":[2147483647,0,0,1,1,2,2,3,3,4,4,5,5,6,6,7,7,8,8,9,9,10,10,11,11,12,12,13,13,14,14],"right_children":[2,4,6,8,10,12,14,16,18,20,22,24,26,28,30,-1,-1,-1,-1,-1,-1,-1,-1,-1,-1,-1,-1,-1,-1,-1,-1],"split_conditions":[NaN,6.69746E-1,3.1124765E-1,NaN,3.196853E-1,2.3254946E-1,7.359592E-1,5.0647944E-1,4.8115176E-1,4.6137482E-1,NaN,6.9841737E-1,6.542062E-1,7.262518E-1,NaN,-2.2955553E-3,2.6128069E-2,-2.141423E-2,-4.9949572E-3,-2.804683E-2,9.08131E-3,7.0177205E-2,-1.0716545E-2,-4.2909857E-2,-2.9468492E-2,8.812313E-2,-7.057052E-3,-2.359066E-2,-6.338156E-2,2.382477E-3,-5.1376697E-2],"split_indices":[3,4,0,3,1,1,2,0,0,2,3,2,2,2,3,0,0,0,0,0,0,0,0,0,0,0,0,0,0,0,0],"split_type":[1,0,0,1,0,0,0,0,0,0,1,0,0,0,1,0,0,0,0,0,0,0,0,0,0,0,0,0,0,0,0],"sum_hessian":[3.65723E4,2.211275E4,1.445955E4,1.3208855E4,8.9038955E3,5.816919E3,8.642631E3,3.8960845E3,9.3127705E3,8.561518E3,3.423776E2,5.6349614E3,1.8195744E2,7.54315E3,1.0994807E3,2.705048E3,1.1910361E3,6.089087E3,3.2236836E3,4.74411E2,8.0871064E3,3.0100082E2,4.1376743E1,3.7761472E3,1.8588145E3,3.7325638E1,1.446318E2,7.254542E3,2.8860785E2,9.9319147E2,1.0628924E2],"tree_param":{"num_deleted":"0","num_feature":"5","num_nodes":"31","size_leaf_vector":"0"}},{"base_weights":[-1.1085465E-1,6.2105614E-3,-2.294957E-1,-6.41267E-3,5.1998883E-1,-2.573151E-1,1.9255577E-2,-4.385441E-2,1.5000802E-1,6.0500306E-1,-1.9359785E-1,-2.7785382E-1,3.495655E-3,-5.606182E-1,5.859666E-2,5.172443E-3,-1.0538905E-2,-7.1069166E-2,1.6752016E-2,5.3314533E-2,1.0241518E-1,-1.7233597E-1,8.747693E-2,-3.1319626E-2,-1.3382569E-2,3.3132404E-2,-2.0426475E-2,-7.491792E-2,3.4158375E-2,8.723653E-3,-4.40396E-2],"categories":[3,4,5,9,10,0,2,3,4,5,9,10,4,10,3],"categories_nodes":[0,4,12,14],"categories_segments":[0,5,12,14],"categories_sizes":[5,7,2,1],"default_left":[0,0,0,0,0,0,0,0,0,0,0,0,0,0,0,0,0,0,0,0,0,0,0,0,0,0,0,0,0,0,0],"id":14,"left_children":[1,3,5,7,9,11,13,15,17,19,21,23,25,27,29,-1,-1,-1,-1,-1,-1,-1,-1,-1,-1,-1,-1,-1,-1,-1,-1],"loss_changes":[5.0541238E2,1.1880292E2,1.2507477E2,1.0471979E2,2.6765617E1,8.707666E1,4.1526608E1,8.485636E1,5.2170525E1,1.128334E1,7.917155E1,7.666321E1,8.0958206E1,1.9931084E1,2.439358E1,0E0,0E0,0E0,0E0,0E0,0E0,0E0,0E0,0E0,0E0,0E0,0E0,0E0,0E0,0E0,0E0],"parents":[2147483647,0,0,1,1,2,2,3,3,4,4,5,5,6,6,7,7,8,8,9,9,10,10,11,11,12,12,13,13,14,14],"right_children":[2,4,6,8,10,12,14,16,18,20,22,24,26,28,30,-1,-1,-1,-1,-1,-1,-1,-1,-1,-1,-1,-1,-1,-1,-1,-1],"split_conditions":[NaN,2.9299116E-1,7.599448E-1,6.056661E-1,NaN,1.8930025E-1,1.5872525E-2,6.492686E-1,4.5070773E-1,6.809947E-1,1.2762557E0,6.143664E-1,NaN,8.151554E-1,NaN,5.172443E-3,-1.0538905E-2,-7.1069166E-2,1.6752016E-2,5.3314533E-2,1.0241518E-1,-1.7233597E-1,8.747693E-2,-3.1319626E-2,-1.3382569E-2,3.3132404E-2,-2.0426475E-2,-7.491792E-2,3.4158375E-2,8.723653E-3,-4.40396E-2],"split_indices":[3,1,2,0,3,1,1,2,2,0,4,0,3,2,3,0,0,0,0,0,0,0,0,0,0,0,0,0,0,0,0],"split_type":[1,0,0,0,1,0,0,0,0,0,0,0,1,0,1,0,0,0,0,0,0,0,0,0,0,0,0,0,0,0,0],"sum_hessian":[3.638897E4,1.8316604E4,1.8072367E4,1.7878332E4,4.3827264E2,1.6254491E4,1.8178751E3,1.442597E4,3.452362E3,3.9175275E2,4.6519894E1,1.5067842E4,1.1866495E3,1.146547E2,1.7032203E3,5.650098E3,8.775871E3,6.8053116E1,3.3843088E3,3.3636005E2,5.5392693E1,1.8877174E1,2.764272E1,1.2097993E4,2.9698489E3,4.6008286E2,7.2656665E2,9.4974556E1,1.968015E1,1.61155E3,9.167036E1],"tree_param":{"num_deleted":"0","num_feature":"5","num_nodes":"31","size_leaf_vector":"0"}},{"base_weights":[-1.00274086E-1,-1.7381834E-2,-2.4212252E-1,-6.79064E-2,8.036194E-2,-2.7297053E-1,-7.676612E-2,3.2657795E-2,-1.1907191E-1,2.227394E-1,9.178455E-3,-3.04458E-1,-5.7653558E-2,-1.569881E-1,9.072957E-2,-3.8826533E-3,1.987986E-2,-5.782711E-3,-1.9031042E-2,1.679526E-2,5.8389544E-2,6.3644587E-3,-3.4093574E-2,-1.8461952E-2,-3.3909902E-2,1.9258594E-2,-1.235494E-2,-4.909889E-3,-5.513828E-2,1.1547568E-1,1.3192084E-3],"categories":[3,4,9,1,2,5,6,0,3,4,5,6,8,9,10,0,1,2,3,4,5,6,7,8,10],"categories_nodes":[0,3,4,14],"categories_segments":[0,3,7,15],"categories_sizes":[3,4,8,10],"default_left":[0,0,0,0,0,0,0,0,0,0,0,0,0,0,0,0,0,0,0,0,0,0,0,0,0,0,0,0,0,0,0],"id":15,"left_children":[1,3,5,7,9,11,13,15,17,19,21,23,25,27,29,-1,-1,-1,-1,-1,-1,-1,-1,-1,-1,-1,-1,-1,-1,-1,-1],"loss_changes":[4.259651E2,1.1293171E2,6.813733E1,7.757146E1,7.8975464E1,7.632764E1,2.8261255E1,6.0391502E1,4.3582916E1,5.1294937E1,9.911077E1,4.0719543E1,2.3734152E1,6.0471237E1,5.6203426E1,0E0,0E0,0E0,0E0,0E0,0E0,0E0,0E0,0E0,0E0,0E0,0E0,0E0,0E0,0E0,0E0],"parents":[2147483647,0,0,1,1,2,2,3,3,4,4,5,5,6,6,7,7,8,8,9,9,10,10,11,11,12,12,13,13,14,14],"right_children":[2,4,6,8,10,12,14,16,18,20,22,24,26,28,30,-1,-1,-1,-1,-1,-1,-1,-1,-1,-1,-1,-1,-1,-1,-1,-1],"split_conditions":[NaN,1.0672218E-1,8.0229884E-1,NaN,NaN,7.0283926E-1,6.9841737E-1,5.159672E-1,6.934556E-1,8.344404E-1,8.048361E-1,6.0092455E-1,4.95671E-1,6.6096467E-1,NaN,-3.8826533E-3,1.987986E-2,-5.782711E-3,-1.9031042E-2,1.679526E-2,5.8389544E-2,6.3644587E-3,-3.4093574E-2,-1.8461952E-2,-3.3909902E-2,1.9258594E-2,-1.235494E-2,-4.909889E-3,-5.513828E-2,1.1547568E-1,1.3192084E-3],"split_indices":[3,1,4,3,3,0,2,0,2,2,2,2,4,2,3,0,0,0,0,0,0,0,0,0,0,0,0,0,0,0,0],"split_type":[1,0,0,1,1,0,0,0,0,0,0,0,0,0,1,0,0,0,0,0,0,0,0,0,0,0,0,0,0,0,0],"sum_hessian":[3.622663E4,2.2865684E4,1.3360943E4,1.5074075E4,7.7916094E3,1.1259735E4,2.1012075E3,5.0833237E3,9.990751E3,2.596366E3,5.1952437E3,9.822851E3,1.4368853E3,1.4207856E3,6.804218E2,3.5546523E3,1.528671E3,5.3731704E3,4.617581E3,2.255652E3,3.407138E2,4.4965483E3,6.9869525E2,2.2041296E3,7.6187207E3,2.9910632E2,1.1377789E3,1.1164877E3,3.042979E2,4.5272057E1,6.351498E2],"tree_param":{"num_deleted":"0","num_feature":"5","num_nodes":"31","size_leaf_vector":"0"}},{"base_weights":[-9.0735584E-2,6.768838E-3,-1.9092783E-1,-4.2676907E-3,4.669194E-1,-2.1657217E-1,3.5643656E-2,-3.6992688E-2,1.3251099E-1,5.4545665E-1,-1.8017386E-1,-2.3432331E-1,6.7514456E-3,-5.844955E-1,6.625854E-2,4.6091247E-3,-9.061417E-3,-6.4689696E-2,1.483956E-2,3.32683E-2,6.918555E-2,-1.5327059E-1,8.020028E-2,-2.6516665E-2,-1.1035438E-2,2.8756151E-2,-1.718187E-2,2.4254788E-2,-9.324612E-2,2.244639E-2,-2.1242774E-3],"categories":[3,4,5,9,10,0,2,3,4,5,9,10,4,10],"categories_nodes":[0,4,12],"categories_segments":[0,5,12],"categories_sizes":[5,7,2],"default_left":[0,0,0,0,0,0,0,0,0,0,0,0,0,0,0,0,0,0,0,0,0,0,0,0,0,0,0,0,0,0,0],"id":16,"left_children":[1,3,5,7,9,11,13,15,17,19,21,23,25,27,29,-1,-1,-1,-1,-1,-1,-1,-1,-1,-1,-1,-1,-1,-1,-1,-1],"loss_changes":[3.522223E2,9.280176E1,1.03326355E2,7.988584E1,2.1850586E1,6.332733E1,3.438105E1,6.416411E1,4.275536E1,1.1667229E1,6.376819E1,5.655249E1,5.907954E1,2.4745441E1,2.3879694E1,0E0,0E0,0E0,0E0,0E0,0E0,0E0,0E0,0E0,0E0,0E0,0E0,0E0,0E0,0E0,0E0],"parents":[2147483647,0,0,1,1,2,2,3,3,4,4,5,5,6,6,7,7,8,8,9,9,10,10,11,11,12,12,13,13,14,14],"right_children":[2,4,6,8,10,12,14,16,18,20,22,24,26,28,30,-1,-1,-1,-1,-1,-1,-1,-1,-1,-1,-1,-1,-1,-1,-1,-1],"split_conditions":[NaN,2.9299116E-1,7.599448E-1,6.056661E-1,NaN,1.8930025E-1,1.3921607E-2,6.492686E-1,4.5070773E-1,7.359592E-1,1.2762557E0,6.143664E-1,NaN,8.574683E-3,7.766279E-1,4.6091247E-3,-9.061417E-3,-6.4689696E-2,1.483956E-2,3.32683E-2,6.918555E-2,-1.5327059E-1,8.020028E-2,-2.6516665E-2,-1.1035438E-2,2.8756151E-2,-1.718187E-2,2.4254788E-2,-9.324612E-2,2.244639E-2,-2.1242774E-3],"split_indices":[3,1,2,0,3,1,1,2,2,2,4,0,3,1,2,0,0,0,0,0,0,0,0,0,0,0,0,0,0,0,0],"split_type":[1,0,0,0,1,0,0,0,0,0,0,0,1,0,0,0,0,0,0,0,0,0,0,0,0,0,0,0,0,0,0],"sum_hessian":[3.605327E4,1.8272193E4,1.7781076E4,1.7845174E4,4.270187E2,1.5973205E4,1.8078718E3,1.4400509E4,3.4446655E3,3.809412E2,4.6077515E1,1.4796999E4,1.1762054E3,8.420066E1,1.7236711E3,5.648526E3,8.751982E3,6.8007835E1,3.3766577E3,1.5660559E2,2.2433562E2,1.9148312E1,2.6929203E1,1.1848073E4,2.948926E3,4.5697702E2,7.1922845E2,2.5024796E1,5.917587E1,6.132782E2,1.110393E3],"tree_param":{"num_deleted":"0","num_feature":"5","num_nodes":"31","size_leaf_vector":"0"}},{"base_weights":[-8.20331E-2,-1.3154873E-2,-2.0186429E-1,-7.504143E-2,4.988181E-2,1.88162E-1,-2.1354647E-1,-3.784346E-2,-1.6731241E-1,1.7942859E-1,-1.5375027E-2,-1.1081777E-1,4.2374507E-1,-2.6841253E-1,-1.2407208E-1,-7.7961567E-3,5.3575104E-3,-2.3615537E-5,-2.1552706E-2,7.445591E-3,3.146257E-2,2.3294124E-3,-2.718751E-2,1.2324278E-2,-1.06894866E-1,1.4454611E-2,8.01713E-2,-1.3950816E-2,-3.4975093E-2,4.7167E-2,-1.418218E-2],"categories":[3,4,9,1,2,5,0,3,4,5,6,8,9,10,3,4],"categories_nodes":[0,3,4,14],"categories_segments":[0,3,6,14],"categories_sizes":[3,3,8,2],"default_left":[0,0,0,0,0,0,0,0,0,0,0,0,0,0,0,0,0,0,0,0,0,0,0,0,0,0,0,0,0,0,0],"id":17,"left_children":[1,3,5,7,9,11,13,15,17,19,21,23,25,27,29,-1,-1,-1,-1,-1,-1,-1,-1,-1,-1,-1,-1,-1,-1,-1,-1],"loss_changes":[2.963923E2,8.8965935E1,5.9760742E1,3.949079E1,9.551182E1,2.693193E1,6.244165E1,3.008735E1,2.663108E1,5.3688866E1,7.453559E1,3.8033886E1,2.2434658E1,8.265607E1,5.1239357E1,0E0,0E0,0E0,0E0,0E0,0E0,0E0,0E0,0E0,0E0,0E0,0E0,0E0,0E0,0E0,0E0],"parents":[2147483647,0,0,1,1,2,2,3,3,4,4,5,5,6,6,7,7,8,8,9,9,10,10,11,11,12,12,13,13,14,14],"right_children":[2,4,6,8,10,12,14,16,18,20,22,24,26,28,30,-1,-1,-1,-1,-1,-1,-1,-1,-1,-1,-1,-1,-1,-1,-1,-1],"split_conditions":[NaN,7.5944126E-2,5.071135E-1,NaN,NaN,4.3045327E-2,6.9841737E-1,5.095655E-1,5.4059154E-1,6.7610115E-1,7.9572445E-1,3.2795064E-2,4.8876265E-1,6.082047E-1,NaN,-7.7961567E-3,5.3575104E-3,-2.3615537E-5,-2.1552706E-2,7.445591E-3,3.146257E-2,2.3294124E-3,-2.718751E-2,1.2324278E-2,-1.06894866E-1,1.4454611E-2,8.01713E-2,-1.3950816E-2,-3.4975093E-2,4.7167E-2,-1.418218E-2],"split_indices":[3,1,2,3,3,1,2,0,2,2,2,1,2,2,3,0,0,0,0,0,0,0,0,0,0,0,0,0,0,0,0],"split_type":[1,0,0,1,1,0,0,0,0,0,0,0,0,0,1,0,0,0,0,0,0,0,0,0,0,0,0,0,0,0,0],"sum_hessian":[3.5909305E4,2.280325E4,1.3106057E4,1.15065E4,1.129675E4,3.8070132E2,1.27253545E4,8.201551E3,3.3049492E3,3.7836875E3,7.5130625E3,1.6800935E2,2.1269199E2,7.8870103E3,4.8383447E3,5.700216E3,2.5013345E3,7.4037225E2,2.564577E3,2.1307976E3,1.6528899E3,6.529591E3,9.834716E2,1.357247E2,3.228464E1,1.2312438E2,8.9567604E1,3.0523652E3,4.834645E3,1.3924449E2,4.6991E3],"tree_param":{"num_deleted":"0","num_feature":"5","num_nodes":"31","size_leaf_vector":"0"}},{"base_weights":[-7.41691E-2,-1.1853792E-2,-1.8336618E-1,-3.216022E-2,1.5550329E-1,-2.1049799E-1,-3.990788E-2,6.0513224E-2,-5.940372E-2,2.6721716E-1,2.0208754E-2,-2.6169285E-1,-1.03090644E-1,-2.9675161E-2,-1.3913047E-1,5.62382E-2,9.900135E-4,-4.871522E-3,-3.5653073E-2,7.692102E-2,2.2410227E-2,6.954023E-3,-6.501644E-2,-2.7416741E-2,1.0591818E-2,1.19897045E-1,-1.0855321E-2,-6.6717826E-3,3.6362246E-2],"categories":[3,4,9,0,1,2,5,6,8,10,0,3,4,6,9,10],"categories_nodes":[0,3,4],"categories_segments":[0,3,10],"categories_sizes":[3,7,6],"default_left":[0,0,0,0,0,0,0,0,0,0,0,0,0,0,0,0,0,0,0,0,0,0,0,0,0,0,0,0,0],"id":18,"left_children":[1,3,5,7,9,11,13,15,17,19,21,23,25,27,-1,-1,-1,-1,-1,-1,-1,-1,-1,-1,-1,-1,-1,-1,-1],"loss_changes":[2.433986E2,7.740299E1,5.057617E1,5.12841E1,3.724433E1,6.0067566E1,2.8559067E1,1.1721834E2,4.9834526E1,2.904245E1,3.6942406E1,3.396634E1,2.5233044E1,2.9944223E1,0E0,0E0,0E0,0E0,0E0,0E0,0E0,0E0,0E0,0E0,0E0,0E0,0E0,0E0,0E0],"parents":[2147483647,0,0,1,1,2,2,3,3,4,4,5,5,6,6,7,7,8,8,9,9,10,10,11,11,12,12,13,13],"right_children":[2,4,6,8,10,12,14,16,18,20,22,24,26,28,-1,-1,-1,-1,-1,-1,-1,-1,-1,-1,-1,-1,-1,-1,-1],"split_conditions":[NaN,1.8930025E-1,8.0229884E-1,NaN,NaN,5.0074154E-1,7.8885657E-1,5.5678785E-1,8.409529E-1,5.486412E-1,8.4880024E-1,1.5220328E-1,4.5070773E-1,7.616387E-1,-1.3913047E-1,5.62382E-2,9.900135E-4,-4.871522E-3,-3.5653073E-2,7.692102E-2,2.2410227E-2,6.954023E-3,-6.501644E-2,-2.7416741E-2,1.0591818E-2,1.19897045E-1,-1.0855321E-2,-6.6717826E-3,3.6362246E-2],"split_indices":[3,1,4,3,3,0,2,2,2,2,2,1,2,2,0,0,0,0,0,0,0,0,0,0,0,0,0,0,0],"split_type":[1,0,0,1,1,0,0,0,0,0,0,0,0,0,0,0,0,0,0,0,0,0,0,0,0,0,0,0,0],"sum_hessian":[3.5768773E4,2.277367E4,1.29951045E4,2.0310129E4,2.4635405E3,1.0927881E4,2.0672234E3,4.6139087E3,1.5696221E4,1.3488273E3,1.1147134E3,7.399522E3,3.5283586E3,2.0527024E3,1.4521016E1,4.2175577E2,4.192153E3,1.5152313E4,5.4390784E2,1.05352455E2,1.2434749E3,1.0391412E3,7.557215E1,7.156912E3,2.4260974E2,1.382795E1,3.5145305E3,1.8767695E3,1.7593283E2],"tree_param":{"num_deleted":"0","num_feature":"5","num_nodes":"29","size_leaf_vector":"0"}},{"base_weights":[-6.704187E-2,-1.0671896E-2,-1.6651997E-1,-1.8653067E-2,3.7351376E-1,1.8093511E-1,-1.7711836E-1,-9.0113185E-2,1.6509859E-2,4.612682E-1,-2.1194018E-1,-1.3052583E-1,2.259464E-1,-2.2714357E-1,-9.616416E-2,-8.722207E-3,-9.389147E-2,-7.6409447E-4,1.920869E-2,8.516329E-3,5.5744715E-2,-4.8259772E-2,6.792547E-2,-5.4012644E-3,4.4189632E-2,-1.4623842E-2,-3.467818E-2,4.4209562E-2,-1.1242784E-2],"categories":[3,4,9,2,5,3,4],"categories_nodes":[0,4,14],"categories_segments":[0,3,5],"categories_sizes":[3,2,2],"default_left":[0,0,0,0,0,0,0,0,0,0,0,0,0,0,0,0,0,0,0,0,0,0,0,0,0,0,0,0,0],"id":19,"left_children":[1,3,5,7,9,11,13,15,17,19,21,-1,23,25,27,-1,-1,-1,-1,-1,-1,-1,-1,-1,-1,-1,-1,-1,-1],"loss_changes":[1.998138E2,6.975121E1,4.7493103E1,5.5995064E1,2.3882713E1,2.584837E1,5.0629944E1,1.7952686E1,6.333388E1,1.4527672E1,1.504945E1,0E0,2.24906E1,7.476758E1,4.188285E1,0E0,0E0,0E0,0E0,0E0,0E0,0E0,0E0,0E0,0E0,0E0,0E0,0E0,0E0],"parents":[2147483647,0,0,1,1,2,2,3,3,4,4,5,5,6,6,7,7,8,8,9,9,10,10,12,12,13,13,14,14],"right_children":[2,4,6,8,10,12,14,16,18,20,22,-1,24,26,28,-1,-1,-1,-1,-1,-1,-1,-1,-1,-1,-1,-1,-1,-1],"split_conditions":[NaN,2.9299116E-1,5.071135E-1,4.7554266E-2,NaN,1.2646268E-1,6.9841737E-1,8.5E-1,6.914869E-1,6.5994984E-1,7.8188646E-1,-1.3052583E-1,4.3045327E-2,6.4597493E-1,NaN,-8.722207E-3,-9.389147E-2,-7.6409447E-4,1.920869E-2,8.516329E-3,5.5744715E-2,-4.8259772E-2,6.792547E-2,-5.4012644E-3,4.4189632E-2,-1.4623842E-2,-3.467818E-2,4.4209562E-2,-1.1242784E-2],"split_indices":[3,1,2,1,3,0,2,4,0,2,2,0,1,2,3,0,0,0,0,0,0,0,0,0,0,0,0,0,0],"split_type":[1,0,0,0,1,0,0,0,0,0,0,0,0,0,1,0,0,0,0,0,0,0,0,0,0,0,0,0,0],"sum_hessian":[3.5632145E4,2.2744768E4,1.2887376E4,2.228281E4,4.619573E2,3.8099078E2,1.2506385E4,7.3480723E3,1.4934737E4,4.0192447E2,6.003284E1,1.0376559E1,3.7061423E2,7.728682E3,4.7777026E3,7.3242275E3,2.3844507E1,1.3129691E4,1.8050463E3,8.2234474E1,3.1969E2,4.639966E1,1.363318E1,1.6171529E2,2.0889896E2,4.612028E3,3.116654E3,1.3935776E2,4.6383447E3],"tree_param":{"num_deleted":"0","num_feature":"5","num_nodes":"29","size_leaf_vector":"0"}},{"base_weights":[-6.0556773E-2,7.059199E-3,-1.315817E-1,-2.1088675E-2,1.2451197E-1,-1.5366308E-1,5.9681408E-2,-8.20785E-2,2.5373302E-2,9.406409E-2,5.507594E-1,-1.6842467E-1,2.9414736E-2,-4.251079E-1,9.14095E-2,4.3155223E-2,-9.124093E-3,1.553809E-3,3.8349517E-2,5.3957134E-2,6.916031E-3,-2.9246015E-2,6.483085E-2,-1.9531192E-2,-6.226078E-3,3.156313E-2,-8.592179E-3,-6.0325503E-2,3.9017245E-2,2.3611447E-2,1.8607691E-3],"categories":[3,4,5,9,10,1,2,6,7,8,0,1,2,4,6,7,8,9,10],"categories_nodes":[0,7,12],"categories_segments":[0,5,10],"categories_sizes":[5,5,9],"default_left":[0,0,0,0,0,0,0,0,0,0,0,0,0,0,0,0,0,0,0,0,0,0,0,0,0,0,0,0,0,0,0],"id":20,"left_children":[1,3,5,7,9,11,13,15,17,19,21,23,25,27,29,-1,-1,-1,-1,-1,-1,-1,-1,-1,-1,-1,-1,-1,-1,-1,-1],"loss_changes":[1.7060333E2,6.0172073E1,7.3180695E1,4.1607265E1,4.5613472E1,4.198181E1,2.763197E1,2.991753E1,2.9349604E1,3.6411385E1,1.9468407E1,4.1016968E1,3.8313328E1,1.6265808E1,1.774198E1,0E0,0E0,0E0,0E0,0E0,0E0,0E0,0E0,0E0,0E0,0E0,0E0,0E0,0E0,0E0,0E0],"parents":[2147483647,0,0,1,1,2,2,3,3,4,4,5,5,6,6,7,7,8,8,9,9,10,10,11,11,12,12,13,13,14,14],"right_children":[2,4,6,8,10,12,14,16,18,20,22,24,26,28,30,-1,-1,-1,-1,-1,-1,-1,-1,-1,-1,-1,-1,-1,-1,-1,-1],"split_conditions":[NaN,6.056661E-1,7.599448E-1,6.0092807E-1,2.3254946E-1,1.8930025E-1,1.5872525E-2,NaN,3.196853E-1,6.143664E-1,5.9870857E-1,6.143664E-1,NaN,8.151554E-1,7.7580434E-1,4.3155223E-2,-9.124093E-3,1.553809E-3,3.8349517E-2,5.3957134E-2,6.916031E-3,-2.9246015E-2,6.483085E-2,-1.9531192E-2,-6.226078E-3,3.156313E-2,-8.592179E-3,-6.0325503E-2,3.9017245E-2,2.3611447E-2,1.8607691E-3],"split_indices":[3,0,2,4,1,1,1,3,1,0,2,0,3,2,2,0,0,0,0,0,0,0,0,0,0,0,0,0,0,0,0],"split_type":[1,0,0,0,0,0,0,1,0,0,0,0,1,0,0,0,0,0,0,0,0,0,0,0,0,0,0,0,0,0,0],"sum_hessian":[3.552326E4,1.819882E4,1.732444E4,1.4681242E4,3.5175786E3,1.5531518E4,1.7929227E3,6.3478125E3,8.33343E3,3.284201E3,2.3337778E2,1.4372724E4,1.1587937E3,1.0937216E2,1.6835505E3,1.1044321E2,6.2373696E3,8.1116987E3,2.2173071E2,1.7277306E2,3.111428E3,2.399195E1,2.0938583E2,1.1467583E4,2.905141E3,3.3233698E2,8.2645667E2,8.997234E1,1.9399822E1,5.627512E2,1.1207993E3],"tree_param":{"num_deleted":"0","num_feature":"5","num_nodes":"31","size_leaf_vector":"0"}},{"base_weights":[-5.468817E-2,6.3749338E-3,-1.1914508E-1,-1.310735E-2,1.5110418E-1,-1.3923171E-1,5.3635962E-2,4.8428796E-2,-5.8916226E-2,-1.4085332E-2,2.3926644E-1,-1.526585E-1,2.6557798E-2,-4.6725193E-1,7.8352205E-2,-2.7048823E-3,2.2167128E-2,9.777145E-3,-1.4297393E-2,2.1639643E-2,-1.1631169E-2,2.8203845E-2,-2.2111876E-2,-1.4505836E-2,-5.1457237E-2,2.3342906E-2,-1.0624158E-2,2.9881919E-2,-8.037748E-2,2.0411137E-2,8.108192E-4],"categories":[3,4,5,9,10,2,6,0,1,2,6,8,0,8,4,10],"categories_nodes":[0,8,9,10,12],"categories_segments":[0,5,7,12,14],"categories_sizes":[5,2,5,2,2],"default_left":[0,0,0,0,0,0,0,0,0,0,0,0,0,0,0,0,0,0,0,0,0,0,0,0,0,0,0,0,0,0,0],"id":21,"left_children":[1,3,5,7,9,11,13,15,17,19,21,23,25,27,29,-1,-1,-1,-1,-1,-1,-1,-1,-1,-1,-1,-1,-1,-1,-1,-1],"loss_changes":[1.3939111E2,5.1283367E1,5.980107E1,4.519065E1,3.1428783E1,3.4361908E1,2.3146645E1,8.946341E1,1.2105238E2,1.7739307E1,2.776831E1,3.9199615E1,3.1816023E1,2.1240635E1,1.514464E1,0E0,0E0,0E0,0E0,0E0,0E0,0E0,0E0,0E0,0E0,0E0,0E0,0E0,0E0,0E0,0E0],"parents":[2147483647,0,0,1,1,2,2,3,3,4,4,5,5,6,6,7,7,8,8,9,9,10,10,11,11,12,12,13,13,14,14],"right_children":[2,4,6,8,10,12,14,16,18,20,22,24,26,28,30,-1,-1,-1,-1,-1,-1,-1,-1,-1,-1,-1,-1,-1,-1,-1,-1],"split_conditions":[NaN,6.914869E-1,7.599448E-1,6.5906346E-1,5.058071E-2,1.8930025E-1,1.3921607E-2,6.2156814E-1,NaN,NaN,NaN,7.522417E-1,NaN,8.574683E-3,7.766279E-1,-2.7048823E-3,2.2167128E-2,9.777145E-3,-1.4297393E-2,2.1639643E-2,-1.1631169E-2,2.8203845E-2,-2.2111876E-2,-1.4505836E-2,-5.1457237E-2,2.3342906E-2,-1.0624158E-2,2.9881919E-2,-8.037748E-2,2.0411137E-2,8.108192E-4],"split_indices":[3,0,2,2,1,1,1,2,3,3,3,2,3,1,2,0,0,0,0,0,0,0,0,0,0,0,0,0,0,0,0],"split_type":[1,0,0,0,0,0,0,0,1,1,1,0,1,0,0,0,0,0,0,0,0,0,0,0,0,0,0,0,0,0,0],"sum_hessian":[3.541377E4,1.8186105E4,1.7227666E4,1.6029283E4,2.1568232E3,1.5433626E4,1.7940392E3,6.8403804E3,9.188902E3,7.508315E2,1.4059917E3,1.4277419E4,1.1562072E3,8.0460106E1,1.713579E3,4.765158E3,2.0752222E3,3.2083037E3,5.9805986E3,2.3035384E2,5.204776E2,1.2868267E3,1.1916506E2,1.3985134E4,2.9228558E2,4.517404E2,7.0446674E2,2.4591436E1,5.5868664E1,6.134329E2,1.1001461E3],"tree_param":{"num_deleted":"0","num_feature":"5","num_nodes":"31","size_leaf_vector":"0"}},{"base_weights":[-4.9390327E-2,3.6109926E-3,-1.1087732E-1,-2.8181707E-3,4.23015E-1,-1.3808951E-1,9.578438E-3,-3.2488912E-2,7.063498E-2,-1.8382983E-1,5.35553E-1,-1.6072597E-1,1.1588887E-2,1.6561007E-2,-1.3856283E-1,-1.4770185E-3,-1.6904105E-2,1.1776172E-2,-8.789588E-3,3.9367057E-2,-1.6380447E-1,7.87459E-2,3.576703E-2,-1.7852655E-2,-3.3454594E-4,9.7897075E-2,-2.459079E-4,2.5294975E-3,-1.04064606E-1],"categories":[3,4,5,9,0,1,8,10],"categories_nodes":[0,8],"categories_segments":[0,4],"categories_sizes":[4,4],"default_left":[0,0,0,0,0,0,0,0,0,0,0,0,0,0,0,0,0,0,0,0,0,0,0,0,0,0,0,0,0],"id":22,"left_children":[1,3,5,7,9,11,13,15,17,19,21,23,25,27,-1,-1,-1,-1,-1,-1,-1,-1,-1,-1,-1,-1,-1,-1,-1],"loss_changes":[1.1507152E2,5.1137306E1,5.3582687E1,4.071179E1,1.9652767E1,4.5180573E1,2.9378386E1,3.2190483E1,4.0164703E1,3.888718E1,1.0552994E1,3.244754E1,2.3819817E1,2.7720047E1,0E0,0E0,0E0,0E0,0E0,0E0,0E0,0E0,0E0,0E0,0E0,0E0,0E0,0E0,0E0],"parents":[2147483647,0,0,1,1,2,2,3,3,4,4,5,5,6,6,7,7,8,8,9,9,10,10,11,11,12,12,13,13],"right_children":[2,4,6,8,10,12,14,16,18,20,22,24,26,28,-1,-1,-1,-1,-1,-1,-1,-1,-1,-1,-1,-1,-1,-1,-1],"split_conditions":[NaN,3.196853E-1,1.4012466E-1,5.2214676E-1,6.52773E-1,7.0283926E-1,8.21738E-1,7.9572445E-1,NaN,6.190299E-1,7.58352E-1,7.569008E-1,7.140066E-3,8.701577E-1,-1.3856283E-1,-1.4770185E-3,-1.6904105E-2,1.1776172E-2,-8.789588E-3,3.9367057E-2,-1.6380447E-1,7.87459E-2,3.576703E-2,-1.7852655E-2,-3.3454594E-4,9.7897075E-2,-2.459079E-4,2.5294975E-3,-1.04064606E-1],"split_indices":[3,1,1,0,2,0,2,2,3,2,2,2,1,0,0,0,0,0,0,0,0,0,0,0,0,0,0,0,0],"split_type":[1,0,0,0,0,0,0,0,1,0,0,0,0,0,0,0,0,0,0,0,0,0,0,0,0,0,0,0,0],"sum_hessian":[3.530889E4,1.8963469E4,1.6345424E4,1.8678139E4,2.8532922E2,1.3333176E4,3.0122473E3,1.3304474E4,5.373665E3,4.453691E1,2.4079231E2,1.1581575E4,1.7516012E3,2.9982302E3,1.4017068E1,1.1777374E4,1.5270999E3,4.14248E3,1.2311849E3,3.2399612E1,1.21373005E1,9.8241776E1,1.4255054E2,1.0404622E4,1.1769531E3,2.4088846E1,1.7275125E3,2.9746318E3,2.3598427E1],"tree_param":{"num_deleted":"0","num_feature":"5","num_nodes":"29","size_leaf_vector":"0"}},{"base_weights":[-4.4585086E-2,-5.740365E-3,-1.14652716E-1,-3.7765436E-2,5.6489296E-2,2.1033923E-1,-1.2470932E-1,3.093684E-2,-7.2863996E-2,7.6334506E-2,-3.2900903E-1,2.1228278E-2,5.06654E-1,-4.9268153E-1,-1.1418731E-1,-3.6680286E-3,1.8126454E-2,-2.0573635E-3,-1.3401902E-2,5.500187E-3,3.0385572E-2,6.8674358E-3,-6.17948E-2,4.654696E-2,-2.3055784E-2,-2.1246089E-2,6.805745E-2,3.859667E-2,-7.154457E-2,3.2914456E-2,-1.2655887E-2],"categories":[3,4,9,1,2,5,6,0,10,3,9],"categories_nodes":[0,3,4,13],"categories_segments":[0,3,7,9],"categories_sizes":[3,4,2,2],"default_left":[0,0,0,0,0,0,0,0,0,0,0,0,0,0,0,0,0,0,0,0,0,0,0,0,0,0,0,0,0,0,0],"id":23,"left_children":[1,3,5,7,9,11,13,15,17,19,21,23,25,27,29,-1,-1,-1,-1,-1,-1,-1,-1,-1,-1,-1,-1,-1,-1,-1,-1],"loss_changes":[9.586247E1,4.5161736E1,4.108246E1,3.607962E1,5.8929855E1,2.1138609E1,4.712358E1,5.1436897E1,3.166457E1,3.5528904E1,4.3380062E1,2.5993727E1,1.8528645E1,6.652152E1,6.50246E1,0E0,0E0,0E0,0E0,0E0,0E0,0E0,0E0,0E0,0E0,0E0,0E0,0E0,0E0,0E0,0E0],"parents":[2147483647,0,0,1,1,2,2,3,3,4,4,5,5,6,6,7,7,8,8,9,9,10,10,11,11,12,12,13,13,14,14],"right_children":[2,4,6,8,10,12,14,16,18,20,22,24,26,28,30,-1,-1,-1,-1,-1,-1,-1,-1,-1,-1,-1,-1,-1,-1,-1,-1],"split_conditions":[NaN,1.0672218E-1,5.071135E-1,NaN,NaN,4.8876265E-1,5.435666E-1,6.80317E-1,6.934556E-1,7.326614E-1,3.4403875E-1,4.6137482E-1,6.437055E-1,NaN,5.545989E-1,-3.6680286E-3,1.8126454E-2,-2.0573635E-3,-1.3401902E-2,5.500187E-3,3.0385572E-2,6.8674358E-3,-6.17948E-2,4.654696E-2,-2.3055784E-2,-2.1246089E-2,6.805745E-2,3.859667E-2,-7.154457E-2,3.2914456E-2,-1.2655887E-2],"split_indices":[3,1,2,3,3,2,2,2,2,0,0,2,4,3,2,0,0,0,0,0,0,0,0,0,0,0,0,0,0,0,0],"split_type":[1,0,0,1,1,0,0,0,0,0,0,0,0,1,0,0,0,0,0,0,0,0,0,0,0,0,0,0,0,0,0],"sum_hessian":[3.522004E4,2.265914E4,1.2560896E4,1.4960471E4,7.6986704E3,3.764222E2,1.2184475E4,5.058679E3,9.901791E3,7.322514E3,3.7615637E2,2.3043074E2,1.4599149E2,3.3745053E2,1.1847023E4,3.4897512E3,1.5689279E3,5.338481E3,4.56331E3,6.6959375E3,6.2657654E2,1.5861194E2,2.1754443E2,8.305072E1,1.4738002E2,2.838898E1,1.176025E2,6.8102264E1,2.6934827E2,3.2093103E2,1.1526093E4],"tree_param":{"num_deleted":"0","num_feature":"5","num_nodes":"31","size_leaf_vector":"0"}},{"base_weights":[-4.0249128E-2,3.6029152E-3,-9.1498554E-2,-3.3031534E-3,3.221465E-1,-1.1015639E-1,5.871393E-2,-2.568295E-1,4.1103237E-3,3.940253E-1,-2.4730633E-1,-1.4330837E-1,-3.19296E-2,-4.2408568E-1,8.114489E-2,-3.205034E-2,5.6480765E-2,5.6024874E-3,-3.599466E-3,7.099157E-2,3.0261366E-2,-1.4453839E-1,6.786087E-2,-1.9311614E-2,-6.4618685E-3,-5.715706E-2,-1.5920366E-3,2.6402673E-2,-7.3714525E-2,8.907169E-3,-9.4161354E-2],"categories":[3,4,5,9,0,2,0,2,3,4,5,6,7,9,10],"categories_nodes":[0,4,9],"categories_segments":[0,4,6],"categories_sizes":[4,2,9],"default_left":[0,0,0,0,0,0,0,0,0,0,0,0,0,0,0,0,0,0,0,0,0,0,0,0,0,0,0,0,0,0,0],"id":24,"left_children":[1,3,5,7,9,11,13,15,17,19,21,23,25,27,29,-1,-1,-1,-1,-1,-1,-1,-1,-1,-1,-1,-1,-1,-1,-1,-1],"loss_changes":[7.896742E1,4.165836E1,4.5415115E1,3.4838367E1,1.6545254E1,3.7371964E1,1.9427717E1,2.7731907E1,3.7498753E1,1.0099262E1,5.162254E1,3.9660095E1,3.7062996E1,1.7356234E1,1.3964158E1,0E0,0E0,0E0,0E0,0E0,0E0,0E0,0E0,0E0,0E0,0E0,0E0,0E0,0E0,0E0,0E0],"parents":[2147483647,0,0,1,1,2,2,3,3,4,4,5,5,6,6,7,7,8,8,9,9,10,10,11,11,12,12,13,13,14,14],"right_children":[2,4,6,8,10,12,14,16,18,20,22,24,26,28,30,-1,-1,-1,-1,-1,-1,-1,-1,-1,-1,-1,-1,-1,-1,-1,-1],"split_conditions":[NaN,2.9299116E-1,7.599448E-1,4.6137482E-1,NaN,7.057728E-1,1.3921607E-2,7.9334843E-1,6.5906346E-1,NaN,1.2762557E0,4.5300144E-1,1.1814414E-1,8.574683E-3,1.1822034E0,-3.205034E-2,5.6480765E-2,5.6024874E-3,-3.599466E-3,7.099157E-2,3.0261366E-2,-1.4453839E-1,6.786087E-2,-1.9311614E-2,-6.4618685E-3,-5.715706E-2,-1.5920366E-3,2.6402673E-2,-7.3714525E-2,8.907169E-3,-9.4161354E-2],"split_indices":[3,1,2,2,3,4,1,0,2,3,4,0,0,1,4,0,0,0,0,0,0,0,0,0,0,0,0,0,0,0,0],"split_type":[1,0,0,0,1,0,0,0,0,1,0,0,0,0,0,0,0,0,0,0,0,0,0,0,0,0,0,0,0,0,0],"sum_hessian":[3.5136227E4,1.8935133E4,1.6201093E4,1.8534297E4,4.008365E2,1.4411333E4,1.789759E3,5.256161E2,1.8008682E4,3.561853E2,4.4651188E1,1.0121203E4,4.29013E3,7.866577E1,1.7110933E3,4.8837845E2,3.7237633E1,7.8485723E3,1.0160109E4,7.842086E1,2.7776443E2,1.9220282E1,2.5430906E1,6.1971646E3,3.9240388E3,1.2260616E2,4.1675234E3,2.4647219E1,5.401855E1,1.6988395E3,1.2253799E1],"tree_param":{"num_deleted":"0","num_feature":"5","num_nodes":"31","size_leaf_vector":"0"}}]},"name":"gbtree"},"learner_model_param":{"base_score":"5E-1","num_class":"0","num_feature":"5","num_target":"1"},"objective":{"name":"binary:logistic","reg_loss_param":{"scale_pos_weight":"5.55577183"}}},"version":[1,6,0]}