{"learner":{"attributes":{"best_iteration":"54","best_ntree_limit":"55","scikit_learn":"{\"use_label_encoder\": false, \"n_estimators\": 55, \"objective\": \"binary:logistic\", \"max_depth\": 6, \"max_leaves\": null, \"max_bin\": null, \"grow_policy\": null, \"learning_rate\": 0.1, \"verbosity\": null, \"booster\": null, \"tree_method\": \"hist\", \"gamma\": 4.159451, \"min_child_weight\": 3, \"max_delta_step\": 2, \"subsample\": 1, \"sampling_method\": null, \"colsample_bytree\": null, \"colsample_bylevel\": 1, \"colsample_bynode\": null, \"reg_alpha\": null, \"reg_lambda\": null, \"scale_pos_weight\": 5.631922, \"base_score\": null, \"missing\": NaN, \"num_parallel_tree\": null, \"random_state\": 55700, \"n_jobs\": null, \"monotone_constraints\": null, \"interaction_constraints\": null, \"importance_type\": null, \"gpu_id\": null, \"validate_parameters\": null, \"predictor\": null, \"enable_categorical\": true, \"max_cat_to_onehot\": 1, \"eval_metric\": [\"logloss\"], \"early_stopping_rounds\": null, \"callbacks\": null, \"classes_\": [0, 1], \"n_classes_\": 2, \"evals_result_\": {\"validation_0\": {\"logloss\": [0.6673925988029966, 0.6457826476167612, 0.6268488421827904, 0.6110124001586748, 0.5970339342481364, 0.585010465377933, 0.5742582739142513, 0.5645158093766613, 0.5558969983443562, 0.5483012131593571, 0.5417361549608115, 0.5354432694262935, 0.5301591041154878, 0.5246510654092832, 0.5201422232250177, 0.5157651537999661, 0.5118872918330499, 0.5084264485086171, 0.5051880090965584, 0.5021809217093522, 0.4996000951357754, 0.4968938841546555, 0.49455139394518843, 0.4926264383916422, 0.4903674142844189, 0.4886567485688875, 0.4866896831494272, 0.4852303772184526, 0.4832019368862959, 0.4815815690778006, 0.4802421240217143, 0.4783106879135217, 0.47718599866817357, 0.4758830191576486, 0.4741339358156118, 0.4731539459952642, 0.4714945963714305, 0.4707018201139545, 0.46990395799240214, 0.4690523085920618, 0.46795318830816834, 0.4668021895397479, 0.46592929015536866, 0.46511588913388197, 0.4641959970736859, 0.463440134902102, 0.4624560360903949, 0.46180486616719596, 0.4612801665598915, 0.4606374583482633, 0.46007889584751205, 0.4595776411530878, 0.4589199311844311, 0.45830662516084697, 0.45791238365393033]}}, \"_estimator_type\": \"classifier\"}"},"feature_names":["adf_pass_rate","last_residual","residual_mean_max","vix","betas_rsquared","arima_forecast","industry","residual_inter"],"feature_types":["float","float","float","float","float","float","c","float"],"gradient_booster":{"model":{"gbtree_model_param":{"num_parallel_tree":"1","num_trees":"55","size_leaf_vector":"0"},"tree_info":[0,0,0,0,0,0,0,0,0,0,0,0,0,0,0,0,0,0,0,0,0,0,0,0,0,0,0,0,0,0,0,0,0,0,0,0,0,0,0,0,0,0,0,0,0,0,0,0,0,0,0,0,0,0,0],"trees":[{"base_weights":[-3.3991474E-1,2.3277387E-1,-5.5830675E-1,-1.4972652E-1,4.570664E-1,-7.2544473E-1,4.5396903E-1,1.6889696E-1,-5.2218086E-1,1.8177304E-1,5.993119E-1,-1.1817278E0,-5.0111496E-1,9.404329E-1,4.5975897E-2,-2.809636E-2,6.5425634E-1,-6.5100235E-1,2.741631E-1,4.4133672E-1,2.3683265E-2,7.4223787E-1,2.5819406E-1,-1.271301E0,-6.888722E-1,-2.695128E-1,-7.290288E-1,1.206202E0,4.1904277E-1,4.2183316E-1,-5.27577E-1,-3.0106434E-1,2.9480946E-1,9.1605437E-1,3.161271E-3,-4.4997457E-1,-8.3001965E-1,-9.601838E-2,7.523646E-1,1.12006366E-1,5.319022E-1,2.1370213E-1,-2.0416334E-1,6.7722154E-1,1.2089434E0,-2.7950143E-2,4.168877E-1,-1.6365759E0,-1.1620635E0,-9.03768E-2,-9.489365E-1,-1.899146E-2,-6.057014E-1,7.038727E-2,-8.504845E-1,-1.1993315E0,1.2421788E0,-4.947261E-1,6.7109466E-1,-2.3723713E-1,5.5937016E-1,-1.0096865E0,-2.3722826E-1,-4.6315625E-2,9.93423E-2,3.1515665E-3,6.263022E-2,3.767575E-2,1.3373731E-1,9.456782E-2,-2.5697712E-2,-5.2231457E-2,5.021092E-2,-9.666728E-2,-4.363965E-2,3.345157E-2,-7.148938E-2,9.589506E-2,2.0614095E-2,1.2860465E-1,1.881049E-3,-6.4726494E-2,5.6653243E-2,6.628997E-2,3.9968165E-3,1.3140946E-2,-4.3912176E-2,5.7484817E-2,9.006164E-2,1.4664462E-1,7.977994E-2,3.3169042E-2,-1.830397E-2,3.3665624E-2,1.0735072E-1,-1.7806062E-1,-1.4394236E-1,-9.863716E-2,-1.3040781E-1,6.3945255E-3,-1.3394448E-1,-1.0306346E-1,8.016901E-3,-6.4278536E-2,1.7303472E-2,-8.610429E-3,-8.2795285E-2,-3.9038833E-2,8.627255E-2,-9.761521E-2,-6.0130596E-2,-1.8518518E-1,1.262167E-1,8.049459E-2,1.345328E-1,-1.3181749E-1,5.860137E-2,8.6655304E-2,1.1784149E-2,-1.031634E-1,5.2377682E-2,7.187215E-2,3.594587E-2,-1.4008988E-1,-7.4714035E-2,5.9509035E-2,-6.996445E-2],"categories":[0,2,3,4,6,9,10,1,5,1,2,4,5,7,8,10,0,2,3,4,5,6,9,10,4,10,7,1,5,0,3,4,3,9,6,0,1,2,4,5,7,8,9,10],"categories_nodes":[0,3,6,10,12,34,42,48,49,52,58],"categories_segments":[0,7,9,16,24,26,27,29,32,34,35],"categories_sizes":[7,2,7,8,2,1,2,3,2,1,9],"default_left":[0,0,0,0,0,0,0,0,0,0,0,0,0,0,0,0,0,0,0,0,0,0,0,0,0,0,0,0,0,0,0,0,0,0,0,0,0,0,0,0,0,0,0,0,0,0,0,0,0,0,0,0,0,0,0,0,0,0,0,0,0,0,0,0,0,0,0,0,0,0,0,0,0,0,0,0,0,0,0,0,0,0,0,0,0,0,0,0,0,0,0,0,0,0,0,0,0,0,0,0,0,0,0,0,0,0,0,0,0,0,0,0,0,0,0,0,0,0,0,0,0,0,0,0,0,0,0],"id":0,"left_children":[1,3,5,7,9,11,13,15,17,19,21,23,25,27,29,31,33,35,37,39,41,43,45,47,49,51,53,55,57,59,61,63,65,67,69,71,73,75,77,79,81,83,85,87,89,91,93,95,97,99,101,103,105,107,109,111,113,115,117,119,121,123,125,-1,-1,-1,-1,-1,-1,-1,-1,-1,-1,-1,-1,-1,-1,-1,-1,-1,-1,-1,-1,-1,-1,-1,-1,-1,-1,-1,-1,-1,-1,-1,-1,-1,-1,-1,-1,-1,-1,-1,-1,-1,-1,-1,-1,-1,-1,-1,-1,-1,-1,-1,-1,-1,-1,-1,-1,-1,-1,-1,-1,-1,-1,-1,-1],"loss_changes":[4.39866E3,8.330714E2,4.3078677E3,4.2609464E2,2.3957703E2,2.2361523E3,7.161688E2,1.850713E2,1.6999072E2,8.561385E1,1.9654102E2,3.1706055E2,7.731875E2,2.2757361E2,4.2353232E2,1.215186E2,9.524733E1,5.0913086E1,4.0998196E1,2.3496323E1,5.623506E1,8.545203E1,5.4185585E1,2.4121777E2,1.7264526E2,6.121609E2,7.1699316E2,9.579541E1,1.2867795E2,1.0771393E2,1.0863962E2,1.5720961E2,5.5106388E1,9.00517E1,3.9780266E1,4.6647064E1,4.0062805E1,3.5197285E1,1.1198368E1,1.8752722E1,2.5650314E1,5.523961E1,4.6631855E1,5.660547E1,3.5500793E1,2.3851566E1,4.0070374E1,3.719751E1,1.1582666E2,6.509543E1,6.5115295E1,4.9912747E2,3.5833386E2,3.562292E2,2.001377E2,2.8945223E1,4.7360718E1,1.0850374E2,4.7176025E1,1.2484171E2,3.1031006E1,2.8950836E1,1.8776056E2,0E0,0E0,0E0,0E0,0E0,0E0,0E0,0E0,0E0,0E0,0E0,0E0,0E0,0E0,0E0,0E0,0E0,0E0,0E0,0E0,0E0,0E0,0E0,0E0,0E0,0E0,0E0,0E0,0E0,0E0,0E0,0E0,0E0,0E0,0E0,0E0,0E0,0E0,0E0,0E0,0E0,0E0,0E0,0E0,0E0,0E0,0E0,0E0,0E0,0E0,0E0,0E0,0E0,0E0,0E0,0E0,0E0,0E0,0E0,0E0,0E0,0E0,0E0,0E0],"parents":[2147483647,0,0,1,1,2,2,3,3,4,4,5,5,6,6,7,7,8,8,9,9,10,10,11,11,12,12,13,13,14,14,15,15,16,16,17,17,18,18,19,19,20,20,21,21,22,22,23,23,24,24,25,25,26,26,27,27,28,28,29,29,30,30,31,31,32,32,33,33,34,34,35,35,36,36,37,37,38,38,39,39,40,40,41,41,42,42,43,43,44,44,45,45,46,46,47,47,48,48,49,49,50,50,51,51,52,52,53,53,54,54,55,55,56,56,57,57,58,58,59,59,60,60,61,61,62,62],"right_children":[2,4,6,8,10,12,14,16,18,20,22,24,26,28,30,32,34,36,38,40,42,44,46,48,50,52,54,56,58,60,62,64,66,68,70,72,74,76,78,80,82,84,86,88,90,92,94,96,98,100,102,104,106,108,110,112,114,116,118,120,122,124,126,-1,-1,-1,-1,-1,-1,-1,-1,-1,-1,-1,-1,-1,-1,-1,-1,-1,-1,-1,-1,-1,-1,-1,-1,-1,-1,-1,-1,-1,-1,-1,-1,-1,-1,-1,-1,-1,-1,-1,-1,-1,-1,-1,-1,-1,-1,-1,-1,-1,-1,-1,-1,-1,-1,-1,-1,-1,-1,-1,-1,-1,-1,-1,-1],"split_conditions":[NaN,1.6428905E0,1.1102262E0,NaN,4.140124E0,1.3662478E0,NaN,3.5470555E0,9.711805E-1,2.8573963E-1,NaN,3.6970284E0,NaN,2.6075585E0,2.5881114E0,1.2167854E0,2.3936115E-2,4.605888E-1,4.1027956E0,1.9455433E0,-3.889233E-1,2.5859787E0,2.1028345E0,4.0990782E-1,-4.989258E-1,-3.583351E-1,3.9122555E0,4.7088203E0,1.3761601E0,1.1914811E0,1.634525E0,5.4846315E0,4.4618254E0,4.4563937E0,NaN,3.8185081E0,4.526376E0,1.048818E0,-1.0357512E-3,6.3776094E-1,6.491111E-1,1.5970796E-1,NaN,3.7764895E0,5.409686E0,5.9318674E-1,2.5859787E0,3.0098884E0,NaN,NaN,4.9035125E0,4.0219555E0,NaN,1.0526943E-1,4.7088203E0,2.719198E0,1.3555756E0,7.587332E-1,NaN,4.117975E0,2.4750133E0,9.238024E-1,6.577411E0,-4.6315625E-2,9.93423E-2,3.1515665E-3,6.263022E-2,3.767575E-2,1.3373731E-1,9.456782E-2,-2.5697712E-2,-5.2231457E-2,5.021092E-2,-9.666728E-2,-4.363965E-2,3.345157E-2,-7.148938E-2,9.589506E-2,2.0614095E-2,1.2860465E-1,1.881049E-3,-6.4726494E-2,5.6653243E-2,6.628997E-2,3.9968165E-3,1.3140946E-2,-4.3912176E-2,5.7484817E-2,9.006164E-2,1.4664462E-1,7.977994E-2,3.3169042E-2,-1.830397E-2,3.3665624E-2,1.0735072E-1,-1.7806062E-1,-1.4394236E-1,-9.863716E-2,-1.3040781E-1,6.3945255E-3,-1.3394448E-1,-1.0306346E-1,8.016901E-3,-6.4278536E-2,1.7303472E-2,-8.610429E-3,-8.2795285E-2,-3.9038833E-2,8.627255E-2,-9.761521E-2,-6.0130596E-2,-1.8518518E-1,1.262167E-1,8.049459E-2,1.345328E-1,-1.3181749E-1,5.860137E-2,8.6655304E-2,1.1784149E-2,-1.031634E-1,5.2377682E-2,7.187215E-2,3.594587E-2,-1.4008988E-1,-7.4714035E-2,5.9509035E-2,-6.996445E-2],"split_indices":[6,5,3,6,2,5,6,1,7,4,6,1,6,3,3,5,3,4,2,5,3,3,5,5,3,3,2,2,5,5,5,2,2,2,6,1,2,5,3,7,7,0,6,1,2,7,3,1,6,6,1,2,6,3,2,5,5,7,6,1,5,5,2,0,0,0,0,0,0,0,0,0,0,0,0,0,0,0,0,0,0,0,0,0,0,0,0,0,0,0,0,0,0,0,0,0,0,0,0,0,0,0,0,0,0,0,0,0,0,0,0,0,0,0,0,0,0,0,0,0,0,0,0,0,0,0,0],"split_type":[1,0,0,1,0,0,1,0,0,0,1,0,1,0,0,0,0,0,0,0,0,0,0,0,0,0,0,0,0,0,0,0,0,0,1,0,0,0,0,0,0,0,1,0,0,0,0,0,1,1,0,0,1,0,0,0,0,0,1,0,0,0,0,0,0,0,0,0,0,0,0,0,0,0,0,0,0,0,0,0,0,0,0,0,0,0,0,0,0,0,0,0,0,0,0,0,0,0,0,0,0,0,0,0,0,0,0,0,0,0,0,0,0,0,0,0,0,0,0,0,0,0,0,0,0,0,0],"sum_hessian":[3.5167375E4,9.708566E3,2.5458809E4,3.588759E3,6.1198076E3,2.1851213E4,3.6075952E3,1.9344454E3,1.6543135E3,2.0856482E3,4.0341597E3,7.2007476E3,1.4650466E4,1.6449552E3,1.96264E3,1.3766466E3,5.577988E2,1.4241213E3,2.3019218E2,7.887793E2,1.2968689E3,2.842145E3,1.1920146E3,6.091989E3,1.1087589E3,7.2675205E3,7.3829453E3,1.0886979E3,5.562573E2,1.1858201E3,7.7682E2,7.460456E2,6.3060095E2,3.9754398E2,1.6025488E2,6.724764E2,7.5164496E2,1.3020114E2,9.999104E1,1.7061075E2,6.181686E2,7.071686E2,5.897003E2,2.4967727E3,3.4537216E2,4.255391E2,7.664756E2,1.3992183E3,4.6927705E3,3.3625977E2,7.724992E2,4.1649414E3,3.102579E3,9.73807E2,6.409138E3,1.5565961E1,1.073132E3,1.20055374E2,4.3620197E2,2.0461075E2,9.812093E2,2.91057E2,4.8576303E2,6.635945E2,8.245114E1,3.520635E2,2.7853745E2,1.7519055E2,2.2235342E2,3.4093647E1,1.2616124E2,6.254088E2,4.706759E1,5.56864E2,1.9478094E2,7.7055374E1,5.3145767E1,7.200326E1,2.7987785E1,1.1605864E1,1.5900488E2,1.7131922E1,6.010366E2,1.9644218E2,5.1072638E2,2.430342E2,3.4666614E2,1.7146067E3,7.8216614E2,2.1078746E2,1.3458469E2,1.2787296E2,2.9766614E2,6.8436646E2,8.210912E1,8.038974E2,5.9532086E2,2.1012166E3,2.5915537E3,3.0012784E2,3.613192E1,7.156816E2,5.681759E1,9.797834E2,3.185158E3,9.299218E2,2.1726572E3,6.1605457E2,3.5775244E2,4.258527E3,2.1506116E3,1.25E1,3.065961E0,2.0652199E2,8.666099E2,6.801384E1,5.204153E1,3.2190878E2,1.1429316E2,9.993567E1,1.0467508E2,5.445488E2,4.3666043E2,1.1514577E2,1.7591124E2,1.7338843E2,3.123746E2],"tree_param":{"num_deleted":"0","num_feature":"8","num_nodes":"127","size_leaf_vector":"0"}},{"base_weights":[-3.0651453E-1,2.0982856E-1,-5.036325E-1,-1.3482295E-1,4.118875E-1,-6.5438884E-1,4.0950802E-1,1.5237693E-1,-4.706278E-1,1.6375369E-1,5.401952E-1,-1.0444403E0,-4.3888637E-1,8.49351E-1,4.1331775E-2,-3.7670536E-3,6.6040576E-1,-5.8679795E-1,2.4737889E-1,3.0085027E-1,-9.541998E-2,6.6921544E-1,2.3260997E-1,-1.1917341E0,-8.091161E-1,-2.2629158E-1,-6.492604E-1,1.0902532E0,3.7783536E-1,3.520147E-1,-5.2681905E-1,1.0123112E0,-8.042241E-2,8.863218E-1,1.13745205E-1,-6.339813E-1,1.1578939E-1,-8.677612E-2,6.7946637E-1,-3.3479452E-2,3.5822192E-1,8.662087E-2,-3.7007865E-1,6.103212E-1,1.0931174E0,-2.5123114E-2,3.7560686E-1,-1.3894376E0,-9.7887224E-1,-5.842833E-1,-1.0885949E0,-6.192393E-4,-5.29741E-1,5.1824525E-2,-7.5624204E-1,-1.0911458E0,1.1227685E0,-4.4721144E-1,6.050912E-1,-2.263818E-1,4.7316512E-1,-1.3695025E0,-3.7560785E-1,3.593336E-2,1.313834E-1,-1.8243685E-2,7.834515E-2,3.838371E-2,1.2574925E-1,-1.6526693E-1,1.9136727E-2,-4.6392273E-2,-9.025445E-2,-1.1506368E-1,3.892318E-2,3.0157903E-2,-6.455635E-2,1.0099496E-1,3.750619E-2,6.438408E-2,-2.8042609E-2,6.2421497E-2,2.9670596E-2,1.6348172E-2,-1.2393185E-1,1.064439E-1,-4.2922314E-2,1.0326656E-1,5.6087315E-2,1.3278346E-1,7.197855E-2,5.7028957E-2,-1.1471163E-2,3.0312857E-2,9.703064E-2,-1.557678E-1,-1.282026E-1,-7.9386406E-2,-1.09389044E-1,-1.223947E-1,-4.6467062E-2,-3.540898E-2,-1.22656934E-1,-5.5635985E-2,1.6933648E-2,-3.895643E-2,-1.3412158E-1,-3.6100432E-2,7.617811E-2,-5.6889314E-2,-8.9536145E-2,-1.6942456E-1,1.1706251E-1,5.144421E-3,1.1609902E-1,-1.0855079E-1,7.198497E-2,7.8168124E-2,1.0616327E-2,-9.859562E-2,4.8186626E-2,7.105627E-2,3.2944795E-2,-1.5583262E-1,6.74798E-2,4.409919E-2,-5.827223E-2],"categories":[0,2,3,4,6,9,10,1,5,1,2,4,5,7,8,10,0,2,3,4,5,6,9,10,4,10,3,4,9,0,1,2,4,5,7,8,9,10],"categories_nodes":[0,3,6,10,12,48,58],"categories_segments":[0,7,9,16,24,26,29],"categories_sizes":[7,2,7,8,2,3,9],"default_left":[0,0,0,0,0,0,0,0,0,0,0,0,0,0,0,0,0,0,0,0,0,0,0,0,0,0,0,0,0,0,0,0,0,0,0,0,0,0,0,0,0,0,0,0,0,0,0,0,0,0,0,0,0,0,0,0,0,0,0,0,0,0,0,0,0,0,0,0,0,0,0,0,0,0,0,0,0,0,0,0,0,0,0,0,0,0,0,0,0,0,0,0,0,0,0,0,0,0,0,0,0,0,0,0,0,0,0,0,0,0,0,0,0,0,0,0,0,0,0,0,0,0,0,0,0,0,0],"id":1,"left_children":[1,3,5,7,9,11,13,15,17,19,21,23,25,27,29,31,33,35,37,39,41,43,45,47,49,51,53,55,57,59,61,63,65,67,69,71,73,75,77,79,81,83,85,87,89,91,93,95,97,99,101,103,105,107,109,111,113,115,117,119,121,123,125,-1,-1,-1,-1,-1,-1,-1,-1,-1,-1,-1,-1,-1,-1,-1,-1,-1,-1,-1,-1,-1,-1,-1,-1,-1,-1,-1,-1,-1,-1,-1,-1,-1,-1,-1,-1,-1,-1,-1,-1,-1,-1,-1,-1,-1,-1,-1,-1,-1,-1,-1,-1,-1,-1,-1,-1,-1,-1,-1,-1,-1,-1,-1,-1],"loss_changes":[3.5731248E3,6.755419E2,3.4977651E3,3.4588495E2,1.9459912E2,1.8325479E3,5.830714E2,1.5337564E2,1.3804083E2,7.413762E1,1.5978638E2,2.6800293E2,6.2813794E2,1.8594775E2,3.463513E2,1.1534831E2,5.6036285E1,4.7255615E1,3.3402252E1,2.6181854E1,3.614866E1,7.020471E1,4.3959984E1,1.9939746E2,1.8726514E2,4.785813E2,5.295847E2,7.820679E1,1.04577E2,8.898956E1,8.7877655E1,1.9982384E1,1.2149637E2,5.947699E1,1.869861E1,6.050061E1,3.1757288E1,2.8646982E1,9.764038E0,3.3758274E1,1.8871094E1,4.4557926E1,2.4901836E1,5.152191E1,2.927829E1,2.281472E1,3.2767693E1,4.265381E1,4.8085205E1,1.26390625E2,1.3455371E2,3.7874472E2,3.3852832E2,2.745095E2,1.5914868E2,2.4418545E1,4.3749634E1,9.070659E1,3.8383453E1,1.1901495E2,3.555847E1,4.1644608E1,9.9963776E1,0E0,0E0,0E0,0E0,0E0,0E0,0E0,0E0,0E0,0E0,0E0,0E0,0E0,0E0,0E0,0E0,0E0,0E0,0E0,0E0,0E0,0E0,0E0,0E0,0E0,0E0,0E0,0E0,0E0,0E0,0E0,0E0,0E0,0E0,0E0,0E0,0E0,0E0,0E0,0E0,0E0,0E0,0E0,0E0,0E0,0E0,0E0,0E0,0E0,0E0,0E0,0E0,0E0,0E0,0E0,0E0,0E0,0E0,0E0,0E0,0E0,0E0,0E0,0E0],"parents":[2147483647,0,0,1,1,2,2,3,3,4,4,5,5,6,6,7,7,8,8,9,9,10,10,11,11,12,12,13,13,14,14,15,15,16,16,17,17,18,18,19,19,20,20,21,21,22,22,23,23,24,24,25,25,26,26,27,27,28,28,29,29,30,30,31,31,32,32,33,33,34,34,35,35,36,36,37,37,38,38,39,39,40,40,41,41,42,42,43,43,44,44,45,45,46,46,47,47,48,48,49,49,50,50,51,51,52,52,53,53,54,54,55,55,56,56,57,57,58,58,59,59,60,60,61,61,62,62],"right_children":[2,4,6,8,10,12,14,16,18,20,22,24,26,28,30,32,34,36,38,40,42,44,46,48,50,52,54,56,58,60,62,64,66,68,70,72,74,76,78,80,82,84,86,88,90,92,94,96,98,100,102,104,106,108,110,112,114,116,118,120,122,124,126,-1,-1,-1,-1,-1,-1,-1,-1,-1,-1,-1,-1,-1,-1,-1,-1,-1,-1,-1,-1,-1,-1,-1,-1,-1,-1,-1,-1,-1,-1,-1,-1,-1,-1,-1,-1,-1,-1,-1,-1,-1,-1,-1,-1,-1,-1,-1,-1,-1,-1,-1,-1,-1,-1,-1,-1,-1,-1,-1,-1,-1,-1,-1,-1],"split_conditions":[NaN,1.6428905E0,1.1102262E0,NaN,4.140124E0,1.4416692E0,NaN,3.6970284E0,9.711805E-1,5.6187534E-1,NaN,3.1479113E0,NaN,2.6075585E0,2.6075585E0,-1.197761E0,2.3936115E-2,5.109691E0,4.1027956E0,1.8432122E0,-2.6519194E-1,2.5859787E0,2.1028345E0,9.100323E-1,-1.5094689E-1,-3.583351E-1,3.9122555E0,4.7088203E0,1.3761601E0,1.1914811E0,9.238024E-1,6.963788E-1,5.4846315E0,4.4563937E0,1.2872079E-2,3.6961225E-1,6.571045E-1,1.048818E0,-3.96209E-1,1.6833224E0,1.0251077E-1,9.381941E-1,1.6640242E0,-1.0294863E0,5.409686E0,4.2139754E0,2.5859787E0,4.0990782E-1,NaN,4.0341253E0,4.147999E0,4.0219555E0,5.0062413E0,1.0526943E-1,-3.719878E-1,2.719198E0,4.2821574E-1,7.874036E-1,NaN,4.117975E0,6.577411E0,5.1342754E0,4.8704433E0,3.593336E-2,1.313834E-1,-1.8243685E-2,7.834515E-2,3.838371E-2,1.2574925E-1,-1.6526693E-1,1.9136727E-2,-4.6392273E-2,-9.025445E-2,-1.1506368E-1,3.892318E-2,3.0157903E-2,-6.455635E-2,1.0099496E-1,3.750619E-2,6.438408E-2,-2.8042609E-2,6.2421497E-2,2.9670596E-2,1.6348172E-2,-1.2393185E-1,1.064439E-1,-4.2922314E-2,1.0326656E-1,5.6087315E-2,1.3278346E-1,7.197855E-2,5.7028957E-2,-1.1471163E-2,3.0312857E-2,9.703064E-2,-1.557678E-1,-1.282026E-1,-7.9386406E-2,-1.09389044E-1,-1.223947E-1,-4.6467062E-2,-3.540898E-2,-1.22656934E-1,-5.5635985E-2,1.6933648E-2,-3.895643E-2,-1.3412158E-1,-3.6100432E-2,7.617811E-2,-5.6889314E-2,-8.9536145E-2,-1.6942456E-1,1.1706251E-1,5.144421E-3,1.1609902E-1,-1.0855079E-1,7.198497E-2,7.8168124E-2,1.0616327E-2,-9.859562E-2,4.8186626E-2,7.105627E-2,3.2944795E-2,-1.5583262E-1,6.74798E-2,4.409919E-2,-5.827223E-2],"split_indices":[6,5,3,6,2,5,6,1,7,4,6,1,6,3,3,3,3,2,2,5,3,3,5,5,3,3,2,2,5,5,5,7,2,2,4,0,5,5,3,5,0,4,5,3,2,2,3,5,6,2,2,2,2,3,3,5,5,7,6,1,2,1,2,0,0,0,0,0,0,0,0,0,0,0,0,0,0,0,0,0,0,0,0,0,0,0,0,0,0,0,0,0,0,0,0,0,0,0,0,0,0,0,0,0,0,0,0,0,0,0,0,0,0,0,0,0,0,0,0,0,0,0,0,0,0,0,0],"split_type":[1,0,0,1,0,0,1,0,0,0,1,0,1,0,0,0,0,0,0,0,0,0,0,0,0,0,0,0,0,0,0,0,0,0,0,0,0,0,0,0,0,0,0,0,0,0,0,0,1,0,0,0,0,0,0,0,0,0,1,0,0,0,0,0,0,0,0,0,0,0,0,0,0,0,0,0,0,0,0,0,0,0,0,0,0,0,0,0,0,0,0,0,0,0,0,0,0,0,0,0,0,0,0,0,0,0,0,0,0,0,0,0,0,0,0,0,0,0,0,0,0,0,0,0,0,0,0],"sum_hessian":[3.5104156E4,9.698702E3,2.5405455E4,3.5846707E3,6.1140317E3,2.1805693E4,3.5997617E3,1.9324624E3,1.6522083E3,2.084705E3,4.0293267E3,7.7587666E3,1.4046926E4,1.6396461E3,1.9601155E3,1.4789086E3,4.5355383E2,1.4222737E3,2.2993452E2,1.3633599E3,7.2134515E2,2.8378022E3,1.1915245E3,4.769429E3,2.9893376E3,6.987619E3,7.0593066E3,1.0843356E3,5.5531055E2,1.2674268E3,6.926888E2,1.02889305E2,1.3760193E3,3.2048648E2,1.3306737E2,1.332861E3,8.9412674E1,1.3011174E2,9.982279E1,1.9974931E2,1.1636106E3,4.3422806E2,2.871171E2,2.4937732E3,3.4402905E2,4.25479E2,7.660456E2,2.4698938E3,2.2995356E3,1.6583403E3,1.3309973E3,4.007949E3,2.9796702E3,9.346647E2,6.1246416E3,1.5447225E1,1.0688883E3,1.19716125E2,4.3559442E2,2.1934778E2,1.048079E3,1.0415994E2,5.885289E2,3.3194664E1,6.969464E1,1.2313934E3,1.4462582E2,1.3702222E2,1.8346426E2,4.7471485E0,1.2832022E2,8.1776575E2,5.150952E2,1.5307816E1,7.410486E1,7.703382E1,5.3077915E1,4.6749935E1,5.3072857E1,5.2939823E1,1.468095E2,2.1684262E2,9.4676794E2,4.1126492E2,2.2963129E1,1.0695926E1,2.7642117E2,2.5928558E2,2.2344875E3,2.0965828E2,1.3437076E2,5.494491E1,3.705341E2,6.8417255E2,8.187301E1,9.5716644E2,1.5127273E3,8.845793E2,1.4149563E3,2.5979242E2,1.3985479E3,2.1104857E2,1.1199487E3,9.381162E2,3.0698328E3,2.5420317E3,4.3763843E2,5.9131537E2,3.433493E2,2.6120898E3,3.512552E3,1.2393442E1,3.0537825E0,3.690192E1,1.0319865E3,7.7434845E1,4.2281277E1,3.2130524E2,1.1428919E2,1.0564964E2,1.1369813E2,3.9374002E2,6.543389E2,9.557024E1,8.589708E0,1.1884075E2,4.696881E2],"tree_param":{"num_deleted":"0","num_feature":"8","num_nodes":"127","size_leaf_vector":"0"}},{"base_weights":[-2.772219E-1,-7.2650486E-1,-9.101478E-2,-4.8992623E-2,-8.697399E-1,1.17501825E-1,-4.6187338E-1,-3.3478045E-1,4.0637246E-1,-9.992464E-1,-3.014915E-1,1.580407E-2,8.481883E-1,-5.926937E-1,2.0209359E-1,-4.1896996E-1,7.1112525E-1,6.1983305E-1,-1.8262628E-1,-1.3162698E0,-8.9648443E-1,-5.111893E-1,2.199242E-1,4.6522325E-1,-1.4451593E-1,1.0269909E0,5.5995893E-1,6.0273226E-2,-6.92363E-1,4.852105E-1,-2.6649466E-1,-2.2323072E-1,-6.7690104E-1,8.972612E-1,-1.8210469E-1,3.0027193E-1,9.991785E-1,-1.0406681E0,9.0301245E-2,-8.194082E-1,-1.372125E0,-9.964219E-1,-5.5843204E-1,-9.376E-2,-6.281468E-1,-7.1426496E-2,4.655655E-1,1.0831093E0,4.136451E-1,3.5766937E-2,-3.8737246E-1,1.0537156E0,-7.6784885E-1,7.810569E-1,1.8910262E-1,-4.421863E-1,5.8363175E-1,-8.038395E-1,-4.5252728E-1,6.6509163E-1,2.8341216E-1,3.7941867E-1,-6.139891E-1,-5.886745E-3,-7.369595E-2,-8.0104046E-2,-3.0339291E-2,-1.6652131E-1,1.0313933E-1,1.3875052E-1,1.2765418E-2,1.12278596E-1,4.675515E-2,-3.2042418E-2,-1.6506337E-1,2.0302383E-2,-1.2734585E-1,-1.005396E-1,1.12200035E-2,-1.2234582E-1,-1.4697967E-1,-7.7548474E-2,-1.1593322E-1,1.0485433E-2,-8.168044E-2,5.416919E-2,-6.57944E-2,3.1855952E-3,-8.291688E-2,-2.253921E-2,8.80628E-2,5.48093E-2,-7.7372625E-2,9.9708475E-2,1.5508789E-1,2.0355491E-2,6.416983E-2,-3.5590533E-2,1.741661E-2,-7.4367435E-3,-7.018231E-2,9.252325E-2,1.3012479E-1,1.0593939E-1,-1.5392141E-1,1.1922689E-1,6.692725E-2,-5.0769813E-2,3.4787346E-2,3.9468477E-3,-5.7665206E-2,8.9633785E-2,-6.8436E-2,-5.3769227E-2,-9.218847E-2,1.2265033E-2,-7.606976E-2,4.682618E-2,7.736636E-2,-1.0356409E-2,4.3748267E-2,-4.463402E-2,5.5865742E-2,4.7128323E-2,-6.921169E-2],"categories":[0,2,3,4,5,6,9,10,4,10,0,1,2,3,4,5,6,9,10,0,2,3,4,6,9,2,4,6,10,2,0,2,4,5,7,9,10,0,3,4,10,6,0,1,2,4,5,6,7,9,10],"categories_nodes":[1,2,11,19,21,25,26,41,50,53],"categories_segments":[0,8,10,19,25,29,30,37,41,42],"categories_sizes":[8,2,9,6,4,1,7,4,1,9],"default_left":[0,0,0,0,0,0,0,0,0,0,0,0,0,0,0,0,0,0,0,0,0,0,0,0,0,0,0,0,0,0,0,0,0,0,0,0,0,0,0,0,0,0,0,0,0,0,0,0,0,0,0,0,0,0,0,0,0,0,0,0,0,0,0,0,0,0,0,0,0,0,0,0,0,0,0,0,0,0,0,0,0,0,0,0,0,0,0,0,0,0,0,0,0,0,0,0,0,0,0,0,0,0,0,0,0,0,0,0,0,0,0,0,0,0,0,0,0,0,0,0,0,0,0,0,0],"id":2,"left_children":[1,3,5,7,9,11,13,15,17,19,21,23,25,27,29,31,33,35,37,39,41,43,45,47,49,51,53,55,57,59,61,63,65,67,-1,69,71,73,75,77,79,81,83,85,87,89,91,93,95,97,99,101,103,105,107,109,111,113,115,117,119,121,123,-1,-1,-1,-1,-1,-1,-1,-1,-1,-1,-1,-1,-1,-1,-1,-1,-1,-1,-1,-1,-1,-1,-1,-1,-1,-1,-1,-1,-1,-1,-1,-1,-1,-1,-1,-1,-1,-1,-1,-1,-1,-1,-1,-1,-1,-1,-1,-1,-1,-1,-1,-1,-1,-1,-1,-1,-1,-1,-1,-1,-1,-1],"loss_changes":[2.9238162E3,9.937388E2,1.9108934E3,2.3285178E2,6.217993E2,1.1753923E3,7.725995E2,9.709035E1,8.6864235E1,2.2308398E2,1.7182133E2,1.00058264E3,9.902063E1,4.835774E2,1.9442728E2,5.124359E1,4.0406006E1,6.112108E1,4.3257492E1,4.5583984E1,1.7518652E2,5.4635315E1,3.2319298E1,1.1591913E2,4.481692E2,5.7959717E1,6.069873E1,2.592336E2,1.7197583E2,3.296483E1,1.24186646E2,4.895221E1,2.0099136E1,2.8285713E1,0E0,5.170346E1,1.4670364E1,1.9046993E1,2.1896486E1,3.0012405E1,2.0148438E1,1.4356592E2,2.0388675E2,8.8681435E1,1.1610712E2,3.0574955E1,2.5470959E1,9.74884E0,1.6141223E2,3.185658E2,4.2919495E2,3.614673E1,2.7084127E1,2.0557617E1,3.0985994E1,3.2600906E1,1.9205208E2,1.3771802E2,3.6305096E2,9.941147E0,2.5812588E1,2.8932718E1,3.0804459E1,0E0,0E0,0E0,0E0,0E0,0E0,0E0,0E0,0E0,0E0,0E0,0E0,0E0,0E0,0E0,0E0,0E0,0E0,0E0,0E0,0E0,0E0,0E0,0E0,0E0,0E0,0E0,0E0,0E0,0E0,0E0,0E0,0E0,0E0,0E0,0E0,0E0,0E0,0E0,0E0,0E0,0E0,0E0,0E0,0E0,0E0,0E0,0E0,0E0,0E0,0E0,0E0,0E0,0E0,0E0,0E0,0E0,0E0,0E0,0E0,0E0,0E0],"parents":[2147483647,0,0,1,1,2,2,3,3,4,4,5,5,6,6,7,7,8,8,9,9,10,10,11,11,12,12,13,13,14,14,15,15,16,16,17,17,18,18,19,19,20,20,21,21,22,22,23,23,24,24,25,25,26,26,27,27,28,28,29,29,30,30,31,31,32,32,33,33,35,35,36,36,37,37,38,38,39,39,40,40,41,41,42,42,43,43,44,44,45,45,46,46,47,47,48,48,49,49,50,50,51,51,52,52,53,53,54,54,55,55,56,56,57,57,58,58,59,59,60,60,61,61,62,62],"right_children":[2,4,6,8,10,12,14,16,18,20,22,24,26,28,30,32,34,36,38,40,42,44,46,48,50,52,54,56,58,60,62,64,66,68,-1,70,72,74,76,78,80,82,84,86,88,90,92,94,96,98,100,102,104,106,108,110,112,114,116,118,120,122,124,-1,-1,-1,-1,-1,-1,-1,-1,-1,-1,-1,-1,-1,-1,-1,-1,-1,-1,-1,-1,-1,-1,-1,-1,-1,-1,-1,-1,-1,-1,-1,-1,-1,-1,-1,-1,-1,-1,-1,-1,-1,-1,-1,-1,-1,-1,-1,-1,-1,-1,-1,-1,-1,-1,-1,-1,-1,-1,-1,-1,-1,-1],"split_conditions":[1.3446791E0,NaN,NaN,3.3986933E0,3.7230675E0,1.1098402E0,1.1102262E0,5.4846315E0,3.4339886E-2,4.445734E-1,4.4718986E0,NaN,2.5881114E0,3.9122555E0,2.5881114E0,5.579498E-1,3.669232E-2,4.4563937E0,7.918104E-1,NaN,4.8978543E0,NaN,4.8188167E0,-1.197761E0,-3.583351E-1,NaN,NaN,-2.1316272E-3,4.753907E0,2.4750133E0,6.577411E0,4.548272E0,1.1269215E0,-4.5344174E-1,-1.8210469E-1,-1.197761E0,-3.583351E-1,3.2582363E-1,8.772063E-1,8.425656E-1,3.7306726E-1,NaN,-4.557325E-1,8.5446686E-1,-4.9921548E-1,7.9329324E0,1.2464824E0,1.0224899E0,4.4699717E0,3.9671216E0,NaN,6.4180756E-1,8.797403E-2,NaN,1.314582E-1,1.6544214E0,3.3863202E-1,4.3515697E0,-3.8862693E-1,1.7684726E0,1.1782433E-1,1.6428905E0,3.9039213E-2,-5.886745E-3,-7.369595E-2,-8.0104046E-2,-3.0339291E-2,-1.6652131E-1,1.0313933E-1,1.3875052E-1,1.2765418E-2,1.12278596E-1,4.675515E-2,-3.2042418E-2,-1.6506337E-1,2.0302383E-2,-1.2734585E-1,-1.005396E-1,1.12200035E-2,-1.2234582E-1,-1.4697967E-1,-7.7548474E-2,-1.1593322E-1,1.0485433E-2,-8.168044E-2,5.416919E-2,-6.57944E-2,3.1855952E-3,-8.291688E-2,-2.253921E-2,8.80628E-2,5.48093E-2,-7.7372625E-2,9.9708475E-2,1.5508789E-1,2.0355491E-2,6.416983E-2,-3.5590533E-2,1.741661E-2,-7.4367435E-3,-7.018231E-2,9.252325E-2,1.3012479E-1,1.0593939E-1,-1.5392141E-1,1.1922689E-1,6.692725E-2,-5.0769813E-2,3.4787346E-2,3.9468477E-3,-5.7665206E-2,8.9633785E-2,-6.8436E-2,-5.3769227E-2,-9.218847E-2,1.2265033E-2,-7.606976E-2,4.682618E-2,7.736636E-2,-1.0356409E-2,4.3748267E-2,-4.463402E-2,5.5865742E-2,4.7128323E-2,-6.921169E-2],"split_indices":[5,6,6,1,1,3,3,2,3,5,1,6,3,2,3,4,3,2,7,6,2,6,1,3,3,6,6,3,2,5,2,2,5,3,0,3,3,4,4,7,4,6,3,7,3,2,7,7,2,2,6,4,0,6,4,5,3,2,3,5,4,5,0,0,0,0,0,0,0,0,0,0,0,0,0,0,0,0,0,0,0,0,0,0,0,0,0,0,0,0,0,0,0,0,0,0,0,0,0,0,0,0,0,0,0,0,0,0,0,0,0,0,0,0,0,0,0,0,0,0,0,0,0,0,0],"split_type":[0,1,1,0,0,0,0,0,0,0,0,1,0,0,0,0,0,0,0,1,0,1,0,0,0,1,1,0,0,0,0,0,0,0,0,0,0,0,0,0,0,1,0,0,0,0,0,0,0,0,1,0,0,1,0,0,0,0,0,0,0,0,0,0,0,0,0,0,0,0,0,0,0,0,0,0,0,0,0,0,0,0,0,0,0,0,0,0,0,0,0,0,0,0,0,0,0,0,0,0,0,0,0,0,0,0,0,0,0,0,0,0,0,0,0,0,0,0,0,0,0,0,0,0,0],"sum_hessian":[3.4948723E4,1.0239593E4,2.4709129E4,1.7872253E3,8.452368E3,1.5816773E4,8.892355E3,1.0982357E3,6.889896E2,6.8829517E3,1.5694163E3,1.3885233E4,1.9315405E3,7.428782E3,1.4635731E3,1.0169744E3,8.126127E1,5.0567447E2,1.8331517E2,1.6820317E3,5.20092E3,1.1192906E3,4.5012555E2,3.650373E3,1.0234859E4,1.190471E3,7.410696E2,9.8382336E2,6.444959E3,9.1232117E2,5.51252E2,5.7925433E2,4.3772015E2,7.6298355E1,4.9629154E0,2.7543732E2,2.3023717E2,4.355911E1,1.3975607E2,1.7156285E2,1.510469E3,4.0127073E3,1.1882125E3,2.4536574E2,8.739249E2,2.062296E2,2.4389597E2,2.7969836E2,3.3706748E3,5.8746826E3,4.3601772E3,1.173412E3,1.7058891E1,4.6358337E2,2.774862E2,5.020125E2,4.8181082E2,4.398274E3,2.0466853E3,4.8114093E2,4.311802E2,1.9279604E2,3.5845596E2,4.396928E2,1.395615E2,3.276707E2,1.1004945E2,3.2273812E0,7.307097E1,3.6774574E1,2.3866273E2,1.8590161E2,4.433556E1,2.0673393E1,2.2885714E1,1.298725E2,9.883579E0,1.4294572E2,2.861712E1,6.042545E2,9.062144E2,1.7054944E3,2.307213E3,3.3326297E2,8.5494946E2,1.15413284E2,1.2995245E2,2.042302E2,6.6969476E2,1.7817802E2,2.8051569E1,2.2919128E2,1.4704671E1,2.3889604E2,4.080231E1,1.755418E3,1.6152568E3,1.5334417E3,4.3412407E3,2.185731E3,2.1744463E3,7.755804E2,3.9783167E2,4.952885E0,1.2106006E1,9.7019646E1,3.6656375E2,5.1086063E1,2.2640013E2,1.0971633E2,3.922962E2,3.8673035E2,9.5080475E1,1.3530994E3,3.0451743E3,7.1422943E2,1.3324558E3,1.7293692E2,3.08204E2,1.22877846E2,3.0830237E2,3.4118904E1,1.5867712E2,2.3734081E1,3.3472186E2],"tree_param":{"num_deleted":"0","num_feature":"8","num_nodes":"125","size_leaf_vector":"0"}},{"base_weights":[-2.51246E-1,1.7442425E-1,-4.1497228E-1,-1.1461888E-1,3.4373605E-1,-5.4012144E-1,3.4277636E-1,1.24284446E-1,-3.9420992E-1,1.416329E-1,4.4882405E-1,-8.7012345E-1,-3.57417E-1,6.971285E-1,1.8537724E-2,-1.7501194E-2,5.1881117E-1,-4.971351E-1,2.1049877E-1,1.9060795E-1,-4.5984516E-1,5.544551E-1,1.9878352E-1,-1.0015413E0,-6.645376E-1,-1.8266627E-1,-5.318194E-1,9.0633595E-1,2.8893253E-1,3.0451727E-1,-4.1526568E-1,8.769202E-1,-8.659163E-2,7.081779E-1,6.900824E-2,-2.7584854E-1,-6.2560534E-1,4.9392693E-2,8.434662E-1,-7.951199E-2,2.6772594E-1,-5.976296E-1,6.3876855E-1,3.70936E-1,6.616297E-1,-3.1853527E-2,3.2706812E-1,-1.1608434E0,-7.8886175E-1,-4.5872435E-1,-9.233987E-1,-1.2305983E-1,-1.104099E0,4.903992E-2,-6.214129E-1,-1.1633188E0,9.389789E-1,-8.570865E-1,3.9824656E-1,-1.4480111E-1,3.999029E-1,-8.058619E-1,-1.7624918E-1,2.9038286E-2,1.1555537E-1,-3.721302E-2,1.7427297E-2,3.012366E-2,1.03119746E-1,8.4797285E-2,-1.6044984E-2,-4.3544427E-2,2.0116305E-2,-9.533044E-2,-4.5262706E-2,2.7733881E-2,-5.310419E-2,1.0261933E-1,-3.372748E-2,4.5110516E-2,-2.2219514E-2,4.3470737E-2,1.574768E-2,9.326996E-2,-7.09955E-2,1.12469874E-1,-6.208351E-2,2.3201626E-2,6.5456234E-2,4.6916664E-2,7.700009E-2,3.382257E-2,-1.5996104E-2,2.6833309E-2,8.163353E-2,-1.3467614E-1,-1.07703105E-1,-6.230228E-2,-8.781787E-2,-1.0534135E-1,-3.4930304E-2,-2.0980397E-2,-1.0406748E-1,6.725183E-3,-4.1090664E-2,9.926775E-3,-1.16125E-1,-2.9922074E-2,6.510108E-2,-6.959046E-2,-3.3160444E-2,-1.6593067E-1,8.358802E-2,-1.9594121E-3,9.8884664E-2,-1.6907471E-1,3.896291E-2,8.2204415E-4,5.5838794E-2,-1.1378932E-1,2.7014209E-2,6.6738E-2,2.708363E-2,1.2801646E-1,-8.479615E-2,5.5006314E-2,-5.25779E-2],"categories":[0,2,3,4,6,9,10,1,5,1,2,4,5,7,8,0,2,3,4,5,6,9,10,4,10,7,0,2,3,4,5,6,8,3,4,9,10],"categories_nodes":[0,3,6,10,12,34,42,48],"categories_segments":[0,7,9,15,23,25,26,33],"categories_sizes":[7,2,6,8,2,1,7,4],"default_left":[0,0,0,0,0,0,0,0,0,0,0,0,0,0,0,0,0,0,0,0,0,0,0,0,0,0,0,0,0,0,0,0,0,0,0,0,0,0,0,0,0,0,0,0,0,0,0,0,0,0,0,0,0,0,0,0,0,0,0,0,0,0,0,0,0,0,0,0,0,0,0,0,0,0,0,0,0,0,0,0,0,0,0,0,0,0,0,0,0,0,0,0,0,0,0,0,0,0,0,0,0,0,0,0,0,0,0,0,0,0,0,0,0,0,0,0,0,0,0,0,0,0,0,0,0,0,0],"id":3,"left_children":[1,3,5,7,9,11,13,15,17,19,21,23,25,27,29,31,33,35,37,39,41,43,45,47,49,51,53,55,57,59,61,63,65,67,69,71,73,75,77,79,81,83,85,87,89,91,93,95,97,99,101,103,105,107,109,111,113,115,117,119,121,123,125,-1,-1,-1,-1,-1,-1,-1,-1,-1,-1,-1,-1,-1,-1,-1,-1,-1,-1,-1,-1,-1,-1,-1,-1,-1,-1,-1,-1,-1,-1,-1,-1,-1,-1,-1,-1,-1,-1,-1,-1,-1,-1,-1,-1,-1,-1,-1,-1,-1,-1,-1,-1,-1,-1,-1,-1,-1,-1,-1,-1,-1,-1,-1,-1],"loss_changes":[2.4207927E3,4.7226035E2,2.3790894E3,2.381809E2,1.2917743E2,1.2978008E3,4.0860364E2,1.0758916E2,1.0235893E2,6.1452232E1,1.0561786E2,2.0660352E2,4.2229773E2,1.4485297E2,2.3064789E2,8.7561966E1,4.3261444E1,3.9748444E1,2.4397987E1,4.016324E1,2.4168655E1,5.509424E1,3.5231564E1,1.5757764E2,1.5911975E2,3.8017273E2,3.6099512E2,7.6962585E1,7.26595E1,4.807939E1,6.8821815E1,1.6269966E1,9.802384E1,4.671135E1,2.7260225E1,3.9490955E1,4.9885376E1,2.5563778E1,1.0823532E1,3.2560383E1,2.7532593E1,2.4752682E1,1.1712814E1,4.0810196E1,3.666046E1,2.0269073E1,2.176577E1,4.019336E1,2.9173828E1,1.0831589E2,1.1069922E2,3.5636273E2,2.904065E1,1.9470375E2,1.2950073E2,1.9120363E1,5.2894287E1,5.3234528E1,3.295426E1,8.146345E1,3.1735886E1,2.5688293E1,1.1695378E2,0E0,0E0,0E0,0E0,0E0,0E0,0E0,0E0,0E0,0E0,0E0,0E0,0E0,0E0,0E0,0E0,0E0,0E0,0E0,0E0,0E0,0E0,0E0,0E0,0E0,0E0,0E0,0E0,0E0,0E0,0E0,0E0,0E0,0E0,0E0,0E0,0E0,0E0,0E0,0E0,0E0,0E0,0E0,0E0,0E0,0E0,0E0,0E0,0E0,0E0,0E0,0E0,0E0,0E0,0E0,0E0,0E0,0E0,0E0,0E0,0E0,0E0,0E0,0E0],"parents":[2147483647,0,0,1,1,2,2,3,3,4,4,5,5,6,6,7,7,8,8,9,9,10,10,11,11,12,12,13,13,14,14,15,15,16,16,17,17,18,18,19,19,20,20,21,21,22,22,23,23,24,24,25,25,26,26,27,27,28,28,29,29,30,30,31,31,32,32,33,33,34,34,35,35,36,36,37,37,38,38,39,39,40,40,41,41,42,42,43,43,44,44,45,45,46,46,47,47,48,48,49,49,50,50,51,51,52,52,53,53,54,54,55,55,56,56,57,57,58,58,59,59,60,60,61,61,62,62],"right_children":[2,4,6,8,10,12,14,16,18,20,22,24,26,28,30,32,34,36,38,40,42,44,46,48,50,52,54,56,58,60,62,64,66,68,70,72,74,76,78,80,82,84,86,88,90,92,94,96,98,100,102,104,106,108,110,112,114,116,118,120,122,124,126,-1,-1,-1,-1,-1,-1,-1,-1,-1,-1,-1,-1,-1,-1,-1,-1,-1,-1,-1,-1,-1,-1,-1,-1,-1,-1,-1,-1,-1,-1,-1,-1,-1,-1,-1,-1,-1,-1,-1,-1,-1,-1,-1,-1,-1,-1,-1,-1,-1,-1,-1,-1,-1,-1,-1,-1,-1,-1,-1,-1,-1,-1,-1,-1],"split_conditions":[NaN,1.6428905E0,1.1102262E0,NaN,4.140124E0,1.451407E0,NaN,3.6017807E0,9.642585E-1,8.592654E-1,NaN,3.1411135E0,NaN,2.6075585E0,2.5881114E0,-1.197761E0,2.3936115E-2,3.4402913E-1,4.8188167E0,1.9277599E0,8.8891184E-1,3.0969033E0,2.1028345E0,9.9730134E-1,-1.5094689E-1,5.257306E0,3.9122555E0,4.7088203E0,7.798729E-1,1.1914811E0,1.634525E0,6.963788E-1,1.1269215E0,4.4563937E0,NaN,2.5675836E-1,-4.994465E-1,5.1137185E-1,5.5161724E0,-1.0294863E0,2.7516243E-1,1.6833224E0,NaN,5.774722E-1,4.4699717E0,5.834E-1,2.5859787E0,3.739438E-1,NaN,4.0341253E0,4.051504E0,-1.5094689E-1,1.1529816E-2,1.0526943E-1,4.8871856E0,2.9709532E0,3.6790986E-2,7.874036E-1,2.8573963E-1,3.4874587E0,5.6517625E0,4.4960103E0,5.6517625E0,2.9038286E-2,1.1555537E-1,-3.721302E-2,1.7427297E-2,3.012366E-2,1.03119746E-1,8.4797285E-2,-1.6044984E-2,-4.3544427E-2,2.0116305E-2,-9.533044E-2,-4.5262706E-2,2.7733881E-2,-5.310419E-2,1.0261933E-1,-3.372748E-2,4.5110516E-2,-2.2219514E-2,4.3470737E-2,1.574768E-2,9.326996E-2,-7.09955E-2,1.12469874E-1,-6.208351E-2,2.3201626E-2,6.5456234E-2,4.6916664E-2,7.700009E-2,3.382257E-2,-1.5996104E-2,2.6833309E-2,8.163353E-2,-1.3467614E-1,-1.07703105E-1,-6.230228E-2,-8.781787E-2,-1.0534135E-1,-3.4930304E-2,-2.0980397E-2,-1.0406748E-1,6.725183E-3,-4.1090664E-2,9.926775E-3,-1.16125E-1,-2.9922074E-2,6.510108E-2,-6.959046E-2,-3.3160444E-2,-1.6593067E-1,8.358802E-2,-1.9594121E-3,9.8884664E-2,-1.6907471E-1,3.896291E-2,8.2204415E-4,5.5838794E-2,-1.1378932E-1,2.7014209E-2,6.6738E-2,2.708363E-2,1.2801646E-1,-8.479615E-2,5.5006314E-2,-5.25779E-2],"split_indices":[6,5,3,6,2,5,6,1,7,4,6,1,6,3,3,3,3,4,1,5,0,1,5,5,3,2,2,2,5,5,5,7,5,2,6,4,3,0,1,3,4,5,6,0,2,7,3,5,6,2,2,3,4,3,2,5,4,7,4,1,2,2,2,0,0,0,0,0,0,0,0,0,0,0,0,0,0,0,0,0,0,0,0,0,0,0,0,0,0,0,0,0,0,0,0,0,0,0,0,0,0,0,0,0,0,0,0,0,0,0,0,0,0,0,0,0,0,0,0,0,0,0,0,0,0,0,0],"split_type":[1,0,0,1,0,0,1,0,0,0,1,0,1,0,0,0,0,0,0,0,0,0,0,0,0,0,0,0,0,0,0,0,0,0,1,0,0,0,0,0,0,0,1,0,0,0,0,0,1,0,0,0,0,0,0,0,0,0,0,0,0,0,0,0,0,0,0,0,0,0,0,0,0,0,0,0,0,0,0,0,0,0,0,0,0,0,0,0,0,0,0,0,0,0,0,0,0,0,0,0,0,0,0,0,0,0,0,0,0,0,0,0,0,0,0,0,0,0,0,0,0,0,0,0,0,0,0],"sum_hessian":[3.473285E4,9.648291E3,2.5084559E4,3.5641035E3,6.084188E3,2.1529115E4,3.5554446E3,1.9221938E3,1.6419095E3,2.082162E3,4.002026E3,7.6706235E3,1.3858491E4,1.6982836E3,1.857161E3,1.4147239E3,5.0747003E2,1.4032462E3,2.3866336E2,1.92602E3,1.5614214E2,2.8126067E3,1.189419E3,4.677028E3,2.9935957E3,6.9233564E3,6.935135E3,1.1220125E3,5.7627106E2,1.1194653E3,7.376957E2,1.00607025E2,1.3141168E3,3.567177E2,1.5075232E2,5.165867E2,8.8665955E2,1.9110132E2,4.756204E1,4.2774243E2,1.4982776E3,1.3914682E2,1.6995316E1,1.0386124E3,1.7739944E3,4.253869E2,7.640321E2,2.6715293E3,2.0054985E3,1.6692183E3,1.3243773E3,6.5037686E3,4.195879E2,9.268114E2,6.008323E3,1.6883986E1,1.1051285E3,4.958584E1,5.2668524E2,1.9594398E2,9.235213E2,2.7914716E2,4.5854852E2,3.3058792E1,6.754823E1,6.2718396E2,6.8693286E2,1.5870859E2,1.9800914E2,3.368907E1,1.17063255E2,3.871451E2,1.294416E2,3.047722E2,5.818873E2,1.3758977E2,5.3511555E1,4.1301296E1,6.2607417E0,9.018742E1,3.3755502E2,5.9466516E2,9.0361237E2,9.015494E0,1.3013132E2,1.2341363E1,4.6539526E0,6.9836993E2,3.4024252E2,6.4097577E2,1.1330186E3,1.0896544E2,3.1642145E2,6.835254E2,8.05067E1,8.254328E2,1.8460966E3,7.048136E2,1.3006848E3,2.5806186E2,1.4111565E3,1.8732747E2,1.1370498E3,3.9156675E3,2.588101E3,1.8990421E1,4.0059747E2,5.874528E2,3.3935858E2,4.778633E3,1.2296906E3,1.36640415E1,3.2199438E0,5.4679016E1,1.0504495E3,2.950207E1,2.0083767E1,1.5361223E2,3.7307303E2,5.723057E1,1.3871341E2,2.992292E2,6.242921E2,4.9404593E0,2.742067E2,1.4879121E2,3.0975732E2],"tree_param":{"num_deleted":"0","num_feature":"8","num_nodes":"127","size_leaf_vector":"0"}},{"base_weights":[-2.280037E-1,-6.066029E-1,-7.339172E-2,-3.9929535E-2,-7.28868E-1,9.691094E-2,-3.7829474E-1,-2.788733E-1,3.5024253E-1,-8.43383E-1,-2.357843E-1,1.2216924E-2,7.1659154E-1,-4.8649317E-1,1.6724621E-1,-3.5734808E-1,6.868825E-1,5.37776E-1,-1.5673678E-1,-1.1600126E0,-7.548884E-1,-4.1837478E-1,2.1487942E-1,3.800681E-1,-1.18472084E-1,8.803572E-1,4.4438118E-1,5.451798E-2,-5.6981885E-1,3.988355E-1,-2.1675426E-1,-6.1903983E-1,-1.9954315E-1,8.5703653E-1,-1.6437519E-1,2.5949085E-1,8.741359E-1,-9.229422E-1,8.530221E-2,-6.845794E-1,-1.1985894E0,-8.4235924E-1,-4.610946E-1,-6.9426134E-2,-5.167151E-1,-3.377763E-2,4.2396608E-1,9.4722646E-1,3.3314264E-1,8.5461386E-2,-2.735669E-1,1.0071793E0,6.340255E-1,6.440445E-1,1.2877646E-1,-3.6708874E-1,4.9559107E-1,-6.7408425E-1,-3.726695E-1,5.5967367E-1,2.196017E-1,3.1095886E-1,-5.019195E-1,3.1453565E-2,-7.007136E-2,-5.0393533E-2,3.9259735E-3,-1.517072E-1,9.80334E-2,4.2721197E-2,-6.501653E-2,9.8319516E-2,4.073742E-2,-2.7321363E-2,-1.4853312E-1,-2.1827817E-2,5.548959E-2,-1.4862172E-1,-4.6420693E-2,-1.0255277E-1,-1.2934205E-1,-6.456598E-2,-1.01441815E-1,1.5421896E-2,-7.035414E-2,-4.488298E-2,6.545429E-2,7.0728855E-3,-6.990099E-2,7.3585324E-2,-1.7560802E-2,6.074797E-2,-3.2277664E-3,8.6534664E-2,1.4017007E-1,1.5708447E-2,5.259512E-2,1.2075272E-2,-7.5445235E-2,-3.5036936E-2,3.320751E-2,4.860358E-2,1.0800705E-1,1.0277635E-1,5.314205E-2,7.0260525E-2,-7.5342014E-2,-1.696441E-1,1.75331E-2,-1.17725074E-1,-2.8743088E-2,8.23498E-2,-5.707663E-2,-4.2067494E-2,-7.940298E-2,1.4459393E-2,-6.251459E-2,3.7804976E-2,6.60317E-2,-1.2325899E-2,3.5680648E-2,-3.5813898E-2,4.5613542E-2,-4.3673113E-2,-1.6842256E-1],"categories":[0,2,3,4,5,6,9,10,4,10,0,1,2,3,4,5,6,9,10,0,2,4,5,7,9,10,0,2,3,4,6,9,10,2,4,6,10,0,3,4,0,1,2,4,5,6,7,9,10,2],"categories_nodes":[1,2,11,12,19,21,41,52,53],"categories_segments":[0,8,10,19,26,33,37,40,49],"categories_sizes":[8,2,9,7,7,4,3,9,1],"default_left":[0,0,0,0,0,0,0,0,0,0,0,0,0,0,0,0,0,0,0,0,0,0,0,0,0,0,0,0,0,0,0,0,0,0,0,0,0,0,0,0,0,0,0,0,0,0,0,0,0,0,0,0,0,0,0,0,0,0,0,0,0,0,0,0,0,0,0,0,0,0,0,0,0,0,0,0,0,0,0,0,0,0,0,0,0,0,0,0,0,0,0,0,0,0,0,0,0,0,0,0,0,0,0,0,0,0,0,0,0,0,0,0,0,0,0,0,0,0,0,0,0,0,0,0,0],"id":4,"left_children":[1,3,5,7,9,11,13,15,17,19,21,23,25,27,29,31,33,35,37,39,41,43,45,47,49,51,53,55,57,59,61,63,65,67,-1,69,71,73,75,77,79,81,83,85,87,89,91,93,95,97,99,101,103,105,107,109,111,113,115,117,119,121,123,-1,-1,-1,-1,-1,-1,-1,-1,-1,-1,-1,-1,-1,-1,-1,-1,-1,-1,-1,-1,-1,-1,-1,-1,-1,-1,-1,-1,-1,-1,-1,-1,-1,-1,-1,-1,-1,-1,-1,-1,-1,-1,-1,-1,-1,-1,-1,-1,-1,-1,-1,-1,-1,-1,-1,-1,-1,-1,-1,-1,-1,-1],"loss_changes":[2.0181254E3,6.926116E2,1.2712506E3,1.6560057E2,4.641079E2,8.244297E2,5.179668E2,8.372809E1,6.423084E1,1.8609277E2,1.27729965E2,6.644686E2,8.380841E1,3.3010266E2,1.2929004E2,4.1974365E1,3.4372803E1,4.5895096E1,3.4008064E1,2.5878296E1,1.3370532E2,3.785698E1,2.3301908E1,9.6114685E1,3.2259338E2,3.6171204E1,4.4752243E1,1.8207103E2,1.3017139E2,2.6013245E1,8.250543E1,2.9423904E1,4.635286E1,2.4356129E1,0E0,4.1634144E1,1.093428E1,1.567355E1,2.0072369E1,1.902235E1,2.0749023E1,1.3538525E2,1.790259E2,6.7296265E1,9.2285355E1,2.2563631E1,2.0398132E1,9.069946E0,1.1356506E2,1.3070358E2,2.6958426E2,2.8957642E1,1.574115E1,3.617334E1,2.3830755E1,3.1972488E1,1.6776627E2,1.2576868E2,2.8701456E2,8.473129E0,2.0292908E1,1.8870941E1,2.6674225E1,0E0,0E0,0E0,0E0,0E0,0E0,0E0,0E0,0E0,0E0,0E0,0E0,0E0,0E0,0E0,0E0,0E0,0E0,0E0,0E0,0E0,0E0,0E0,0E0,0E0,0E0,0E0,0E0,0E0,0E0,0E0,0E0,0E0,0E0,0E0,0E0,0E0,0E0,0E0,0E0,0E0,0E0,0E0,0E0,0E0,0E0,0E0,0E0,0E0,0E0,0E0,0E0,0E0,0E0,0E0,0E0,0E0,0E0,0E0,0E0,0E0,0E0],"parents":[2147483647,0,0,1,1,2,2,3,3,4,4,5,5,6,6,7,7,8,8,9,9,10,10,11,11,12,12,13,13,14,14,15,15,16,16,17,17,18,18,19,19,20,20,21,21,22,22,23,23,24,24,25,25,26,26,27,27,28,28,29,29,30,30,31,31,32,32,33,33,35,35,36,36,37,37,38,38,39,39,40,40,41,41,42,42,43,43,44,44,45,45,46,46,47,47,48,48,49,49,50,50,51,51,52,52,53,53,54,54,55,55,56,56,57,57,58,58,59,59,60,60,61,61,62,62],"right_children":[2,4,6,8,10,12,14,16,18,20,22,24,26,28,30,32,34,36,38,40,42,44,46,48,50,52,54,56,58,60,62,64,66,68,-1,70,72,74,76,78,80,82,84,86,88,90,92,94,96,98,100,102,104,106,108,110,112,114,116,118,120,122,124,-1,-1,-1,-1,-1,-1,-1,-1,-1,-1,-1,-1,-1,-1,-1,-1,-1,-1,-1,-1,-1,-1,-1,-1,-1,-1,-1,-1,-1,-1,-1,-1,-1,-1,-1,-1,-1,-1,-1,-1,-1,-1,-1,-1,-1,-1,-1,-1,-1,-1,-1,-1,-1,-1,-1,-1,-1,-1,-1,-1,-1,-1],"split_conditions":[1.3446791E0,NaN,NaN,3.4065714E0,3.7230675E0,1.1098402E0,1.1102262E0,5.4846315E0,3.4339886E-2,4.0990782E-1,4.4718986E0,NaN,NaN,3.9122555E0,2.5881114E0,2.776395E0,3.669232E-2,4.4563937E0,7.918104E-1,NaN,4.8978543E0,NaN,4.8188167E0,-1.197761E0,3.108504E-1,2.6075585E0,2.5881114E0,-2.1316272E-3,4.6945744E0,2.4750133E0,6.577411E0,2.1750351E-2,8.0908227E-1,-4.5344174E-1,-1.6437519E-1,7.764364E-1,-3.583351E-1,3.2582363E-1,7.4523044E-1,3.943727E-1,3.150794E-1,NaN,-4.557325E-1,4.9902034E0,-4.9921548E-1,-7.0542884E-1,5.900861E-1,4.2602844E0,4.4699717E0,5.257306E0,4.144433E0,2.076615E-1,NaN,NaN,1.4198241E0,-1.1080471E0,2.540256E-1,4.3515697E0,-3.8862693E-1,1.7684726E0,1.1782433E-1,1.6428905E0,7.577397E-1,3.1453565E-2,-7.007136E-2,-5.0393533E-2,3.9259735E-3,-1.517072E-1,9.80334E-2,4.2721197E-2,-6.501653E-2,9.8319516E-2,4.073742E-2,-2.7321363E-2,-1.4853312E-1,-2.1827817E-2,5.548959E-2,-1.4862172E-1,-4.6420693E-2,-1.0255277E-1,-1.2934205E-1,-6.456598E-2,-1.01441815E-1,1.5421896E-2,-7.035414E-2,-4.488298E-2,6.545429E-2,7.0728855E-3,-6.990099E-2,7.3585324E-2,-1.7560802E-2,6.074797E-2,-3.2277664E-3,8.6534664E-2,1.4017007E-1,1.5708447E-2,5.259512E-2,1.2075272E-2,-7.5445235E-2,-3.5036936E-2,3.320751E-2,4.860358E-2,1.0800705E-1,1.0277635E-1,5.314205E-2,7.0260525E-2,-7.5342014E-2,-1.696441E-1,1.75331E-2,-1.17725074E-1,-2.8743088E-2,8.23498E-2,-5.707663E-2,-4.2067494E-2,-7.940298E-2,1.4459393E-2,-6.251459E-2,3.7804976E-2,6.60317E-2,-1.2325899E-2,3.5680648E-2,-3.5813898E-2,4.5613542E-2,-4.3673113E-2,-1.6842256E-1],"split_indices":[5,6,6,1,1,3,3,2,3,5,1,6,6,2,3,1,3,2,7,6,2,6,1,3,4,3,3,3,2,5,2,4,5,3,0,4,3,4,3,4,4,6,3,2,3,3,0,1,2,2,1,4,6,6,5,3,3,2,3,5,4,5,4,0,0,0,0,0,0,0,0,0,0,0,0,0,0,0,0,0,0,0,0,0,0,0,0,0,0,0,0,0,0,0,0,0,0,0,0,0,0,0,0,0,0,0,0,0,0,0,0,0,0,0,0,0,0,0,0,0,0,0,0,0,0],"split_type":[0,1,1,0,0,0,0,0,0,0,0,1,1,0,0,0,0,0,0,1,0,1,0,0,0,0,0,0,0,0,0,0,0,0,0,0,0,0,0,0,0,1,0,0,0,0,0,0,0,0,0,0,1,1,0,0,0,0,0,0,0,0,0,0,0,0,0,0,0,0,0,0,0,0,0,0,0,0,0,0,0,0,0,0,0,0,0,0,0,0,0,0,0,0,0,0,0,0,0,0,0,0,0,0,0,0,0,0,0,0,0,0,0,0,0,0,0,0,0,0,0,0,0,0,0],"sum_hessian":[3.4476426E4,9.996069E3,2.4480357E4,1.7742261E3,8.221844E3,1.57076045E4,8.772753E3,1.1005361E3,6.736899E2,6.6716846E3,1.5501589E3,1.3819818E4,1.8877854E3,7.320891E3,1.4518616E3,1.01841266E3,8.212354E1,4.9173468E2,1.819552E2,1.4547059E3,5.216979E3,1.1032421E3,4.469168E2,3.6222737E3,1.0197545E4,1.1772817E3,7.105038E2,9.77112E2,6.3437793E3,9.0563666E2,5.4622485E2,3.8200375E2,6.364089E2,7.712509E1,4.998445E0,2.7006754E2,2.2166716E2,4.3004803E1,1.3895041E2,1.10583824E2,1.3441221E3,4.018646E3,1.1983329E3,2.4293239E2,8.603097E2,2.0452417E2,2.4239264E2,2.753313E2,3.3469424E3,4.40538E3,5.792165E3,7.751255E2,4.021562E2,4.3455032E2,2.7595343E2,4.9966605E2,4.7744598E2,4.147757E3,2.1960225E3,4.7619418E2,4.294425E2,1.91589E2,3.5463586E2,3.05017E1,3.5150204E2,2.7929404E2,3.5711487E2,3.2495933E0,7.38755E1,2.2847246E2,4.1595074E1,1.78787E2,4.288015E1,2.0642412E1,2.236239E1,8.471773E1,5.4232677E1,2.2606216E1,8.797761E1,4.799862E2,8.6413586E2,1.8772767E3,2.1413694E3,3.3881287E2,8.595201E2,1.5964748E2,8.328492E1,2.0388933E2,6.5642035E2,3.1173811E1,1.7335036E2,1.7262622E2,6.9766426E1,2.3575993E2,3.9571377E1,1.7504128E3,1.5965297E3,4.2285615E3,1.7681866E2,5.1406875E3,6.5147754E2,9.605302E1,6.7907245E2,8.127061E1,3.208856E2,4.175501E2,1.700021E1,5.9820275E0,2.699714E2,4.349727E1,4.5616876E2,3.6533313E2,1.1211287E2,1.3339741E3,2.8137825E3,7.204404E2,1.4755819E3,1.7148457E2,3.047096E2,1.2276555E2,3.0667694E2,3.389677E1,1.5769223E2,3.3740204E2,1.7233822E1],"tree_param":{"num_deleted":"0","num_feature":"8","num_nodes":"125","size_leaf_vector":"0"}},{"base_weights":[-2.071073E-1,1.3780847E-1,-3.499477E-1,-1.3303109E-1,2.6926222E-1,-4.576936E-1,2.9896352E-1,-2.8521824E-1,2.2637187E-1,1.9769956E-1,5.138327E-1,-7.434139E-1,-3.0297863E-1,5.0700045E-1,-9.108229E-2,-3.550283E-2,-4.5371488E-1,4.0811953E-1,-2.1106629E-1,1.670977E-1,6.078834E-1,4.0692627E-1,8.835082E-1,-8.078226E-1,-3.943354E-1,-1.6375767E-1,-4.3844867E-1,8.814211E-1,3.1924465E-1,1.6209067E-1,-5.383804E-1,2.0095551E-1,-3.7396508E-1,-8.048092E-1,-3.7625453E-1,5.4479796E-1,-3.3500496E-2,-1.3707398E-1,-1.6527069E-1,3.1504717E-1,5.4045375E-2,8.079533E-1,2.2089134E-1,6.6073835E-1,3.058473E-1,1.2885151E0,3.199415E-1,-1.1155224E0,-7.296324E-1,3.5029016E-2,-5.906034E-1,7.649143E-2,-3.5566202E-1,3.9186526E-2,-5.1281655E-1,-3.3280692E-1,9.204717E-1,-1.4632624E0,3.3979148E-1,-9.031243E-1,2.8497055E-1,5.381622E-1,-6.233088E-1,-1.772515E-2,6.314648E-2,-7.109717E-2,4.7162897E-4,-1.0394186E-1,-6.3877515E-2,-2.2753883E-2,-5.805486E-2,2.8283516E-2,8.529552E-2,-1.11272454E-1,1.5523711E-2,-1.6976137E-1,-7.51006E-3,7.773747E-2,2.7491808E-2,8.265179E-3,-4.053329E-2,5.886965E-2,1.18907444E-1,2.3251404E-3,6.6820815E-2,7.601468E-2,-1.0594207E-1,9.9370435E-2,2.5981477E-2,9.7582646E-2,1.4475225E-1,-1.6196357E-1,4.671806E-2,-1.23418294E-1,-9.605294E-2,-8.1506185E-2,-5.685696E-2,1.287921E-2,-1.569554E-1,-1.9407962E-2,-7.285695E-2,1.2629096E-2,-6.2381666E-2,-6.2064897E-2,-1.1623206E-2,-2.573557E-2,5.5790167E-2,-5.573966E-2,-1.29472315E-2,-1.6625613E-1,4.3784153E-2,7.658823E-2,1.1543448E-1,-1.9661179E-2,-1.74636E-1,-5.497205E-5,4.094135E-2,-1.5622611E-1,2.4070272E-2,-1.1271018E-1,3.1259466E-2,-4.1184805E-2,8.912684E-2,-5.6711167E-2,-1.5790689E-1],"categories":[0,3,4,6,9,10,1,2,5,8,4,10,0,1,2,4,5,7,8,9,10,5,2,0,1,2,3,4,5,6,8,9,10,0,2,3,4,6,7,9,10,0,2,3,4,5,6,7,9,10,9],"categories_nodes":[0,7,12,13,17,18,19,20,21,49],"categories_segments":[0,6,10,12,21,22,23,33,41,50],"categories_sizes":[6,4,2,9,1,1,10,8,9,1],"default_left":[0,0,0,0,0,0,0,0,0,0,0,0,0,0,0,0,0,0,0,0,0,0,0,0,0,0,0,0,0,0,0,0,0,0,0,0,0,0,0,0,0,0,0,0,0,0,0,0,0,0,0,0,0,0,0,0,0,0,0,0,0,0,0,0,0,0,0,0,0,0,0,0,0,0,0,0,0,0,0,0,0,0,0,0,0,0,0,0,0,0,0,0,0,0,0,0,0,0,0,0,0,0,0,0,0,0,0,0,0,0,0,0,0,0,0,0,0,0,0,0,0,0,0,0,0],"id":5,"left_children":[1,3,5,7,9,11,13,15,17,19,21,23,25,27,29,31,33,35,37,39,41,43,45,47,49,51,53,55,57,59,61,63,65,67,69,71,73,75,-1,77,79,81,83,85,87,89,91,93,95,97,99,101,103,105,107,109,111,113,115,117,119,121,123,-1,-1,-1,-1,-1,-1,-1,-1,-1,-1,-1,-1,-1,-1,-1,-1,-1,-1,-1,-1,-1,-1,-1,-1,-1,-1,-1,-1,-1,-1,-1,-1,-1,-1,-1,-1,-1,-1,-1,-1,-1,-1,-1,-1,-1,-1,-1,-1,-1,-1,-1,-1,-1,-1,-1,-1,-1,-1,-1,-1,-1,-1],"loss_changes":[1.6849359E3,3.5662756E2,1.6909988E3,1.7911064E2,1.1792163E2,9.166079E2,2.795298E2,9.676372E1,7.754929E1,6.540312E1,5.9943573E1,1.6347412E2,2.5372034E2,1.5763861E2,1.3585638E2,7.4328476E1,3.7045715E1,4.158719E1,3.0350872E1,8.1231125E1,2.7843307E1,3.0210358E1,7.751773E1,1.4713086E2,9.581305E1,3.0606854E2,2.4225317E2,3.5853577E1,5.5350403E1,1.00568054E2,3.997509E1,8.915137E1,4.874586E1,8.970963E0,3.4107178E1,4.221846E1,3.3518803E1,2.634736E1,0E0,3.8818405E1,3.6233997E1,1.9204926E1,1.1010479E1,5.8392517E1,2.6645454E1,8.448334E0,4.1908085E1,2.1695312E1,6.7042725E1,5.3995377E1,4.253955E1,1.0290784E2,2.3407086E2,1.4160913E2,1.0077026E2,2.5418392E1,2.538501E1,5.8442726E0,3.51035E1,6.0314713E1,2.718357E1,1.1181756E1,2.0713364E1,0E0,0E0,0E0,0E0,0E0,0E0,0E0,0E0,0E0,0E0,0E0,0E0,0E0,0E0,0E0,0E0,0E0,0E0,0E0,0E0,0E0,0E0,0E0,0E0,0E0,0E0,0E0,0E0,0E0,0E0,0E0,0E0,0E0,0E0,0E0,0E0,0E0,0E0,0E0,0E0,0E0,0E0,0E0,0E0,0E0,0E0,0E0,0E0,0E0,0E0,0E0,0E0,0E0,0E0,0E0,0E0,0E0,0E0,0E0,0E0,0E0,0E0],"parents":[2147483647,0,0,1,1,2,2,3,3,4,4,5,5,6,6,7,7,8,8,9,9,10,10,11,11,12,12,13,13,14,14,15,15,16,16,17,17,18,18,19,19,20,20,21,21,22,22,23,23,24,24,25,25,26,26,27,27,28,28,29,29,30,30,31,31,32,32,33,33,34,34,35,35,36,36,37,37,39,39,40,40,41,41,42,42,43,43,44,44,45,45,46,46,47,47,48,48,49,49,50,50,51,51,52,52,53,53,54,54,55,55,56,56,57,57,58,58,59,59,60,60,61,61,62,62],"right_children":[2,4,6,8,10,12,14,16,18,20,22,24,26,28,30,32,34,36,38,40,42,44,46,48,50,52,54,56,58,60,62,64,66,68,70,72,74,76,-1,78,80,82,84,86,88,90,92,94,96,98,100,102,104,106,108,110,112,114,116,118,120,122,124,-1,-1,-1,-1,-1,-1,-1,-1,-1,-1,-1,-1,-1,-1,-1,-1,-1,-1,-1,-1,-1,-1,-1,-1,-1,-1,-1,-1,-1,-1,-1,-1,-1,-1,-1,-1,-1,-1,-1,-1,-1,-1,-1,-1,-1,-1,-1,-1,-1,-1,-1,-1,-1,-1,-1,-1,-1,-1,-1,-1,-1,-1],"split_conditions":[NaN,1.534011E0,1.1102262E0,3.4783561E0,3.7897508E0,1.451407E0,2.6075585E0,NaN,2.4159996E-2,2.5859787E0,5.0411706E0,3.6970284E0,NaN,NaN,5.452165E0,-3.5902062E-1,5.5953693E-1,NaN,NaN,NaN,NaN,NaN,-3.583351E-1,4.0990782E-1,-4.989258E-1,3.003533E-1,3.9122555E0,5.0154457E0,4.8704433E0,8.658116E-1,3.9039213E-2,4.4563937E0,1.1269215E0,-4.5344174E-1,3.443838E-1,4.4563937E0,3.9910023E0,1.6218154E-2,-1.6527069E-1,-1.197761E0,8.896988E-1,4.682081E0,5.78038E-1,8.966618E-1,-1.197761E0,-4.5294017E-1,2.3275163E-2,3.0098884E0,4.635914E0,NaN,1.5758868E-1,5.1867957E0,3.9585182E-1,1.0526943E-1,8.231861E-1,1.890114E0,6.676067E-1,5.729387E-1,1.1793112E0,7.874036E-1,5.049815E-1,5.2289344E-2,7.577397E-1,-1.772515E-2,6.314648E-2,-7.109717E-2,4.7162897E-4,-1.0394186E-1,-6.3877515E-2,-2.2753883E-2,-5.805486E-2,2.8283516E-2,8.529552E-2,-1.11272454E-1,1.5523711E-2,-1.6976137E-1,-7.51006E-3,7.773747E-2,2.7491808E-2,8.265179E-3,-4.053329E-2,5.886965E-2,1.18907444E-1,2.3251404E-3,6.6820815E-2,7.601468E-2,-1.0594207E-1,9.9370435E-2,2.5981477E-2,9.7582646E-2,1.4475225E-1,-1.6196357E-1,4.671806E-2,-1.23418294E-1,-9.605294E-2,-8.1506185E-2,-5.685696E-2,1.287921E-2,-1.569554E-1,-1.9407962E-2,-7.285695E-2,1.2629096E-2,-6.2381666E-2,-6.2064897E-2,-1.1623206E-2,-2.573557E-2,5.5790167E-2,-5.573966E-2,-1.29472315E-2,-1.6625613E-1,4.3784153E-2,7.658823E-2,1.1543448E-1,-1.9661179E-2,-1.74636E-1,-5.497205E-5,4.094135E-2,-1.5622611E-1,2.4070272E-2,-1.1271018E-1,3.1259466E-2,-4.1184805E-2,8.912684E-2,-5.6711167E-2,-1.5790689E-1],"split_indices":[6,5,3,1,1,5,3,6,3,3,2,1,6,6,2,3,5,6,6,6,6,6,3,5,3,4,2,2,2,5,0,2,5,3,0,2,2,4,0,3,4,2,4,4,3,3,3,1,2,6,4,2,0,3,0,5,4,7,5,7,7,4,4,0,0,0,0,0,0,0,0,0,0,0,0,0,0,0,0,0,0,0,0,0,0,0,0,0,0,0,0,0,0,0,0,0,0,0,0,0,0,0,0,0,0,0,0,0,0,0,0,0,0,0,0,0,0,0,0,0,0,0,0,0,0],"split_type":[1,0,0,0,0,0,0,1,0,0,0,0,1,1,0,0,0,1,1,1,1,1,0,0,0,0,0,0,0,0,0,0,0,0,0,0,0,0,0,0,0,0,0,0,0,0,0,0,0,1,0,0,0,0,0,0,0,0,0,0,0,0,0,0,0,0,0,0,0,0,0,0,0,0,0,0,0,0,0,0,0,0,0,0,0,0,0,0,0,0,0,0,0,0,0,0,0,0,0,0,0,0,0,0,0,0,0,0,0,0,0,0,0,0,0,0,0,0,0,0,0,0,0,0,0],"sum_hessian":[3.4197484E4,1.0014813E4,2.4182674E4,3.272446E3,6.742367E3,2.0739379E4,3.4432942E3,2.2991082E3,9.73338E2,5.217505E3,1.524862E3,7.283938E3,1.345544E4,2.2453843E3,1.19791E3,9.26793E2,1.3723152E3,6.876845E2,2.8565347E2,4.8565854E3,3.609193E2,1.1844359E3,3.4042615E2,6.1482144E3,1.1357241E3,6.6369424E3,6.818498E3,7.4867993E2,1.4967042E3,7.6535364E2,4.325564E2,5.458527E2,3.809403E2,2.4634581E2,1.1259694E3,5.2497473E2,1.6270976E2,2.7274966E2,1.2903816E1,2.102845E3,2.7537407E3,2.3720146E2,1.2371786E2,3.3577048E2,8.486654E2,1.9732925E2,1.430969E2,1.2430818E3,4.9051323E3,3.5654733E2,7.7917676E2,2.947503E3,3.6894395E3,9.1867676E2,5.8998213E3,2.309358E1,7.2558636E2,1.6255646E1,1.4804486E3,7.850074E1,6.868529E2,3.123891E1,4.0131747E2,2.9089053E2,2.5496216E2,2.01097E2,1.798433E2,9.9910355E1,1.4643546E2,6.5284503E2,4.731243E2,2.847923E2,2.4018248E2,2.3490824E1,1.3921893E2,9.409833E0,2.6333984E2,1.6647809E2,1.9363668E3,2.5930842E3,1.606565E2,1.5219128E2,8.501017E1,8.6535484E1,3.718237E1,3.1795395E2,1.781655E1,5.1940437E1,7.967249E2,6.8924995E1,1.2840425E2,9.39089E0,1.33706E2,7.001179E2,5.429639E2,3.202456E3,1.7026763E3,3.3773187E2,1.8815474E1,2.0174745E2,5.774293E2,2.752584E3,1.94919E2,1.7504987E3,1.9389408E3,5.848373E2,3.3383945E2,5.284786E3,6.1503503E2,8.048512E0,1.5045069E1,4.3941138E2,2.86175E2,3.2790124E0,1.2976633E1,2.515857E2,1.2288629E3,4.956995E1,2.893079E1,1.2415272E1,6.744377E2,8.419746E0,2.2819164E1,3.8053595E2,2.0781534E1],"tree_param":{"num_deleted":"0","num_feature":"8","num_nodes":"125","size_leaf_vector":"0"}},{"base_weights":[-1.8821086E-1,-5.107703E-1,-5.906151E-2,-3.2701913E-2,-6.1649424E-1,8.069692E-2,-3.1175217E-1,-2.3086034E-1,2.867864E-1,-7.1818584E-1,-1.902833E-1,1.2579415E-2,6.2831235E-1,-4.0079242E-1,1.3368948E-1,-2.9569498E-1,5.850812E-1,4.4194853E-1,-1.3148157E-1,-9.947632E-1,-6.333411E-1,-3.5392004E-1,2.092679E-1,3.1324217E-1,-9.3004294E-2,8.008461E-1,3.8773808E-1,5.029267E-2,-4.7099254E-1,3.446551E-1,-1.5180576E-1,5.360365E-1,-3.3899096E-1,7.404788E-1,-1.487341E-1,1.06262945E-1,6.5533876E-1,-8.2652E-1,8.536203E-2,-5.517233E-1,-1.0480998E0,-7.131285E-1,-3.7161967E-1,-3.1569776E-1,-1.2408439E0,2.3364905E-1,-1.641891E-1,8.1146497E-1,2.7309835E-1,5.3365555E-2,-2.875363E-1,8.235021E-1,-6.0057414E-1,5.7216513E-1,8.6744845E-2,-2.2276878E-1,5.3739995E-1,-5.682242E-1,-2.8884822E-1,6.203299E-1,2.3858754E-1,2.3342825E-1,-3.6136797E-1,7.9003364E-2,-1.577963E-1,-4.708275E-2,-2.851242E-3,-1.4523944E-1,8.5931286E-2,8.814255E-2,-3.0450407E-2,7.7516295E-2,1.0596536E-2,-2.1192154E-2,-1.3647075E-1,-3.973786E-2,3.5183366E-2,-1.0839462E-1,-2.6755435E-2,-9.020001E-2,-1.1462797E-1,-5.36605E-2,-8.704934E-2,2.0279236E-2,-6.0278125E-2,-5.9087712E-2,-2.0430943E-2,-3.9227765E-2,-1.5276979E-1,4.1475493E-4,4.2717036E-2,7.3496364E-2,1.2410388E-1,1.2005436E-2,4.4136673E-2,-3.0301733E-2,1.7894577E-2,1.8768332E-3,-4.9577706E-2,5.9138298E-2,9.623829E-2,1.1030885E-1,-1.357596E-1,9.379974E-2,4.7533553E-2,-5.0864518E-2,2.239996E-2,-4.5582235E-2,3.0731147E-3,1.0616547E-1,-5.6270786E-2,-3.3229083E-2,-6.810997E-2,1.8053774E-2,-5.2170027E-2,-1.6528033E-1,6.678755E-2,-9.855137E-2,2.6780352E-2,4.563279E-3,6.9647186E-2,-4.6074178E-2,3.081713E-2],"categories":[0,2,3,4,5,6,9,10,4,10,0,1,2,3,4,5,6,9,10,0,2,3,4,6,9,2,0,2,4,5,7,9,10,0,1,2,3,4,5,6,8,0,3,4,1,6,0,1,2,4,5,6,7,9,10],"categories_nodes":[1,2,11,19,25,26,31,41,50,53],"categories_segments":[0,8,10,19,25,26,33,41,44,46],"categories_sizes":[8,2,9,6,1,7,8,3,2,9],"default_left":[0,0,0,0,0,0,0,0,0,0,0,0,0,0,0,0,0,0,0,0,0,0,0,0,0,0,0,0,0,0,0,0,0,0,0,0,0,0,0,0,0,0,0,0,0,0,0,0,0,0,0,0,0,0,0,0,0,0,0,0,0,0,0,0,0,0,0,0,0,0,0,0,0,0,0,0,0,0,0,0,0,0,0,0,0,0,0,0,0,0,0,0,0,0,0,0,0,0,0,0,0,0,0,0,0,0,0,0,0,0,0,0,0,0,0,0,0,0,0,0,0,0,0],"id":6,"left_children":[1,3,5,7,9,11,13,15,17,19,21,23,25,27,29,31,33,35,37,39,41,43,45,47,49,51,53,55,57,59,61,63,65,67,-1,69,71,73,75,77,79,81,83,85,87,89,-1,91,93,95,97,99,101,103,105,107,109,111,113,115,117,119,121,-1,-1,-1,-1,-1,-1,-1,-1,-1,-1,-1,-1,-1,-1,-1,-1,-1,-1,-1,-1,-1,-1,-1,-1,-1,-1,-1,-1,-1,-1,-1,-1,-1,-1,-1,-1,-1,-1,-1,-1,-1,-1,-1,-1,-1,-1,-1,-1,-1,-1,-1,-1,-1,-1,-1,-1,-1,-1,-1,-1],"loss_changes":[1.4126158E3,4.9001E2,8.5522974E2,1.1129128E2,3.4397363E2,5.8164685E2,3.420999E2,5.7564117E1,4.373408E1,1.4977905E2,1.001566E2,4.403027E2,7.128961E1,2.2762622E2,8.662848E1,3.6396835E1,2.6927786E1,3.5109604E1,2.763169E1,3.49364E1,1.0221802E2,3.6436066E1,2.0485834E1,7.18764E1,2.9230365E2,3.236035E1,4.005095E1,1.2898428E2,1.099884E2,2.4031189E1,4.945234E1,2.8173576E1,3.9139656E1,2.0861954E1,0E0,6.1421303E1,1.9669846E1,1.4125576E1,1.8186256E1,2.4453678E1,1.8191895E1,1.0398108E2,1.5264732E2,3.1843422E1,1.0242775E1,1.9561502E1,0E0,7.904602E0,8.589615E1,2.6225317E2,2.8115115E2,3.128357E1,2.2836044E1,1.54149475E1,2.2639017E1,3.673301E1,2.0147986E2,1.07736694E2,2.3690804E2,2.5868187E1,2.1678356E1,1.87563E1,2.6520004E1,0E0,0E0,0E0,0E0,0E0,0E0,0E0,0E0,0E0,0E0,0E0,0E0,0E0,0E0,0E0,0E0,0E0,0E0,0E0,0E0,0E0,0E0,0E0,0E0,0E0,0E0,0E0,0E0,0E0,0E0,0E0,0E0,0E0,0E0,0E0,0E0,0E0,0E0,0E0,0E0,0E0,0E0,0E0,0E0,0E0,0E0,0E0,0E0,0E0,0E0,0E0,0E0,0E0,0E0,0E0,0E0,0E0,0E0,0E0,0E0],"parents":[2147483647,0,0,1,1,2,2,3,3,4,4,5,5,6,6,7,7,8,8,9,9,10,10,11,11,12,12,13,13,14,14,15,15,16,16,17,17,18,18,19,19,20,20,21,21,22,22,23,23,24,24,25,25,26,26,27,27,28,28,29,29,30,30,31,31,32,32,33,33,35,35,36,36,37,37,38,38,39,39,40,40,41,41,42,42,43,43,44,44,45,45,47,47,48,48,49,49,50,50,51,51,52,52,53,53,54,54,55,55,56,56,57,57,58,58,59,59,60,60,61,61,62,62],"right_children":[2,4,6,8,10,12,14,16,18,20,22,24,26,28,30,32,34,36,38,40,42,44,46,48,50,52,54,56,58,60,62,64,66,68,-1,70,72,74,76,78,80,82,84,86,88,90,-1,92,94,96,98,100,102,104,106,108,110,112,114,116,118,120,122,-1,-1,-1,-1,-1,-1,-1,-1,-1,-1,-1,-1,-1,-1,-1,-1,-1,-1,-1,-1,-1,-1,-1,-1,-1,-1,-1,-1,-1,-1,-1,-1,-1,-1,-1,-1,-1,-1,-1,-1,-1,-1,-1,-1,-1,-1,-1,-1,-1,-1,-1,-1,-1,-1,-1,-1,-1,-1,-1,-1],"split_conditions":[1.3446791E0,NaN,NaN,3.3986933E0,3.7230675E0,2.5859787E0,1.1102262E0,5.4846315E0,3.4339886E-2,4.445734E-1,4.4718986E0,NaN,2.5881114E0,3.9122555E0,2.587752E0,-1.1991392E0,3.669232E-2,4.2369146E0,7.918104E-1,NaN,4.8978543E0,1.2776613E0,1.3107971E0,-1.197761E0,-3.583351E-1,NaN,NaN,1.0526943E-1,4.6945744E0,5.6517625E0,6.577411E0,NaN,1.1269215E0,-4.5344174E-1,-1.487341E-1,3.8363197E0,-3.583351E-1,3.2582363E-1,4.0860596E0,-4.5498562E-1,3.7306726E-1,NaN,-4.557325E-1,3.912239E-1,1.539337E-1,4.8188167E0,-1.641891E-1,1.0224899E0,4.4699717E0,3.9671216E0,NaN,3.8777912E-1,8.797403E-2,NaN,1.314582E-1,-4.542606E-1,2.540256E-1,4.3515697E0,-3.8862693E-1,5.0991664E0,5.7425976E0,5.8194375E-1,7.937532E0,7.9003364E-2,-1.577963E-1,-4.708275E-2,-2.851242E-3,-1.4523944E-1,8.5931286E-2,8.814255E-2,-3.0450407E-2,7.7516295E-2,1.0596536E-2,-2.1192154E-2,-1.3647075E-1,-3.973786E-2,3.5183366E-2,-1.0839462E-1,-2.6755435E-2,-9.020001E-2,-1.1462797E-1,-5.36605E-2,-8.704934E-2,2.0279236E-2,-6.0278125E-2,-5.9087712E-2,-2.0430943E-2,-3.9227765E-2,-1.5276979E-1,4.1475493E-4,4.2717036E-2,7.3496364E-2,1.2410388E-1,1.2005436E-2,4.4136673E-2,-3.0301733E-2,1.7894577E-2,1.8768332E-3,-4.9577706E-2,5.9138298E-2,9.623829E-2,1.1030885E-1,-1.357596E-1,9.379974E-2,4.7533553E-2,-5.0864518E-2,2.239996E-2,-4.5582235E-2,3.0731147E-3,1.0616547E-1,-5.6270786E-2,-3.3229083E-2,-6.810997E-2,1.8053774E-2,-5.2170027E-2,-1.6528033E-1,6.678755E-2,-9.855137E-2,2.6780352E-2,4.563279E-3,6.9647186E-2,-4.6074178E-2,3.081713E-2],"split_indices":[5,6,6,1,1,3,3,2,3,5,1,6,3,2,3,3,3,2,7,6,2,5,5,3,3,6,6,3,2,2,2,6,5,3,0,2,3,4,2,3,4,6,3,5,0,1,0,7,2,2,6,4,0,6,4,3,3,2,3,2,2,4,2,0,0,0,0,0,0,0,0,0,0,0,0,0,0,0,0,0,0,0,0,0,0,0,0,0,0,0,0,0,0,0,0,0,0,0,0,0,0,0,0,0,0,0,0,0,0,0,0,0,0,0,0,0,0,0,0,0,0,0,0],"split_type":[0,1,1,0,0,0,0,0,0,0,0,1,0,0,0,0,0,0,0,1,0,0,0,0,0,1,1,0,0,0,0,1,0,0,0,0,0,0,0,0,0,1,0,0,0,0,0,0,0,0,1,0,0,1,0,0,0,0,0,0,0,0,0,0,0,0,0,0,0,0,0,0,0,0,0,0,0,0,0,0,0,0,0,0,0,0,0,0,0,0,0,0,0,0,0,0,0,0,0,0,0,0,0,0,0,0,0,0,0,0,0,0,0,0,0,0,0,0,0,0,0,0,0],"sum_hessian":[3.3909273E4,9.694252E3,2.4215021E4,1.7558522E3,7.9384004E3,1.5592041E4,8.622981E3,1.0838722E3,6.7198004E2,6.408647E3,1.5297532E3,1.3868029E4,1.7240115E3,7.1865483E3,1.4364333E3,1.00467816E3,7.919402E1,4.9011038E2,1.8186963E2,1.5019286E3,4.9067183E3,1.0853577E3,4.4439548E2,3.603798E3,1.0264231E4,1.00262524E3,7.213863E2,9.6783203E2,6.2187163E3,8.259175E2,6.105158E2,4.9147945E1,9.555302E2,7.426785E1,4.92617E0,1.9105637E2,2.9905402E2,4.2579617E1,1.3929001E2,1.6260416E2,1.3393245E3,3.75903E3,1.1476884E3,1.0418162E3,4.354146E1,4.3948096E2,4.9145103E0,2.6728796E2,3.3365103E3,5.857588E3,4.406643E3,9.8708E2,1.5545194E1,4.4674936E2,2.7463693E2,6.205232E2,3.473088E2,4.0530247E3,2.1656917E3,2.2813501E2,5.977825E2,2.1506052E2,3.954553E2,4.4435326E1,4.712622E0,6.703621E2,2.851681E2,3.2408893E0,7.102696E1,6.577878E1,1.25277596E2,2.4516907E2,5.3884956E1,2.0529331E1,2.2050287E1,4.9366425E1,8.992359E1,5.561945E1,1.069847E2,5.423903E2,7.9693414E2,1.7737465E3,1.9852837E3,3.2936758E2,8.183208E2,2.989559E2,7.428603E2,1.1598502E1,3.1942955E1,2.0151776E2,2.379632E2,2.2918425E2,3.8103733E1,1.7481976E3,1.5883126E3,1.5258839E3,4.331704E3,1.7837731E3,2.62287E3,3.7147382E2,6.156062E2,4.641792E0,1.0903402E1,9.1681244E1,3.550681E2,5.0943966E1,2.2369296E2,3.2288385E2,2.9763934E2,2.3524031E2,1.1206848E2,1.3128456E3,2.740179E3,7.1818677E2,1.4475049E3,3.982266E0,2.2415274E2,1.3171846E1,5.8461066E2,1.5378775E2,6.127277E1,3.4461847E2,5.0836834E1],"tree_param":{"num_deleted":"0","num_feature":"8","num_nodes":"123","size_leaf_vector":"0"}},{"base_weights":[-1.7120153E-1,-4.6814385E-1,-5.3507157E-2,-2.9778305E-2,-5.662863E-1,2.0507301E-1,-1.6706926E-1,-3.319188E-1,1.4528206E-1,-6.6196305E-1,-1.7237845E-1,1.4173067E-1,4.3590054E-1,-2.6319033E-1,3.3101323E-1,-3.6273986E-1,1.0177594E0,3.4643048E-1,-1.4153676E-1,-9.5073277E-1,-5.8562773E-1,-3.2073998E-1,1.8835333E-1,2.3590536E-1,4.7005404E-2,3.4232128E-1,7.701817E-1,-1.4347124E-1,-3.9296052E-1,5.929363E-1,1.0134614E-1,-4.247552E-1,2.559852E-1,1.3616034E-1,1.0173972E-2,-3.8430165E-2,6.048825E-1,1.7052655E-1,-1.8701765E-1,-1.0827248E0,-7.9576755E-1,-6.5848625E-1,-3.4857163E-1,-2.8571814E-1,-1.147151E0,2.1068351E-1,-1.5198651E-1,-1.1432095E0,2.5071043E-1,-1.730576E-1,1.7709467E-1,5.6192595E-1,2.571281E-1,1.1602211E0,2.5558808E-1,9.434299E-2,-3.1460187E-1,1.5172857E-1,-5.6574935E-1,3.451426E-1,7.5829583E-1,2.5876758E-1,-1.7285079E-1,-2.1476196E-2,-6.64234E-2,-1.6282867E-1,5.443574E-2,1.20163046E-1,-2.3455039E-2,4.4890814E-2,1.15493074E-1,-8.372487E-2,-8.410934E-3,-9.4114795E-2,-1.2288254E-1,-5.7614513E-2,-9.4543256E-2,-4.8304442E-2,-8.173306E-2,1.7605152E-2,-5.6211453E-2,-3.624861E-2,8.534027E-3,-3.5746686E-2,-1.4208552E-1,7.5581237E-3,4.991588E-2,-4.989774E-2,-1.971005E-1,8.702814E-3,3.4319237E-2,-1.4524545E-2,-1.5557592E-1,2.174392E-2,-5.0165117E-2,2.1969045E-2,1.1005982E-1,3.425086E-2,-1.7883176E-2,8.381955E-2,1.30007E-1,-3.6541525E-2,5.7486337E-2,1.8081887E-2,-7.507078E-2,-4.085508E-2,3.9271656E-2,3.0806487E-2,-3.5845157E-2,-7.295184E-2,-1.5020283E-2,-4.8211135E-2,4.1896816E-2,4.5277502E-2,8.9232825E-2,4.0363897E-2,6.532447E-3,2.2247981E-2,-3.769541E-2],"categories":[0,2,3,4,5,6,9,10,0,3,4,6,9,10,0,1,2,3,4,5,6,9,10,0,1,2,4,5,7,8,0,2,3,4,5,6,7,9,10,0,3,4,9,0,3,4,9,0,3,4],"categories_nodes":[1,2,11,14,25,27,40,41],"categories_segments":[0,8,14,23,30,39,43,47],"categories_sizes":[8,6,9,7,9,4,4,3],"default_left":[0,0,0,0,0,0,0,0,0,0,0,0,0,0,0,0,0,0,0,0,0,0,0,0,0,0,0,0,0,0,0,0,0,0,0,0,0,0,0,0,0,0,0,0,0,0,0,0,0,0,0,0,0,0,0,0,0,0,0,0,0,0,0,0,0,0,0,0,0,0,0,0,0,0,0,0,0,0,0,0,0,0,0,0,0,0,0,0,0,0,0,0,0,0,0,0,0,0,0,0,0,0,0,0,0,0,0,0,0,0,0,0,0,0,0,0,0,0,0],"id":7,"left_children":[1,3,5,7,9,11,13,15,17,19,21,23,25,27,29,31,33,35,37,39,41,43,45,47,49,51,53,55,57,59,61,63,65,-1,-1,67,69,-1,71,73,75,77,79,81,83,85,-1,87,89,91,93,95,97,99,101,103,105,107,109,111,113,115,117,-1,-1,-1,-1,-1,-1,-1,-1,-1,-1,-1,-1,-1,-1,-1,-1,-1,-1,-1,-1,-1,-1,-1,-1,-1,-1,-1,-1,-1,-1,-1,-1,-1,-1,-1,-1,-1,-1,-1,-1,-1,-1,-1,-1,-1,-1,-1,-1,-1,-1,-1,-1,-1,-1,-1,-1],"loss_changes":[1.1741089E3,4.1024878E2,7.065847E2,9.237167E1,2.9353564E2,1.0729938E2,8.005383E2,2.7018532E1,6.3849007E1,1.3762427E2,8.162442E1,5.1401154E1,4.918112E1,2.176828E2,1.6266034E2,2.4169533E1,4.4491444E0,6.470629E1,3.8667324E1,2.591333E1,8.544763E1,3.0937607E1,1.728577E1,5.9289642E1,8.232047E1,2.2993103E1,6.89301E1,2.9677295E2,6.3298865E2,5.151245E1,6.230771E1,2.8537941E1,3.226584E1,0E0,0E0,6.4048E1,3.2863266E1,0E0,2.9805954E1,1.3408203E1,1.9370697E1,1.0531592E2,1.3098544E2,2.9589478E1,8.912926E0,1.7107021E1,0E0,1.5480644E1,4.3262238E1,4.086165E1,4.959236E1,6.33283E1,3.3296875E1,7.7332764E0,2.9948963E1,2.2316681E2,2.819458E2,1.293438E2,3.4733252E2,3.1199825E1,3.0594788E1,2.566526E1,4.2582245E1,0E0,0E0,0E0,0E0,0E0,0E0,0E0,0E0,0E0,0E0,0E0,0E0,0E0,0E0,0E0,0E0,0E0,0E0,0E0,0E0,0E0,0E0,0E0,0E0,0E0,0E0,0E0,0E0,0E0,0E0,0E0,0E0,0E0,0E0,0E0,0E0,0E0,0E0,0E0,0E0,0E0,0E0,0E0,0E0,0E0,0E0,0E0,0E0,0E0,0E0,0E0,0E0,0E0,0E0,0E0,0E0],"parents":[2147483647,0,0,1,1,2,2,3,3,4,4,5,5,6,6,7,7,8,8,9,9,10,10,11,11,12,12,13,13,14,14,15,15,16,16,17,17,18,18,19,19,20,20,21,21,22,22,23,23,24,24,25,25,26,26,27,27,28,28,29,29,30,30,31,31,32,32,35,35,36,36,38,38,39,39,40,40,41,41,42,42,43,43,44,44,45,45,47,47,48,48,49,49,50,50,51,51,52,52,53,53,54,54,55,55,56,56,57,57,58,58,59,59,60,60,61,61,62,62],"right_children":[2,4,6,8,10,12,14,16,18,20,22,24,26,28,30,32,34,36,38,40,42,44,46,48,50,52,54,56,58,60,62,64,66,-1,-1,68,70,-1,72,74,76,78,80,82,84,86,-1,88,90,92,94,96,98,100,102,104,106,108,110,112,114,116,118,-1,-1,-1,-1,-1,-1,-1,-1,-1,-1,-1,-1,-1,-1,-1,-1,-1,-1,-1,-1,-1,-1,-1,-1,-1,-1,-1,-1,-1,-1,-1,-1,-1,-1,-1,-1,-1,-1,-1,-1,-1,-1,-1,-1,-1,-1,-1,-1,-1,-1,-1,-1,-1,-1,-1,-1],"split_conditions":[1.3446791E0,NaN,NaN,2.951464E0,3.7230675E0,3.7897508E0,1.1098402E0,6.1281357E0,-3.485448E-1,4.0990782E-1,4.4718986E0,NaN,5.0411706E0,-3.5902062E-1,NaN,1.2996634E0,2.5137493E-1,4.2369146E0,2.8786383E0,3.0098884E0,4.8978543E0,1.2776613E0,1.3107971E0,3.148757E0,1.9277599E0,NaN,-3.583351E-1,NaN,4.147999E0,3.9093342E-1,2.5881114E0,5.210314E-1,2.574746E0,1.3616034E-1,1.0173972E-2,-1.197761E0,5.2054386E0,1.7052655E-1,6.8275857E-1,4.4092484E0,NaN,NaN,-4.557325E-1,2.5859787E0,1.539337E-1,5.1342754E0,-1.5198651E-1,2.7675338E0,3.150794E-1,8.8256747E-1,8.896988E-1,4.3570967E0,4.7397447E0,-4.5344174E-1,7.3485494E-1,5.257306E0,4.8871856E0,3.3863202E-1,7.172494E-1,2.5713278E-2,5.01847E0,2.5516267E0,5.6517625E0,-2.1476196E-2,-6.64234E-2,-1.6282867E-1,5.443574E-2,1.20163046E-1,-2.3455039E-2,4.4890814E-2,1.15493074E-1,-8.372487E-2,-8.410934E-3,-9.4114795E-2,-1.2288254E-1,-5.7614513E-2,-9.4543256E-2,-4.8304442E-2,-8.173306E-2,1.7605152E-2,-5.6211453E-2,-3.624861E-2,8.534027E-3,-3.5746686E-2,-1.4208552E-1,7.5581237E-3,4.991588E-2,-4.989774E-2,-1.971005E-1,8.702814E-3,3.4319237E-2,-1.4524545E-2,-1.5557592E-1,2.174392E-2,-5.0165117E-2,2.1969045E-2,1.1005982E-1,3.425086E-2,-1.7883176E-2,8.381955E-2,1.30007E-1,-3.6541525E-2,5.7486337E-2,1.8081887E-2,-7.507078E-2,-4.085508E-2,3.9271656E-2,3.0806487E-2,-3.5845157E-2,-7.295184E-2,-1.5020283E-2,-4.8211135E-2,4.1896816E-2,4.5277502E-2,8.9232825E-2,4.0363897E-2,6.532447E-3,2.2247981E-2,-3.769541E-2],"split_indices":[5,6,6,1,1,1,3,2,3,5,1,6,2,3,6,5,0,2,2,1,2,5,5,2,5,6,3,6,2,4,3,4,1,0,0,3,2,0,7,2,6,6,3,3,0,1,0,1,4,0,4,2,2,3,3,2,2,3,3,4,2,5,2,0,0,0,0,0,0,0,0,0,0,0,0,0,0,0,0,0,0,0,0,0,0,0,0,0,0,0,0,0,0,0,0,0,0,0,0,0,0,0,0,0,0,0,0,0,0,0,0,0,0,0,0,0,0,0,0],"split_type":[0,1,1,0,0,0,0,0,0,0,0,1,0,0,1,0,0,0,0,0,0,0,0,0,0,1,0,1,0,0,0,0,0,0,0,0,0,0,0,0,1,1,0,0,0,0,0,0,0,0,0,0,0,0,0,0,0,0,0,0,0,0,0,0,0,0,0,0,0,0,0,0,0,0,0,0,0,0,0,0,0,0,0,0,0,0,0,0,0,0,0,0,0,0,0,0,0,0,0,0,0,0,0,0,0,0,0,0,0,0,0,0,0,0,0,0,0,0,0],"sum_hessian":[3.3595168E4,9.535123E3,2.4060047E4,1.7444817E3,7.790641E3,7.341864E3,1.6718182E4,6.396316E2,1.1048501E3,6.267614E3,1.5230275E3,5.7622383E3,1.5796256E3,1.4014168E4,2.7040142E3,6.2606604E2,1.3565525E1,6.4928986E2,4.5556024E2,1.3080225E3,4.9595913E3,1.0792607E3,4.4376678E2,2.888769E3,2.873469E3,1.2357201E3,3.4390558E2,7.2904717E3,6.723697E3,1.2625553E3,1.4414589E3,5.6931647E2,5.6749557E1,9.509525E0,4.0559998E0,2.6119534E2,3.880945E2,1.0072225E1,4.4548804E2,7.0313684E2,6.0488556E2,3.7922705E3,1.1673206E3,1.0366741E3,4.258669E1,4.3890598E2,4.860806E0,2.9872616E1,2.8588965E3,1.0674341E3,1.8060349E3,3.4382855E2,8.918915E2,1.949144E2,1.4899118E2,3.051022E3,4.239449E3,1.6192844E3,5.1044126E3,5.0655804E2,7.559973E2,9.1576044E2,5.2569836E2,3.0434253E2,2.6497397E2,6.9155736E0,4.9833984E1,3.4967865E1,2.2622748E2,3.0377167E2,8.4322845E1,5.989606E1,3.8559198E2,3.608762E2,3.4226068E2,2.4711375E2,3.5777182E2,1.8039115E3,1.988359E3,3.377432E2,8.295774E2,8.589829E2,1.776911E2,1.1554885E1,3.1031805E1,2.997741E2,1.3913187E2,1.7700203E1,1.2172411E1,1.0328364E3,1.8260599E3,1.04747E3,1.9964142E1,1.7053489E3,1.00685974E2,2.1111095E2,1.327176E2,7.460047E2,1.458868E2,6.1134815E1,1.3377957E2,5.054147E1,9.8449715E1,2.7685015E3,2.8252066E2,3.742745E3,4.9670425E2,1.2397726E3,3.7951178E2,3.6608838E3,1.4435286E3,4.104926E1,4.655088E2,2.3186023E2,5.24137E2,5.2299664E2,3.927638E2,1.7896619E2,3.4673218E2],"tree_param":{"num_deleted":"0","num_feature":"8","num_nodes":"119","size_leaf_vector":"0"}},{"base_weights":[-1.5572429E-1,-3.8984504E-1,-2.8825298E-2,-8.102566E-3,-4.7687078E-1,9.45403E-2,-2.568404E-1,-1.4624046E-1,2.873245E-1,-5.3771275E-1,5.440219E-2,3.1289898E-2,4.9178946E-1,-3.3512127E-1,1.2259491E-1,-1.9733237E-1,4.7113287E-1,-9.1664326E-1,3.2570967E-1,-6.570502E-1,-3.9213365E-1,3.6371806E-1,-4.3648148E-1,1.5642811E-1,-1.5698029E-1,1.8202451E-1,5.710783E-1,3.3958275E-3,-3.8812107E-1,3.968331E-1,-1.712021E-2,5.659183E-1,-2.4048135E-1,8.122821E-1,-4.114777E-1,-1.8440954E-1,-1.7827281E-1,9.143202E-1,2.5416017E-1,-8.3916986E-1,-4.8528254E-1,-2.4570914E-1,-5.803246E-1,1.0275539E0,1.6064644E-1,-8.154717E-1,-1.7377499E-1,6.0345344E-2,5.0234044E-1,2.316465E-2,-4.5646277E-1,5.901875E-1,-2.159778E-1,6.854431E-1,3.0648598E-1,-2.4245311E-1,4.3900165E-1,-3.565344E-1,-1.0012147E0,-1.04930095E-1,5.4800504E-1,-3.079731E-1,1.6888459E-1,-1.6260442E-1,7.542593E-2,-6.773581E-2,-1.5082113E-2,1.1378832E-1,2.381423E-2,-1.885831E-1,2.345553E-2,-5.3196874E-2,7.469151E-2,-2.1475043E-2,9.9601395E-2,-1.3024536E-1,2.9798413E-2,-7.057645E-2,-9.534716E-2,-5.237155E-2,-1.3158123E-2,-6.823131E-2,-1.6186228E-2,7.557145E-3,-7.209083E-2,5.60462E-2,1.16767086E-1,-7.4510514E-3,4.592976E-2,-1.1503656E-1,4.556927E-3,5.7280194E-2,-3.8567167E-2,1.2084213E-2,-5.4942526E-2,4.284673E-2,1.0553326E-1,3.6084582E-3,-8.9503676E-2,-2.9520992E-2,-1.0031827E-1,-3.337919E-2,7.943037E-2,-5.9094936E-2,1.4421853E-2,7.491003E-2,2.5204768E-2,-2.187458E-2,4.0314976E-2,6.38858E-2,-3.0556161E-2,1.2017985E-1,-2.554574E-2,-2.0416282E-2,-4.67173E-2,-3.1009516E-2,-1.24355674E-1,-2.6511699E-2,7.0424765E-2,7.914548E-2,2.9637415E-2,1.627182E-2,-5.046059E-2,7.858945E-3,4.870264E-2],"categories":[0,2,3,4,5,6,9,10,4,10,1,2,4,6,7,8,9,10,6,0,2,3,5,6,0,3,4,1,2,4,5,6,7,8,10,2,4,7,8,10],"categories_nodes":[1,2,21,24,25,39,46,53],"categories_segments":[0,8,10,18,19,24,27,35],"categories_sizes":[8,2,8,1,5,3,8,5],"default_left":[0,0,0,0,0,0,0,0,0,0,0,0,0,0,0,0,0,0,0,0,0,0,0,0,0,0,0,0,0,0,0,0,0,0,0,0,0,0,0,0,0,0,0,0,0,0,0,0,0,0,0,0,0,0,0,0,0,0,0,0,0,0,0,0,0,0,0,0,0,0,0,0,0,0,0,0,0,0,0,0,0,0,0,0,0,0,0,0,0,0,0,0,0,0,0,0,0,0,0,0,0,0,0,0,0,0,0,0,0,0,0,0,0,0,0,0,0,0,0,0,0,0,0,0,0],"id":8,"left_children":[1,3,5,7,9,11,13,15,17,19,21,23,25,27,29,31,33,35,37,39,41,43,45,47,49,51,53,55,57,59,61,63,65,67,69,-1,71,73,75,77,79,81,83,85,87,89,91,93,95,97,99,101,103,105,107,109,111,113,115,117,119,121,123,-1,-1,-1,-1,-1,-1,-1,-1,-1,-1,-1,-1,-1,-1,-1,-1,-1,-1,-1,-1,-1,-1,-1,-1,-1,-1,-1,-1,-1,-1,-1,-1,-1,-1,-1,-1,-1,-1,-1,-1,-1,-1,-1,-1,-1,-1,-1,-1,-1,-1,-1,-1,-1,-1,-1,-1,-1,-1,-1,-1,-1,-1],"loss_changes":[9.8902496E2,3.8873352E2,6.073232E2,8.8736046E1,3.0804346E2,3.520144E2,2.2518988E2,4.6825756E1,3.2315502E1,1.4828198E2,1.4896819E2,2.8479626E2,4.715851E1,1.1274469E2,4.970632E1,4.5223167E1,3.4519524E1,1.4509153E1,2.8073936E1,1.4652527E2,1.0605792E2,8.0955986E1,3.7621872E1,2.4131436E2,2.6041174E2,6.407386E1,4.613797E1,9.131339E1,1.0486316E2,3.326866E1,4.6593384E1,3.1591705E1,5.068161E1,1.5099297E1,3.1220583E1,0E0,4.70716E0,6.8975487E0,4.1363407E1,3.4069702E1,3.2822083E1,7.9301956E1,1.5549414E2,8.559036E0,3.2479347E1,4.4750443E1,3.586011E1,2.09748E2,6.4027405E1,3.579679E1,1.595314E2,3.6967705E1,2.7102179E1,2.9292908E1,2.3648167E1,3.0509903E1,1.6325739E2,8.7039185E1,4.4108826E1,1.3435217E1,2.0387077E1,3.117258E1,1.5053686E1,0E0,0E0,0E0,0E0,0E0,0E0,0E0,0E0,0E0,0E0,0E0,0E0,0E0,0E0,0E0,0E0,0E0,0E0,0E0,0E0,0E0,0E0,0E0,0E0,0E0,0E0,0E0,0E0,0E0,0E0,0E0,0E0,0E0,0E0,0E0,0E0,0E0,0E0,0E0,0E0,0E0,0E0,0E0,0E0,0E0,0E0,0E0,0E0,0E0,0E0,0E0,0E0,0E0,0E0,0E0,0E0,0E0,0E0,0E0,0E0,0E0,0E0],"parents":[2147483647,0,0,1,1,2,2,3,3,4,4,5,5,6,6,7,7,8,8,9,9,10,10,11,11,12,12,13,13,14,14,15,15,16,16,17,17,18,18,19,19,20,20,21,21,22,22,23,23,24,24,25,25,26,26,27,27,28,28,29,29,30,30,31,31,32,32,33,33,34,34,36,36,37,37,38,38,39,39,40,40,41,41,42,42,43,43,44,44,45,45,46,46,47,47,48,48,49,49,50,50,51,51,52,52,53,53,54,54,55,55,56,56,57,57,58,58,59,59,60,60,61,61,62,62],"right_children":[2,4,6,8,10,12,14,16,18,20,22,24,26,28,30,32,34,36,38,40,42,44,46,48,50,52,54,56,58,60,62,64,66,68,70,-1,72,74,76,78,80,82,84,86,88,90,92,94,96,98,100,102,104,106,108,110,112,114,116,118,120,122,124,-1,-1,-1,-1,-1,-1,-1,-1,-1,-1,-1,-1,-1,-1,-1,-1,-1,-1,-1,-1,-1,-1,-1,-1,-1,-1,-1,-1,-1,-1,-1,-1,-1,-1,-1,-1,-1,-1,-1,-1,-1,-1,-1,-1,-1,-1,-1,-1,-1,-1,-1,-1,-1,-1,-1,-1,-1,-1,-1,-1,-1,-1],"split_conditions":[1.534011E0,NaN,NaN,3.4783561E0,2.5859787E0,1.0928406E0,1.1102262E0,5.4619126E0,1.019138E-2,3.0493295E0,2.6075585E0,-3.583351E-1,4.6619935E0,3.9122555E0,6.577411E0,-1.1991392E0,3.1190822E-1,3.8034801E0,-1.0294863E0,9.9730134E-1,-1.5094689E-1,NaN,9.100323E-1,-4.50923E-1,NaN,NaN,2.6075585E0,1.0526943E-1,8.320399E-1,2.005814E-1,7.9329324E0,2.6368752E0,5.454993E-1,-3.5902062E-1,3.7703303E-1,-1.8440954E-1,1.4080371E0,1.1319376E-1,-9.644876E-1,NaN,5.0411706E0,4.0038586E0,4.140124E0,2.9668245E0,4.117975E0,7.775258E-1,NaN,8.2181597E-1,5.217025E0,5.7425976E0,4.9989996E0,3.8029227E0,4.998493E-1,NaN,1.4299817E-1,1.6031986E0,2.2677085E-1,-3.8819095E-1,1.9455433E0,8.231861E-1,2.5873864E0,1.8691689E-1,7.199241E-1,-1.6260442E-1,7.542593E-2,-6.773581E-2,-1.5082113E-2,1.1378832E-1,2.381423E-2,-1.885831E-1,2.345553E-2,-5.3196874E-2,7.469151E-2,-2.1475043E-2,9.9601395E-2,-1.3024536E-1,2.9798413E-2,-7.057645E-2,-9.534716E-2,-5.237155E-2,-1.3158123E-2,-6.823131E-2,-1.6186228E-2,7.557145E-3,-7.209083E-2,5.60462E-2,1.16767086E-1,-7.4510514E-3,4.592976E-2,-1.1503656E-1,4.556927E-3,5.7280194E-2,-3.8567167E-2,1.2084213E-2,-5.4942526E-2,4.284673E-2,1.0553326E-1,3.6084582E-3,-8.9503676E-2,-2.9520992E-2,-1.0031827E-1,-3.337919E-2,7.943037E-2,-5.9094936E-2,1.4421853E-2,7.491003E-2,2.5204768E-2,-2.187458E-2,4.0314976E-2,6.38858E-2,-3.0556161E-2,1.2017985E-1,-2.554574E-2,-2.0416282E-2,-4.67173E-2,-3.1009516E-2,-1.24355674E-1,-2.6511699E-2,7.0424765E-2,7.914548E-2,2.9637415E-2,1.627182E-2,-5.046059E-2,7.858945E-3,4.870264E-2],"split_indices":[5,6,6,1,3,3,3,2,4,1,3,3,2,2,2,3,0,1,3,5,3,6,5,3,6,6,3,3,4,4,2,1,5,3,4,0,5,0,3,6,2,2,2,1,1,7,6,4,2,2,2,2,0,6,4,5,3,3,5,0,3,0,7,0,0,0,0,0,0,0,0,0,0,0,0,0,0,0,0,0,0,0,0,0,0,0,0,0,0,0,0,0,0,0,0,0,0,0,0,0,0,0,0,0,0,0,0,0,0,0,0,0,0,0,0,0,0,0,0,0,0,0,0,0,0],"split_type":[0,1,1,0,0,0,0,0,0,0,0,0,0,0,0,0,0,0,0,0,0,1,0,0,1,1,0,0,0,0,0,0,0,0,0,0,0,0,0,1,0,0,0,0,0,0,1,0,0,0,0,0,0,1,0,0,0,0,0,0,0,0,0,0,0,0,0,0,0,0,0,0,0,0,0,0,0,0,0,0,0,0,0,0,0,0,0,0,0,0,0,0,0,0,0,0,0,0,0,0,0,0,0,0,0,0,0,0,0,0,0,0,0,0,0,0,0,0,0,0,0,0,0,0,0],"sum_hessian":[3.3289023E4,1.1700415E4,2.158861E4,2.1723582E3,9.528057E3,1.4009484E4,7.5791245E3,1.4805684E3,6.9178973E2,8.549004E3,9.790531E2,1.2086188E4,1.9232959E3,6.2830024E3,1.2961223E3,1.3680344E3,1.1253393E2,2.066741E1,6.711223E2,4.695987E3,3.853017E3,6.0076056E2,3.782925E2,7.2604976E3,4.8256914E3,3.9263782E2,1.5306581E3,8.506593E2,5.432343E3,4.3683856E2,8.592838E2,7.255274E1,1.2954817E3,8.122015E1,3.1313768E1,8.496991E0,1.2170418E1,7.146103E1,5.9966125E2,2.277423E3,2.4185635E3,2.1682705E3,1.6847467E3,1.397761E2,4.6098447E2,1.540091E2,2.2428342E2,5.683099E3,1.5773986E3,3.013769E3,1.8119222E3,1.9360617E2,1.9903165E2,1.067613E3,4.6304507E2,5.4404974E2,3.0660956E2,5.1676846E3,2.6465854E2,1.0121063E2,3.3562793E2,3.3491953E2,5.2436426E2,5.1367188E0,6.741602E1,2.1948216E2,1.0759995E3,5.120139E1,3.0018766E1,8.955882E0,2.2357885E1,9.111963E0,3.0584545E0,4.711786E0,6.6749245E1,1.5633786E1,5.8402747E2,1.0542025E3,1.2232206E3,2.1810874E3,2.3747624E2,3.4816782E2,1.8201025E3,2.9745E2,1.3872968E3,3.340791E1,1.0636819E2,2.583282E2,2.0265627E2,1.10640495E2,4.3368607E1,4.9207405E1,1.75076E2,5.1708853E3,5.12214E2,1.3930752E3,1.8432341E2,2.9728984E3,4.087069E1,1.4004153E3,4.1150693E2,3.4915905E1,1.5869026E2,9.7201904E1,1.0182974E2,9.302493E2,1.3736365E2,7.177668E1,3.912684E2,3.5745136E1,5.083046E2,1.4576743E2,1.6084212E2,2.17505E3,2.9926343E3,6.930152E1,1.9535701E2,8.50469E1,1.6163738E1,1.694967E2,1.6613124E2,9.8737755E1,2.3618176E2,4.0941187E2,1.14952415E2],"tree_param":{"num_deleted":"0","num_feature":"8","num_nodes":"125","size_leaf_vector":"0"}},{"base_weights":[-1.4159045E-1,1.0274065E-1,-2.4544387E-1,-4.271234E-2,2.2571106E-1,-3.221618E-1,2.1564254E-1,1.0920946E-1,-2.0214298E-1,1.6016273E-1,4.1556397E-1,-4.8491254E-1,-1.641953E-1,5.4262143E-1,6.1572228E-2,7.742862E-1,5.8151353E-2,-2.4570781E-1,3.0565804E-1,1.7773207E-1,-6.5189934E-1,3.307182E-1,7.081931E-1,-6.218166E-1,-3.781378E-1,-1.4042322E-1,-9.249128E-1,2.1654198E-1,7.2756195E-1,2.2095814E-1,-2.3368046E-1,1.4232913E-1,9.2500556E-1,-1.6128561E-1,2.8596935E-1,-7.2727776E-1,-1.9528551E-1,6.447073E-1,-2.1970014E-1,1.5174273E-1,5.8174235E-1,-1.0030241E0,1.8575938E-1,5.809786E-1,2.3342782E-1,1.05064034E-1,2.5282547E-1,-8.2013375E-1,-4.4483098E-1,-2.0661993E-1,-4.7309518E-1,-4.450408E-3,-2.8906542E-1,-1.3501124E0,-4.7411567E-1,-3.6361662E-1,3.5441083E-1,7.652004E-1,-1.8267877E-1,-1.1851228E0,2.4010506E-1,-8.126431E-1,-1.3999666E-1,-1.1436714E-1,6.0743064E-2,-6.799233E-2,9.6967466E-2,-6.459571E-3,-6.6479705E-2,5.087328E-2,-2.7852153E-2,-6.117456E-2,-1.7331195E-1,-1.8129531E-2,-1.6500205E-1,9.154921E-2,9.480922E-3,1.7265255E-2,-8.5743114E-2,2.3545064E-2,3.410585E-3,8.9800775E-2,3.1287402E-2,-1.3078605E-1,1.075144E-1,9.511664E-2,-9.130238E-2,2.9107142E-2,1.04783714E-1,3.039517E-2,-1.485159E-2,-1.9078968E-1,4.056758E-2,-1.01693235E-1,-7.395942E-2,-2.8434796E-2,-6.640513E-2,1.4137729E-3,-3.2911982E-2,-5.1333543E-2,-1.5937293E-2,2.3014016E-2,-1.5972324E-2,1.9590834E-2,-4.416436E-2,-1.4890465E-1,-4.3646302E-2,2.098101E-2,-8.335256E-2,5.1778253E-2,-1.3500057E-1,2.9916836E-2,1.4260675E-1,4.3380346E-2,8.895701E-2,3.8757328E-2,-1.2541983E-1,-1.5953904E-1,-4.5578804E-2,-1.3145804E-1,2.5011605E-2,-1.0996131E-1,7.70942E-3,3.154634E-2,-2.3849506E-2],"categories":[0,3,4,6,9,10,1,2,5,0,1,2,4,5,7,8,9,10,0,2,3,4,5,6,7,9,10,0,2,3,4,5,6,7,9,10,0,1,2,3,4,9,10,0,3,4,9,10,0,1,2,4,5,6,7,8,9],"categories_nodes":[0,3,6,21,40,42,49,51,54],"categories_segments":[0,6,9,18,27,36,39,43,48],"categories_sizes":[6,3,9,9,9,3,4,5,9],"default_left":[0,0,0,0,0,0,0,0,0,0,0,0,0,0,0,0,0,0,0,0,0,0,0,0,0,0,0,0,0,0,0,0,0,0,0,0,0,0,0,0,0,0,0,0,0,0,0,0,0,0,0,0,0,0,0,0,0,0,0,0,0,0,0,0,0,0,0,0,0,0,0,0,0,0,0,0,0,0,0,0,0,0,0,0,0,0,0,0,0,0,0,0,0,0,0,0,0,0,0,0,0,0,0,0,0,0,0,0,0,0,0,0,0,0,0,0,0,0,0,0,0,0,0,0,0],"id":9,"left_children":[1,3,5,7,9,11,13,15,17,19,21,23,25,27,29,31,33,35,37,39,41,43,45,47,49,51,53,55,57,59,61,63,65,67,69,71,73,75,77,79,81,83,85,87,89,-1,91,93,95,97,99,101,103,105,107,109,111,113,115,117,119,121,123,-1,-1,-1,-1,-1,-1,-1,-1,-1,-1,-1,-1,-1,-1,-1,-1,-1,-1,-1,-1,-1,-1,-1,-1,-1,-1,-1,-1,-1,-1,-1,-1,-1,-1,-1,-1,-1,-1,-1,-1,-1,-1,-1,-1,-1,-1,-1,-1,-1,-1,-1,-1,-1,-1,-1,-1,-1,-1,-1,-1,-1,-1],"loss_changes":[8.3726953E2,1.7605252E2,8.191123E2,1.09253685E2,6.630609E1,5.1028662E2,1.6639116E2,7.839442E1,4.87632E1,5.670426E1,3.3735977E1,1.4268677E2,1.820711E2,6.3641052E1,1.0577496E2,1.554705E1,1.073441E2,4.9089996E1,3.1195763E1,4.0683754E1,2.495414E1,2.5735146E1,4.7554337E1,1.499519E2,8.9408264E1,1.9748776E2,5.7846924E1,3.086681E1,2.3252838E1,3.9577713E1,4.263206E1,2.0361198E1,1.0174713E1,5.321337E1,1.3260576E2,2.1228508E1,3.708194E1,1.5728771E1,1.7445026E1,3.5931305E1,1.964592E1,3.909501E1,2.2496141E1,3.9861237E1,2.0699142E1,0E0,4.468096E1,3.1239746E1,7.950333E1,5.30114E1,4.456372E1,1.8595653E2,3.4551038E2,1.921344E1,3.695989E1,6.5279785E1,1.7985485E1,2.6323486E1,1.7348074E1,5.190254E0,2.2752296E1,2.8057198E1,3.0560823E1,0E0,0E0,0E0,0E0,0E0,0E0,0E0,0E0,0E0,0E0,0E0,0E0,0E0,0E0,0E0,0E0,0E0,0E0,0E0,0E0,0E0,0E0,0E0,0E0,0E0,0E0,0E0,0E0,0E0,0E0,0E0,0E0,0E0,0E0,0E0,0E0,0E0,0E0,0E0,0E0,0E0,0E0,0E0,0E0,0E0,0E0,0E0,0E0,0E0,0E0,0E0,0E0,0E0,0E0,0E0,0E0,0E0,0E0,0E0,0E0,0E0,0E0],"parents":[2147483647,0,0,1,1,2,2,3,3,4,4,5,5,6,6,7,7,8,8,9,9,10,10,11,11,12,12,13,13,14,14,15,15,16,16,17,17,18,18,19,19,20,20,21,21,22,22,23,23,24,24,25,25,26,26,27,27,28,28,29,29,30,30,31,31,32,32,33,33,34,34,35,35,36,36,37,37,38,38,39,39,40,40,41,41,42,42,43,43,44,44,46,46,47,47,48,48,49,49,50,50,51,51,52,52,53,53,54,54,55,55,56,56,57,57,58,58,59,59,60,60,61,61,62,62],"right_children":[2,4,6,8,10,12,14,16,18,20,22,24,26,28,30,32,34,36,38,40,42,44,46,48,50,52,54,56,58,60,62,64,66,68,70,72,74,76,78,80,82,84,86,88,90,-1,92,94,96,98,100,102,104,106,108,110,112,114,116,118,120,122,124,-1,-1,-1,-1,-1,-1,-1,-1,-1,-1,-1,-1,-1,-1,-1,-1,-1,-1,-1,-1,-1,-1,-1,-1,-1,-1,-1,-1,-1,-1,-1,-1,-1,-1,-1,-1,-1,-1,-1,-1,-1,-1,-1,-1,-1,-1,-1,-1,-1,-1,-1,-1,-1,-1,-1,-1,-1,-1,-1,-1,-1,-1],"split_conditions":[NaN,1.8347225E0,1.1102262E0,NaN,3.7897508E0,1.8245891E0,NaN,-1.197761E0,1.0323077E0,9.381941E-1,5.0092506E0,1.048818E0,9.032772E-1,5.01847E0,2.6075585E0,6.570176E-1,4.4618254E0,3.5672123E0,3.912844E-1,2.586834E0,5.961967E-1,NaN,-3.583351E-1,3.0098884E0,2.0405647E-1,-3.583351E-1,-4.542606E-1,1.3761601E0,3.2906616E0,4.9902034E0,9.100323E-1,1.3446791E0,1.019138E-2,7.764364E-1,3.669232E-2,9.787234E-1,8.8256747E-1,-2.846963E-3,-3.3075898E-3,-3.583351E-1,NaN,1.0928406E0,NaN,4.3570967E0,4.7397447E0,1.05064034E-1,-1.0357512E-3,4.0990782E-1,-1.5094689E-1,NaN,7.179418E-1,NaN,4.147999E0,7.0869386E-1,NaN,3.295027E-1,1.0323077E0,5.628821E-1,5.257306E0,4.9267763E-1,9.699035E-2,7.661435E-1,4.8704433E0,-1.1436714E-1,6.0743064E-2,-6.799233E-2,9.6967466E-2,-6.459571E-3,-6.6479705E-2,5.087328E-2,-2.7852153E-2,-6.117456E-2,-1.7331195E-1,-1.8129531E-2,-1.6500205E-1,9.154921E-2,9.480922E-3,1.7265255E-2,-8.5743114E-2,2.3545064E-2,3.410585E-3,8.9800775E-2,3.1287402E-2,-1.3078605E-1,1.075144E-1,9.511664E-2,-9.130238E-2,2.9107142E-2,1.04783714E-1,3.039517E-2,-1.485159E-2,-1.9078968E-1,4.056758E-2,-1.01693235E-1,-7.395942E-2,-2.8434796E-2,-6.640513E-2,1.4137729E-3,-3.2911982E-2,-5.1333543E-2,-1.5937293E-2,2.3014016E-2,-1.5972324E-2,1.9590834E-2,-4.416436E-2,-1.4890465E-1,-4.3646302E-2,2.098101E-2,-8.335256E-2,5.1778253E-2,-1.3500057E-1,2.9916836E-2,1.4260675E-1,4.3380346E-2,8.895701E-2,3.8757328E-2,-1.2541983E-1,-1.5953904E-1,-4.5578804E-2,-1.3145804E-1,2.5011605E-2,-1.0996131E-1,7.70942E-3,3.154634E-2,-2.3849506E-2],"split_indices":[6,5,3,6,1,5,6,3,7,4,2,5,4,2,3,7,2,2,0,3,0,6,3,1,4,3,3,5,5,2,5,5,4,4,3,7,0,3,3,3,6,3,6,2,2,0,3,5,3,6,3,6,2,0,6,0,7,7,2,4,5,7,2,0,0,0,0,0,0,0,0,0,0,0,0,0,0,0,0,0,0,0,0,0,0,0,0,0,0,0,0,0,0,0,0,0,0,0,0,0,0,0,0,0,0,0,0,0,0,0,0,0,0,0,0,0,0,0,0,0,0,0,0,0,0],"split_type":[1,0,0,1,0,0,1,0,0,0,0,0,0,0,0,0,0,0,0,0,0,1,0,0,0,0,0,0,0,0,0,0,0,0,0,0,0,0,0,0,1,0,1,0,0,0,0,0,0,1,0,1,0,0,1,0,0,0,0,0,0,0,0,0,0,0,0,0,0,0,0,0,0,0,0,0,0,0,0,0,0,0,0,0,0,0,0,0,0,0,0,0,0,0,0,0,0,0,0,0,0,0,0,0,0,0,0,0,0,0,0,0,0,0,0,0,0,0,0,0,0,0,0,0,0],"sum_hessian":[3.2994344E4,9.841268E3,2.3153078E4,4.508791E3,5.3324766E3,1.9850545E4,3.3025337E3,2.3089258E3,2.199865E3,3.9652751E3,1.3672015E3,9.776192E3,1.0074352E4,1.056927E3,2.2456067E3,1.6360905E2,2.1453167E3,2.0265236E3,1.7334157E2,3.882066E3,8.3209145E1,1.0615443E3,3.0565723E2,4.2816016E3,5.4945913E3,9.770221E3,3.0413037E2,3.8329248E2,6.736345E2,1.4585117E3,7.870951E2,3.188048E1,1.3172858E2,1.0929075E3,1.0524093E3,1.9080182E2,1.8357217E3,1.0521319E2,6.812839E1,3.648725E3,2.33341E2,5.8492992E1,2.4716152E1,2.9576785E2,7.657764E2,1.7371341E2,1.3194382E2,2.0174078E3,2.2641938E3,1.959107E3,3.5354841E3,5.1031045E3,4.6671167E3,1.5548207E2,1.4864832E2,7.32818E1,3.1001068E2,6.4703876E2,2.6595715E1,1.8775967E1,1.4397357E3,1.0855495E2,6.7854016E2,8.080105E0,2.3800375E1,3.181955E0,1.2854663E2,9.177912E2,1.7511624E2,7.546877E2,2.9772156E2,1.7258652E2,1.8215294E1,1.8193496E3,1.6372107E1,7.005257E1,3.5160618E1,4.2630188E1,2.5498198E1,2.131204E3,1.517521E3,1.06144745E2,1.27196266E2,5.133376E1,7.159232E0,1.4647276E1,1.0068875E1,1.8346457E2,1.1230328E2,6.46591E2,1.1918541E2,7.9585176E0,1.239853E2,5.8248303E2,1.4349248E3,1.30855E3,9.556438E2,6.994712E2,1.259636E3,3.1329885E3,4.0249548E2,2.0322467E3,3.070858E3,1.1168608E3,3.5502556E3,1.3441281E2,2.1069265E1,5.1349987E1,9.7298325E1,3.89514E1,3.43304E1,2.960299E2,1.3980782E1,1.7778877E2,4.6925E2,1.7774563E1,8.821152E0,1.125648E1,7.5194864E0,8.377729E0,1.431358E3,8.190271E1,2.6652235E1,1.2025839E2,5.5828174E2],"tree_param":{"num_deleted":"0","num_feature":"8","num_nodes":"125","size_leaf_vector":"0"}},{"base_weights":[-1.2872578E-1,-3.648685E-1,-3.798095E-2,-4.551042E-1,-2.4187298E-2,1.662137E-1,-1.2310826E-1,-1.854956E-1,-5.560563E-1,2.2558284E-1,-1.8855171E-1,8.562167E-2,3.0305976E-1,-1.9282907E-1,2.4588925E-1,-4.0195188E-1,-6.787471E-2,-8.55602E-1,-4.7908646E-1,-1.4802064E-1,2.5828007E-1,2.9096806E-1,-3.3219936E-1,-1.2633732E-1,1.7035237E-1,7.435173E-1,2.6045874E-1,-2.23868E-1,2.632287E-1,5.239935E-1,9.860927E-2,-1.3015964E0,-3.4227583E-1,9.796587E-3,-4.1795975E-1,-6.5836066E-1,-9.6896046E-1,-5.6209296E-1,-2.7324268E-1,1.2402878E-1,5.7991403E-1,-6.7787595E-2,6.177112E-1,-4.2438206E-1,2.0543995E-1,-1.5936969E-2,-5.4835254E-1,1.2839627E-1,4.1616496E-1,2.1258367E-2,8.0122334E-1,2.1578306E-1,7.0153713E-1,-1.6800804E-1,-4.6078065E-1,1.0390449E0,3.9108247E-2,3.5486752E-1,8.2505566E-1,2.4314801E-1,-1.0455179E-1,-1.587372E-1,-6.382162E-2,-2.0888487E-2,-6.0867686E-2,-2.7193446E-2,1.25280395E-2,-1.8254464E-2,-1.11876585E-1,-4.772682E-2,-1.1364859E-1,-7.0317306E-2,-1.0356019E-1,-3.5098758E-2,-7.426869E-2,4.2588156E-2,-3.986619E-2,2.2550248E-2,-3.986306E-2,4.1893195E-2,9.75771E-2,2.7632905E-2,-7.420177E-2,7.541679E-2,-1.15309216E-1,-1.409876E-1,-3.747193E-2,8.5797526E-2,9.916644E-3,7.435447E-2,-7.902937E-3,-1.4707018E-3,-7.183416E-2,1.6225843E-2,-2.8167546E-2,2.3437757E-2,7.501811E-2,-7.45731E-2,1.3853523E-1,-1.7075604E-2,8.3773546E-2,2.8309911E-2,3.8919176E-3,9.1505535E-2,1.5298727E-2,-6.515693E-3,-2.7784396E-2,-6.1960112E-2,-5.192145E-4,1.8274778E-1,6.03919E-2,2.9940192E-2,-2.4558913E-2,-1.08133875E-1,3.945301E-2,5.290587E-2,9.979472E-2,4.1107815E-2,1.2567264E-2,-5.2291173E-2,4.880026E-3],"categories":[0,2,3,4,6,9,10,0,3,4,6,9,10,2,4,6,10,0,1,2,4,5,7,8,9,1,0,2,3,4,5,6,8,9,10,0,1,2,4,5,6,7,8,10],"categories_nodes":[2,3,4,14,23,51,55],"categories_segments":[0,7,13,17,25,26,35],"categories_sizes":[7,6,4,8,1,9,9],"default_left":[0,0,0,0,0,0,0,0,0,0,0,0,0,0,0,0,0,0,0,0,0,0,0,0,0,0,0,0,0,0,0,0,0,0,0,0,0,0,0,0,0,0,0,0,0,0,0,0,0,0,0,0,0,0,0,0,0,0,0,0,0,0,0,0,0,0,0,0,0,0,0,0,0,0,0,0,0,0,0,0,0,0,0,0,0,0,0,0,0,0,0,0,0,0,0,0,0,0,0,0,0,0,0,0,0,0,0,0,0,0,0,0,0,0,0,0,0,0,0,0,0],"id":10,"left_children":[1,3,5,7,9,11,13,15,17,19,21,23,25,27,29,31,33,35,37,-1,39,41,43,45,47,49,51,53,55,57,59,61,63,65,67,69,71,73,75,77,79,81,83,85,87,89,91,93,95,97,99,101,103,105,107,109,111,113,115,117,119,-1,-1,-1,-1,-1,-1,-1,-1,-1,-1,-1,-1,-1,-1,-1,-1,-1,-1,-1,-1,-1,-1,-1,-1,-1,-1,-1,-1,-1,-1,-1,-1,-1,-1,-1,-1,-1,-1,-1,-1,-1,-1,-1,-1,-1,-1,-1,-1,-1,-1,-1,-1,-1,-1,-1,-1,-1,-1,-1,-1],"loss_changes":[7.009197E2,2.7913074E2,4.1078247E2,1.9528516E2,7.814641E1,7.665997E1,4.2912988E2,4.9802986E1,1.200011E2,4.2521755E1,7.917081E1,7.8638916E1,4.815738E1,1.9863934E2,1.0852962E2,3.653897E1,3.451911E1,2.3204773E1,7.0877686E1,0E0,3.197493E1,3.1123404E1,4.388994E1,5.8263603E1,3.22043E1,9.431915E0,4.6177963E1,1.737511E2,1.5547168E2,4.642935E1,5.09542E1,7.043312E0,2.287822E1,3.386509E1,3.782465E1,3.3425156E1,1.1228577E1,1.126485E2,1.0509134E2,2.792785E1,1.3501724E1,2.9737276E1,3.4425156E1,3.6412445E1,8.932244E0,4.7612698E1,2.3513206E1,3.716543E1,2.7486725E1,1.9656757E1,7.592514E0,2.5423347E1,2.513453E1,1.20072205E2,1.8129034E2,6.765517E1,5.157358E1,3.399524E1,1.6324402E1,1.9945972E1,4.6325314E1,0E0,0E0,0E0,0E0,0E0,0E0,0E0,0E0,0E0,0E0,0E0,0E0,0E0,0E0,0E0,0E0,0E0,0E0,0E0,0E0,0E0,0E0,0E0,0E0,0E0,0E0,0E0,0E0,0E0,0E0,0E0,0E0,0E0,0E0,0E0,0E0,0E0,0E0,0E0,0E0,0E0,0E0,0E0,0E0,0E0,0E0,0E0,0E0,0E0,0E0,0E0,0E0,0E0,0E0,0E0,0E0,0E0,0E0,0E0,0E0],"parents":[2147483647,0,0,1,1,2,2,3,3,4,4,5,5,6,6,7,7,8,8,9,9,10,10,11,11,12,12,13,13,14,14,15,15,16,16,17,17,18,18,20,20,21,21,22,22,23,23,24,24,25,25,26,26,27,27,28,28,29,29,30,30,31,31,32,32,33,33,34,34,35,35,36,36,37,37,38,38,39,39,40,40,41,41,42,42,43,43,44,44,45,45,46,46,47,47,48,48,49,49,50,50,51,51,52,52,53,53,54,54,55,55,56,56,57,57,58,58,59,59,60,60],"right_children":[2,4,6,8,10,12,14,16,18,20,22,24,26,28,30,32,34,36,38,-1,40,42,44,46,48,50,52,54,56,58,60,62,64,66,68,70,72,74,76,78,80,82,84,86,88,90,92,94,96,98,100,102,104,106,108,110,112,114,116,118,120,-1,-1,-1,-1,-1,-1,-1,-1,-1,-1,-1,-1,-1,-1,-1,-1,-1,-1,-1,-1,-1,-1,-1,-1,-1,-1,-1,-1,-1,-1,-1,-1,-1,-1,-1,-1,-1,-1,-1,-1,-1,-1,-1,-1,-1,-1,-1,-1,-1,-1,-1,-1,-1,-1,-1,-1,-1,-1,-1,-1],"split_conditions":[1.3446791E0,3.7230675E0,NaN,NaN,NaN,4.4699717E0,1.1098402E0,2.8029864E0,4.0990782E-1,7.6404214E-3,-4.989258E-1,1.861548E0,4.5223184E0,4.3554597E0,NaN,4.2608E-2,5.2564913E-1,3.150794E-1,4.8534827E0,-1.4802064E-1,4.976569E0,-8.345661E-1,4.9035125E0,NaN,7.1751744E-1,1.534011E0,9.711805E-1,6.4180756E-1,-8.876039E-1,6.763553E-1,2.587752E0,4.5064235E0,6.720745E-1,5.5953693E-1,7.6706034E-1,1.9141836E-1,9.843725E-2,4.3459387E0,-6.7941546E-1,7.966955E-1,8.712903E-1,-9.249445E-1,4.9902034E0,-4.5344174E-1,-3.593484E-1,-1.197761E0,-7.7115995E-1,8.592654E-1,3.5358543E0,6.9796014E-1,1.2872079E-2,NaN,2.3936115E-2,-3.583351E-1,6.672995E-1,NaN,3.573861E0,4.682081E0,5.01847E0,2.1847477E0,1.4299817E-1,-1.587372E-1,-6.382162E-2,-2.0888487E-2,-6.0867686E-2,-2.7193446E-2,1.25280395E-2,-1.8254464E-2,-1.11876585E-1,-4.772682E-2,-1.1364859E-1,-7.0317306E-2,-1.0356019E-1,-3.5098758E-2,-7.426869E-2,4.2588156E-2,-3.986619E-2,2.2550248E-2,-3.986306E-2,4.1893195E-2,9.75771E-2,2.7632905E-2,-7.420177E-2,7.541679E-2,-1.15309216E-1,-1.409876E-1,-3.747193E-2,8.5797526E-2,9.916644E-3,7.435447E-2,-7.902937E-3,-1.4707018E-3,-7.183416E-2,1.6225843E-2,-2.8167546E-2,2.3437757E-2,7.501811E-2,-7.45731E-2,1.3853523E-1,-1.7075604E-2,8.3773546E-2,2.8309911E-2,3.8919176E-3,9.1505535E-2,1.5298727E-2,-6.515693E-3,-2.7784396E-2,-6.1960112E-2,-5.192145E-4,1.8274778E-1,6.03919E-2,2.9940192E-2,-2.4558913E-2,-1.08133875E-1,3.945301E-2,5.290587E-2,9.979472E-2,4.1107815E-2,1.2567264E-2,-5.2291173E-2,4.880026E-3],"split_indices":[5,1,6,6,6,2,3,1,5,4,3,5,2,1,6,0,0,4,2,0,2,3,1,6,3,5,7,4,3,4,3,2,4,5,4,3,0,2,3,4,7,3,2,3,3,3,3,4,1,0,4,6,3,3,0,6,5,2,2,5,4,0,0,0,0,0,0,0,0,0,0,0,0,0,0,0,0,0,0,0,0,0,0,0,0,0,0,0,0,0,0,0,0,0,0,0,0,0,0,0,0,0,0,0,0,0,0,0,0,0,0,0,0,0,0,0,0,0,0,0,0],"split_type":[0,0,1,1,1,0,0,0,0,0,0,0,0,0,1,0,0,0,0,0,0,0,0,1,0,0,0,0,0,0,0,0,0,0,0,0,0,0,0,0,0,0,0,0,0,0,0,0,0,0,0,1,0,0,0,1,0,0,0,0,0,0,0,0,0,0,0,0,0,0,0,0,0,0,0,0,0,0,0,0,0,0,0,0,0,0,0,0,0,0,0,0,0,0,0,0,0,0,0,0,0,0,0,0,0,0,0,0,0,0,0,0,0,0,0,0,0,0,0,0,0],"sum_hessian":[3.2708982E4,9.07926E3,2.3629723E4,7.1777617E3,1.9014984E3,6.952302E3,1.667742E4,1.9562156E3,5.2215464E3,7.5453125E2,1.1469672E3,4.376499E3,2.575803E3,1.4027458E4,2.6499626E3,6.878874E2,1.2683281E3,1.0653558E3,4.1561904E3,1.3358502E1,7.411727E2,2.6415344E2,8.828137E2,1.2497307E3,3.1267683E3,2.2570963E2,2.3500933E3,1.3134073E4,8.933849E2,9.1660596E2,1.7333568E3,4.149653E1,6.4639087E2,1.0388228E3,2.2950542E2,3.9130344E2,6.740524E2,2.9605981E3,1.1955923E3,5.2388617E2,2.1728658E2,1.26286545E2,1.3786688E2,7.537822E2,1.2903154E2,9.914123E2,2.5831842E2,2.672192E3,4.5457623E2,1.6800468E1,2.0890916E2,2.1353032E3,2.1479E2,1.0629522E4,2.5045503E3,1.9942355E2,6.939613E2,5.882992E2,3.283068E2,1.01268567E3,7.2067114E2,2.8029104E1,1.3467425E1,4.3191077E2,2.1448007E2,3.0162708E2,7.371957E2,1.7273924E2,5.676617E1,2.8525848E2,1.06044945E2,1.374417E2,5.366107E2,1.366348E3,1.5942501E3,1.8149413E2,1.01409814E3,4.3918707E2,8.4699104E1,1.5593231E2,6.1354263E1,8.4002914E1,4.2283634E1,1.285361E2,9.330782E0,3.4849472E1,7.1893274E2,1.708063E1,1.11950905E2,7.521526E1,9.16197E2,6.266888E1,1.9564954E2,2.468922E3,2.0326987E2,2.9546945E2,1.5910677E2,1.1044045E1,5.7564235E0,7.4303694E0,2.0147879E2,1.5462032E3,5.8910004E2,1.5412863E2,6.0661354E1,5.4901245E3,5.139398E3,1.8568743E3,6.4767596E2,6.9781685E1,1.2964186E2,3.6249084E2,3.314705E2,1.5104174E1,5.73195E2,1.2255243E2,2.0575438E2,4.1580145E2,5.968842E2,1.926614E2,5.280097E2],"tree_param":{"num_deleted":"0","num_feature":"8","num_nodes":"121","size_leaf_vector":"0"}},{"base_weights":[-1.1691806E-1,-2.8484702E-1,-9.605334E-3,5.047891E-2,-3.4887433E-1,8.7944254E-2,-1.9089368E-1,1.2584831E-1,-2.654755E-1,-3.9657265E-1,6.406083E-2,3.714996E-2,4.147236E-1,-2.932521E-1,-4.9196756E-3,-8.258526E-2,3.853887E-1,5.6983113E-1,-4.0104812E-1,-4.9889624E-1,-2.525571E-1,3.3949035E-1,-3.0145988E-1,1.3804434E-1,-1.1593533E-1,-9.602961E-2,4.5551026E-1,1.7206443E-2,-3.5910138E-1,2.7671465E-1,-1.21269256E-1,7.164987E-1,-1.7958184E-1,5.5277145E-1,8.7305404E-2,8.394484E-1,-5.186973E-1,-9.9392325E-1,-2.54896E-1,-6.317508E-1,-3.7423924E-1,-1.869725E-1,-5.869403E-1,7.926243E-1,1.4982228E-1,3.7544947E-2,-5.331815E-1,5.2914426E-2,4.493112E-1,2.598762E-2,-3.5791478E-1,9.166124E-2,-1.3665184E0,4.8387554E-1,-2.0054787E-1,-3.1863824E-1,3.4414133E-1,-3.274632E-1,-9.746506E-1,1.6773388E-1,9.5590484E-1,-8.343046E-1,6.447741E-2,-2.018275E-2,8.880461E-2,-7.20674E-2,-3.391089E-3,1.6605554E-2,7.424574E-2,-2.3762839E-2,4.3551337E-2,-2.0017648E-2,1.057142E-1,-1.7878385E-1,1.13835E-1,-9.002571E-3,-1.2973702E-1,1.527835E-2,-4.5434132E-2,-5.2559264E-2,-7.741599E-2,-2.5413305E-2,-4.904684E-2,-3.0107729E-3,-3.221701E-2,-1.0178747E-1,-1.9608188E-2,9.790764E-2,4.1009184E-2,-8.348531E-3,4.1690573E-2,-7.843005E-2,2.1807594E-2,9.691826E-3,-6.461673E-2,-1.4655826E-3,4.641143E-2,3.8934197E-2,9.188562E-2,1.1485042E-2,-1.3331713E-2,1.4163955E-2,-5.2081782E-2,-1.8498844E-1,2.2345958E-2,-1.8568233E-1,4.8939634E-2,5.689584E-2,2.9182568E-2,-1.1439311E-1,9.873085E-3,-2.5659798E-2,-1.3906948E-1,6.1754774E-2,-4.698507E-2,-3.5925176E-2,2.5917653E-2,3.0196471E-2,-1.11979626E-1,-9.131278E-3,4.2620555E-2,1.0734552E-1,-7.807862E-2,-5.8896895E-2,-1.1390841E-1,3.809487E-2,-3.3519813E-3],"categories":[0,1,3,4,5,6,9,10,4,10,2,7,0,3,9,1,4,5,6,0,2,0,1,4,9,2,4,5,6,7,8,9,10,4],"categories_nodes":[1,2,8,20,22,24,26,40,43,58],"categories_segments":[0,8,10,12,15,18,19,21,25,33],"categories_sizes":[8,2,2,3,3,1,2,4,8,1],"default_left":[0,0,0,0,0,0,0,0,0,0,0,0,0,0,0,0,0,0,0,0,0,0,0,0,0,0,0,0,0,0,0,0,0,0,0,0,0,0,0,0,0,0,0,0,0,0,0,0,0,0,0,0,0,0,0,0,0,0,0,0,0,0,0,0,0,0,0,0,0,0,0,0,0,0,0,0,0,0,0,0,0,0,0,0,0,0,0,0,0,0,0,0,0,0,0,0,0,0,0,0,0,0,0,0,0,0,0,0,0,0,0,0,0,0,0,0,0,0,0,0,0,0,0,0,0,0,0],"id":11,"left_children":[1,3,5,7,9,11,13,15,17,19,21,23,25,27,29,31,33,35,37,39,41,43,45,47,49,51,53,55,57,59,61,63,65,67,69,71,73,75,77,79,81,83,85,87,89,91,93,95,97,99,101,103,105,107,109,111,113,115,117,119,121,123,125,-1,-1,-1,-1,-1,-1,-1,-1,-1,-1,-1,-1,-1,-1,-1,-1,-1,-1,-1,-1,-1,-1,-1,-1,-1,-1,-1,-1,-1,-1,-1,-1,-1,-1,-1,-1,-1,-1,-1,-1,-1,-1,-1,-1,-1,-1,-1,-1,-1,-1,-1,-1,-1,-1,-1,-1,-1,-1,-1,-1,-1,-1,-1,-1],"loss_changes":[5.8490076E2,2.7170886E2,3.502335E2,4.836796E1,2.0931287E2,2.1370804E2,1.318882E2,8.8722664E1,4.4535503E1,1.4024463E2,1.10960655E2,1.7215482E2,3.6126617E1,9.136426E1,8.066322E1,7.0667984E1,3.6394005E1,1.659089E1,2.8965275E1,9.197424E1,8.670665E1,5.3891884E1,3.723264E1,1.7799156E2,1.520748E2,3.0866236E1,2.9949615E1,8.6076126E1,7.1482056E1,5.310798E1,2.3076572E2,1.5730148E1,6.400796E1,3.417398E1,2.9955425E1,1.0283049E1,2.6316534E1,1.8079636E1,2.2174429E1,4.0318237E1,4.0009888E1,7.021046E1,1.0905766E2,1.280735E1,2.7716393E1,2.884598E1,2.0099525E1,1.4661118E2,4.026413E1,3.9538418E1,1.332913E2,2.9395454E1,1.606533E1,2.4964844E1,1.9083185E1,2.5364658E1,8.869044E1,6.551431E1,3.364102E1,4.1643204E1,2.1109108E1,2.6253006E1,4.2900623E1,0E0,0E0,0E0,0E0,0E0,0E0,0E0,0E0,0E0,0E0,0E0,0E0,0E0,0E0,0E0,0E0,0E0,0E0,0E0,0E0,0E0,0E0,0E0,0E0,0E0,0E0,0E0,0E0,0E0,0E0,0E0,0E0,0E0,0E0,0E0,0E0,0E0,0E0,0E0,0E0,0E0,0E0,0E0,0E0,0E0,0E0,0E0,0E0,0E0,0E0,0E0,0E0,0E0,0E0,0E0,0E0,0E0,0E0,0E0,0E0,0E0,0E0,0E0,0E0],"parents":[2147483647,0,0,1,1,2,2,3,3,4,4,5,5,6,6,7,7,8,8,9,9,10,10,11,11,12,12,13,13,14,14,15,15,16,16,17,17,18,18,19,19,20,20,21,21,22,22,23,23,24,24,25,25,26,26,27,27,28,28,29,29,30,30,31,31,32,32,33,33,34,34,35,35,36,36,37,37,38,38,39,39,40,40,41,41,42,42,43,43,44,44,45,45,46,46,47,47,48,48,49,49,50,50,51,51,52,52,53,53,54,54,55,55,56,56,57,57,58,58,59,59,60,60,61,61,62,62],"right_children":[2,4,6,8,10,12,14,16,18,20,22,24,26,28,30,32,34,36,38,40,42,44,46,48,50,52,54,56,58,60,62,64,66,68,70,72,74,76,78,80,82,84,86,88,90,92,94,96,98,100,102,104,106,108,110,112,114,116,118,120,122,124,126,-1,-1,-1,-1,-1,-1,-1,-1,-1,-1,-1,-1,-1,-1,-1,-1,-1,-1,-1,-1,-1,-1,-1,-1,-1,-1,-1,-1,-1,-1,-1,-1,-1,-1,-1,-1,-1,-1,-1,-1,-1,-1,-1,-1,-1,-1,-1,-1,-1,-1,-1,-1,-1,-1,-1,-1,-1,-1,-1,-1,-1,-1,-1,-1],"split_conditions":[1.6428905E0,NaN,NaN,2.540256E-1,2.5859787E0,1.0928406E0,4.823903E0,4.4563937E0,NaN,7.199241E-1,2.5881114E0,-3.583351E-1,6.9479585E-2,3.9122555E0,4.9902034E0,-1.197761E0,-3.5902062E-1,9.642585E-1,7.1669716E-1,1.0760188E0,NaN,5.257306E0,NaN,-4.50923E-1,NaN,3.3880758E0,NaN,-2.1316272E-3,8.320399E-1,8.307287E-1,5.21324E0,6.963788E-1,-9.272773E-1,2.972825E0,1.1665305E0,2.688196E0,1.1285714E0,1.5195337E-1,7.364479E-1,4.9267763E-1,NaN,4.1892567E0,-4.9921548E-1,NaN,3.991439E0,6.26971E-1,8.0396734E-2,4.0708103E0,5.217025E0,5.6187534E-1,4.305828E0,1.7581357E0,5.8568125E0,2.6075585E0,4.6401377E0,8.9475787E-1,2.540256E-1,1.0041872E0,NaN,4.8978543E0,8.21881E-1,2.4167538E0,5.6517625E0,-2.018275E-2,8.880461E-2,-7.20674E-2,-3.391089E-3,1.6605554E-2,7.424574E-2,-2.3762839E-2,4.3551337E-2,-2.0017648E-2,1.057142E-1,-1.7878385E-1,1.13835E-1,-9.002571E-3,-1.2973702E-1,1.527835E-2,-4.5434132E-2,-5.2559264E-2,-7.741599E-2,-2.5413305E-2,-4.904684E-2,-3.0107729E-3,-3.221701E-2,-1.0178747E-1,-1.9608188E-2,9.790764E-2,4.1009184E-2,-8.348531E-3,4.1690573E-2,-7.843005E-2,2.1807594E-2,9.691826E-3,-6.461673E-2,-1.4655826E-3,4.641143E-2,3.8934197E-2,9.188562E-2,1.1485042E-2,-1.3331713E-2,1.4163955E-2,-5.2081782E-2,-1.8498844E-1,2.2345958E-2,-1.8568233E-1,4.8939634E-2,5.689584E-2,2.9182568E-2,-1.1439311E-1,9.873085E-3,-2.5659798E-2,-1.3906948E-1,6.1754774E-2,-4.698507E-2,-3.5925176E-2,2.5917653E-2,3.0196471E-2,-1.11979626E-1,-9.131278E-3,4.2620555E-2,1.0734552E-1,-7.807862E-2,-5.8896895E-2,-1.1390841E-1,3.809487E-2,-3.3519813E-3],"split_indices":[5,6,6,3,3,3,2,2,6,7,3,3,4,2,2,3,3,7,3,5,6,2,6,3,6,5,6,3,4,0,2,7,3,1,5,1,7,0,3,4,6,2,3,6,1,5,0,1,2,4,2,5,1,3,2,0,3,7,6,2,7,5,2,0,0,0,0,0,0,0,0,0,0,0,0,0,0,0,0,0,0,0,0,0,0,0,0,0,0,0,0,0,0,0,0,0,0,0,0,0,0,0,0,0,0,0,0,0,0,0,0,0,0,0,0,0,0,0,0,0,0,0,0,0,0,0,0],"split_type":[0,1,1,0,0,0,0,0,1,0,0,0,0,0,0,0,0,0,0,0,1,0,1,0,1,0,1,0,0,0,0,0,0,0,0,0,0,0,0,0,1,0,0,1,0,0,0,0,0,0,0,0,0,0,0,0,0,0,1,0,0,0,0,0,0,0,0,0,0,0,0,0,0,0,0,0,0,0,0,0,0,0,0,0,0,0,0,0,0,0,0,0,0,0,0,0,0,0,0,0,0,0,0,0,0,0,0,0,0,0,0,0,0,0,0,0,0,0,0,0,0,0,0,0,0,0,0],"sum_hessian":[3.2455928E4,1.2653448E4,1.980248E4,2.0287296E3,1.0624719E4,1.2875049E4,6.9274307E3,1.6384799E3,3.902498E2,9.52457E3,1.1001482E3,1.1143956E4,1.7310931E3,4.4678105E3,2.4596196E3,9.090862E2,7.293937E2,5.4046814E1,3.3620297E2,5.5668438E3,3.9577266E3,6.2743243E2,4.727157E2,6.7170366E3,4.426919E3,1.27915085E2,1.6031781E3,7.8194165E2,3.6858691E3,7.186606E2,1.7409591E3,9.7713036E1,8.1137317E2,4.6655475E2,2.6283893E2,4.3500908E1,1.0545905E1,6.534131E1,2.7086166E2,2.6928455E3,2.8739985E3,3.310063E3,6.4766364E2,1.8419504E2,4.432374E2,1.9226831E2,2.804474E2,5.275409E3,1.4416277E3,2.7909163E3,1.6360029E3,1.1225881E2,1.5656276E1,1.5369874E3,6.6190674E1,3.8572748E2,3.9621414E2,3.5071401E3,1.78729E2,6.203656E2,9.8295E1,3.590735E2,1.3818856E3,1.5352367E1,8.2360664E1,1.71265E2,6.4010815E2,1.5415395E2,3.1240082E2,1.3612762E2,1.267113E2,7.545731E0,3.5955177E1,5.9272575E0,4.618647E0,1.6748405E1,4.8592907E1,8.905707E1,1.818046E2,1.5454712E3,1.1473743E3,1.4149927E3,1.4590057E3,1.532816E3,1.7772471E3,3.0727664E2,3.4038696E2,1.2278723E2,6.140781E1,2.3694464E2,2.0629277E2,3.4025764E1,1.5824255E2,4.2663536E1,2.3778384E2,4.531703E3,7.4370593E2,1.2799806E3,1.6164705E2,1.7917357E3,9.9918054E2,4.02337E2,1.2336659E3,6.3074136E0,1.0595139E2,1.2384094E1,3.2721815E0,1.0637551E3,4.7323236E2,1.5261438E1,5.0929234E1,3.65798E2,1.9929497E1,2.9677402E2,9.944013E1,3.3272334E3,1.7990678E2,1.8135897E1,1.6059311E2,3.1016116E2,3.1020444E2,9.242123E1,5.873768E0,2.0056158E2,1.5851189E2,3.260513E2,1.0558344E3],"tree_param":{"num_deleted":"0","num_feature":"8","num_nodes":"127","size_leaf_vector":"0"}},{"base_weights":[-1.0625399E-1,-3.4124404E-1,-4.048374E-2,-5.268844E-1,-1.2960069E-1,1.6434452E-1,-1.0276891E-1,-2.6147985E-1,-6.1319876E-1,8.7832004E-2,-2.3802514E-1,2.8806325E-2,2.5714388E-1,-1.5648094E-1,2.2203466E-1,-3.9341804E-2,-5.4730743E-1,-3.6139295E-1,-6.8172395E-1,-1.6024598E-1,1.1040675E-1,-3.0808696E-1,1.6505651E-1,6.230649E-2,-3.658379E-1,5.914695E-1,2.2544311E-1,-1.817709E-1,3.571969E-1,3.586912E-1,-4.3813433E-2,-9.726803E-2,9.382873E-1,-2.191528E-1,-8.356521E-1,-4.5998695E-1,6.059681E-3,-1.0093266E0,-6.226515E-1,4.7110815E-2,5.233963E-1,-5.49758E-2,-4.2974362E-1,6.775608E-1,5.3806107E-2,5.9798026E-1,3.9676987E-2,-4.4931975E-1,5.282656E-1,-2.7647474E-1,6.5028685E-1,-7.5340696E-2,2.791673E-1,-1.3251626E-1,-3.7429053E-1,1.0411583E0,1.4557782E-1,4.822347E-1,1.4661555E-1,9.805988E-2,-2.9847503E-1,-1.0268942E-1,-1.8346844E-3,-5.6540826E-3,1.10571764E-1,-4.4290926E-2,6.981075E-2,7.817071E-2,-8.736311E-2,-6.489091E-2,-3.0546363E-3,6.591933E-2,-5.0905086E-2,-1.0231977E-1,3.1237802E-2,-9.40535E-2,-5.7031572E-2,4.083949E-2,-6.522509E-3,6.0261764E-2,-3.3095237E-2,-1.0096439E-1,9.585577E-3,-1.2331617E-1,-3.6165886E-2,-9.715556E-2,9.3279794E-2,-2.9016955E-2,2.7090406E-2,8.841571E-2,-5.7207018E-2,-4.7592437E-3,1.9444935E-2,-1.654477E-2,-8.004715E-2,1.1505039E-1,-1.4170796E-1,-1.4422548E-1,4.093465E-2,5.138082E-2,9.994253E-2,2.0787746E-2,-5.1406976E-2,1.0464764E-2,3.9363444E-2,-4.217132E-3,-2.335944E-2,-4.9754664E-2,-9.258499E-3,1.499182E-1,5.1802665E-2,2.9109819E-2,-3.208574E-2,-6.239859E-2,5.2316554E-2,7.152491E-2,8.974166E-3,2.9520376E-2,-4.8340365E-4,6.095149E-2,-3.8450196E-2],"categories":[3,4,5,6,9,10,0,2,3,4,6,9,10,0,4,6,9,10,0,1,2,1,0,2,3,4,5,6,8,0,1,2,3,5,6,7,8,10,0,1,2,4,5,6,7,8,9,10],"categories_nodes":[2,3,4,45,47,48,55,58],"categories_segments":[0,6,