{"learner":{"attributes":{"best_iteration":"24","best_ntree_limit":"25","scikit_learn":"{\"use_label_encoder\": false, \"n_estimators\": 25, \"objective\": \"binary:logistic\", \"max_depth\": 4, \"max_leaves\": null, \"max_bin\": null, \"grow_policy\": null, \"learning_rate\": 0.1, \"verbosity\": null, \"booster\": null, \"tree_method\": \"hist\", \"gamma\": 4.03, \"min_child_weight\": 8, \"max_delta_step\": 1, \"subsample\": 1, \"sampling_method\": null, \"colsample_bytree\": null, \"colsample_bylevel\": 1, \"colsample_bynode\": null, \"reg_alpha\": null, \"reg_lambda\": null, \"scale_pos_weight\": 5.320584, \"base_score\": null, \"missing\": NaN, \"num_parallel_tree\": null, \"random_state\": null, \"n_jobs\": null, \"monotone_constraints\": null, \"interaction_constraints\": null, \"importance_type\": null, \"gpu_id\": null, \"validate_parameters\": null, \"predictor\": null, \"enable_categorical\": true, \"max_cat_to_onehot\": 1, \"eval_metric\": [\"logloss\"], \"early_stopping_rounds\": null, \"callbacks\": null, \"kwargs\": {\"seed\": 420}, \"classes_\": [0, 1], \"n_classes_\": 2, \"evals_result_\": {\"validation_0\": {\"logloss\": [0.6695259941924151, 0.648084393078496, 0.6296454483223601, 0.6137259041361094, 0.5996480617718505, 0.5875336478123223, 0.5767626587050392, 0.5674108858499685, 0.5591155814335587, 0.5518166663117215, 0.5452936362746535, 0.5395068789492563, 0.5343860524666241, 0.529797276999701, 0.5257021468973231, 0.5219826426935273, 0.5186829885275083, 0.515757861477401, 0.5130857697083017, 0.5107174072045927, 0.5085749622996398, 0.5066206840107308, 0.5048957389524993, 0.5033503150988337, 0.5017716338681426]}}, \"_estimator_type\": \"classifier\"}"},"feature_names":["adf_pass_rate","last_residual","residual_mean_max","industry","residual_inter"],"feature_types":["float","float","float","c","float"],"gradient_booster":{"model":{"gbtree_model_param":{"num_parallel_tree":"1","num_trees":"25","size_leaf_vector":"0"},"tree_info":[0,0,0,0,0,0,0,0,0,0,0,0,0,0,0,0,0,0,0,0,0,0,0,0,0],"trees":[{"base_weights":[-4.8899007E-1,-1.308474E-1,-9.664929E-1,1.8932734E-1,-3.4109718E-1,-1E0,-3.217546E-1,6.3030906E-2,7.41805E-1,-4.4913447E-1,-2.2245692E-2,-1E0,-5.3713554E-1,-7.387463E-1,-6.7843497E-4,1.6469205E-2,-1.8693132E-2,3.7199747E-2,1E-1,-5.3521503E-2,-2.5972271E-2,-4.4178627E-2,8.328485E-3,-6.492162E-2,-1E-1,9.393867E-2,-5.5446792E-2,1.504737E-2,-9.151788E-2,1E-1,-1.9106992E-2],"categories":[3,4,9,10,0,5,6,1,2,3,4,9,4,9,0,1,2,3,4,5,6,7,8,10],"categories_nodes":[0,1,7,11,13,14],"categories_segments":[0,4,7,9,12,14],"categories_sizes":[4,3,2,3,2,10],"default_left":[0,0,0,0,0,0,0,0,0,0,0,0,0,0,0,0,0,0,0,0,0,0,0,0,0,0,0,0,0,0,0],"id":0,"left_children":[1,3,5,7,9,11,13,15,17,19,21,23,25,27,29,-1,-1,-1,-1,-1,-1,-1,-1,-1,-1,-1,-1,-1,-1,-1,-1],"loss_changes":[6.798074E3,1.5292512E3,4.5440137E2,6.2828174E2,4.723518E2,3.0552832E2,1.3810938E2,1.8631003E2,2.061128E2,1.6685303E2,1.5373021E2,9.175586E1,3.7135956E1,7.054016E1,1.6287856E2,0E0,0E0,0E0,0E0,0E0,0E0,0E0,0E0,0E0,0E0,0E0,0E0,0E0,0E0,0E0,0E0],"parents":[2147483647,0,0,1,1,2,2,3,3,4,4,5,5,6,6,7,7,8,8,9,9,10,10,11,11,12,12,13,13,14,14],"right_children":[2,4,6,8,10,12,14,16,18,20,22,24,26,28,30,-1,-1,-1,-1,-1,-1,-1,-1,-1,-1,-1,-1,-1,-1,-1,-1],"split_conditions":[NaN,NaN,2.0217647E-1,1.6020882E-1,7.274472E-1,7.398683E-1,7.053845E-1,NaN,6.824899E-1,5.1152164E-1,5.8803064E-1,NaN,4.0404043E-1,NaN,NaN,1.6469205E-2,-1.8693132E-2,3.7199747E-2,1E-1,-5.3521503E-2,-2.5972271E-2,-4.4178627E-2,8.328485E-3,-6.492162E-2,-1E-1,9.393867E-2,-5.5446792E-2,1.504737E-2,-9.151788E-2,1E-1,-1.9106992E-2],"split_indices":[3,3,1,1,4,0,2,3,2,0,2,3,4,3,3,0,0,0,0,0,0,0,0,0,0,0,0,0,0,0,0],"split_type":[1,1,0,0,0,0,0,1,0,0,0,1,0,1,1,0,0,0,0,0,0,0,0,0,0,0,0,0,0,0,0],"sum_hessian":[3.975127E4,2.2715314E4,1.7035953E4,9.00394E3,1.3711374E4,1.6005405E4,1.0305475E3,7.329525E3,1.674416E3,1.0240985E4,3.4703882E3,1.4575658E4,1.4297473E3,4.4774548E2,5.8280194E2,5.2106597E3,2.1188655E3,8.0735254E2,8.670634E2,7.0398228E3,3.2011628E3,6.968498E2,2.7735386E3,7.5280786E2,1.3822851E4,1.5971313E1,1.413776E3,7.415438E1,3.735911E2,5.6205837E1,5.265961E2],"tree_param":{"num_deleted":"0","num_feature":"5","num_nodes":"31","size_leaf_vector":"0"}},{"base_weights":[-4.4299343E-1,-1.1748305E-1,-8.7777156E-1,1.7129731E-1,-3.071368E-1,-9.062559E-1,-8.189158E-2,5.6731813E-2,6.731538E-1,-3.9218733E-1,2.3194566E-2,-9.727104E-1,-6.119758E-1,8.34596E-1,-2.6630664E-1,1.7440282E-2,-1.2078298E-2,3.3496372E-2,9.879817E-2,-4.719097E-2,-2.1454658E-2,-3.929036E-2,1.3369234E-2,-9.989443E-2,-6.3965835E-2,-6.231463E-2,1E-1,-7.888698E-2,1E-1,-5.284453E-2,1.897218E-2],"categories":[3,4,9,10,0,5,6,3,4,0,1,2,3,4,5,6,8,9,10],"categories_nodes":[0,1,6,7],"categories_segments":[0,4,7,9],"categories_sizes":[4,3,2,10],"default_left":[0,0,0,0,0,0,0,0,0,0,0,0,0,0,0,0,0,0,0,0,0,0,0,0,0,0,0,0,0,0,0],"id":1,"left_children":[1,3,5,7,9,11,13,15,17,19,21,23,25,27,29,-1,-1,-1,-1,-1,-1,-1,-1,-1,-1,-1,-1,-1,-1,-1,-1],"loss_changes":[5.6192725E3,1.2436958E3,3.8530664E2,5.175335E2,3.8508875E2,3.2036426E2,9.968492E1,1.5313234E2,1.7779303E2,1.5426453E2,1.2912941E2,1.1632324E2,6.1344727E1,8.9713486E1,5.8755844E1,0E0,0E0,0E0,0E0,0E0,0E0,0E0,0E0,0E0,0E0,0E0,0E0,0E0,0E0,0E0,0E0],"parents":[2147483647,0,0,1,1,2,2,3,3,4,4,5,5,6,6,7,7,8,8,9,9,10,10,11,11,12,12,13,13,14,14],"right_children":[2,4,6,8,10,12,14,16,18,20,22,24,26,28,30,-1,-1,-1,-1,-1,-1,-1,-1,-1,-1,-1,-1,-1,-1,-1,-1],"split_conditions":[NaN,NaN,2.3336644E-1,1.6020882E-1,7.5982535E-1,6.2403387E-1,NaN,NaN,6.824899E-1,5.145197E-1,5.8920014E-1,1.6810599E-1,9.1011304E-1,6.5984535E-1,7.5598305E-1,1.7440282E-2,-1.2078298E-2,3.3496372E-2,9.879817E-2,-4.719097E-2,-2.1454658E-2,-3.929036E-2,1.3369234E-2,-9.989443E-2,-6.3965835E-2,-6.231463E-2,1E-1,-7.888698E-2,1E-1,-5.284453E-2,1.897218E-2],"split_indices":[3,3,1,1,4,0,3,3,2,0,2,1,2,2,2,0,0,0,0,0,0,0,0,0,0,0,0,0,0,0,0],"split_type":[1,1,0,0,0,0,1,1,0,0,0,0,0,0,0,0,0,0,0,0,0,0,0,0,0,0,0,0,0,0,0],"sum_hessian":[3.9704934E4,2.2706365E4,1.6998566E4,9.000959E3,1.3705406E4,1.641108E4,5.8748737E2,7.328986E3,1.6719727E3,1.089904E4,2.806367E3,1.3385952E4,3.0251272E3,9.7820946E1,4.8966644E2,4.407416E3,2.92157E3,8.070733E2,8.6489935E2,7.521743E3,3.3772961E3,5.8833514E2,2.2180317E3,1.2406703E4,9.7924915E2,3.0072827E3,1.7844498E1,2.8192333E1,6.962862E1,3.1083212E2,1.7883434E2],"tree_param":{"num_deleted":"0","num_feature":"5","num_nodes":"31","size_leaf_vector":"0"}},{"base_weights":[-4.000168E-1,-1.0584308E-1,-7.949938E-1,1.5435827E-1,-2.7676097E-1,-8.3020484E-1,-2.5092646E-1,6.2130325E-2,6.725482E-1,-3.6574143E-1,-1.4534669E-2,-8.9365554E-1,-5.486283E-1,-6.143606E-1,2.7990708E-2,-3.4851723E-3,2.7584119E-2,3.4923565E-2,9.481278E-2,-3.326067E-2,-7.094632E-2,-3.5933267E-2,7.205625E-3,-5.2900877E-2,-9.12739E-2,-5.591927E-2,1E-1,1.6740235E-2,-7.702778E-2,1E-1,-1.3967285E-2],"categories":[3,4,9,10,0,5,6,3,4,9,4,9,0,1,2,3,4,5,6,7,8,10],"categories_nodes":[0,1,11,13,14],"categories_segments":[0,4,7,10,12],"categories_sizes":[4,3,3,2,10],"default_left":[0,0,0,0,0,0,0,0,0,0,0,0,0,0,0,0,0,0,0,0,0,0,0,0,0,0,0,0,0,0,0],"id":2,"left_children":[1,3,5,7,9,11,13,15,17,19,21,23,25,27,29,-1,-1,-1,-1,-1,-1,-1,-1,-1,-1,-1,-1,-1,-1,-1,-1],"loss_changes":[4.598359E3,1.0088586E3,3.2342578E2,4.2977905E2,3.1944934E2,2.829795E2,1.0425346E2,1.582722E2,1.2073096E2,1.161875E2,1.03620575E2,8.9612305E1,5.1619385E1,5.455818E1,1.3299188E2,0E0,0E0,0E0,0E0,0E0,0E0,0E0,0E0,0E0,0E0,0E0,0E0,0E0,0E0,0E0,0E0],"parents":[2147483647,0,0,1,1,2,2,3,3,4,4,5,5,6,6,7,7,8,8,9,9,10,10,11,11,12,12,13,13,14,14],"right_children":[2,4,6,8,10,12,14,16,18,20,22,24,26,28,30,-1,-1,-1,-1,-1,-1,-1,-1,-1,-1,-1,-1,-1,-1,-1,-1],"split_conditions":[NaN,NaN,2.0217647E-1,1.7707317E-1,7.274472E-1,6.2403387E-1,7.053845E-1,6.812831E-1,6.824899E-1,8.2002544E-1,5.8803064E-1,NaN,9.1011304E-1,NaN,NaN,-3.4851723E-3,2.7584119E-2,3.4923565E-2,9.481278E-2,-3.326067E-2,-7.094632E-2,-3.5933267E-2,7.205625E-3,-5.2900877E-2,-9.12739E-2,-5.591927E-2,1E-1,1.6740235E-2,-7.702778E-2,1E-1,-1.3967285E-2],"split_indices":[3,3,1,1,4,0,2,2,2,2,2,3,2,3,3,0,0,0,0,0,0,0,0,0,0,0,0,0,0,0,0],"split_type":[1,1,0,0,0,0,0,0,0,0,0,1,0,1,1,0,0,0,0,0,0,0,0,0,0,0,0,0,0,0,0],"sum_hessian":[3.95753E4,2.268275E4,1.689255E4,8.992649E3,1.36901E4,1.5865254E4,1.0272957E3,7.6349023E3,1.3577474E3,1.0221332E4,3.4687678E3,1.294585E4,2.9194045E3,4.4554276E2,5.817529E2,5.2522617E3,2.3826409E3,6.258093E2,7.319381E2,9.324427E3,8.9690533E2,6.956393E2,2.7731287E3,6.45243E2,1.2300606E4,2.9016082E3,1.7796282E1,7.407249E1,3.7147028E2,5.5689884E1,5.2606305E2],"tree_param":{"num_deleted":"0","num_feature":"5","num_nodes":"31","size_leaf_vector":"0"}},{"base_weights":[-3.618004E-1,-9.539037E-2,-7.2232324E-1,1.3915528E-1,-2.4950165E-1,-7.467058E-1,-4.833998E-2,4.5007724E-2,5.5562466E-1,-3.1969118E-1,2.247317E-2,-7.8493243E-1,-3.6307088E-1,7.5827855E-1,-2.0909385E-1,-1.6289108E-3,3.4770902E-2,2.7576465E-2,8.202478E-2,-3.975257E-2,-1.6998073E-2,-3.1995013E-2,1.1314999E-2,-8.657648E-2,-6.9712475E-2,-3.9468836E-2,1.49032725E-2,-6.152728E-2,1E-1,-7.986485E-3,-9.733115E-2],"categories":[3,4,9,10,0,5,6,3,4],"categories_nodes":[0,1,6],"categories_segments":[0,4,7],"categories_sizes":[4,3,2],"default_left":[0,0,0,0,0,0,0,0,0,0,0,0,0,0,0,0,0,0,0,0,0,0,0,0,0,0,0,0,0,0,0],"id":3,"left_children":[1,3,5,7,9,11,13,15,17,19,21,23,25,27,29,-1,-1,-1,-1,-1,-1,-1,-1,-1,-1,-1,-1,-1,-1,-1,-1],"loss_changes":[3.7830986E3,8.1881616E2,2.7502246E2,3.5218146E2,2.609704E2,2.3660547E2,7.6071846E1,1.3596526E2,1.22423065E2,1.2655176E2,8.713665E1,1.0365332E2,2.3788681E1,7.489023E1,4.820996E1,0E0,0E0,0E0,0E0,0E0,0E0,0E0,0E0,0E0,0E0,0E0,0E0,0E0,0E0,0E0,0E0],"parents":[2147483647,0,0,1,1,2,2,3,3,4,4,5,5,6,6,7,7,8,8,9,9,10,10,11,11,12,12,13,13,14,14],"right_children":[2,4,6,8,10,12,14,16,18,20,22,24,26,28,30,-1,-1,-1,-1,-1,-1,-1,-1,-1,-1,-1,-1,-1,-1,-1,-1],"split_conditions":[NaN,NaN,2.3336644E-1,1.6020882E-1,7.5982535E-1,7.398683E-1,NaN,6.416406E-1,6.824899E-1,4.9235448E-1,5.8920014E-1,3.600206E-1,7.687928E-1,6.6150355E-1,6.886012E-1,-1.6289108E-3,3.4770902E-2,2.7576465E-2,8.202478E-2,-3.975257E-2,-1.6998073E-2,-3.1995013E-2,1.1314999E-2,-8.657648E-2,-6.9712475E-2,-3.9468836E-2,1.49032725E-2,-6.152728E-2,1E-1,-7.986485E-3,-9.733115E-2],"split_indices":[3,3,1,1,4,0,3,0,2,0,2,0,2,2,0,0,0,0,0,0,0,0,0,0,0,0,0,0,0,0,0],"split_type":[1,1,0,0,0,0,1,0,0,0,0,0,0,0,0,0,0,0,0,0,0,0,0,0,0,0,0,0,0,0,0],"sum_hessian":[3.938776E4,2.265098E4,1.6736783E4,8.981665E3,1.3669314E4,1.6152335E4,5.844478E2,7.326529E3,1.6551359E3,1.0865135E4,2.8041804E3,1.4687752E4,1.464583E3,9.65034E1,4.8794443E2,6.0935376E3,1.2329915E3,8.054016E2,8.497342E2,7.1474946E3,3.71764E3,5.865731E2,2.2176072E3,7.6430264E3,7.0447256E3,1.3796333E3,8.494976E1,3.0270205E1,6.62332E1,4.183124E2,6.963201E1],"tree_param":{"num_deleted":"0","num_feature":"5","num_nodes":"31","size_leaf_vector":"0"}},{"base_weights":[-3.2760954E-1,-9.602063E-2,-6.7372924E-1,1.9049773E-1,-2.0390476E-1,-7.171545E-1,-2.791601E-1,3.9174292E-2,4.0681276E-1,-2.3437001E-1,4.2739668E-1,-7.718253E-1,-4.4601798E-1,-5.717176E-1,-3.172887E-2,5.151246E-2,-1.2873799E-2,2.3682432E-2,7.1038365E-2,-3.1342845E-2,-1.0211288E-2,2.8095325E-2,8.670887E-2,-6.468041E-2,-8.16812E-2,-4.5774214E-2,1E-1,3.2704245E-2,-6.799907E-2,1E-1,-1.4180377E-2],"categories":[3,4,9,0,1,2,5,6,10,4,9,3,4],"categories_nodes":[0,1,13,14],"categories_segments":[0,3,9,11],"categories_sizes":[3,6,2,2],"default_left":[0,0,0,0,0,0,0,0,0,0,0,0,0,0,0,0,0,0,0,0,0,0,0,0,0,0,0,0,0,0,0],"id":4,"left_children":[1,3,5,7,9,11,13,15,17,19,21,23,25,27,29,-1,-1,-1,-1,-1,-1,-1,-1,-1,-1,-1,-1,-1,-1,-1,-1],"loss_changes":[3.1391714E3,7.2535803E2,2.687998E2,2.1010292E2,3.279582E2,2.0928955E2,1.127745E2,3.0199832E2,1.361705E2,1.7001178E2,5.031073E1,6.56582E1,4.2891754E1,6.969495E1,1.22039665E2,0E0,0E0,0E0,0E0,0E0,0E0,0E0,0E0,0E0,0E0,0E0,0E0,0E0,0E0,0E0,0E0],"parents":[2147483647,0,0,1,1,2,2,3,3,4,4,5,5,6,6,7,7,8,8,9,9,10,10,11,11,12,12,13,13,14,14],"right_children":[2,4,6,8,10,12,14,16,18,20,22,24,26,28,30,-1,-1,-1,-1,-1,-1,-1,-1,-1,-1,-1,-1,-1,-1,-1,-1],"split_conditions":[NaN,NaN,1.7455998E-1,6.8451977E-1,1.011062E0,6.416406E-1,7.02342E-1,5.67336E-1,1.263286E-1,6.6976744E-1,3.2202813E-1,6.098541E-1,9.1011304E-1,NaN,NaN,5.151246E-2,-1.2873799E-2,2.3682432E-2,7.1038365E-2,-3.1342845E-2,-1.0211288E-2,2.8095325E-2,8.670887E-2,-6.468041E-2,-8.16812E-2,-4.5774214E-2,1E-1,3.2704245E-2,-6.799907E-2,1E-1,-1.4180377E-2],"split_indices":[3,3,1,2,4,0,2,2,1,4,1,2,2,3,3,0,0,0,0,0,0,0,0,0,0,0,0,0,0,0,0],"split_type":[1,1,0,0,0,0,0,0,0,0,0,0,0,1,1,0,0,0,0,0,0,0,0,0,0,0,0,0,0,0,0],"sum_hessian":[3.9162375E4,2.3463926E4,1.569845E4,6.41807E3,1.7045857E4,1.4141279E4,1.5571704E3,3.777027E3,2.641043E3,1.62617295E4,7.841273E2,1.1766821E4,2.3744578E3,7.129192E2,8.442512E2,9.844679E2,2.7925593E3,1.6941576E3,9.4688525E2,1.0176954E4,6.0847754E3,5.89446E2,1.9468134E2,3.11775E3,8.649071E3,2.3570564E3,1.740156E1,7.643365E1,6.3648553E2,6.074014E1,7.835111E2],"tree_param":{"num_deleted":"0","num_feature":"5","num_nodes":"31","size_leaf_vector":"0"}},{"base_weights":[-2.9684085E-1,-8.6562924E-2,-6.146852E-1,1.1541353E-1,-2.115575E-1,-6.6539764E-1,-3.2383823E-1,4.8772592E-2,5.5825114E-1,-2.7343664E-1,-3.3403795E-2,-7.168065E-1,-4.1466814E-1,-4.3831587E-1,1.046385E-1,-3.4000517E-3,2.2928832E-2,4.239125E-2,8.9153536E-2,-2.3412617E-2,-5.8494546E-2,-1.118778E-2,2.4567368E-2,-7.399344E-2,-5.1853996E-2,-4.4727076E-2,8.676775E-3,-9.756458E-3,-5.127702E-2,1E-1,-4.073172E-3],"categories":[3,4,9,0,5,6,10,4,9,0,1,2,3,4,5,6,7,8,10],"categories_nodes":[0,1,13,14],"categories_segments":[0,3,7,9],"categories_sizes":[3,4,2,10],"default_left":[0,0,0,0,0,0,0,0,0,0,0,0,0,0,0,0,0,0,0,0,0,0,0,0,0,0,0,0,0,0,0],"id":5,"left_children":[1,3,5,7,9,11,13,15,17,19,21,23,25,27,29,-1,-1,-1,-1,-1,-1,-1,-1,-1,-1,-1,-1,-1,-1,-1,-1],"loss_changes":[2.60095E3,5.913493E2,2.2832617E2,2.642338E2,1.5949628E2,1.6976074E2,1.1298674E2,1.1632169E2,5.2059723E1,1.3136536E2,8.1740845E1,4.9814453E1,3.677655E1,4.60542E1,8.182772E1,0E0,0E0,0E0,0E0,0E0,0E0,0E0,0E0,0E0,0E0,0E0,0E0,0E0,0E0,0E0,0E0],"parents":[2147483647,0,0,1,1,2,2,3,3,4,4,5,5,6,6,7,7,8,8,9,9,10,10,11,11,12,12,13,13,14,14],"right_children":[2,4,6,8,10,12,14,16,18,20,22,24,26,28,30,-1,-1,-1,-1,-1,-1,-1,-1,-1,-1,-1,-1,-1,-1,-1,-1],"split_conditions":[NaN,NaN,8.029557E-1,1.8733613E-1,5.616853E-1,6.416406E-1,7.227755E-1,6.812831E-1,2.9488406E-1,8.0258983E-1,1.4363684E-1,7.4526376E-1,7.729394E-1,NaN,NaN,-3.4000517E-3,2.2928832E-2,4.239125E-2,8.9153536E-2,-2.3412617E-2,-5.8494546E-2,-1.118778E-2,2.4567368E-2,-7.399344E-2,-5.1853996E-2,-4.4727076E-2,8.676775E-3,-9.756458E-3,-5.127702E-2,1E-1,-4.073172E-3],"split_indices":[3,3,4,1,0,0,2,2,1,2,1,2,2,3,3,0,0,0,0,0,0,0,0,0,0,0,0,0,0,0,0],"split_type":[1,1,0,0,0,0,0,0,0,0,0,0,0,1,1,0,0,0,0,0,0,0,0,0,0,0,0,0,0,0,0],"sum_hessian":[3.89154E4,2.3421555E4,1.5493845E4,8.953627E3,1.4467928E4,1.3192326E4,2.3015188E3,7.783437E3,1.1701896E3,1.0737779E4,3.7301487E3,1.0946109E4,2.246217E3,1.8162435E3,4.8527518E2,5.337026E3,2.4464111E3,8.356368E2,3.345528E2,9.53613E3,1.2016486E3,2.9119377E3,8.1821094E2,9.80018E3,1.1459297E3,2.109189E3,1.3702824E2,3.2610156E2,1.490142E3,4.9887768E1,4.3538742E2],"tree_param":{"num_deleted":"0","num_feature":"5","num_nodes":"31","size_leaf_vector":"0"}},{"base_weights":[-2.6908E-1,-6.869136E-2,-5.4904413E-1,1.5875898E-1,-1.5880905E-1,-5.838161E-1,-2.3355061E-1,6.261741E-2,4.0650705E-1,-2.3753051E-1,9.3278244E-2,-6.343009E-1,-3.653482E-1,-4.7700348E-1,-1.4530092E-2,4.9818005E-2,-4.1190726E-3,2.6427245E-2,7.394754E-2,-2.984496E-2,-1.011202E-2,3.3458383E-3,6.0459223E-2,-3.483823E-2,-6.5003924E-2,1E-1,-3.7700918E-2,3.037276E-2,-5.650873E-2,1E-1,-1.0981224E-2],"categories":[3,4,9,10,0,1,2,5,6,3,4,9,4,9,10,0,1,2,3,4,5,6,7,8,10],"categories_nodes":[0,1,11,13,14],"categories_segments":[0,4,9,12,15],"categories_sizes":[4,5,3,3,10],"default_left":[0,0,0,0,0,0,0,0,0,0,0,0,0,0,0,0,0,0,0,0,0,0,0,0,0,0,0,0,0,0,0],"id":6,"left_children":[1,3,5,7,9,11,13,15,17,19,21,23,25,27,29,-1,-1,-1,-1,-1,-1,-1,-1,-1,-1,-1,-1,-1,-1,-1,-1],"loss_changes":[2.1687678E3,4.6188037E2,1.767832E2,1.5228787E2,3.2029224E2,1.5997266E2,8.544805E1,2.0837418E2,8.446344E1,1.02171326E2,1.17470245E2,5.286084E1,4.8294342E1,5.2365005E1,9.783343E1,0E0,0E0,0E0,0E0,0E0,0E0,0E0,0E0,0E0,0E0,0E0,0E0,0E0,0E0,0E0,0E0],"parents":[2147483647,0,0,1,1,2,2,3,3,4,4,5,5,6,6,7,7,8,8,9,9,10,10,11,11,12,12,13,13,14,14],"right_children":[2,4,6,8,10,12,14,16,18,20,22,24,26,28,30,-1,-1,-1,-1,-1,-1,-1,-1,-1,-1,-1,-1,-1,-1,-1,-1],"split_conditions":[NaN,NaN,1.7455998E-1,7.168462E-1,7.6283616E-1,6.2403387E-1,7.02342E-1,5.6054735E-1,1.5841329E-1,5.145197E-1,1.1036469E0,NaN,4.5568833E-1,NaN,NaN,4.9818005E-2,-4.1190726E-3,2.6427245E-2,7.394754E-2,-2.984496E-2,-1.011202E-2,3.3458383E-3,6.0459223E-2,-3.483823E-2,-6.5003924E-2,1E-1,-3.7700918E-2,3.037276E-2,-5.650873E-2,1E-1,-1.0981224E-2],"split_indices":[3,3,1,2,4,0,2,2,1,0,4,3,2,3,3,0,0,0,0,0,0,0,0,0,0,0,0,0,0,0,0],"split_type":[1,1,0,0,0,0,0,0,0,0,0,1,0,1,1,0,0,0,0,0,0,0,0,0,0,0,0,0,0,0,0],"sum_hessian":[3.8657504E4,2.2531486E4,1.6126016E4,6.3936445E3,1.6137842E4,1.4524369E4,1.6016466E3,4.6070693E3,1.786575E3,1.2297617E4,3.8402246E3,1.1796471E4,2.7278982E3,7.579581E2,8.436885E2,8.859526E2,3.721117E3,1.253086E3,5.3348895E2,8.500303E3,3.7973145E3,3.438958E3,4.012666E2,6.1666205E2,1.1179809E4,2.002577E1,2.7078726E3,7.659652E1,6.8136163E2,5.8571518E1,7.8511694E2],"tree_param":{"num_deleted":"0","num_feature":"5","num_nodes":"31","size_leaf_vector":"0"}},{"base_weights":[-2.4400042E-1,-6.193738E-2,-5.014233E-1,1.2909912E-1,-1.4930084E-1,-5.1936924E-1,4.1206222E-2,-1.2171132E-2,2.5745013E-1,-2.049524E-1,1.2272625E-1,-5.5077946E-1,-2.156063E-1,1.7734575E-1,-8.324617E-1,-7.882125E-3,3.0892095E-2,9.628917E-3,4.5739647E-2,-1.711435E-2,-4.6195295E-2,6.0034906E-3,6.8096094E-2,-6.1997533E-2,-4.7654577E-2,-1.486634E-3,-2.8491035E-2,9.3654096E-2,2.0429855E-3,-1E-1,-1.4600808E-2],"categories":[3,4,9,10,0,1,5,6,0,1,2,3,4,5,6,7,8],"categories_nodes":[0,1,13],"categories_segments":[0,4,8],"categories_sizes":[4,4,9],"default_left":[0,0,0,0,0,0,0,0,0,0,0,0,0,0,0,0,0,0,0,0,0,0,0,0,0,0,0,0,0,0,0],"id":7,"left_children":[1,3,5,7,9,11,13,15,17,19,21,23,25,27,29,-1,-1,-1,-1,-1,-1,-1,-1,-1,-1,-1,-1,-1,-1,-1,-1],"loss_changes":[1.7991074E3,3.753085E2,1.5488037E2,1.2795997E2,2.336235E2,1.4675732E2,6.081019E1,7.193822E1,1.1910449E2,1.11227844E2,9.1694626E1,7.1362305E1,2.0088043E1,5.2646694E1,1.3622742E1,0E0,0E0,0E0,0E0,0E0,0E0,0E0,0E0,0E0,0E0,0E0,0E0,0E0,0E0,0E0,0E0],"parents":[2147483647,0,0,1,1,2,2,3,3,4,4,5,5,6,6,7,7,8,8,9,9,10,10,11,11,12,12,13,13,14,14],"right_children":[2,4,6,8,10,12,14,16,18,20,22,24,26,28,30,-1,-1,-1,-1,-1,-1,-1,-1,-1,-1,-1,-1,-1,-1,-1,-1],"split_conditions":[NaN,NaN,2.3988715E-1,7.070165E-2,8.1088823E-1,7.398683E-1,6.886012E-1,6.463342E-1,6.8340474E-1,8.0258983E-1,2.9488406E-1,3.600206E-1,6.053651E-1,NaN,7.571211E-1,-7.882125E-3,3.0892095E-2,9.628917E-3,4.5739647E-2,-1.711435E-2,-4.6195295E-2,6.0034906E-3,6.8096094E-2,-6.1997533E-2,-4.7654577E-2,-1.486634E-3,-2.8491035E-2,9.3654096E-2,2.0429855E-3,-1E-1,-1.4600808E-2],"split_indices":[3,3,1,1,4,0,0,0,2,2,1,0,2,3,2,0,0,0,0,0,0,0,0,0,0,0,0,0,0,0,0],"split_type":[1,1,0,0,0,0,0,0,0,0,0,0,0,1,0,0,0,0,0,0,0,0,0,0,0,0,0,0,0,0,0],"sum_hessian":[3.838702E4,2.24854E4,1.5901621E4,7.0558936E3,1.5429506E4,1.5392598E4,5.0902335E2,3.3593318E3,3.696562E3,1.2809229E4,2.620278E3,1.3949365E4,1.443232E3,4.4108777E2,6.79356E1,2.7825115E3,5.768203E2,2.047619E3,1.6489429E3,1.1321525E4,1.4877026E3,2.3567195E3,2.6355875E2,7.215861E3,6.7335044E3,3.7070245E2,1.0725295E3,7.470061E1,3.6638715E2,4.623212E1,2.1703482E1],"tree_param":{"num_deleted":"0","num_feature":"5","num_nodes":"31","size_leaf_vector":"0"}},{"base_weights":[-2.2129326E-1,-6.2722646E-2,-4.6986106E-1,1.3007976E-1,-1.3532278E-1,-5.1399344E-1,-2.2137737E-1,1.7611178E-2,2.8681773E-1,-1.5601455E-1,3.55027E-1,-5.451047E-1,-2.0541888E-1,-3.0967352E-1,1.3223492E-1,4.454114E-2,-1.1626255E-2,1.5218898E-2,5.1238883E-2,-1.2828696E-2,-4.1353915E-2,-3.90827E-2,4.1761603E-2,-5.6708466E-2,-3.0361865E-2,-2.2756059E-2,3.8441807E-2,-7.327819E-4,-3.751804E-2,2.240587E-2,-1E-1],"categories":[3,4,9,0,1,2,5,6,10,4,9],"categories_nodes":[0,1,13],"categories_segments":[0,3,9],"categories_sizes":[3,6,2],"default_left":[0,0,0,0,0,0,0,0,0,0,0,0,0,0,0,0,0,0,0,0,0,0,0,0,0,0,0,0,0,0,0],"id":8,"left_children":[1,3,5,7,9,11,13,15,17,19,21,23,25,27,29,-1,-1,-1,-1,-1,-1,-1,-1,-1,-1,-1,-1,-1,-1,-1,-1],"loss_changes":[1.5026783E3,3.258402E2,1.6271777E2,1.1224947E2,1.7163068E2,1.2092944E2,7.001743E1,2.1244865E2,8.071146E1,1.158114E2,3.214026E1,6.061792E1,1.5189732E1,3.5522858E1,5.6091618E1,0E0,0E0,0E0,0E0,0E0,0E0,0E0,0E0,0E0,0E0,0E0,0E0,0E0,0E0,0E0,0E0],"parents":[2147483647,0,0,1,1,2,2,3,3,4,4,5,5,6,6,7,7,8,8,9,9,10,10,11,11,12,12,13,13,14,14],"right_children":[2,4,6,8,10,12,14,16,18,20,22,24,26,28,30,-1,-1,-1,-1,-1,-1,-1,-1,-1,-1,-1,-1,-1,-1,-1,-1],"split_conditions":[NaN,NaN,8.029557E-1,6.812831E-1,1.0290238E0,7.4557465E-1,7.2558594E-1,5.6054735E-1,1.1960705E-1,8.0258983E-1,4.5568833E-1,7.547974E-1,7.831243E-1,NaN,7.879414E-1,4.454114E-2,-1.1626255E-2,1.5218898E-2,5.1238883E-2,-1.2828696E-2,-4.1353915E-2,-3.90827E-2,4.1761603E-2,-5.6708466E-2,-3.0361865E-2,-2.2756059E-2,3.8441807E-2,-7.327819E-4,-3.751804E-2,2.240587E-2,-1E-1],"split_indices":[3,3,4,2,4,0,2,2,1,2,2,2,2,3,2,0,0,0,0,0,0,0,0,0,0,0,0,0,0,0,0],"split_type":[1,1,0,0,0,0,0,0,0,0,0,0,0,1,0,0,0,0,0,0,0,0,0,0,0,0,0,0,0,0,0],"sum_hessian":[3.812375E4,2.327623E4,1.4847519E4,6.366932E3,1.6909299E4,1.2607306E4,2.240213E3,3.7076152E3,2.659317E3,1.6225307E4,6.83993E2,1.1451929E4,1.1553761E3,1.7927034E3,4.4750955E2,8.8314716E2,2.8244683E3,1.666416E3,9.929009E2,1.4649498E4,1.5758077E3,5.2548214E1,6.3144476E2,1.0495301E4,9.566286E2,1.114166E3,4.121011E1,3.1944104E2,1.4732623E3,4.208466E2,2.6662943E1],"tree_param":{"num_deleted":"0","num_feature":"5","num_nodes":"31","size_leaf_vector":"0"}},{"base_weights":[-2.0069337E-1,-5.6554772E-2,-4.2946008E-1,7.972675E-2,-1.4100838E-1,-4.7470888E-1,-2.2072281E-1,2.9133588E-2,4.261574E-1,-1.9347998E-1,9.206197E-3,-5.607298E-1,-3.7671584E-1,-3.424351E-1,3.8163226E-2,-2.0662034E-3,2.7555743E-2,3.334373E-2,7.8358814E-2,-1.7375603E-2,-5.6575652E-2,1.0359344E-2,-1.4357469E-2,-2.3399016E-2,-5.8591075E-2,-4.1946135E-2,-2.0273509E-2,-2.5087956E-2,-6.3812755E-2,1E-1,-4.268109E-3],"categories":[3,4,9,0,5,6,10,0,5,10,0,1,2,3,4,5,6,7,8,10],"categories_nodes":[0,1,10,14],"categories_segments":[0,3,7,10],"categories_sizes":[3,4,3,10],"default_left":[0,0,0,0,0,0,0,0,0,0,0,0,0,0,0,0,0,0,0,0,0,0,0,0,0,0,0,0,0,0,0],"id":9,"left_children":[1,3,5,7,9,11,13,15,17,19,21,23,25,27,29,-1,-1,-1,-1,-1,-1,-1,-1,-1,-1,-1,-1,-1,-1,-1,-1],"loss_changes":[1.248579E3,2.6738712E2,1.381355E2,1.5578246E2,1.1305423E2,1.01177246E2,8.223354E1,9.519294E1,3.727559E1,7.795526E1,5.357453E1,5.2545288E1,4.1752502E1,4.7893753E1,7.421874E1,0E0,0E0,0E0,0E0,0E0,0E0,0E0,0E0,0E0,0E0,0E0,0E0,0E0,0E0,0E0,0E0],"parents":[2147483647,0,0,1,1,2,2,3,3,4,4,5,5,6,6,7,7,8,8,9,9,10,10,11,11,12,12,13,13,14,14],"right_children":[2,4,6,8,10,12,14,16,18,20,22,24,26,28,30,-1,-1,-1,-1,-1,-1,-1,-1,-1,-1,-1,-1,-1,-1,-1,-1],"split_conditions":[NaN,NaN,7.788944E-1,1.8733613E-1,5.616853E-1,3.953792E-1,7.02342E-1,6.416406E-1,3.2202813E-1,8.4127957E-1,NaN,5.6253135E-1,7.4557465E-1,6.6435593E-1,NaN,-2.0662034E-3,2.7555743E-2,3.334373E-2,7.8358814E-2,-1.7375603E-2,-5.6575652E-2,1.0359344E-2,-1.4357469E-2,-2.3399016E-2,-5.8591075E-2,-4.1946135E-2,-2.0273509E-2,-2.5087956E-2,-6.3812755E-2,1E-1,-4.268109E-3],"split_indices":[3,3,4,1,0,0,2,0,1,2,3,2,0,2,3,0,0,0,0,0,0,0,0,0,0,0,0,0,0,0,0],"split_type":[1,1,0,0,0,0,0,0,0,0,1,0,0,0,1,0,0,0,0,0,0,0,0,0,0,0,0,0,0,0,0],"sum_hessian":[3.7865164E4,2.3229959E4,1.4635207E4,8.88784E3,1.4342119E4,1.202683E4,2.6083777E3,7.7561987E3,1.1316409E3,1.0629003E4,3.713116E3,6.4021377E3,5.624692E3,1.7740199E3,8.343577E2,6.4531143E3,1.3030845E3,9.000852E2,2.3155566E2,1.0095585E4,5.3341724E2,2.29537E3,1.417746E3,4.5882828E2,5.9433096E3,4.514186E3,1.1105059E3,1.3560066E3,4.1801334E2,5.53303E1,7.790274E2],"tree_param":{"num_deleted":"0","num_feature":"5","num_nodes":"31","size_leaf_vector":"0"}},{"base_weights":[-1.8193404E-1,-4.4656105E-2,-3.8310307E-1,-1.20040804E-1,9.497848E-2,-4.11956E-1,-1.5637267E-1,6.381245E-2,-1.971577E-1,6.1786715E-2,5.810939E-1,-4.549913E-1,-2.409599E-1,-3.4366897E-1,1.831099E-2,-2.3509965E-3,2.525491E-2,-2.5711587E-2,-8.2364E-3,3.1898022E-3,3.3665396E-2,7.421293E-2,-2.0876765E-2,-5.008322E-2,-3.8936514E-2,1E-1,-2.5155341E-2,-1.5861738E-2,-6.1137658E-2,1E-1,-5.4738666E-3],"categories":[3,4,9,10,1,2,5,6,0,2,3,4,5,9,10,0,1,2,3,4,5,6,7,8,10],"categories_nodes":[0,3,10,14],"categories_segments":[0,4,8,15],"categories_sizes":[4,4,7,10],"default_left":[0,0,0,0,0,0,0,0,0,0,0,0,0,0,0,0,0,0,0,0,0,0,0,0,0,0,0,0,0,0,0],"id":10,"left_children":[1,3,5,7,9,11,13,15,17,19,21,23,25,27,29,-1,-1,-1,-1,-1,-1,-1,-1,-1,-1,-1,-1,-1,-1,-1,-1],"loss_changes":[1.0388247E3,2.353842E2,9.975049E1,2.059E2,1.2646296E2,9.949072E1,5.6414146E1,7.073958E1,7.039395E1,6.029075E1,6.387732E1,3.233203E1,3.918457E1,4.1122787E1,7.014215E1,0E0,0E0,0E0,0E0,0E0,0E0,0E0,0E0,0E0,0E0,0E0,0E0,0E0,0E0,0E0,0E0],"parents":[2147483647,0,0,1,1,2,2,3,3,4,4,5,5,6,6,7,7,8,8,9,9,10,10,11,11,12,12,13,13,14,14],"right_children":[2,4,6,8,10,12,14,16,18,20,22,24,26,28,30,-1,-1,-1,-1,-1,-1,-1,-1,-1,-1,-1,-1,-1,-1,-1,-1],"split_conditions":[NaN,6.9736844E-1,1.6810599E-1,NaN,2.9488406E-1,6.163792E-1,7.02342E-1,7.168462E-1,4.9235448E-1,7.338208E-1,NaN,3.600206E-1,4.5568833E-1,6.6435593E-1,NaN,-2.3509965E-3,2.525491E-2,-2.5711587E-2,-8.2364E-3,3.1898022E-3,3.3665396E-2,7.421293E-2,-2.0876765E-2,-5.008322E-2,-3.8936514E-2,1E-1,-2.5155341E-2,-1.5861738E-2,-6.1137658E-2,1E-1,-5.4738666E-3],"split_indices":[3,4,1,3,1,0,2,2,0,0,3,0,2,2,3,0,0,0,0,0,0,0,0,0,0,0,0,0,0,0,0],"split_type":[1,0,0,1,0,0,0,0,0,0,1,0,0,0,1,0,0,0,0,0,0,0,0,0,0,0,0,0,0,0,0],"sum_hessian":[3.76163E4,2.2359428E4,1.5256873E4,1.4520413E4,7.839013E3,1.3533791E4,1.7230823E3,4.290845E3,1.0229568E4,7.339034E3,4.9997928E2,1.0811226E4,2.7225654E3,8.310552E2,8.920271E2,2.9341726E3,1.3566725E3,6.7189414E3,3.510627E3,6.620271E3,7.1876337E2,4.1535745E2,8.462181E1,6.3611978E3,4.450028E3,2.0256645E1,2.7023088E3,4.9232822E2,3.38727E2,5.546635E1,8.365607E2],"tree_param":{"num_deleted":"0","num_feature":"5","num_nodes":"31","size_leaf_vector":"0"}},{"base_weights":[-1.6489863E-1,-4.5380484E-2,-3.5919538E-1,1.0069168E-1,-1.00378394E-1,-3.9583835E-1,-1.5770864E-1,3.9271012E-1,5.355261E-2,-1.6989635E-1,1.61884E-3,-4.2235997E-1,-1.4224836E-1,-2.1871673E-1,1.685653E-1,6.941322E-2,4.5802533E-3,-1.1290429E-2,2.323356E-2,1.1157211E-2,-1.8878412E-2,4.554036E-3,-3.4419503E-2,-4.43404E-2,-1.94153E-2,6.027801E-2,-1.598183E-2,5.8803983E-2,-2.3652053E-2,2.8363451E-2,-1E-1],"categories":[3,4,9,0,1,2,5,6,10,0,1,2,3,4,5,6,8,9,10,1,2,5,6,0,10],"categories_nodes":[0,1,7,9,10],"categories_segments":[0,3,9,19,23],"categories_sizes":[3,6,10,4,2],"default_left":[0,0,0,0,0,0,0,0,0,0,0,0,0,0,0,0,0,0,0,0,0,0,0,0,0,0,0,0,0,0,0],"id":11,"left_children":[1,3,5,7,9,11,13,15,17,19,21,23,25,27,29,-1,-1,-1,-1,-1,-1,-1,-1,-1,-1,-1,-1,-1,-1,-1,-1],"loss_changes":[8.678828E2,1.8591763E2,1.05027954E2,8.711698E1,1.1920723E2,8.093701E1,4.3668514E1,9.1951096E1,1.622615E2,5.317224E1,1.0352836E2,5.2270508E1,1.5042208E1,2.666954E1,5.29971E1,0E0,0E0,0E0,0E0,0E0,0E0,0E0,0E0,0E0,0E0,0E0,0E0,0E0,0E0,0E0,0E0],"parents":[2147483647,0,0,1,1,2,2,3,3,4,4,5,5,6,6,7,7,8,8,9,9,10,10,11,11,12,12,13,13,14,14],"right_children":[2,4,6,8,10,12,14,16,18,20,22,24,26,28,30,-1,-1,-1,-1,-1,-1,-1,-1,-1,-1,-1,-1,-1,-1,-1,-1],"split_conditions":[NaN,NaN,8.029557E-1,5.6054735E-1,6.6976744E-1,7.4557465E-1,7.375154E-1,NaN,6.812831E-1,NaN,NaN,7.547974E-1,8.6842915E-3,4.6561578E-1,7.879414E-1,6.941322E-2,4.5802533E-3,-1.1290429E-2,2.323356E-2,1.1157211E-2,-1.8878412E-2,4.554036E-3,-3.4419503E-2,-4.43404E-2,-1.94153E-2,6.027801E-2,-1.598183E-2,5.8803983E-2,-2.3652053E-2,2.8363451E-2,-1E-1],"split_indices":[3,3,4,2,4,0,2,3,2,3,3,2,1,2,2,0,0,0,0,0,0,0,0,0,0,0,0,0,0,0,0],"split_type":[1,1,0,0,0,0,0,1,0,1,1,0,0,0,0,0,0,0,0,0,0,0,0,0,0,0,0,0,0,0,0],"sum_hessian":[3.7373023E4,2.3140062E4,1.4232959E4,6.3291836E3,1.6810879E4,1.2042002E4,2.1909568E3,8.786664E2,5.450517E3,9.996755E3,6.8141245E3,1.0901233E4,1.1407684E3,1.8460956E3,3.4486108E2,4.6962036E2,4.0904605E2,2.8227493E3,2.627768E3,6.283327E2,9.368422E3,6.046972E3,7.6715234E2,9.979991E3,9.212423E2,2.5515434E1,1.115253E3,3.9169083E1,1.8069265E3,3.1840298E2,2.645808E1],"tree_param":{"num_deleted":"0","num_feature":"5","num_nodes":"31","size_leaf_vector":"0"}},{"base_weights":[-1.4943431E-1,-4.0915195E-2,-3.278722E-1,-5.5338345E-2,4.6665522E-1,-3.6542523E-1,-1.5845649E-1,6.667742E-2,-1.0730555E-1,5.3925806E-1,-3.070776E-1,-4.4085523E-1,-2.8124472E-1,-2.5523257E-1,4.3169275E-2,1.6015606E-3,3.1057114E-2,-8.300775E-3,-3.3672143E-2,4.538996E-2,8.910659E-2,-1E-1,9.6687675E-2,-1.2528728E-2,-4.655263E-2,-1.9235983E-2,-3.480149E-2,4.1197054E-3,-3.3496283E-2,1E-1,-2.4406433E-3],"categories":[3,4,9,0,1,5,6,10,0,2,3,4,9,4,9,0,1,2,3,4,5,6,7,8,10],"categories_nodes":[0,3,4,13,14],"categories_segments":[0,3,8,13,15],"categories_sizes":[3,5,5,2,10],"default_left":[0,0,0,0,0,0,0,0,0,0,0,0,0,0,0,0,0,0,0,0,0,0,0,0,0,0,0,0,0,0,0],"id":12,"left_children":[1,3,5,7,9,11,13,15,17,19,21,23,25,27,29,-1,-1,-1,-1,-1,-1,-1,-1,-1,-1,-1,-1,-1,-1,-1,-1],"loss_changes":[7.193082E2,1.6913922E2,8.931677E1,1.4244171E2,3.6027496E1,7.288721E1,4.9781303E1,8.290636E1,8.778935E1,1.7132706E1,8.052637E1,4.714148E1,3.219931E1,4.075013E1,5.559614E1,0E0,0E0,0E0,0E0,0E0,0E0,0E0,0E0,0E0,0E0,0E0,0E0,0E0,0E0,0E0,0E0],"parents":[2147483647,0,0,1,1,2,2,3,3,4,4,5,5,6,6,7,7,8,8,9,9,10,10,11,11,12,12,13,13,14,14],"right_children":[2,4,6,8,10,12,14,16,18,20,22,24,26,28,30,-1,-1,-1,-1,-1,-1,-1,-1,-1,-1,-1,-1,-1,-1,-1,-1],"split_conditions":[NaN,2.7872577E-1,7.788944E-1,NaN,NaN,3.953792E-1,7.02342E-1,6.416406E-1,8.0258983E-1,8.384588E-1,1.29E0,5.6253135E-1,4.6204735E-2,NaN,NaN,1.6015606E-3,3.1057114E-2,-8.300775E-3,-3.3672143E-2,4.538996E-2,8.910659E-2,-1E-1,9.6687675E-2,-1.2528728E-2,-4.655263E-2,-1.9235983E-2,-3.480149E-2,4.1197054E-3,-3.3496283E-2,1E-1,-2.4406433E-3],"split_indices":[3,1,4,3,3,0,2,0,2,2,4,2,1,3,3,0,0,0,0,0,0,0,0,0,0,0,0,0,0,0,0],"split_type":[1,0,0,1,1,0,0,0,0,0,0,0,0,1,1,0,0,0,0,0,0,0,0,0,0,0,0,0,0,0,0],"sum_hessian":[3.7146527E4,2.3099512E4,1.4047015E4,2.2462117E4,6.3739386E2,1.1497334E4,2.5496804E3,6.709155E3,1.5752962E4,5.829921E2,5.4401733E1,6.061597E3,5.4357373E3,1.722602E3,8.270783E2,5.556102E3,1.1530527E3,1.4245555E4,1.5074076E3,4.710036E2,1.11988525E2,2.7451849E1,2.6949883E1,4.3997302E2,5.621624E3,2.333391E3,3.102346E3,3.652224E2,1.3573796E3,5.1714733E1,7.753636E2],"tree_param":{"num_deleted":"0","num_feature":"5","num_nodes":"31","size_leaf_vector":"0"}},{"base_weights":[-1.3539222E-1,-8.377054E-3,-2.6246482E-1,-2.1991111E-2,5.4195994E-1,-2.9481947E-1,-1.517218E-2,-7.4907266E-2,1.0629552E-1,6.2973034E-1,-2.1954086E-1,-3.083626E-1,1.17593646E-1,-4.9514735E-1,1.2164663E-2,3.7176448E-3,-1.4905865E-2,-1.1218279E-2,1.459917E-2,5.522729E-2,1E-1,-1E-1,8.9186445E-2,-3.284895E-2,-1.26298135E-2,-1.8588915E-2,3.15162E-2,-6.693404E-2,1E-1,3.853416E-3,-5.350569E-2],"categories":[3,4,5,9,10,0,2,3,4,5,9,10,3],"categories_nodes":[0,4,14],"categories_segments":[0,5,12],"categories_sizes":[5,7,1],"default_left":[0,0,0,0,0,0,0,0,0,0,0,0,0,0,0,0,0,0,0,0,0,0,0,0,0,0,0,0,0,0,0],"id":13,"left_children":[1,3,5,7,9,11,13,15,17,19,21,23,25,27,29,-1,-1,-1,-1,-1,-1,-1,-1,-1,-1,-1,-1,-1,-1,-1,-1],"loss_changes":[5.961182E2,1.3841165E2,1.4771753E2,1.22384766E2,2.994548E1,9.122656E1,2.8047762E1,1.0608413E2,4.567721E1,1.187738E1,6.856991E1,5.788452E1,3.1226538E1,3.4014973E1,2.92121E1,0E0,0E0,0E0,0E0,0E0,0E0,0E0,0E0,0E0,0E0,0E0,0E0,0E0,0E0,0E0,0E0],"parents":[2147483647,0,0,1,1,2,2,3,3,4,4,5,5,6,6,7,7,8,8,9,9,10,10,11,11,12,12,13,13,14,14],"right_children":[2,4,6,8,10,12,14,16,18,20,22,24,26,28,30,-1,-1,-1,-1,-1,-1,-1,-1,-1,-1,-1,-1,-1,-1,-1,-1],"split_conditions":[NaN,2.9488406E-1,7.547974E-1,5.263661E-1,NaN,1.011062E0,1.4899996E-2,6.542899E-1,4.8946133E-1,6.7896914E-1,1.29E0,7.398683E-1,6.084086E-1,8.5888135E-1,NaN,3.7176448E-3,-1.4905865E-2,-1.1218279E-2,1.459917E-2,5.522729E-2,1E-1,-1E-1,8.9186445E-2,-3.284895E-2,-1.26298135E-2,-1.8588915E-2,3.15162E-2,-6.693404E-2,1E-1,3.853416E-3,-5.350569E-2],"split_indices":[3,1,2,0,3,4,1,2,4,0,4,0,2,2,3,0,0,0,0,0,0,0,0,0,0,0,0,0,0,0,0],"split_type":[1,0,0,0,1,0,0,0,0,0,0,0,0,0,1,0,0,0,0,0,0,0,0,0,0,0,0,0,0,0,0],"sum_hessian":[3.6933016E4,1.8471215E4,1.84618E4,1.8026248E4,4.449674E2,1.6325638E4,2.136164E3,1.2762386E4,5.2638613E3,3.991361E2,4.583128E1,1.58068125E4,5.188246E2,1.1418648E2,2.0219775E3,5.0816714E3,7.6807144E3,8.0907556E2,4.4547856E3,3.3690314E2,6.223298E1,1.942377E1,2.6407509E1,1.4232618E4,1.5741947E3,2.0459985E2,3.142247E2,1.0396668E2,1.0219793E1,1.9299087E3,9.20688E1],"tree_param":{"num_deleted":"0","num_feature":"5","num_nodes":"31","size_leaf_vector":"0"}},{"base_weights":[-1.2254831E-1,-3.174553E-2,-2.749289E-1,-5.62308E-2,1.9134851E-1,-3.090395E-1,-1.2280101E-1,6.0226355E-2,-9.657264E-2,3.4617817E-1,1.4832229E-2,-3.7911478E-1,-2.317847E-1,-2.0765667E-1,5.1858958E-2,3.5491433E-2,-5.2716694E-4,-4.010737E-3,-1.655557E-2,2.8998915E-2,7.021313E-2,1.312272E-2,-3.559512E-2,-8.186341E-3,-4.02697E-2,-1.4870639E-2,-2.9451642E-2,-1.2779868E-2,-4.7208052E-2,9.806182E-2,-8.985113E-4],"categories":[3,4,9,0,1,5,6,8,10,0,2,3,4,6,9,10,0,1,2,3,4,5,6,7,8,10],"categories_nodes":[0,3,4,14],"categories_segments":[0,3,9,16],"categories_sizes":[3,6,7,10],"default_left":[0,0,0,0,0,0,0,0,0,0,0,0,0,0,0,0,0,0,0,0,0,0,0,0,0,0,0,0,0,0,0],"id":14,"left_children":[1,3,5,7,9,11,13,15,17,19,21,23,25,27,29,-1,-1,-1,-1,-1,-1,-1,-1,-1,-1,-1,-1,-1,-1,-1,-1],"loss_changes":[5.085224E2,1.2581595E2,7.117285E1,9.750869E1,6.2250427E1,6.0593506E1,3.728687E1,1.0307576E2,6.003508E1,2.4066467E1,4.6029205E1,4.1156677E1,2.775467E1,3.568804E1,4.6526405E1,0E0,0E0,0E0,0E0,0E0,0E0,0E0,0E0,0E0,0E0,0E0,0E0,0E0,0E0,0E0,0E0],"parents":[2147483647,0,0,1,1,2,2,3,3,4,4,5,5,6,6,7,7,8,8,9,9,10,10,11,11,12,12,13,13,14,14],"right_children":[2,4,6,8,10,12,14,16,18,20,22,24,26,28,30,-1,-1,-1,-1,-1,-1,-1,-1,-1,-1,-1,-1,-1,-1,-1,-1],"split_conditions":[NaN,1.9587351E-1,7.788944E-1,NaN,NaN,3.953792E-1,7.02342E-1,5.67336E-1,6.940067E-1,8.335147E-1,7.913383E-1,5.6253135E-1,4.6204735E-2,6.6435593E-1,NaN,3.5491433E-2,-5.2716694E-4,-4.010737E-3,-1.655557E-2,2.8998915E-2,7.021313E-2,1.312272E-2,-3.559512E-2,-8.186341E-3,-4.02697E-2,-1.4870639E-2,-2.9451642E-2,-1.2779868E-2,-4.7208052E-2,9.806182E-2,-8.985113E-4],"split_indices":[3,1,4,3,3,0,2,2,2,2,2,2,1,2,3,0,0,0,0,0,0,0,0,0,0,0,0,0,0,0,0],"split_type":[1,0,0,1,1,0,0,0,0,0,0,0,0,0,1,0,0,0,0,0,0,0,0,0,0,0,0,0,0,0,0],"sum_hessian":[3.675165E4,2.3029625E4,1.3722022E4,2.07527E4,2.2769253E3,1.1207917E4,2.5141055E3,5.3392065E3,1.5413493E4,1.2124631E3,1.0644623E3,5.8749946E3,5.332923E3,1.6919235E3,8.22182E2,9.7010455E2,4.369102E3,8.47663E3,6.9368633E3,1.0487303E3,1.637328E2,8.1063635E2,2.5382591E2,4.3215805E2,5.4428364E3,2.2958281E3,3.0370945E3,1.3006122E3,3.9131137E2,4.962102E1,7.72561E2],"tree_param":{"num_deleted":"0","num_feature":"5","num_nodes":"31","size_leaf_vector":"0"}},{"base_weights":[-1.1093977E-1,-2.860609E-2,-2.50485E-1,-8.071221E-2,6.587905E-2,-2.7258882E-1,-3.0738978E-2,2.1734277E-2,-1.2396723E-1,2.075662E-1,-5.5852975E-3,-1.3927211E-1,-3.2415828E-1,4.6505094E-2,-4.521446E-1,-2.504358E-3,2.3789776E-2,-1.683884E-2,-3.4022504E-3,7.979239E-3,3.507756E-2,1.6011065E-3,-7.804172E-2,-3.396239E-3,-4.6460688E-2,-4.2404775E-2,-2.1339685E-2,-5.9176567E-3,3.3150822E-2,3.0576048E-2,-8.4558785E-2],"categories":[3,4,9,1,2,5,6,10,0,3,4,5,6,8,9,10,9],"categories_nodes":[0,3,4,11],"categories_segments":[0,3,8,16],"categories_sizes":[3,5,8,1],"default_left":[0,0,0,0,0,0,0,0,0,0,0,0,0,0,0,0,0,0,0,0,0,0,0,0,0,0,0,0,0,0,0],"id":15,"left_children":[1,3,5,7,9,11,13,15,17,19,21,23,25,27,29,-1,-1,-1,-1,-1,-1,-1,-1,-1,-1,-1,-1,-1,-1,-1,-1],"loss_changes":[4.2004684E2,1.1321542E2,6.588757E1,6.568301E1,8.276922E1,8.470056E1,4.0418255E1,4.4508076E1,4.163385E1,5.0120934E1,9.0951645E1,1.1783954E2,9.824109E1,3.163624E1,5.7612484E1,0E0,0E0,0E0,0E0,0E0,0E0,0E0,0E0,0E0,0E0,0E0,0E0,0E0,0E0,0E0,0E0],"parents":[2147483647,0,0,1,1,2,2,3,3,4,4,5,5,6,6,7,7,8,8,9,9,10,10,11,11,12,12,13,13,14,14],"right_children":[2,4,6,8,10,12,14,16,18,20,22,24,26,28,30,-1,-1,-1,-1,-1,-1,-1,-1,-1,-1,-1,-1,-1,-1,-1,-1],"split_conditions":[NaN,1.0362994E-1,7.547974E-1,NaN,NaN,6.098541E-1,7.86675E-1,6.416406E-1,5.058281E-1,6.803432E-1,8.551423E-1,NaN,6.975828E-1,1.723663E-1,4.4074842E-1,-2.504358E-3,2.3789776E-2,-1.683884E-2,-3.4022504E-3,7.979239E-3,3.507756E-2,1.6011065E-3,-7.804172E-2,-3.396239E-3,-4.6460688E-2,-4.2404775E-2,-2.1339685E-2,-5.9176567E-3,3.3150822E-2,3.0576048E-2,-8.4558785E-2],"split_indices":[3,1,2,3,3,2,2,0,0,2,2,3,2,1,4,0,0,0,0,0,0,0,0,0,0,0,0,0,0,0,0],"split_type":[1,0,0,1,1,0,0,0,0,0,0,1,0,0,0,0,0,0,0,0,0,0,0,0,0,0,0,0,0,0,0],"sum_hessian":[3.6559547E4,2.2993979E4,1.3565569E4,1.4820822E4,8.173156E3,1.2325528E4,1.240041E3,4.4000674E3,1.0420755E4,2.7396152E3,5.4335405E3,3.4389346E3,8.886594E3,1.0487024E3,1.9133856E2,3.6180125E3,7.8205505E2,6.9750854E3,3.4456692E3,1.4486567E3,1.2909585E3,5.2871543E3,1.4638593E2,2.5988125E3,8.40122E2,4.6711333E3,4.21546E3,7.6560266E2,2.830998E2,6.546112E1,1.2587745E2],"tree_param":{"num_deleted":"0","num_feature":"5","num_nodes":"31","size_leaf_vector":"0"}},{"base_weights":[-1.00410275E-1,-3.3203436E-3,-1.996879E-1,-3.6624685E-2,1.5720107E-1,-2.2564515E-1,3.7872102E-2,-4.7266297E-2,4.1127497E-1,1.2508665E-1,5.6941456E-1,-2.544219E-1,-8.735975E-2,2.1191308E-1,-8.590842E-2,4.159207E-3,-1.0925605E-2,4.7057025E-2,-6.1546046E-2,2.9671645E-2,4.179288E-3,6.49304E-2,-2.7206639E-2,-2.9174242E-2,-1.2208168E-2,7.6075452E-3,-1.8403674E-2,-2.9244248E-2,3.0099077E-2,-1.7627155E-2,1.8209636E-2],"categories":[3,4,5,9,10,2,0,1,3,4,5,6,8,9,10,0,2,4,10],"categories_nodes":[0,8,9,10,12],"categories_segments":[0,5,6,15,17],"categories_sizes":[5,1,9,2,2],"default_left":[0,0,0,0,0,0,0,0,0,0,0,0,0,0,0,0,0,0,0,0,0,0,0,0,0,0,0,0,0,0,0],"id":16,"left_children":[1,3,5,7,9,11,13,15,17,19,21,23,25,27,29,-1,-1,-1,-1,-1,-1,-1,-1,-1,-1,-1,-1,-1,-1,-1,-1],"loss_changes":[3.506923E2,9.834819E1,1.1093561E2,7.26367E1,4.1773888E1,6.4512146E1,3.8209896E1,8.198275E1,2.1821697E1,4.1928345E1,1.5516373E1,6.62616E1,4.417537E1,3.320396E1,2.5138966E1,0E0,0E0,0E0,0E0,0E0,0E0,0E0,0E0,0E0,0E0,0E0,0E0,0E0,0E0,0E0,0E0],"parents":[2147483647,0,0,1,1,2,2,3,3,4,4,5,5,6,6,7,7,8,8,9,9,10,10,11,11,12,12,13,13,14,14],"right_children":[2,4,6,8,10,12,14,16,18,20,22,24,26,28,30,-1,-1,-1,-1,-1,-1,-1,-1,-1,-1,-1,-1,-1,-1,-1,-1],"split_conditions":[NaN,6.372157E-1,7.611616E-1,2.9488406E-1,2.280129E-1,1.392376E-1,7.799228E-1,6.5670186E-1,NaN,NaN,NaN,6.036727E-1,NaN,3.1686813E-2,8.0844814E-1,4.159207E-3,-1.0925605E-2,4.7057025E-2,-6.1546046E-2,2.9671645E-2,4.179288E-3,6.49304E-2,-2.7206639E-2,-2.9174242E-2,-1.2208168E-2,7.6075452E-3,-1.8403674E-2,-2.9244248E-2,3.0099077E-2,-1.7627155E-2,1.8209636E-2],"split_indices":[3,0,2,1,1,1,2,2,3,3,3,0,3,1,2,0,0,0,0,0,0,0,0,0,0,0,0,0,0,0,0],"split_type":[1,0,0,0,0,0,0,0,1,1,1,0,1,0,0,0,0,0,0,0,0,0,0,0,0,0,0,0,0,0,0],"sum_hessian":[3.638225E4,1.839431E4,1.7987938E4,1.5234326E4,3.1599854E3,1.6216116E4,1.7718218E3,1.4881648E4,3.5267743E2,2.9328022E3,2.2718309E2,1.3422168E4,2.7939485E3,7.3610834E2,1.0357134E3,6.115622E3,8.766026E3,3.33934E2,1.8743433E1,9.5742706E2,1.9753751E3,2.0769325E2,1.9489834E1,1.0468734E4,2.9534338E3,1.0385178E3,1.7554307E3,1.1015132E2,6.2595703E2,7.748123E2,2.609011E2],"tree_param":{"num_deleted":"0","num_feature":"5","num_nodes":"31","size_leaf_vector":"0"}},{"base_weights":[-9.081194E-2,-2.251524E-2,-2.0848979E-1,-6.764633E-2,5.933798E-2,-2.7339375E-1,-1.4283435E-1,-3.0902332E-2,-1.6004993E-1,1.828474E-1,-2.6456858E-3,-3.4716606E-1,-1.3375962E-1,7.943714E-1,-1.4899075E-1,-9.098018E-3,6.443724E-3,3.894422E-5,-2.0908652E-2,1.3314943E-2,5.246635E-2,4.6394425E-3,-2.9927952E-2,-7.1295716E-2,-3.333101E-2,-2.3066584E-2,6.186061E-3,4.814879E-2,1E-1,-1.7129082E-2,7.2270418E-3],"categories":[3,4,9,1,2,5,0,3,4,5,6,8,9,10],"categories_nodes":[0,3,4],"categories_segments":[0,3,6],"categories_sizes":[3,3,8],"default_left":[0,0,0,0,0,0,0,0,0,0,0,0,0,0,0,0,0,0,0,0,0,0,0,0,0,0,0,0,0,0,0],"id":17,"left_children":[1,3,5,7,9,11,13,15,17,19,21,23,25,27,29,-1,-1,-1,-1,-1,-1,-1,-1,-1,-1,-1,-1,-1,-1,-1,-1],"loss_changes":[2.9113992E2,8.468547E1,5.6649902E1,5.0165916E1,6.2375156E1,6.8855835E1,3.8288162E1,6.0570232E1,3.307377E1,4.618038E1,7.89461E1,2.1941223E1,4.3877926E1,5.0758133E0,3.244487E1,0E0,0E0,0E0,0E0,0E0,0E0,0E0,0E0,0E0,0E0,0E0,0E0,0E0,0E0,0E0,0E0],"parents":[2147483647,0,0,1,1,2,2,3,3,4,4,5,5,6,6,7,7,8,8,9,9,10,10,11,11,12,12,13,13,14,14],"right_children":[2,4,6,8,10,12,14,16,18,20,22,24,26,28,30,-1,-1,-1,-1,-1,-1,-1,-1,-1,-1,-1,-1,-1,-1,-1,-1],"split_conditions":[NaN,1.0362994E-1,3.901264E-1,NaN,NaN,6.641221E-1,4.5568833E-1,4.621087E-1,5.4705036E-1,8.335147E-1,7.944552E-1,1.17737204E-1,6.970312E-1,6.6592485E-2,7.571211E-1,-9.098018E-3,6.443724E-3,3.894422E-5,-2.0908652E-2,1.3314943E-2,5.246635E-2,4.6394425E-3,-2.9927952E-2,-7.1295716E-2,-3.333101E-2,-2.3066584E-2,6.186061E-3,4.814879E-2,1E-1,-1.7129082E-2,7.2270418E-3],"split_indices":[3,1,0,3,3,4,2,0,2,2,2,0,2,1,2,0,0,0,0,0,0,0,0,0,0,0,0,0,0,0,0],"split_type":[1,0,0,1,1,0,0,0,0,0,0,0,0,0,0,0,0,0,0,0,0,0,0,0,0,0,0,0,0,0,0],"sum_hessian":[3.6224496E4,2.292228E4,1.3302215E4,1.4775657E4,8.146623E3,6.6877983E3,6.614416E3,1.0572766E4,4.202892E3,2.721593E3,5.42503E3,4.374926E3,2.3128726E3,4.233037E1,6.5720854E3,6.4858066E3,4.0869587E3,9.840941E2,3.2187979E3,2.377333E3,3.4426007E2,4.656115E3,7.6891486E2,1.5783012E2,4.2170957E3,1.5465597E3,7.663128E2,2.8413483E1,1.391689E1,5.9705615E3,6.01524E2],"tree_param":{"num_deleted":"0","num_feature":"5","num_nodes":"31","size_leaf_vector":"0"}},{"base_weights":[-8.211118E-2,-2.0290745E-2,-1.8947518E-1,-2.729147E-2,4.6527028E-1,-8.3221205E-2,-2.257575E-1,-5.5477813E-2,7.668659E-2,5.627913E-1,-1.1310061E-1,1.3016075E-1,-2.3471567E-1,-3.466869E-1,-1.197434E-1,-9.3949224E-5,-9.331546E-3,-6.5114372E-3,1.4525256E-2,5.4458617E-3,6.638481E-2,-8.352422E-2,2.7842363E-2,-1.1715542E-2,2.5411135E-2,-1.2542856E-2,-3.9035823E-2,-4.7215432E-2,-2.8741604E-2,6.205811E-2,-1.4588966E-2],"categories":[3,4,9,2,3,4,5,8,3,9,5,6,10,9,3,4],"categories_nodes":[0,4,5,7,12,14],"categories_segments":[0,3,8,10,13,14],"categories_sizes":[3,5,2,3,1,2],"default_left":[0,0,0,0,0,0,0,0,0,0,0,0,0,0,0,0,0,0,0,0,0,0,0,0,0,0,0,0,0,0,0],"id":18,"left_children":[1,3,5,7,9,11,13,15,17,19,21,23,25,27,29,-1,-1,-1,-1,-1,-1,-1,-1,-1,-1,-1,-1,-1,-1,-1,-1],"loss_changes":[2.3942575E2,7.7833084E1,5.079657E1,6.614794E1,1.841919E1,1.0854404E2,1.25921875E2,3.6641567E1,4.681076E1,1.4278046E1,1.3743904E1,4.2774414E1,3.3348778E1,3.3992676E1,1.0146327E2,0E0,0E0,0E0,0E0,0E0,0E0,0E0,0E0,0E0,0E0,0E0,0E0,0E0,0E0,0E0,0E0],"parents":[2147483647,0,0,1,1,2,2,3,3,4,4,5,5,6,6,7,7,8,8,9,9,10,10,11,11,12,12,13,13,14,14],"right_children":[2,4,6,8,10,12,14,16,18,20,22,24,26,28,30,-1,-1,-1,-1,-1,-1,-1,-1,-1,-1,-1,-1,-1,-1,-1,-1],"split_conditions":[NaN,3.2202813E-1,6.098541E-1,5.9946644E-1,NaN,NaN,6.9892454E-1,NaN,4.8147522E-2,6.65414E-1,3.7357375E-1,5.9796435E-1,NaN,2.7837536E-1,NaN,-9.3949224E-5,-9.331546E-3,-6.5114372E-3,1.4525256E-2,5.4458617E-3,6.638481E-2,-8.352422E-2,2.7842363E-2,-1.1715542E-2,2.5411135E-2,-1.2542856E-2,-3.9035823E-2,-4.7215432E-2,-2.8741604E-2,6.205811E-2,-1.4588966E-2],"split_indices":[3,1,2,0,3,3,2,3,1,2,1,4,3,0,3,0,0,0,0,0,0,0,0,0,0,0,0,0,0,0,0],"split_type":[1,0,0,0,1,1,0,1,0,0,0,0,1,0,1,0,0,0,0,0,0,0,0,0,0,0,0,0,0,0,0],"sum_hessian":[3.6072402E4,2.2892207E4,1.3180195E4,2.2567773E4,3.2443393E2,3.355829E3,9.824366E3,1.7755172E4,4.8126006E3,2.7764606E2,4.6787884E1,1.3933783E3,1.9624509E3,4.5882812E3,5.236085E3,7.273024E3,1.0482148E4,1.5686119E3,3.2439888E3,4.6298008E1,2.3134804E2,1.605048E1,3.0737402E1,4.6520956E2,9.281687E2,1.153974E3,8.08477E2,1.4698547E3,3.1184263E3,1.7784053E2,5.0582446E3],"tree_param":{"num_deleted":"0","num_feature":"5","num_nodes":"31","size_leaf_vector":"0"}},{"base_weights":[-7.423184E-2,-1.5380287E-2,-1.6782987E-1,-4.8463114E-2,8.9861125E-2,-2.2918071E-1,-1.174268E-1,4.1683916E-2,-8.109501E-2,4.6525586E-2,3.059977E-1,-2.4389586E-1,1.8125837E-1,-1.3486639E-1,7.981751E-2,3.409531E-2,-1.4718202E-3,-2.92672E-3,-1.4956546E-2,2.0299016E-2,-1.7589426E-3,-7.830676E-3,3.9951947E-2,-5.665634E-2,-2.3139587E-2,-6.3590496E-3,7.592027E-2,-1.581124E-2,-4.8549272E-4,1.9457018E-2,-5.140816E-2],"categories":[3,4,9,10,1,2,5,6,8],"categories_nodes":[0,3],"categories_segments":[0,4],"categories_sizes":[4,5],"default_left":[0,0,0,0,0,0,0,0,0,0,0,0,0,0,0,0,0,0,0,0,0,0,0,0,0,0,0,0,0,0,0],"id":19,"left_children":[1,3,5,7,9,11,13,15,17,19,21,23,25,27,29,-1,-1,-1,-1,-1,-1,-1,-1,-1,-1,-1,-1,-1,-1,-1,-1],"loss_changes":[1.9796288E2,7.6831764E1,4.287439E1,4.939186E1,4.9420544E1,3.7829895E1,2.6217232E1,7.533574E1,4.374153E1,4.411894E1,3.1706024E1,2.4230957E1,3.0771442E1,2.1154892E1,4.2320267E1,0E0,0E0,0E0,0E0,0E0,0E0,0E0,0E0,0E0,0E0,0E0,0E0,0E0,0E0,0E0,0E0],"parents":[2147483647,0,0,1,1,2,2,3,3,4,4,5,5,6,6,7,7,8,8,9,9,10,10,11,11,12,12,13,13,14,14],"right_children":[2,4,6,8,10,12,14,16,18,20,22,24,26,28,30,-1,-1,-1,-1,-1,-1,-1,-1,-1,-1,-1,-1,-1,-1,-1,-1],"split_conditions":[NaN,1.35229E-1,3.600206E-1,NaN,6.510912E-1,2.3336644E-1,7.583941E-1,5.67336E-1,6.975828E-1,6.496701E-1,6.158348E-1,1.17737204E-1,2.841937E-1,7.6448345E-1,7.879414E-1,3.409531E-2,-1.4718202E-3,-2.92672E-3,-1.4956546E-2,2.0299016E-2,-1.7589426E-3,-7.830676E-3,3.9951947E-2,-5.665634E-2,-2.3139587E-2,-6.3590496E-3,7.592027E-2,-1.581124E-2,-4.8549272E-4,1.9457018E-2,-5.140816E-2],"split_indices":[3,1,0,3,0,1,2,2,2,2,2,0,0,0,2,0,0,0,0,0,0,0,0,0,0,0,0,0,0,0,0],"split_type":[1,0,0,1,0,0,0,0,0,0,0,0,0,0,0,0,0,0,0,0,0,0,0,0,0,0,0,0,0,0,0],"sum_hessian":[3.59379E4,2.2065166E4,1.3872732E4,1.678828E4,5.2768867E3,6.255258E3,7.6174746E3,4.4618755E3,1.2326404E4,4.396584E3,8.8030286E2,6.039147E3,2.16111E2,6.998969E3,6.1850574E2,7.067612E2,3.7551143E3,7.0166616E3,5.3097427E3,1.2773085E3,3.1192754E3,1.7232765E2,7.079752E2,2.2357535E2,5.8155713E3,1.5242526E2,6.3685722E1,5.937185E3,1.061784E3,5.18914E2,9.959171E1],"tree_param":{"num_deleted":"0","num_feature":"5","num_nodes":"31","size_leaf_vector":"0"}},{"base_weights":[-6.708454E-2,-4.86002E-4,-1.3683558E-1,-9.348266E-3,3.828624E-1,-1.5909316E-1,6.2419128E-2,-4.5283236E-2,7.760943E-2,4.638754E-1,-2.7392322E-1,-1.723929E-1,5.9766594E-2,2.1244428E-1,-4.528961E-2,3.2365832E-3,-9.7069265E-3,1.1514786E-2,-8.242547E-3,2.577202E-2,6.2440496E-2,-1E-1,7.763048E-2,-1.8841699E-2,-3.300247E-3,3.0607162E-2,-8.513376E-3,-7.94531E-4,3.8363002E-2,-1.3257219E-2,2.1164026E-2],"categories":[3,4,5,9,10,0,2,0,1,3,4,5,8,9,10,4,10],"categories_nodes":[0,4,8,12],"categories_segments":[0,5,7,15],"categories_sizes":[5,2,8,2],"default_left":[0,0,0,0,0,0,0,0,0,0,0,0,0,0,0,0,0,0,0,0,0,0,0,0,0,0,0,0,0,0,0],"id":20,"left_children":[1,3,5,7,9,11,13,15,17,19,21,23,25,27,29,-1,-1,-1,-1,-1,-1,-1,-1,-1,-1,-1,-1,-1,-1,-1,-1],"loss_changes":[1.6634904E2,6.2242805E1,7.758154E1,5.5959816E1,2.2154018E1,4.5807953E1,2.842075E1,5.095691E1,3.1467878E1,1.2047195E1,5.8115532E1,3.31243E1,3.2221313E1,2.7730839E1,2.299789E1,0E0,0E0,0E0,0E0,0E0,0E0,0E0,0E0,0E0,0E0,0E0,0E0,0E0,0E0,0E0,0E0],"parents":[2147483647,0,0,1,1,2,2,3,3,4,4,5,5,6,6,7,7,8,8,9,9,10,10,11,11,12,12,13,13,14,14],"right_children":[2,4,6,8,10,12,14,16,18,20,22,24,26,28,30,-1,-1,-1,-1,-1,-1,-1,-1,-1,-1,-1,-1,-1,-1,-1,-1],"split_conditions":[NaN,2.9488406E-1,7.611616E-1,5.263661E-1,NaN,2.059175E-1,7.799228E-1,6.542899E-1,NaN,7.4372864E-1,1.29E0,7.398683E-1,NaN,7.7101064E-1,8.0844814E-1,3.2365832E-3,-9.7069265E-3,1.1514786E-2,-8.242547E-3,2.577202E-2,6.2440496E-2,-1E-1,7.763048E-2,-1.8841699E-2,-3.300247E-3,3.0607162E-2,-8.513376E-3,-7.94531E-4,3.8363002E-2,-1.3257219E-2,2.1164026E-2],"split_indices":[3,1,2,0,3,1,2,2,3,2,4,0,3,2,2,0,0,0,0,0,0,0,0,0,0,0,0,0,0,0,0],"split_type":[1,0,0,0,1,0,0,0,1,0,0,0,1,0,0,0,0,0,0,0,0,0,0,0,0,0,0,0,0,0,0],"sum_hessian":[3.5809066E4,1.8319014E4,1.7490055E4,1.7906037E4,4.129769E2,1.5732833E4,1.7572211E3,1.2670482E4,5.2355547E3,3.6789197E2,4.508492E1,1.4831744E4,9.010886E2,7.339482E2,1.0232728E3,5.0695166E3,7.600966E3,4.2410396E3,9.945151E2,1.6219867E2,2.056933E2,1.9649395E1,2.5435526E1,1.3302195E4,1.5295491E3,3.3334637E2,5.6774225E2,3.212784E2,4.1266977E2,7.6416095E2,2.591119E2],"tree_param":{"num_deleted":"0","num_feature":"5","num_nodes":"31","size_leaf_vector":"0"}},{"base_weights":[-6.0628705E-2,-1.4121769E-2,-1.4301673E-1,-8.854679E-2,2.0966396E-2,-4.1577276E-2,-1.7786121E-1,-8.565164E-2,-9.667951E-1,1.1894768E-1,-1.2799084E-2,1.541157E-1,-1.8255644E-1,-2.8749612E-1,-8.321002E-2,-3.4491107E-2,-7.886784E-3,-1E-1,3.0349458E-2,3.8736384E-2,6.1376323E-3,3.267918E-5,-4.8951086E-2,-7.0707025E-3,2.6479302E-2,1.6621018E-2,-2.2714676E-2,-3.63829E-2,-2.0638822E-2,5.830533E-2,-1.0711334E-2],"categories":[3,4,9,0,1,3,4,5,6,8,9,10,3,9,3,4],"categories_nodes":[0,4,5,14],"categories_segments":[0,3,12,14],"categories_sizes":[3,9,2,2],"default_left":[0,0,0,0,0,0,0,0,0,0,0,0,0,0,0,0,0,0,0,0,0,0,0,0,0,0,0,0,0,0,0],"id":21,"left_children":[1,3,5,7,9,11,13,15,17,19,21,23,25,27,29,-1,-1,-1,-1,-1,-1,-1,-1,-1,-1,-1,-1,-1,-1,-1,-1],"loss_changes":[1.3676357E2,5.9585068E1,4.5513855E1,1.8505405E1,5.1303665E1,9.090738E1,9.944699E1,1.2790024E1,1.6013836E1,6.139174E1,7.216752E1,3.435489E1,2.9821697E1,2.7419342E1,8.201345E1,0E0,0E0,0E0,0E0,0E0,0E0,0E0,0E0,0E0,0E0,0E0,0E0,0E0,0E0,0E0,0E0],"parents":[2147483647,0,0,1,1,2,2,3,3,4,4,5,5,6,6,7,7,8,8,9,9,10,10,11,11,12,12,13,13,14,14],"right_children":[2,4,6,8,10,12,14,16,18,20,22,24,26,28,30,-1,-1,-1,-1,-1,-1,-1,-1,-1,-1,-1,-1,-1,-1,-1,-1],"split_conditions":[NaN,4.7628872E-2,6.098541E-1,8.508557E-1,NaN,NaN,6.9892454E-1,1.2602465E-1,1.1036469E0,5.7380646E-1,8.48403E-1,5.9796435E-1,5.0637054E-1,3.9757773E-1,NaN,-3.4491107E-2,-7.886784E-3,-1E-1,3.0349458E-2,3.8736384E-2,6.1376323E-3,3.267918E-5,-4.8951086E-2,-7.0707025E-3,2.6479302E-2,1.6621018E-2,-2.2714676E-2,-3.63829E-2,-2.0638822E-2,5.830533E-2,-1.0711334E-2],"split_indices":[3,1,2,4,3,3,2,0,4,2,2,4,2,0,3,0,0,0,0,0,0,0,0,0,0,0,0,0,0,0,0],"split_type":[1,0,0,0,1,1,0,0,0,0,0,0,0,0,1,0,0,0,0,0,0,0,0,0,0,0,0,0,0,0,0],"sum_hessian":[3.5692984E4,2.2815252E4,1.2877731E4,7.3095474E3,1.5505704E4,3.293083E3,9.584648E3,7.2866245E3,2.292284E1,3.9733223E3,1.1532382E4,1.378917E3,1.914166E3,4.4398794E3,5.144769E3,1.8452983E2,7.1020947E3,1.3893865E1,9.028975E0,7.00701E2,3.2726213E3,1.1224328E4,3.0805356E2,4.5500677E2,9.239103E2,2.166777E2,1.6974883E3,2.2854724E3,2.1544067E3,1.7737436E2,4.967395E3],"tree_param":{"num_deleted":"0","num_feature":"5","num_nodes":"31","size_leaf_vector":"0"}},{"base_weights":[-5.480571E-2,2.4064733E-3,-1.1154216E-1,-5.7440538E-2,5.7270583E-2,-1.3419771E-1,5.4083005E-2,-1.1245913E-1,1.9157143E-2,-3.3904088E-1,6.987472E-2,-1.412549E-1,2.5472298E-1,6.411068E-2,-1E-1,-1.171947E-2,8.513448E-2,2.9346144E-3,-6.417597E-2,-1.9609913E-2,-1E-1,4.445765E-3,2.605244E-2,-1.5556983E-2,3.2355776E-4,3.8134724E-2,-6.364293E-2,-7.9712585E-2,7.693765E-3],"categories":[0,3,4,5,9,10,2,6],"categories_nodes":[0,8,9],"categories_segments":[0,6,7],"categories_sizes":[6,1,1],"default_left":[0,0,0,0,0,0,0,0,0,0,0,0,0,0,0,0,0,0,0,0,0,0,0,0,0,0,0,0,0],"id":22,"left_children":[1,3,5,7,9,11,13,15,17,19,21,23,25,27,-1,-1,-1,-1,-1,-1,-1,-1,-1,-1,-1,-1,-1,-1,-1],"loss_changes":[1.1552233E2,5.8189754E1,6.705667E1,3.5723236E1,4.6208736E1,4.3179504E1,2.7052795E1,2.2615143E1,2.388499E1,3.1678612E1,4.3415073E1,3.1934906E1,3.1894999E1,2.3649693E1,0E0,0E0,0E0,0E0,0E0,0E0,0E0,0E0,0E0,0E0,0E0,0E0,0E0,0E0,0E0],"parents":[2147483647,0,0,1,1,2,2,3,3,4,4,5,5,6,6,7,7,8,8,9,9,10,10,11,11,12,12,13,13],"right_children":[2,4,6,8,10,12,14,16,18,20,22,24,26,28,-1,-1,-1,-1,-1,-1,-1,-1,-1,-1,-1,-1,-1,-1,-1],"split_conditions":[NaN,6.182336E-1,7.547974E-1,4.3467996E-1,4.5568833E-1,1.1036469E0,1.1875E0,1.496146E-1,NaN,NaN,6.9895357E-1,7.5833577E-1,7.1017957E-1,1.17737204E-1,-1E-1,-1.171947E-2,8.513448E-2,2.9346144E-3,-6.417597E-2,-1.9609913E-2,-1E-1,4.445765E-3,2.605244E-2,-1.5556983E-2,3.2355776E-4,3.8134724E-2,-6.364293E-2,-7.9712585E-2,7.693765E-3],"split_indices":[3,4,2,0,2,4,4,1,3,3,0,0,0,0,0,0,0,0,0,0,0,0,0,0,0,0,0,0,0],"split_type":[1,0,0,0,0,0,0,0,1,1,0,0,0,0,0,0,0,0,0,0,0,0,0,0,0,0,0,0,0],"sum_hessian":[3.5587867E4,1.7720121E4,1.7867746E4,8.475168E3,9.244952E3,1.5717913E4,2.1498337E3,4.932083E3,3.5430854E3,2.8416183E2,8.960791E3,1.5438411E4,2.7950232E2,2.1342622E3,1.557152E1,4.9088423E3,2.3240755E1,3.490234E3,5.2851467E1,2.4233432E2,4.1827526E1,7.907774E3,1.0530167E3,1.4046704E4,1.3917067E3,2.452296E2,3.4272717E1,3.042322E1,2.1038389E3],"tree_param":{"num_deleted":"0","num_feature":"5","num_nodes":"29","size_leaf_vector":"0"}},{"base_weights":[-4.951427E-2,-1.4915381E-3,-1.0526936E-1,-7.991187E-3,4.2281988E-1,-1.3514519E-1,2.2294236E-2,-3.2974803E-1,-1.1984543E-3,-1.7819194E-2,5.230036E-1,-1.5377009E-1,1.391981E-2,-4.604415E-1,4.3589287E-2,-2.1262234E-2,-1E-1,-3.1834634E-3,7.2075166E-3,-1E-1,3.168314E-2,7.872488E-2,3.1622447E-2,-8.375628E-3,-2.0217722E-2,-5.0905626E-4,9.790888E-2,-3.740297E-2,-1E-1,5.1047034E-3,-1E-1],"categories":[3,4,5,9,6,10,9],"categories_nodes":[0,7,13],"categories_segments":[0,4,6],"categories_sizes":[4,2,1],"default_left":[0,0,0,0,0,0,0,0,0,0,0,0,0,0,0,0,0,0,0,0,0,0,0,0,0,0,0,0,0,0,0],"id":23,"left_children":[1,3,5,7,9,11,13,15,17,19,21,23,25,27,29,-1,-1,-1,-1,-1,-1,-1,-1,-1,-1,-1,-1,-1,-1,-1,-1],"loss_changes":[9.503658E1,5.2597572E1,6.259938E1,4.1053665E1,1.2711388E1,3.6949997E1,3.2069202E1,3.2897915E1,4.1299107E1,2.2479588E1,1.25624695E1,4.0077606E1,2.714252E1,8.5745945E0,3.0556948E1,0E0,0E0,0E0,0E0,0E0,0E0,0E0,0E0,0E0,0E0,0E0,0E0,0E0,0E0,0E0,0E0],"parents":[2147483647,0,0,1,1,2,2,3,3,4,4,5,5,6,6,7,7,8,8,9,9,10,10,11,11,12,12,13,13,14,14],"right_children":[2,4,6,8,10,12,14,16,18,20,22,24,26,28,30,-1,-1,-1,-1,-1,-1,-1,-1,-1,-1,-1,-1,-1,-1,-1,-1],"split_conditions":[NaN,3.2202813E-1,1.392376E-1,4.5568833E-1,6.65414E-1,7.547974E-1,1.4883888E-1,NaN,5.263661E-1,3.023423E-1,7.6276976E-1,6.311173E-1,9.1011304E-1,NaN,8.335147E-1,-2.1262234E-2,-1E-1,-3.1834634E-3,7.2075166E-3,-1E-1,3.168314E-2,7.872488E-2,3.1622447E-2,-8.375628E-3,-2.0217722E-2,-5.0905626E-4,9.790888E-2,-3.740297E-2,-1E-1,5.1047034E-3,-1E-1],"split_indices":[3,1,1,2,2,2,0,3,0,0,2,2,2,3,2,0,0,0,0,0,0,0,0,0,0,0,0,0,0,0,0],"split_type":[1,0,0,0,0,0,0,1,0,0,0,0,0,1,0,0,0,0,0,0,0,0,0,0,0,0,0,0,0,0,0],"sum_hessian":[3.5493426E4,1.9069549E4,1.6423875E4,1.8782812E4,2.8673602E2,1.3307219E4,3.116656E3,3.8735E2,1.8395463E4,5.3268154E1,2.3346786E2,1.1829191E4,1.478028E3,1.3080591E2,2.98585E3,3.3508325E2,5.226675E1,1.2972248E4,5.423216E3,1.0537486E1,4.273067E1,1.01259735E2,1.3220813E2,4.836554E3,6.9926367E3,1.450454E3,2.7574022E1,1.21362495E2,9.443413E0,2.97218E3,1.3670178E1],"tree_param":{"num_deleted":"0","num_feature":"5","num_nodes":"31","size_leaf_vector":"0"}},{"base_weights":[-4.4747885E-2,-9.447305E-3,-1.082628E-1,-7.647688E-2,2.0614553E-2,-1.7394017E-2,-1.397614E-1,-2.2703918E-2,-2.5693804E-1,6.8174094E-1,9.893128E-3,6.728957E-2,-2.9249862E-1,-2.4027687E-1,-5.755207E-2,3.420048E-4,-3.9499383E-2,-1.8533815E-2,-5.475987E-2,1E-1,-4.4099014E-2,2.1607056E-2,-2.3983608E-3,2.9132732E-3,5.267038E-2,-1E-1,-1.9931167E-2,-2.0820394E-2,-4.4426206E-2,5.4726597E-2,-7.9181E-3],"categories":[3,4,9,5,10,0,1,2,3,4,5,6,7,8,9,9,3,4],"categories_nodes":[0,3,4,5,14],"categories_segments":[0,3,5,15,16],"categories_sizes":[3,2,10,1,2],"default_left":[0,0,0,0,0,0,0,0,0,0,0,0,0,0,0,0,0,0,0,0,0,0,0,0,0,0,0,0,0,0,0],"id":24,"left_children":[1,3,5,7,9,11,13,15,17,19,21,23,25,27,29,-1,-1,-1,-1,-1,-1,-1,-1,-1,-1,-1,-1,-1,-1,-1,-1],"loss_changes":[7.93868E1,4.5863262E1,3.6201447E1,6.837959E1,1.1137451E2,7.589922E1,7.760127E1,5.2816372E1,3.356534E1,1.0938472E2,1.08014175E2,4.3656067E1,5.5750908E1,2.755281E1,6.7651306E1,0E0,0E0,0E0,0E0,0E0,0E0,0E0,0E0,0E0,0E0,0E0,0E0,0E0,0E0,0E0,0E0],"parents":[2147483647,0,0,1,1,2,2,3,3,4,4,5,5,6,6,7,7,8,8,9,9,10,10,11,11,12,12,13,13,14,14],"right_children":[2,4,6,8,10,12,14,16,18,20,22,24,26,28,30,-1,-1,-1,-1,-1,-1,-1,-1,-1,-1,-1,-1,-1,-1,-1,-1],"split_conditions":[NaN,6.211028E-1,6.098541E-1,NaN,NaN,NaN,6.975828E-1,6.084086E-1,7.958237E-1,7.6283616E-1,6.496701E-1,9.411765E-1,5.4705036E-1,6.8725574E-1,NaN,3.420048E-4,-3.9499383E-2,-1.8533815E-2,-5.475987E-2,1E-1,-4.4099014E-2,2.1607056E-2,-2.3983608E-3,2.9132732E-3,5.267038E-2,-1E-1,-1.9931167E-2,-2.0820394E-2,-4.4426206E-2,5.4726597E-2,-7.9181E-3],"split_indices":[3,2,2,3,3,3,2,2,4,4,2,4,2,2,3,0,0,0,0,0,0,0,0,0,0,0,0,0,0,0,0],"split_type":[1,0,0,1,1,1,0,0,0,0,0,0,0,0,1,0,0,0,0,0,0,0,0,0,0,0,0,0,0,0,0],"sum_hessian":[3.540658E4,2.2758766E4,1.2647812E4,7.046187E3,1.5712578E4,3.2560745E3,9.391737E3,5.429466E3,1.6167208E3,2.497444E2,1.5462834E4,2.4902676E3,7.658068E2,4.224552E3,5.1671855E3,5.0743823E3,3.5508377E2,1.298494E3,3.182268E2,1.853529E2,6.43915E1,2.1813748E3,1.3281459E4,2.3002803E3,1.899873E2,7.958001E1,6.862268E2,3.6523127E3,5.722388E2,1.7756502E2,4.9896206E3],"tree_param":{"num_deleted":"0","num_feature":"5","num_nodes":"31","size_leaf_vector":"0"}}]},"name":"gbtree"},"learner_model_param":{"base_score":"5E-1","num_class":"0","num_feature":"5","num_target":"1"},"objective":{"name":"binary:logistic","reg_loss_param":{"scale_pos_weight":"5.32058382"}}},"version":[1,6,0]}