{"learner":{"attributes":{"best_iteration":"49","best_ntree_limit":"50","scikit_learn":"{\"use_label_encoder\": false, \"n_estimators\": 50, \"objective\": \"binary:logistic\", \"max_depth\": 4, \"max_leaves\": null, \"max_bin\": null, \"grow_policy\": null, \"learning_rate\": 0.1, \"verbosity\": null, \"booster\": null, \"tree_method\": \"hist\", \"gamma\": 1.242, \"min_child_weight\": 6, \"max_delta_step\": 4, \"subsample\": 0.75, \"sampling_method\": null, \"colsample_bytree\": null, \"colsample_bylevel\": 0.75, \"colsample_bynode\": null, \"reg_alpha\": null, \"reg_lambda\": null, \"scale_pos_weight\": 6.470352, \"base_score\": null, \"missing\": NaN, \"num_parallel_tree\": null, \"random_state\": null, \"n_jobs\": null, \"monotone_constraints\": null, \"interaction_constraints\": null, \"importance_type\": null, \"gpu_id\": null, \"validate_parameters\": null, \"predictor\": null, \"enable_categorical\": true, \"max_cat_to_onehot\": 1, \"eval_metric\": [\"logloss\"], \"early_stopping_rounds\": null, \"callbacks\": null, \"classes_\": [0, 1], \"n_classes_\": 2, \"evals_result_\": {\"validation_0\": {\"logloss\": [0.6782023674151411, 0.6653334548023297, 0.6543682199589117, 0.6453525932958314, 0.6371503237545221, 0.6291842164256793, 0.6231321152005451, 0.6178135219151196, 0.6128193428777062, 0.6088191745769221, 0.6049250760836619, 0.6019519814844045, 0.5991505811082026, 0.596684261017574, 0.5946231993866621, 0.5925300649056925, 0.5904413552575517, 0.5886091466041161, 0.5873212408357187, 0.5854856164288008, 0.5839849077342699, 0.5822753454325522, 0.5808855486017582, 0.579657958852442, 0.5787557228619699, 0.5778730501520896, 0.5773498637027351, 0.5768026022147753, 0.5761530864172475, 0.5753623223989833, 0.5750898992324327, 0.5744631547638521, 0.5741616101993983, 0.5734162197393609, 0.5729196055210166, 0.5725182587342352, 0.5716923560467957, 0.5711761264740649, 0.570370079909447, 0.5701016952494888, 0.5702462868515532, 0.5695094164044688, 0.569352133807076, 0.5691813767404323, 0.5688406150445338, 0.5686987376509168, 0.5688468863556325, 0.5681066718252804, 0.5679388304228881, 0.5676651542084677]}}, \"_estimator_type\": \"classifier\"}"},"feature_names":["adf_pass_rate","last_residual","residual_mean_max","industry","residual_inter"],"feature_types":["float","float","float","c","float"],"gradient_booster":{"model":{"gbtree_model_param":{"num_parallel_tree":"1","num_trees":"50","size_leaf_vector":"0"},"tree_info":[0,0,0,0,0,0,0,0,0,0,0,0,0,0,0,0,0,0,0,0,0,0,0,0,0,0,0,0,0,0,0,0,0,0,0,0,0,0,0,0,0,0,0,0,0,0,0,0,0,0],"trees":[{"base_weights":[-2.0658502E-1,2.6467118E-1,-6.646637E-1,1.1975725E-1,5.3313947E-1,-7.17896E-1,2.76441E-1,3.807132E-2,3.9723936E-1,4.587497E-1,8.155307E-1,-7.735414E-1,-3.2362682E-1,-3.7195224E-1,4.8109412E-1,1.6187249E-2,-1.1587094E-2,4.1716263E-2,-1.19174674E-1,6.198126E-2,2.944409E-2,8.808973E-2,-1.3204192E-1,-4.269476E-2,-8.5875176E-2,-3.739101E-2,6.3687745E-3,5.9837396E-3,-1.9304349E-1,1.681556E-1,2.4274746E-2],"categories":[3,4,5,9,10,6,0,3,4,5,6,9,10,0,3,4,9,10,9,0,1,2,3,4,5,6,7,8,10],"categories_nodes":[0,7,9,10,11,13,14],"categories_segments":[0,5,6,13,14,18,19],"categories_sizes":[5,1,7,1,4,1,10],"default_left":[0,0,0,0,0,0,0,0,0,0,0,0,0,0,0,0,0,0,0,0,0,0,0,0,0,0,0,0,0,0,0],"id":0,"left_children":[1,3,5,7,9,11,13,15,17,19,21,23,25,27,29,-1,-1,-1,-1,-1,-1,-1,-1,-1,-1,-1,-1,-1,-1,-1,-1],"loss_changes":[4.3634385E3,3.8756506E2,5.136797E2,1.4668254E2,7.2992676E1,2.125874E2,7.3087875E1,9.533279E1,4.709227E1,7.3032715E1,1.0265372E2,2.506875E2,2.3424927E1,8.919913E1,1.19210846E2,0E0,0E0,0E0,0E0,0E0,0E0,0E0,0E0,0E0,0E0,0E0,0E0,0E0,0E0,0E0,0E0],"parents":[2147483647,0,0,1,1,2,2,3,3,4,4,5,5,6,6,7,7,8,8,9,9,10,10,11,11,12,12,13,13,14,14],"right_children":[2,4,6,8,10,12,14,16,18,20,22,24,26,28,30,-1,-1,-1,-1,-1,-1,-1,-1,-1,-1,-1,-1,-1,-1,-1,-1],"split_conditions":[NaN,1.01034135E-1,1.954855E-1,5.785926E-1,6.086539E-1,6.9628966E-1,6.808882E-1,NaN,8.624161E-1,NaN,NaN,NaN,8.008298E-1,NaN,NaN,1.6187249E-2,-1.1587094E-2,4.1716263E-2,-1.19174674E-1,6.198126E-2,2.944409E-2,8.808973E-2,-1.3204192E-1,-4.269476E-2,-8.5875176E-2,-3.739101E-2,6.3687745E-3,5.9837396E-3,-1.9304349E-1,1.681556E-1,2.4274746E-2],"split_indices":[3,1,1,0,0,0,2,3,4,3,3,3,4,3,3,0,0,0,0,0,0,0,0,0,0,0,0,0,0,0,0],"split_type":[1,0,0,0,0,0,0,1,0,1,1,1,0,1,1,0,0,0,0,0,0,0,0,0,0,0,0,0,0,0,0],"sum_hessian":[2.0211229E4,9.962529E3,1.0248698E4,6.4710366E3,3.491493E3,9.700254E3,5.484445E2,5.000201E3,1.4708354E3,2.765585E3,7.2590784E2,8.499685E3,1.2005698E3,1.313804E2,4.170641E2,2.7713865E3,2.2288147E3,1.4533503E3,1.7485176E1,1.3951873E3,1.3703978E3,7.0492267E2,2.0985176E1,1.678476E3,6.8212085E3,1.062646E3,1.3792387E2,1.036304E2,2.775E1,6.808594E1,3.4897815E2],"tree_param":{"num_deleted":"0","num_feature":"5","num_nodes":"31","size_leaf_vector":"0"}},{"base_weights":[-1.9430034E-1,-3.067009E-1,8.591629E-2,1.2807328E-1,-6.9247186E-1,4.9731725E-1,-3.7509915E-1,2.8348342E-1,3.9449904E-2,-7.7994204E-1,-4.8717493E-1,-1.9180784E-1,5.4535556E-1,-4.817472E-1,2.8078517E-2,2.0665718E-2,7.433056E-2,-6.487891E-3,2.1605818E-2,-8.601777E-2,-3.9582875E-2,-5.9144627E-2,-2.2986734E-2,-7.034419E-2,-1.7221052E-3,3.7008815E-2,7.077518E-2,-5.2558076E-2,1.3230668E-2,-2.4366211E-2,6.1691493E-2],"categories":[3,4,5,9,10,0,3,4,5,9,10,0,1,2,3,4,5,6,9,10],"categories_nodes":[1,2,3],"categories_segments":[0,5,11],"categories_sizes":[5,6,9],"default_left":[0,0,0,0,0,0,0,0,0,0,0,0,0,0,0,0,0,0,0,0,0,0,0,0,0,0,0,0,0,0,0],"id":1,"left_children":[1,3,5,7,9,11,13,15,17,19,21,23,25,27,29,-1,-1,-1,-1,-1,-1,-1,-1,-1,-1,-1,-1,-1,-1,-1,-1],"loss_changes":[6.3403564E2,2.4097588E3,1.0933168E3,9.3029594E1,1.36323E2,1.0094391E2,1.16902435E2,8.650575E1,7.9302155E1,1.641294E2,6.095807E1,1.7785192E1,8.079602E1,5.7935394E1,9.129371E1,0E0,0E0,0E0,0E0,0E0,0E0,0E0,0E0,0E0,0E0,0E0,0E0,0E0,0E0,0E0,0E0],"parents":[2147483647,0,0,1,1,2,2,3,3,4,4,5,5,6,6,7,7,8,8,9,9,10,10,11,11,12,12,13,13,14,14],"right_children":[2,4,6,8,10,12,14,16,18,20,22,24,26,28,30,-1,-1,-1,-1,-1,-1,-1,-1,-1,-1,-1,-1,-1,-1,-1,-1],"split_conditions":[7.2557175E-1,NaN,NaN,NaN,7.786069E-1,4.9027917E-1,9.458128E-1,6.8551E-1,4.5364416E-1,6.352445E-1,5.3234845E-1,2.5687376E-1,1.5635982E-1,1.9960544E-1,2.544817E-1,2.0665718E-2,7.433056E-2,-6.487891E-3,2.1605818E-2,-8.601777E-2,-3.9582875E-2,-5.9144627E-2,-2.2986734E-2,-7.034419E-2,-1.7221052E-3,3.7008815E-2,7.077518E-2,-5.2558076E-2,1.3230668E-2,-2.4366211E-2,6.1691493E-2],"split_indices":[4,3,3,3,2,2,4,0,0,0,0,0,1,1,1,0,0,0,0,0,0,0,0,0,0,0,0,0,0,0,0],"split_type":[0,1,1,1,0,0,0,0,0,0,0,0,0,0,0,0,0,0,0,0,0,0,0,0,0,0,0,0,0,0,0],"sum_hessian":[2.0128508E4,1.4365943E4,5.7625645E3,6.754317E3,7.611627E3,3.0450996E3,2.7174648E3,2.4521035E3,4.3022134E3,5.335534E3,2.2760925E3,1.9824324E2,2.8468564E3,2.148857E3,5.6860785E2,2.102304E3,3.4979968E2,2.704941E3,1.5972725E3,4.412573E3,9.229612E2,1.6187938E3,6.572988E2,4.9665936E1,1.4857732E2,1.3707466E3,1.4761099E3,2.005818E3,1.4303899E2,3.8946216E2,1.791457E2],"tree_param":{"num_deleted":"0","num_feature":"5","num_nodes":"31","size_leaf_vector":"0"}},{"base_weights":[-1.7115678E-1,2.1696396E-1,-5.270783E-1,1.0925724E-1,5.0493854E-1,-5.7527673E-1,-1.06907055E-1,-2.7893253E-3,2.1025182E-1,3.8540512E-1,7.144788E-1,-6.3318187E-1,-4.1940847E-1,-4.6951026E-1,3.088495E-1,1.5400747E-2,-9.955379E-3,3.400345E-2,1.3533493E-2,-1.6851831E-2,4.3410033E-2,1.1811805E-1,6.402445E-2,-3.2176632E-2,-7.164841E-2,-2.3551572E-3,-4.7723275E-2,-2.045327E-2,-1.369243E-1,1.5051554E-1,7.6514496E-3],"categories":[0,3,4,5,9,10,1,2,6,0,1,2,3,4,5,6,9,10,3,4,9,10,9,10,0,1,2,4,5,6,7,8,10],"categories_nodes":[0,7,8,11,13,14],"categories_segments":[0,6,9,18,22,24],"categories_sizes":[6,3,9,4,2,9],"default_left":[0,0,0,0,0,0,0,0,0,0,0,0,0,0,0,0,0,0,0,0,0,0,0,0,0,0,0,0,0,0,0],"id":2,"left_children":[1,3,5,7,9,11,13,15,17,19,21,23,25,27,29,-1,-1,-1,-1,-1,-1,-1,-1,-1,-1,-1,-1,-1,-1,-1,-1],"loss_changes":[2.778173E3,2.983497E2,2.1239111E2,7.924951E1,6.531152E1,8.467236E1,1.6307864E2,5.0401752E1,3.5766068E1,4.510666E1,3.2156586E1,1.777229E2,5.8406464E1,1.374471E2,1.3999452E2,0E0,0E0,0E0,0E0,0E0,0E0,0E0,0E0,0E0,0E0,0E0,0E0,0E0,0E0,0E0,0E0],"parents":[2147483647,0,0,1,1,2,2,3,3,4,4,5,5,6,6,7,7,8,8,9,9,10,10,11,11,12,12,13,13,14,14],"right_children":[2,4,6,8,10,12,14,16,18,20,22,24,26,28,30,-1,-1,-1,-1,-1,-1,-1,-1,-1,-1,-1,-1,-1,-1,-1,-1],"split_conditions":[NaN,7.563805E-1,8.624161E-1,5.0123394E-2,1.8845898E-1,7.786069E-1,6.808882E-1,NaN,NaN,4.8100016E-1,6.173267E-1,NaN,7.90617E-1,NaN,NaN,1.5400747E-2,-9.955379E-3,3.400345E-2,1.3533493E-2,-1.6851831E-2,4.3410033E-2,1.1811805E-1,6.402445E-2,-3.2176632E-2,-7.164841E-2,-2.3551572E-3,-4.7723275E-2,-2.045327E-2,-1.369243E-1,1.5051554E-1,7.6514496E-3],"split_indices":[3,4,4,1,1,2,2,3,3,2,2,3,2,3,3,0,0,0,0,0,0,0,0,0,0,0,0,0,0,0,0],"split_type":[1,0,0,0,0,0,0,1,1,0,0,1,0,1,1,0,0,0,0,0,0,0,0,0,0,0,0,0,0,0,0],"sum_hessian":[2.0109385E4,9.619752E3,1.0489634E4,7.002204E3,2.6175476E3,9.409847E3,1.0797866E3,3.3199355E3,3.6822688E3,1.6685521E3,9.4899554E2,6.8587544E3,2.5510923E3,5.76693E2,5.030936E2,1.2667335E3,2.053202E3,1.3463585E3,2.3359102E3,1.346302E2,1.533922E3,1.2818724E2,8.208083E2,1.448515E3,5.4102393E3,3.2533066E2,2.2257615E3,4.464405E2,1.3025252E2,8.092548E1,4.2216812E2],"tree_param":{"num_deleted":"0","num_feature":"5","num_nodes":"31","size_leaf_vector":"0"}},{"base_weights":[-1.4224423E-1,2.0976163E-1,-4.6592808E-1,8.894454E-2,4.2484108E-1,-5.1082563E-1,1.5754762E-1,1.2020572E-2,3.4422126E-1,3.5329866E-1,6.3737345E-1,-2.4226148E-1,-5.8814865E-1,4.8896757E-1,-1.6854034E-1,1.1080071E-2,-1.0142627E-2,3.603799E-2,-1.7348056E-1,2.9417185E-2,6.028818E-2,9.713058E-2,5.6670517E-2,2.883651E-2,-2.6184341E-2,-6.3382946E-2,-2.6459008E-2,-4.93026E-2,5.580109E-2,7.8214845E-3,-5.9733074E-2],"categories":[0,3,4,5,9,10,3,4,9,10,0,1,2,4,6,7,8,10,6,0,3,4,5,6,7,9,10],"categories_nodes":[0,5,6,7,10],"categories_segments":[0,6,10,18,19],"categories_sizes":[6,4,8,1,8],"default_left":[0,0,0,0,0,0,0,0,0,0,0,0,0,0,0,0,0,0,0,0,0,0,0,0,0,0,0,0,0,0,0],"id":3,"left_children":[1,3,5,7,9,11,13,15,17,19,21,23,25,27,29,-1,-1,-1,-1,-1,-1,-1,-1,-1,-1,-1,-1,-1,-1,-1,-1],"loss_changes":[2.2957588E3,2.5078613E2,2.9390967E2,1.2138968E2,5.2560974E1,2.031958E2,7.636754E1,5.3257767E1,4.8713394E1,3.8184418E1,2.0052338E1,2.2837952E1,1.1219531E2,2.402755E1,3.7771114E1,0E0,0E0,0E0,0E0,0E0,0E0,0E0,0E0,0E0,0E0,0E0,0E0,0E0,0E0,0E0,0E0],"parents":[2147483647,0,0,1,1,2,2,3,3,4,4,5,5,6,6,7,7,8,8,9,9,10,10,11,11,12,12,13,13,14,14],"right_children":[2,4,6,8,10,12,14,16,18,20,22,24,26,28,30,-1,-1,-1,-1,-1,-1,-1,-1,-1,-1,-1,-1,-1,-1,-1,-1],"split_conditions":[NaN,9.833505E-2,1.8845898E-1,5.785926E-1,1.9191569E-1,NaN,NaN,NaN,8.574766E-1,6.171568E-1,NaN,1.1169635E-1,6.906405E-1,8.624161E-1,4.7374934E-1,1.1080071E-2,-1.0142627E-2,3.603799E-2,-1.7348056E-1,2.9417185E-2,6.028818E-2,9.713058E-2,5.6670517E-2,2.883651E-2,-2.6184341E-2,-6.3382946E-2,-2.6459008E-2,-4.93026E-2,5.580109E-2,7.8214845E-3,-5.9733074E-2],"split_indices":[3,1,1,0,1,3,3,3,4,0,3,0,0,4,0,0,0,0,0,0,0,0,0,0,0,0,0,0,0,0,0],"split_type":[1,0,0,0,0,1,1,1,0,0,1,0,0,0,0,0,0,0,0,0,0,0,0,0,0,0,0,0,0,0,0],"sum_hessian":[2.0147225E4,9.651538E3,1.0495687E4,6.180926E3,3.4706125E3,9.790813E3,7.048728E2,4.7504834E3,1.4304426E3,2.5985527E3,8.720598E2,2.1896575E3,7.6011562E3,3.4933063E2,3.5554218E2,2.5394036E3,2.2110796E3,1.420231E3,1.0211664E1,2.1026165E3,4.9593616E2,1.500895E2,7.2197034E2,7.744147E1,2.112216E3,6.659931E3,9.4122504E2,2.2544357E1,3.267863E2,2.2619295E2,1.2934921E2],"tree_param":{"num_deleted":"0","num_feature":"5","num_nodes":"31","size_leaf_vector":"0"}},{"base_weights":[-1.383674E-1,-2.3489062E-1,1.0049659E-1,-2.8396338E-1,1.6850159E-1,7.3331455E-3,3.9638674E-1,4.335008E-2,-5.283639E-1,2.3509166E-1,-1.24658264E-1,2.8418273E-1,-4.295501E-1,9.755367E-1,1.5339892E-1,-2.3109056E-3,2.6854023E-2,-5.915914E-2,-2.2473859E-2,-1.1194686E-3,3.5629362E-2,-2.6082212E-2,4.523791E-2,3.355193E-2,3.2918088E-3,-3.5452347E-2,-8.793104E-2,-9.537233E-3,1.04411565E-1,3.2438513E-2,-4.6185143E-3],"categories":[3,4,5,9,10,0,3,4,9,10,0,1,2,3,4,5,6,10,0,3,4,5,9,10,9,0,4,5],"categories_nodes":[3,5,6,11,12,14],"categories_segments":[0,5,10,18,24,25],"categories_sizes":[5,5,8,6,1,3],"default_left":[0,0,0,0,0,0,0,0,0,0,0,0,0,0,0,0,0,0,0,0,0,0,0,0,0,0,0,0,0,0,0],"id":4,"left_children":[1,3,5,7,9,11,13,15,17,19,21,23,25,27,29,-1,-1,-1,-1,-1,-1,-1,-1,-1,-1,-1,-1,-1,-1,-1,-1],"loss_changes":[4.5957855E2,2.8106708E2,1.5814714E2,1.0125104E3,3.0098003E1,5.2798975E2,1.9318018E2,8.099505E1,1.3897668E2,3.748182E1,2.2570742E1,3.445584E1,5.682596E1,2.9905884E1,3.3081543E1,0E0,0E0,0E0,0E0,0E0,0E0,0E0,0E0,0E0,0E0,0E0,0E0,0E0,0E0,0E0,0E0],"parents":[2147483647,0,0,1,1,2,2,3,3,4,4,5,5,6,6,7,7,8,8,9,9,10,10,11,11,12,12,13,13,14,14],"right_children":[2,4,6,8,10,12,14,16,18,20,22,24,26,28,30,-1,-1,-1,-1,-1,-1,-1,-1,-1,-1,-1,-1,-1,-1,-1,-1],"split_conditions":[7.280702E-1,8.745159E-1,7.6648337E-1,NaN,9.100327E-1,NaN,NaN,5.7442516E-1,6.352445E-1,2.6889265E-1,6.495167E-1,NaN,NaN,1.7243484E-1,NaN,-2.3109056E-3,2.6854023E-2,-5.915914E-2,-2.2473859E-2,-1.1194686E-3,3.5629362E-2,-2.6082212E-2,4.523791E-2,3.355193E-2,3.2918088E-3,-3.5452347E-2,-8.793104E-2,-9.537233E-3,1.04411565E-1,3.2438513E-2,-4.6185143E-3],"split_indices":[4,2,2,3,2,3,3,0,0,0,0,3,3,0,3,0,0,0,0,0,0,0,0,0,0,0,0,0,0,0,0],"split_type":[0,0,0,1,0,1,1,0,0,0,0,1,1,0,1,0,0,0,0,0,0,0,0,0,0,0,0,0,0,0,0],"sum_hessian":[1.9931188E4,1.4195076E4,5.7361113E3,1.2655792E4,1.5392837E3,4.363312E3,1.3727997E3,5.4105435E3,7.245249E3,1.2545221E3,2.8476154E2,2.6710422E3,1.6922695E3,4.048483E2,9.6795135E2,4.178317E3,1.2322263E3,5.9957363E3,1.2495123E3,4.1405548E2,8.404667E2,2.3083844E2,5.392308E1,2.217619E3,4.534233E2,1.4518652E3,2.4040427E2,2.4341875E1,3.805064E2,5.209885E2,4.4696286E2],"tree_param":{"num_deleted":"0","num_feature":"5","num_nodes":"31","size_leaf_vector":"0"}},{"base_weights":[-1.3851888E-1,-1.9993934E-1,2.8133628E-1,8.995499E-2,-4.72834E-1,4.2459548E-1,-1.9017754E-1,2.4890716E-1,1.5648905E-2,-5.128593E-1,-1.918451E-1,1.2420647E-1,5.2669466E-1,-8.883211E-2,-1.2363534E0,9.1203846E-2,1.4121877E-2,-6.9567625E-4,2.211756E-2,-3.3895593E-2,-5.5400606E-2,7.037785E-4,-2.9854724E-2,3.3819575E-2,-1.6537525E-1,1.2461286E-1,4.505738E-2,1.4714247E-1,-1.2460468E-2,-1.6411068E-1,-4.9817722E-2],"categories":[3,4,5,9,10,0,4,10,0,1,2,3,4,5,6,8,9,10,0,10,3,4,9,10,9,0,1,2,3,4,5,6,7,10],"categories_nodes":[1,2,3,6,9,11,12],"categories_segments":[0,5,8,18,20,24,25],"categories_sizes":[5,3,10,2,4,1,9],"default_left":[0,0,0,0,0,0,0,0,0,0,0,0,0,0,0,0,0,0,0,0,0,0,0,0,0,0,0,0,0,0,0],"id":5,"left_children":[1,3,5,7,9,11,13,15,17,19,21,23,25,27,29,-1,-1,-1,-1,-1,-1,-1,-1,-1,-1,-1,-1,-1,-1,-1,-1],"loss_changes":[5.101102E2,1.3651243E3,1.7061478E2,9.883045E1,9.986694E1,5.932959E1,6.233844E1,1.9022513E2,2.649955E1,5.5479492E1,2.3554333E1,1.8796436E2,7.857483E1,3.0214508E1,1.4701248E1,0E0,0E0,0E0,0E0,0E0,0E0,0E0,0E0,0E0,0E0,0E0,0E0,0E0,0E0,0E0,0E0],"parents":[2147483647,0,0,1,1,2,2,3,3,4,4,5,5,6,6,7,7,8,8,9,9,10,10,11,11,12,12,13,13,14,14],"right_children":[2,4,6,8,10,12,14,16,18,20,22,24,26,28,30,-1,-1,-1,-1,-1,-1,-1,-1,-1,-1,-1,-1,-1,-1,-1,-1],"split_conditions":[1.5852676E-1,NaN,NaN,NaN,6.9628966E-1,6.838608E-1,NaN,6.1473584E-1,8.851887E-1,NaN,5.465995E-1,NaN,NaN,6.075136E-1,1.090164E0,9.1203846E-2,1.4121877E-2,-6.9567625E-4,2.211756E-2,-3.3895593E-2,-5.5400606E-2,7.037785E-4,-2.9854724E-2,3.3819575E-2,-1.6537525E-1,1.2461286E-1,4.505738E-2,1.4714247E-1,-1.2460468E-2,-1.6411068E-1,-4.9817722E-2],"split_indices":[1,3,3,3,0,2,3,2,2,3,4,3,3,2,4,0,0,0,0,0,0,0,0,0,0,0,0,0,0,0,0],"split_type":[0,1,1,1,0,0,1,0,0,1,0,1,1,0,0,0,0,0,0,0,0,0,0,0,0,0,0,0,0,0,0],"sum_hessian":[1.9777967E4,1.7254357E4,2.5236094E3,8.36691E3,8.887447E3,1.9356145E3,5.8799475E2,2.6645903E3,5.7023203E3,7.7786035E3,1.1088435E3,4.9156958E2,1.4440449E3,5.37054E2,5.094073E1,3.7121667E2,2.2933735E3,5.138147E3,5.641733E2,1.490091E3,6.2885127E3,3.875047E2,7.2133887E2,4.3948447E2,5.2085117E1,1.3669954E2,1.3073453E3,1.1137733E1,5.259163E2,3.2110737E1,1.8829994E1],"tree_param":{"num_deleted":"0","num_feature":"5","num_nodes":"31","size_leaf_vector":"0"}},{"base_weights":[-1.05270006E-1,-1.7439684E-1,1.8834503E-1,7.915242E-2,-4.0898234E-1,3.2207987E-1,-2.2286186E-1,4.3652378E-2,3.6208883E-1,-4.608943E-1,-9.153886E-2,1.253286E-1,4.019128E-1,-3.8022122E-1,3.9457856E-3,1.3705297E-2,-8.4096065E-4,6.909584E-2,1.5513501E-2,-2.4166007E-2,-5.1312458E-2,-1.1389003E-2,4.145627E-2,3.8843475E-2,-4.6206724E-2,1.1034697E-1,3.3785205E-2,-3.2421242E-2,-1.6648895E-1,8.730075E-3,-7.650964E-2],"categories":[3,4,5,9,10,0,4,10,0,1,2,3,4,5,6,9,10,1,2,3,4,5,6,8,9,10,3,4,9,10,5,8,9,0,1,2,3,4,5,6,7,10,0,10],"categories_nodes":[1,2,7,8,9,11,12,14],"categories_segments":[0,5,8,17,26,30,33,42],"categories_sizes":[5,3,9,9,4,3,9,2],"default_left":[0,0,0,0,0,0,0,0,0,0,0,0,0,0,0,0,0,0,0,0,0,0,0,0,0,0,0,0,0,0,0],"id":6,"left_children":[1,3,5,7,9,11,13,15,17,19,21,23,25,27,29,-1,-1,-1,-1,-1,-1,-1,-1,-1,-1,-1,-1,-1,-1,-1,-1],"loss_changes":[4.0390976E2,9.580696E2,2.0863278E2,7.774216E1,1.3783179E2,4.490692E1,3.3240555E1,3.3454185E1,5.862304E1,8.221179E1,1.3363131E1,1.2808235E2,9.111203E1,3.9023407E1,2.458438E1,0E0,0E0,0E0,0E0,0E0,0E0,0E0,0E0,0E0,0E0,0E0,0E0,0E0,0E0,0E0,0E0],"parents":[2147483647,0,0,1,1,2,2,3,3,4,4,5,5,6,6,7,7,8,8,9,9,10,10,11,11,12,12,13,13,14,14],"right_children":[2,4,6,8,10,12,14,16,18,20,22,24,26,28,30,-1,-1,-1,-1,-1,-1,-1,-1,-1,-1,-1,-1,-1,-1,-1,-1],"split_conditions":[1.3295719E-1,NaN,NaN,7.1432483E-1,6.8001133E-1,6.838608E-1,1.8482204E-1,NaN,NaN,NaN,9.1740274E-1,NaN,NaN,8.3830464E-1,NaN,1.3705297E-2,-8.4096065E-4,6.909584E-2,1.5513501E-2,-2.4166007E-2,-5.1312458E-2,-1.1389003E-2,4.145627E-2,3.8843475E-2,-4.6206724E-2,1.1034697E-1,3.3785205E-2,-3.2421242E-2,-1.6648895E-1,8.730075E-3,-7.650964E-2],"split_indices":[1,3,3,0,0,2,1,3,3,3,0,3,3,2,3,0,0,0,0,0,0,0,0,0,0,0,0,0,0,0,0],"split_type":[0,1,1,0,0,0,0,1,1,1,0,1,1,0,1,0,0,0,0,0,0,0,0,0,0,0,0,0,0,0,0],"sum_hessian":[1.9897674E4,1.6106151E4,3.7915222E3,7.7405366E3,8.365614E3,2.8612036E3,9.303187E2,6.8786294E3,8.619076E2,7.189461E3,1.1761537E3,8.2659625E2,2.0346073E3,5.488498E2,3.8146893E2,2.461321E3,4.417308E3,3.3199567E2,5.2991187E2,1.3843486E3,5.805112E3,1.1271498E3,4.9003803E1,5.711194E2,2.5547687E2,1.6888211E2,1.8657252E3,5.271208E2,2.1728973E1,3.449653E2,3.6503628E1],"tree_param":{"num_deleted":"0","num_feature":"5","num_nodes":"31","size_leaf_vector":"0"}},{"base_weights":[-9.792286E-2,1.4425457E-1,-3.2555342E-1,8.35973E-2,3.1154642E-1,-3.7798953E-1,-6.110851E-2,2.3749727E-3,2.1745236E-1,2.5412878E-1,5.225251E-1,-4.1289175E-1,-5.3405862E-2,-1.6032441E-1,4.3833977E-1,1.0404243E-2,-8.230392E-3,1.709398E-2,5.175178E-2,6.308054E-3,3.0555159E-2,6.059892E-2,-1.33906035E-2,-2.1261156E-2,-4.6962585E-2,9.588395E-2,-7.83584E-3,-7.700787E-3,-6.1540734E-2,1.1140355E-1,2.0046076E-2],"categories":[0,3,4,5,9,10,2,6,1,3,4,9,10,3,4,5,9,10,9,10,0,1,2,4,5,6,7,8,10],"categories_nodes":[0,7,10,11,12,13,14],"categories_segments":[0,6,8,9,13,18,20],"categories_sizes":[6,2,1,4,5,2,9],"default_left":[0,0,0,0,0,0,0,0,0,0,0,0,0,0,0,0,0,0,0,0,0,0,0,0,0,0,0,0,0,0,0],"id":7,"left_children":[1,3,5,7,9,11,13,15,17,19,21,23,25,27,29,-1,-1,-1,-1,-1,-1,-1,-1,-1,-1,-1,-1,-1,-1,-1,-1],"loss_changes":[1.0921903E3,9.738641E1,1.4159143E2,7.661E1,3.080745E1,9.652771E1,8.3872284E1,3.777234E1,3.7051643E1,1.972409E1,2.9965485E1,8.7335815E1,2.1003963E1,5.3475193E1,4.486901E1,0E0,0E0,0E0,0E0,0E0,0E0,0E0,0E0,0E0,0E0,0E0,0E0,0E0,0E0,0E0,0E0],"parents":[2147483647,0,0,1,1,2,2,3,3,4,4,5,5,6,6,7,7,8,8,9,9,10,10,11,11,12,12,13,13,14,14],"right_children":[2,4,6,8,10,12,14,16,18,20,22,24,26,28,30,-1,-1,-1,-1,-1,-1,-1,-1,-1,-1,-1,-1,-1,-1,-1,-1],"split_conditions":[NaN,7.5376886E-1,8.008298E-1,4.5364416E-1,6.086539E-1,7.381681E-1,2.3453964E-1,NaN,8.8382924E-1,5.6532747E-1,NaN,NaN,NaN,NaN,NaN,1.0404243E-2,-8.230392E-3,1.709398E-2,5.175178E-2,6.308054E-3,3.0555159E-2,6.059892E-2,-1.33906035E-2,-2.1261156E-2,-4.6962585E-2,9.588395E-2,-7.83584E-3,-7.700787E-3,-6.1540734E-2,1.1140355E-1,2.0046076E-2],"split_indices":[3,4,4,0,0,0,1,3,2,2,3,3,3,3,3,0,0,0,0,0,0,0,0,0,0,0,0,0,0,0,0],"split_type":[1,0,0,0,0,0,0,1,0,0,1,1,1,1,1,0,0,0,0,0,0,0,0,0,0,0,0,0,0,0,0],"sum_hessian":[1.9810412E4,9.598685E3,1.0211729E4,7.045575E3,2.5531091E3,8.521576E3,1.690152E3,4.385501E3,2.6600745E3,2.0086592E3,5.444501E2,7.693977E3,8.2759906E2,1.4106116E3,2.795404E2,1.992741E3,2.39276E3,2.3044377E3,3.5563672E2,4.2646475E2,1.5821943E3,4.8310135E2,6.134869E1,1.6994397E3,5.9945376E3,1.900969E1,8.085894E2,1.1933098E3,2.1730183E2,7.182843E1,2.0771198E2],"tree_param":{"num_deleted":"0","num_feature":"5","num_nodes":"31","size_leaf_vector":"0"}},{"base_weights":[-9.363578E-2,7.850655E-2,-3.5729638E-1,1.6375141E-2,3.050086E-1,-3.9091733E-1,7.4133314E-2,1.4987327E-1,-4.8862338E-2,3.689478E-1,2.289314E-2,-4.305142E-1,-1.3121295E-1,3.5373676E-1,-4.7147904E-2,4.7251694E-2,5.477555E-3,-7.849482E-3,1.4226565E-2,2.9761836E-2,6.0595747E-2,-1.5338117E-2,3.9583083E-2,-4.850334E-2,-2.5431378E-2,-1.8750181E-2,2.4304809E-2,-3.6457915E-2,1.14604235E-1,1.9365396E-2,-4.47668E-2],"categories":[3,4,9,10,1,2,5,6,0,3,4,5,9,10,0,1,2,4,5,6,7,8,10],"categories_nodes":[0,3,4,6],"categories_segments":[0,4,8,14],"categories_sizes":[4,4,6,9],"default_left":[0,0,0,0,0,0,0,0,0,0,0,0,0,0,0,0,0,0,0,0,0,0,0,0,0,0,0,0,0,0,0],"id":8,"left_children":[1,3,5,7,9,11,13,15,17,19,21,23,25,27,29,-1,-1,-1,-1,-1,-1,-1,-1,-1,-1,-1,-1,-1,-1,-1,-1],"loss_changes":[8.910632E2,1.6715422E2,1.12512634E2,8.119571E1,4.611229E1,7.392615E1,1.9056652E1,9.387535E1,3.548155E1,3.50571E1,3.1187109E1,5.9839966E1,2.0126972E1,9.7159424E1,3.7940975E1,0E0,0E0,0E0,0E0,0E0,0E0,0E0,0E0,0E0,0E0,0E0,0E0,0E0,0E0,0E0,0E0],"parents":[2147483647,0,0,1,1,2,2,3,3,4,4,5,5,6,6,7,7,8,8,9,9,10,10,11,11,12,12,13,13,14,14],"right_children":[2,4,6,8,10,12,14,16,18,20,22,24,26,28,30,-1,-1,-1,-1,-1,-1,-1,-1,-1,-1,-1,-1,-1,-1,-1,-1],"split_conditions":[NaN,1.3447426E-1,1.7591609E-1,NaN,NaN,6.906405E-1,NaN,6.1473584E-1,8.825993E-1,5.903036E-1,9.6646345E-1,7.8639627E-1,7.774869E-1,6.717766E-1,4.5071325E-1,4.7251694E-2,5.477555E-3,-7.849482E-3,1.4226565E-2,2.9761836E-2,6.0595747E-2,-1.5338117E-2,3.9583083E-2,-4.850334E-2,-2.5431378E-2,-1.8750181E-2,2.4304809E-2,-3.6457915E-2,1.14604235E-1,1.9365396E-2,-4.47668E-2],"split_indices":[3,1,1,3,3,0,3,2,2,0,4,2,4,2,0,0,0,0,0,0,0,0,0,0,0,0,0,0,0,0,0],"split_type":[1,0,0,1,1,0,1,0,0,0,0,0,0,0,0,0,0,0,0,0,0,0,0,0,0,0,0,0,0,0,0],"sum_hessian":[1.963088E4,1.18771E4,7.7537817E3,9.32127E3,2.55583E3,7.1933066E3,5.6047485E2,3.059399E3,6.2618706E3,2.0833481E3,4.724821E2,6.2410786E3,9.5222833E2,1.6898282E2,3.9149203E2,6.9556055E2,2.3638384E3,5.4218555E3,8.400151E2,1.6031318E3,4.8021622E2,3.2123468E2,1.5124742E2,4.7649688E3,1.4761095E3,8.2817053E2,1.2405784E2,8.891292E1,8.00699E1,2.448182E2,1.4667383E2],"tree_param":{"num_deleted":"0","num_feature":"5","num_nodes":"31","size_leaf_vector":"0"}},{"base_weights":[-7.685729E-2,1.0370289E-1,-2.6052868E-1,-1.7501768E-2,2.0065816E-1,-2.9245743E-1,2.5797307E-1,1.0755988E-1,-8.687167E-2,2.8636932E-1,1.16121076E-1,-3.3909982E-1,-1.5139407E-1,2.8858137E-1,-1.0238286E-1,4.281052E-2,3.7407174E-3,-2.0720798E-3,-1.681281E-2,1.7287685E-2,5.384996E-2,-2.6005775E-2,1.5275273E-2,-2.090706E-2,-3.853664E-2,3.878898E-2,-1.8250128E-2,-8.057332E-3,3.8911786E-2],"categories":[3,4,5,9,10,1,2,6,8,0,3,4,5,6,9,10],"categories_nodes":[0,3,4],"categories_segments":[0,5,9],"categories_sizes":[5,4,7],"default_left":[0,0,0,0,0,0,0,0,0,0,0,0,0,0,0,0,0,0,0,0,0,0,0,0,0,0,0,0,0],"id":9,"left_children":[1,3,5,7,9,11,13,15,17,19,21,23,25,27,-1,-1,-1,-1,-1,-1,-1,-1,-1,-1,-1,-1,-1,-1,-1],"loss_changes":[6.500154E2,1.1615588E2,1.6092914E2,3.8126457E1,3.9756653E1,6.0171875E1,2.2428844E1,3.524434E1,1.5190109E1,7.791435E1,3.816015E1,4.1296875E1,3.8256046E1,2.0509247E1,0E0,0E0,0E0,0E0,0E0,0E0,0E0,0E0,0E0,0E0,0E0,0E0,0E0,0E0,0E0],"parents":[2147483647,0,0,1,1,2,2,3,3,4,4,5,5,6,6,7,7,8,8,9,9,10,10,11,11,12,12,13,13],"right_children":[2,4,6,8,10,12,14,16,18,20,22,24,26,28,-1,-1,-1,-1,-1,-1,-1,-1,-1,-1,-1,-1,-1,-1,-1],"split_conditions":[NaN,6.356172E-2,1.954855E-1,NaN,NaN,9.747127E-2,8.798971E-1,6.1860484E-1,5.452436E-1,7.6061213E-1,6.2545353E-1,5.169492E-1,6.372549E-1,6.676667E-1,-1.0238286E-1,4.281052E-2,3.7407174E-3,-2.0720798E-3,-1.681281E-2,1.7287685E-2,5.384996E-2,-2.6005775E-2,1.5275273E-2,-2.090706E-2,-3.853664E-2,3.878898E-2,-1.8250128E-2,-8.057332E-3,3.8911786E-2],"split_indices":[3,1,1,3,3,1,2,2,4,2,2,4,4,2,0,0,0,0,0,0,0,0,0,0,0,0,0,0,0],"split_type":[1,0,0,1,1,0,0,0,0,0,0,0,0,0,0,0,0,0,0,0,0,0,0,0,0,0,0,0,0],"sum_hessian":[1.9598365E4,9.883106E3,9.71526E3,4.392643E3,5.490463E3,9.152119E3,5.6314087E2,1.5670245E3,2.8256184E3,2.7251138E3,2.7653494E3,6.8768833E3,2.275236E3,5.507639E2,1.2376902E1,2.8045462E2,1.28657E3,1.5582788E3,1.2673397E3,1.880377E3,8.4473676E2,2.4484813E2,2.5205012E3,1.8061984E3,5.070685E3,1.2345819E2,2.1517778E3,1.1793243E2,4.328315E2],"tree_param":{"num_deleted":"0","num_feature":"5","num_nodes":"29","size_leaf_vector":"0"}},{"base_weights":[-7.397816E-2,6.674863E-2,-2.780067E-1,1.9446326E-2,2.701367E-1,-3.4279346E-1,-9.3125194E-2,-3.4905996E-2,1.0666506E-1,2.3705457E-1,6.5438426E-1,-2.409894E-1,-4.430957E-1,-1.20111115E-1,6.125002E-1,1.5868407E-4,-3.4081668E-2,3.214801E-2,3.3162006E-3,6.0429472E-2,1.9264245E-2,3.579696E-2,9.199318E-2,-1.2586357E-2,-8.518405E-2,1.4649904E-2,-4.902754E-2,4.0310964E-2,-1.6244076E-2,7.916092E-2,-9.8216236E-2],"categories":[0,3,4,9,10,0,1,2,3,4,5,6,8,9,10,9,0,3,4,0,4],"categories_nodes":[0,8,11,12,13],"categories_segments":[0,5,15,16,19],"categories_sizes":[5,10,1,3,2],"default_left":[0,0,0,0,0,0,0,0,0,0,0,0,0,0,0,0,0,0,0,0,0,0,0,0,0,0,0,0,0,0,0],"id":10,"left_children":[1,3,5,7,9,11,13,15,17,19,21,23,25,27,29,-1,-1,-1,-1,-1,-1,-1,-1,-1,-1,-1,-1,-1,-1,-1,-1],"loss_changes":[5.569121E2,1.104338E2,9.480139E1,4.415883E1,2.7377579E1,5.9756348E1,3.922121E1,6.40695E1,5.6456596E1,3.2434937E1,1.3140495E1,2.0465485E2,8.218292E1,4.3939514E1,2.2453674E1,0E0,0E0,0E0,0E0,0E0,0E0,0E0,0E0,0E0,0E0,0E0,0E0,0E0,0E0,0E0,0E0],"parents":[2147483647,0,0,1,1,2,2,3,3,4,4,5,5,6,6,7,7,8,8,9,9,10,10,11,11,12,12,13,13,14,14],"right_children":[2,4,6,8,10,12,14,16,18,20,22,24,26,28,30,-1,-1,-1,-1,-1,-1,-1,-1,-1,-1,-1,-1,-1,-1,-1,-1],"split_conditions":[NaN,1.42054E-1,7.786069E-1,7.617403E-1,7.718531E-1,6.6006863E-1,9.782178E-1,7.3581535E-1,NaN,6.0947335E-1,7.7570117E-1,NaN,NaN,NaN,7.0222366E-1,1.5868407E-4,-3.4081668E-2,3.214801E-2,3.3162006E-3,6.0429472E-2,1.9264245E-2,3.579696E-2,9.199318E-2,-1.2586357E-2,-8.518405E-2,1.4649904E-2,-4.902754E-2,4.0310964E-2,-1.6244076E-2,7.916092E-2,-9.8216236E-2],"split_indices":[3,1,2,2,0,2,4,2,3,2,2,3,3,3,0,0,0,0,0,0,0,0,0,0,0,0,0,0,0,0,0],"split_type":[1,0,0,0,0,0,0,0,1,0,0,1,1,1,0,0,0,0,0,0,0,0,0,0,0,0,0,0,0,0,0],"sum_hessian":[1.939466E4,1.1478289E4,7.9163706E3,9.313361E3,2.1649277E3,5.861508E3,2.0548625E3,5.7381216E3,3.57524E3,1.9948004E3,1.7012729E2,2.9106648E3,2.9508433E3,1.9799703E3,7.489216E1,5.12745E3,6.106713E2,9.106022E2,2.664638E3,2.1385391E2,1.7809465E3,8.150086E1,8.862643E1,2.4501047E3,4.605601E2,2.1847684E2,2.7323665E3,1.4755655E2,1.8324138E3,6.778256E1,7.1095977E0],"tree_param":{"num_deleted":"0","num_feature":"5","num_nodes":"31","size_leaf_vector":"0"}},{"base_weights":[-5.5711273E-2,-1.1617081E-1,9.2691734E-2,-1.6443922E-1,4.8376437E-2,3.6138743E-2,2.4567677E-1,6.725643E-3,-3.2795143E-1,2.2340146E-1,-8.545032E-2,1.7101935E-1,-2.500427E-1,5.4165184E-1,1.6260388E-1,-1.8764874E-3,2.3587745E-2,-3.8784485E-2,-2.3999741E-2,-4.0296502E-2,2.4792952E-2,-1.4576331E-2,8.515357E-3,4.3939713E-2,1.3082531E-2,-2.7419487E-2,7.663312E-2,8.826066E-2,3.2961115E-2,4.7563013E-2,9.705035E-3],"categories":[3,4,5,9,10,1,3,4,5,9,10,0,4,9,10,0,2,3,4,5,6,8,10,0,3,4,5,6,7,8,9,10],"categories_nodes":[3,4,5,6,11],"categories_segments":[0,5,11,15,23],"categories_sizes":[5,6,4,8,9],"default_left":[0,0,0,0,0,0,0,0,0,0,0,0,0,0,0,0,0,0,0,0,0,0,0,0,0,0,0,0,0,0,0],"id":11,"left_children":[1,3,5,7,9,11,13,15,17,19,21,23,25,27,29,-1,-1,-1,-1,-1,-1,-1,-1,-1,-1,-1,-1,-1,-1,-1,-1],"loss_changes":[1.7493541E2,1.1003342E2,4.882206E1,2.997808E2,7.363114E1,1.5915045E2,3.7361633E1,3.057779E1,2.8764587E1,2.1025543E1,1.8345345E1,3.016957E1,3.263259E1,2.3811295E1,2.4387774E1,0E0,0E0,0E0,0E0,0E0,0E0,0E0,0E0,0E0,0E0,0E0,0E0,0E0,0E0,0E0,0E0],"parents":[2147483647,0,0,1,1,2,2,3,3,4,4,5,5,6,6,7,7,8,8,9,9,10,10,11,11,12,12,13,13,14,14],"right_children":[2,4,6,8,10,12,14,16,18,20,22,24,26,28,30,-1,-1,-1,-1,-1,-1,-1,-1,-1,-1,-1,-1,-1,-1,-1,-1],"split_conditions":[1.0562611E-1,5.785926E-1,8.081213E-1,NaN,NaN,NaN,NaN,8.8382924E-1,3.392674E-1,4.9027917E-1,7.694471E-1,NaN,8.7243456E-1,8.3830464E-1,8.2182056E-1,-1.8764874E-3,2.3587745E-2,-3.8784485E-2,-2.3999741E-2,-4.0296502E-2,2.4792952E-2,-1.4576331E-2,8.515357E-3,4.3939713E-2,1.3082531E-2,-2.7419487E-2,7.663312E-2,8.826066E-2,3.2961115E-2,4.7563013E-2,9.705035E-3],"split_indices":[1,0,2,3,3,3,3,2,0,2,2,3,0,2,2,0,0,0,0,0,0,0,0,0,0,0,0,0,0,0,0],"split_type":[0,0,0,1,1,1,1,0,0,0,0,1,0,0,0,0,0,0,0,0,0,0,0,0,0,0,0,0,0,0,0],"sum_hessian":[1.9494908E4,1.3851863E4,5.6430454E3,1.0710143E4,3.1417205E3,4.120926E3,1.5221199E3,5.233092E3,5.477051E3,1.3610305E3,1.7806901E3,2.8011255E3,1.3198002E3,3.3238095E2,1.1897389E3,4.710069E3,5.230232E2,3.2562527E3,2.220798E3,5.0707172E1,1.3103234E3,1.3157006E3,4.6498944E2,3.6357605E2,2.4375496E3,1.2898789E3,2.9921238E1,1.2623563E2,2.0614534E2,2.0492778E2,9.848111E2],"tree_param":{"num_deleted":"0","num_feature":"5","num_nodes":"31","size_leaf_vector":"0"}},{"base_weights":[-5.8992583E-2,9.0663694E-2,-2.0400675E-1,4.8441686E-2,2.1594205E-1,-2.396021E-1,-1.0437861E-1,1.3609515E-1,-3.5143755E-3,1.5354884E-1,3.249959E-1,-1.063173E-1,-2.9135504E-1,-1.373285E-1,3.0599117E-1,-4.5598906E-2,1.5981728E-2,-8.297883E-3,8.141441E-3,2.1101896E-2,-2.4549323E-3,6.0826726E-2,2.6389126E-2,-9.8364055E-3,-1.7290464E-1,-3.1710275E-2,-1.139685E-2,-1.2526008E-2,-1.1261697E-1,1.071623E-1,1.283405E-2],"categories":[0,3,4,5,9,10,0,1,2,3,4,5,6,9,10,3,4,9,0,3,4,5,6,7,9,10,0,1,2,3,4,5,6,7,8,10],"categories_nodes":[0,3,5,10,14],"categories_segments":[0,6,15,18,26],"categories_sizes":[6,9,3,8,10],"default_left":[0,0,0,0,0,0,0,0,0,0,0,0,0,0,0,0,0,0,0,0,0,0,0,0,0,0,0,0,0,0,0],"id":12,"left_children":[1,3,5,7,9,11,13,15,17,19,21,23,25,27,29,-1,-1,-1,-1,-1,-1,-1,-1,-1,-1,-1,-1,-1,-1,-1,-1],"loss_changes":[4.193213E2,5.028662E1,3.477426E1,3.2395058E1,1.6257202E1,4.98338E1,3.4993282E1,3.7254585E1,3.015372E1,1.5627693E1,1.4920723E1,2.5944397E1,2.3743713E1,2.8421295E1,2.6035683E1,0E0,0E0,0E0,0E0,0E0,0E0,0E0,0E0,0E0,0E0,0E0,0E0,0E0,0E0,0E0,0E0],"parents":[2147483647,0,0,1,1,2,2,3,3,4,4,5,5,6,6,7,7,8,8,9,9,10,10,11,11,12,12,13,13,14,14],"right_children":[2,4,6,8,10,12,14,16,18,20,22,24,26,28,30,-1,-1,-1,-1,-1,-1,-1,-1,-1,-1,-1,-1,-1,-1,-1,-1],"split_conditions":[NaN,7.622549E-1,7.786069E-1,NaN,1.8845898E-1,NaN,8.574766E-1,1.1409225E-2,5.6534242E-2,8.915095E-1,NaN,1.2677345E0,8.361045E-1,8.3189654E-1,NaN,-4.5598906E-2,1.5981728E-2,-8.297883E-3,8.141441E-3,2.1101896E-2,-2.4549323E-3,6.0826726E-2,2.6389126E-2,-9.8364055E-3,-1.7290464E-1,-3.1710275E-2,-1.139685E-2,-1.2526008E-2,-1.1261697E-1,1.071623E-1,1.283405E-2],"split_indices":[3,4,2,3,1,3,4,1,1,4,3,4,4,4,3,0,0,0,0,0,0,0,0,0,0,0,0,0,0,0,0],"split_type":[1,0,0,1,0,1,0,0,0,0,1,0,0,0,1,0,0,0,0,0,0,0,0,0,0,0,0,0,0,0,0],"sum_hessian":[1.9319682E4,9.507849E3,9.811834E3,7.112232E3,2.395617E3,7.2279956E3,2.5838384E3,2.6462336E3,4.465998E3,1.525333E3,8.7028406E2,2.0224418E3,5.2055537E3,2.3924097E3,1.9142885E2,1.01236435E2,2.544997E3,2.3072346E3,2.1587637E3,1.1530673E3,3.7226572E2,1.5283078E2,7.1745325E2,2.0136333E3,8.808512E0,4.5450503E3,6.6050305E2,2.3646763E3,2.7733274E1,3.5104534E1,1.5632433E2],"tree_param":{"num_deleted":"0","num_feature":"5","num_nodes":"31","size_leaf_vector":"0"}},{"base_weights":[-5.0231073E-2,8.201305E-2,-1.7831798E-1,-1.5798151E-2,1.5472022E-1,-2.8046176E-1,-1.0795441E-1,-6.150353E-2,2.1663105E-1,-2.6752168E-1,1.7091265E-1,-3.376925E-1,-1.597712E-1,-1.2482866E-1,3.4040254E-1,-1.3153873E-2,6.282089E-3,3.2192048E-2,-1.3301201E-2,-3.1481635E-2,6.8380095E-2,1.4290589E-2,3.738113E-2,-2.6916284E-2,-5.9916347E-2,-2.531296E-2,8.388179E-3,-1.3964513E-2,2.2629265E-2,-4.0186364E-3,6.799163E-2],"categories":[0,3,4,5,9,10],"categories_nodes":[0],"categories_segments":[0],"categories_sizes":[6],"default_left":[0,0,0,0,0,0,0,0,0,0,0,0,0,0,0,0,0,0,0,0,0,0,0,0,0,0,0,0,0,0,0],"id":13,"left_children":[1,3,5,7,9,11,13,15,17,19,21,23,25,27,29,-1,-1,-1,-1,-1,-1,-1,-1,-1,-1,-1,-1,-1,-1,-1,-1],"loss_changes":[3.284771E2,6.785724E1,7.076895E1,4.3242363E1,3.7466507E1,2.7694916E1,4.4183533E1,2.962421E1,2.4668219E1,9.327491E0,2.9902893E1,4.8652832E1,2.945905E1,2.928714E1,2.740607E1,0E0,0E0,0E0,0E0,0E0,0E0,0E0,0E0,0E0,0E0,0E0,0E0,0E0,0E0,0E0,0E0],"parents":[2147483647,0,0,1,1,2,2,3,3,4,4,5,5,6,6,7,7,8,8,9,9,10,10,11,11,12,12,13,13,14,14],"right_children":[2,4,6,8,10,12,14,16,18,20,22,24,26,28,30,-1,-1,-1,-1,-1,-1,-1,-1,-1,-1,-1,-1,-1,-1,-1,-1],"split_conditions":[NaN,6.075E-1,3.15643E-1,8.8382924E-1,4.8100016E-1,7.6061213E-1,1.0235294E0,4.623457E-1,9.100327E-1,8.259162E-1,7.0222366E-1,7.133878E-1,6.52381E-1,8.6112016E-1,6.729572E-1,-1.3153873E-2,6.282089E-3,3.2192048E-2,-1.3301201E-2,-3.1481635E-2,6.8380095E-2,1.4290589E-2,3.738113E-2,-2.6916284E-2,-5.9916347E-2,-2.531296E-2,8.388179E-3,-1.3964513E-2,2.2629265E-2,-4.0186364E-3,6.799163E-2],"split_indices":[3,4,0,2,2,2,4,0,2,0,0,2,4,0,2,0,0,0,0,0,0,0,0,0,0,0,0,0,0,0,0],"split_type":[1,0,0,0,0,0,0,0,0,0,0,0,0,0,0,0,0,0,0,0,0,0,0,0,0,0,0,0,0,0,0],"sum_hessian":[1.9390201E4,9.540456E3,9.849744E3,4.0682803E3,5.4721763E3,4.0163677E3,5.8333765E3,3.4003613E3,6.6791895E2,2.015274E2,5.270649E3,2.7232302E3,1.2931375E3,5.622491E3,2.1088498E2,2.175044E3,1.2253174E3,5.133969E2,1.5452202E2,1.926204E2,8.906987E0,4.632864E3,6.377851E2,2.1593179E3,5.639124E2,9.348863E2,3.582511E2,5.39542E3,2.2707141E2,9.984365E1,1.11041336E2],"tree_param":{"num_deleted":"0","num_feature":"5","num_nodes":"31","size_leaf_vector":"0"}},{"base_weights":[-4.216188E-2,-6.40575E-2,2.1651575E-1,4.4974625E-2,-1.7359473E-1,2.4350405E-1,-8.676633E-1,2.0110454E-2,2.499474E-1,-2.799199E-1,-9.859944E-2,6.049008E-1,2.076935E-1,-1.2552161E0,7.906387E-2,7.622102E-3,-3.730841E-3,5.219216E-2,1.0408118E-2,-1.27853025E-2,-3.5518616E-2,4.3510864E-3,-1.1988453E-2,7.674314E-2,-1.3172103E-1,2.2385253E-2,-2.6127582E-2,-1.6391085E-1,-4.2013872E-2],"categories":[3,4,5,9,10,0,10,0,6,0,1,2,3,4,5,6,8,9,10,4,9,9],"categories_nodes":[1,2,7,8,9,11],"categories_segments":[0,5,7,9,19,21],"categories_sizes":[5,2,2,10,2,1],"default_left":[0,0,0,0,0,0,0,0,0,0,0,0,0,0,0,0,0,0,0,0,0,0,0,0,0,0,0,0,0],"id":14,"left_children":[1,3,5,7,9,11,13,15,17,19,21,23,25,27,-1,-1,-1,-1,-1,-1,-1,-1,-1,-1,-1,-1,-1,-1,-1],"loss_changes":[1.09030685E2,2.1195374E2,4.4168564E1,4.5325455E1,7.056415E1,1.8854652E1,2.4583376E1,2.5562513E1,3.811524E1,4.18573E1,1.5712582E1,4.2153645E1,1.018195E1,8.973644E0,0E0,0E0,0E0,0E0,0E0,0E0,0E0,0E0,0E0,0E0,0E0,0E0,0E0,0E0,0E0],"parents":[2147483647,0,0,1,1,2,2,3,3,4,4,5,5,6,6,7,7,8,8,9,9,10,10,11,11,12,12,13,13],"right_children":[2,4,6,8,10,12,14,16,18,20,22,24,26,28,-1,-1,-1,-1,-1,-1,-1,-1,-1,-1,-1,-1,-1,-1,-1],"split_conditions":[1.8845898E-1,NaN,NaN,7.1432483E-1,3.15643E-1,6.1157197E-1,7.9409605E-1,NaN,NaN,NaN,1.833266E-2,NaN,1.2677345E0,1.1705427E0,7.906387E-2,7.622102E-3,-3.730841E-3,5.219216E-2,1.0408118E-2,-1.27853025E-2,-3.5518616E-2,4.3510864E-3,-1.1988453E-2,7.674314E-2,-1.3172103E-1,2.2385253E-2,-2.6127582E-2,-1.6391085E-1,-4.2013872E-2],"split_indices":[1,3,3,0,0,2,2,3,3,3,1,3,4,4,0,0,0,0,0,0,0,0,0,0,0,0,0,0,0],"split_type":[0,1,1,0,0,0,0,1,1,1,0,1,0,0,0,0,0,0,0,0,0,0,0,0,0,0,0,0,0],"sum_hessian":[1.9246635E4,1.7745344E4,1.501292E3,8.893472E3,8.851872E3,1.4655848E3,3.570718E1,7.9323394E3,9.611322E2,3.66006E3,5.191812E3,1.3069826E2,1.3348866E3,2.914008E1,6.5670986E0,4.0117097E3,3.9206296E3,3.3462698E2,6.2650525E2,1.2126794E3,2.4473806E3,6.7618726E2,4.515625E3,1.2106218E2,9.636085E0,1.2909283E3,4.395816E1,1.930334E1,9.83674E0],"tree_param":{"num_deleted":"0","num_feature":"5","num_nodes":"29","size_leaf_vector":"0"}},{"base_weights":[-3.9514616E-2,5.2708134E-2,-1.7701982E-1,-2.679861E-3,1.4902295E-1,-1.878483E-1,4.2832837E-1,-8.444419E-2,1.222354E-1,2.2923416E-1,8.4195085E-2,-3.4453994E-1,-1.4212108E-1,6.134033E-1,-9.9448615E-1,-1.8730689E-2,-4.017213E-3,-2.384671E-2,1.3458431E-2,3.66482E-2,8.420557E-3,-2.1508064E-2,2.1866554E-2,-4.169913E-2,-1.6124668E-2,-1.7472723E-2,2.5156287E-3,1.0783974E-1,3.953156E-2,-3.446871E-2,-1.735001E-1],"categories":[0,3,4,9,10,0,3,4,5,6,8,9,10,0,1,2,4,5,6,7,8,10],"categories_nodes":[0,4,13],"categories_segments":[0,5,13],"categories_sizes":[5,8,9],"default_left":[0,0,0,0,0,0,0,0,0,0,0,0,0,0,0,0,0,0,0,0,0,0,0,0,0,0,0,0,0,0,0],"id":15,"left_children":[1,3,5,7,9,11,13,15,17,19,21,23,25,27,29,-1,-1,-1,-1,-1,-1,-1,-1,-1,-1,-1,-1,-1,-1,-1,-1],"loss_changes":[2.4335486E2,6.127906E1,5.0578613E1,7.450716E1,2.1788956E1,5.418402E1,3.6340416E1,2.0070564E1,1.2886852E1,3.7270576E1,9.345169E1,2.2630432E1,3.1971352E1,1.1812641E1,7.1008368E0,0E0,0E0,0E0,0E0,0E0,0E0,0E0,0E0,0E0,0E0,0E0,0E0,0E0,0E0,0E0,0E0],"parents":[2147483647,0,0,1,1,2,2,3,3,4,4,5,5,6,6,7,7,8,8,9,9,10,10,11,11,12,12,13,13,14,14],"right_children":[2,4,6,8,10,12,14,16,18,20,22,24,26,28,30,-1,-1,-1,-1,-1,-1,-1,-1,-1,-1,-1,-1,-1,-1,-1,-1],"split_conditions":[NaN,6.945813E-1,2.544817E-1,4.479546E-1,NaN,2.1513273E-1,7.0828027E-1,7.033232E-1,5.426071E-1,6.3290274E-1,6.663369E-1,7.786069E-1,8.008298E-1,NaN,7.629172E-1,-1.8730689E-2,-4.017213E-3,-2.384671E-2,1.3458431E-2,3.66482E-2,8.420557E-3,-2.1508064E-2,2.1866554E-2,-4.169913E-2,-1.6124668E-2,-1.7472723E-2,2.5156287E-3,1.0783974E-1,3.953156E-2,-3.446871E-2,-1.735001E-1],"split_indices":[3,4,1,0,3,0,0,2,2,2,2,2,4,3,2,0,0,0,0,0,0,0,0,0,0,0,0,0,0,0,0],"split_type":[1,0,0,0,1,0,0,0,0,0,0,0,0,1,0,0,0,0,0,0,0,0,0,0,0,0,0,0,0,0,0],"sum_hessian":[1.9188607E4,1.1485839E4,7.7027686E3,7.292878E3,4.192961E3,7.5680806E3,1.3468814E2,4.407945E3,2.884933E3,1.8729869E3,2.3199739E3,1.7081831E3,5.8598975E3,1.1968836E2,1.4999783E1,1.3253549E3,3.0825898E3,9.4892136E1,2.7900408E3,9.6152277E2,9.114641E2,7.1905493E2,1.600919E3,1.2233484E3,4.8483472E2,4.9039595E3,9.559378E2,3.695349E1,8.273487E1,8.769793E0,6.229991E0],"tree_param":{"num_deleted":"0","num_feature":"5","num_nodes":"31","size_leaf_vector":"0"}},{"base_weights":[-4.764774E-2,3.2690078E-2,-1.6747132E-1,-1.1256269E-1,7.125319E-2,-2.424454E-1,-7.630604E-2,2.5807944E-1,-1.3313183E-1,4.9391657E-2,2.54333E-1,-2.533187E-1,3.1695315E-1,-1.3007793E-1,5.016845E-2,3.577489E-2,-1.0595178E-1,-1.6838219E-2,1.0763028E-2,1.6693354E-2,-2.3858671E-4,1.3805834E-2,3.4916766E-2,-2.6657013E-2,1.0120205E-2,1.0122635E-1,2.3598269E-2,2.4342863E-2,-1.701711E-2,5.2847784E-2,2.4862887E-4],"categories":[0,3,4,9,10,0,1,3,4,5,6,8,9,10,0,1,2,3,4,5,6,7,8,10,0,1,2,3,4,5,6,7,8,10],"categories_nodes":[0,9,12,14],"categories_segments":[0,5,14,24],"categories_sizes":[5,9,10,10],"default_left":[0,0,0,0,0,0,0,0,0,0,0,0,0,0,0,0,0,0,0,0,0,0,0,0,0,0,0,0,0,0,0],"id":16,"left_children":[1,3,5,7,9,11,13,15,17,19,21,23,25,27,29,-1,-1,-1,-1,-1,-1,-1,-1,-1,-1,-1,-1,-1,-1,-1,-1],"loss_changes":[1.8308081E2,6.3784103E1,5.215587E1,1.8247784E1,3.5999935E1,2.5554962E1,2.3443277E1,1.6919415E1,1.9233212E1,4.8926903E1,1.05327835E1,1.9330109E1,4.281971E0,3.625688E1,2.3462433E1,0E0,0E0,0E0,0E0,0E0,0E0,0E0,0E0,0E0,0E0,0E0,0E0,0E0,0E0,0E0,0E0],"parents":[2147483647,0,0,1,1,2,2,3,3,4,4,5,5,6,6,7,7,8,8,9,9,10,10,11,11,12,12,13,13,14,14],"right_children":[2,4,6,8,10,12,14,16,18,20,22,24,26,28,30,-1,-1,-1,-1,-1,-1,-1,-1,-1,-1,-1,-1,-1,-1,-1,-1],"split_conditions":[NaN,3.158263E-2,6.815762E-2,8.09467E-3,1.9191569E-1,8.454639E-1,7.8639627E-1,5.7593125E-1,6.008772E-1,NaN,9.6646345E-1,7.136929E-1,NaN,7.348142E-2,NaN,3.577489E-2,-1.0595178E-1,-1.6838219E-2,1.0763028E-2,1.6693354E-2,-2.3858671E-4,1.3805834E-2,3.4916766E-2,-2.6657013E-2,1.0120205E-2,1.0122635E-1,2.3598269E-2,2.4342863E-2,-1.701711E-2,5.2847784E-2,2.4862887E-4],"split_indices":[3,1,1,1,1,2,2,4,4,3,4,4,3,1,3,0,0,0,0,0,0,0,0,0,0,0,0,0,0,0,0],"split_type":[1,0,0,0,0,0,0,0,0,1,0,0,1,0,1,0,0,0,0,0,0,0,0,0,0,0,0,0,0,0,0],"sum_hessian":[1.9017117E4,1.1384743E4,7.6323735E3,2.3880256E3,8.996717E3,4.187185E3,3.4451885E3,1.24950676E2,2.263075E3,8.0381523E3,9.585646E2,4.1078853E3,7.929983E1,2.4173848E3,1.0278037E3,1.1684076E2,8.109919E0,1.9743134E3,2.8876163E2,2.4573704E3,5.580782E3,4.3171014E2,5.2685443E2,3.9601106E3,1.4777449E2,7.071734E0,7.2228096E1,2.3384264E2,2.183542E3,9.225834E1,9.355454E2],"tree_param":{"num_deleted":"0","num_feature":"5","num_nodes":"31","size_leaf_vector":"0"}},{"base_weights":[-4.0790576E-2,-8.230246E-2,4.8437152E-2,8.620773E-3,-1.6978894E-1,6.306511E-2,-5.446492E-1,-1.4056361E-2,2.1472186E-1,-2.1672964E-1,-2.6332017E-2,2.4976412E-2,2.0293407E-1,-1.5745932E-1,-1.2377244E0,6.938308E-3,-7.359271E-3,2.5032083E-2,-7.541424E-2,-2.4277287E-2,-7.4582393E-3,-5.433767E-3,5.5823173E-2,8.284488E-3,-8.83386E-3,6.791012E-2,1.5956728E-2,-1.6570145E-1,1.3242451E-2,-1.408439E-1,-5.7937678E-2],"categories":[3,4,5,9,10,0,10,1,2,6,3,4,9,0,1,4,5,6,7,9,10],"categories_nodes":[1,2,7,11,12],"categories_segments":[0,5,7,10,13],"categories_sizes":[5,2,3,3,8],"default_left":[0,0,0,0,0,0,0,0,0,0,0,0,0,0,0,0,0,0,0,0,0,0,0,0,0,0,0,0,0,0,0],"id":17,"left_children":[1,3,5,7,9,11,13,15,17,19,21,23,25,27,29,-1,-1,-1,-1,-1,-1,-1,-1,-1,-1,-1,-1,-1,-1,-1,-1],"loss_changes":[7.040422E1,1.0318796E2,5.23961E1,2.9737669E1,4.4512497E1,3.1379381E1,3.8818264E1,2.848148E1,2.1941336E1,1.842131E1,2.6731808E1,3.037685E1,2.5925865E1,4.1263054E1,5.023941E0,0E0,0E0,0E0,0E0,0E0,0E0,0E0,0E0,0E0,0E0,0E0,0E0,0E0,0E0,0E0,0E0],"parents":[2147483647,0,0,1,1,2,2,3,3,4,4,5,5,6,6,7,7,8,8,9,9,10,10,11,11,12,12,13,13,14,14],"right_children":[2,4,6,8,10,12,14,16,18,20,22,24,26,28,30,-1,-1,-1,-1,-1,-1,-1,-1,-1,-1,-1,-1,-1,-1,-1,-1],"split_conditions":[9.921866E-2,NaN,NaN,8.8382924E-1,5.632709E-1,1.954855E-1,1.5635982E-1,NaN,9.347467E-2,6.6908216E-1,7.46E-1,NaN,NaN,7.774869E-1,1.1705427E0,6.938308E-3,-7.359271E-3,2.5032083E-2,-7.541424E-2,-2.4277287E-2,-7.4582393E-3,-5.433767E-3,5.5823173E-2,8.284488E-3,-8.83386E-3,6.791012E-2,1.5956728E-2,-1.6570145E-1,1.3242451E-2,-1.408439E-1,-5.7937678E-2],"split_indices":[1,3,3,2,0,1,1,3,1,4,4,3,3,4,4,0,0,0,0,0,0,0,0,0,0,0,0,0,0,0,0],"split_type":[0,1,1,0,0,0,0,1,0,0,0,1,1,0,0,0,0,0,0,0,0,0,0,0,0,0,0,0,0,0,0],"sum_hessian":[1.900549E4,1.2971001E4,6.0344893E3,6.3610107E3,6.60999E3,5.8901084E3,1.4438072E2,5.731329E3,6.2968164E2,4.979976E3,1.6300142E3,4.630361E3,1.2597474E3,9.341896E1,5.096177E1,2.3865059E3,3.344823E3,6.0808057E2,2.1601055E1,4.2082603E3,7.717158E2,1.5563582E3,7.365596E1,3.0652483E3,1.5651125E3,1.0393059E2,1.1558169E3,1.4369595E1,7.904936E1,3.956334E1,1.1398431E1],"tree_param":{"num_deleted":"0","num_feature":"5","num_nodes":"31","size_leaf_vector":"0"}},{"base_weights":[-2.3442963E-2,4.733424E-2,-1.3918006E-1,2.7959247E-4,1.3427314E-1,-2.1159887E-1,-8.1580676E-2,7.507932E-2,-5.5081964E-2,1.1208342E-1,3.1389457E-1,-2.6622647E-1,-7.248325E-2,-4.4078216E-2,-2.2800489E-1,4.1005574E-3,3.4872778E-2,-3.126295E-3,-4.094685E-2,-1.15167815E-2,1.3084707E-2,8.545875E-2,2.4590276E-2,-1.3525516E-2,-4.0447287E-2,3.0259153E-2,-2.4631457E-2,5.8889396E-2,-5.932172E-3,-3.3106737E-2,-4.22197E-3],"categories":[0,3,4,9,5,6,10,0,3],"categories_nodes":[0,3,6],"categories_segments":[0,4,7],"categories_sizes":[4,3,2],"default_left":[0,0,0,0,0,0,0,0,0,0,0,0,0,0,0,0,0,0,0,0,0,0,0,0,0,0,0,0,0,0,0],"id":18,"left_children":[1,3,5,7,9,11,13,15,17,19,21,23,25,27,29,-1,-1,-1,-1,-1,-1,-1,-1,-1,-1,-1,-1,-1,-1,-1,-1],"loss_changes":[1.5603401E2,4.8354744E1,3.0133667E1,3.176689E1,1.650924E1,2.431105E1,2.210697E1,3.0408936E1,3.719944E1,1.5775219E1,1.6548008E1,4.1562073E1,5.9020252E1,3.0984852E1,1.5706085E1,0E0,0E0,0E0,0E0,0E0,0E0,0E0,0E0,0E0,0E0,0E0,0E0,0E0,0E0,0E0,0E0],"parents":[2147483647,0,0,1,1,2,2,3,3,4,4,5,5,6,6,7,7,8,8,9,9,10,10,11,11,12,12,13,13,14,14],"right_children":[2,4,6,8,10,12,14,16,18,20,22,24,26,28,30,-1,-1,-1,-1,-1,-1,-1,-1,-1,-1,-1,-1,-1,-1,-1,-1],"split_conditions":[NaN,9.747127E-2,3.3413926E-1,NaN,2.3453964E-1,7.786069E-1,NaN,8.1052625E-1,6.945813E-1,5.7568574E-1,6.075136E-1,6.676667E-1,7.9766124E-1,5.5093014E-1,6.2545353E-1,4.1005574E-3,3.4872778E-2,-3.126295E-3,-4.094685E-2,-1.15167815E-2,1.3084707E-2,8.545875E-2,2.4590276E-2,-1.3525516E-2,-4.0447287E-2,3.0259153E-2,-2.4631457E-2,5.8889396E-2,-5.932172E-3,-3.3106737E-2,-4.22197E-3],"split_indices":[3,1,0,3,1,2,3,2,4,2,2,2,2,2,2,0,0,0,0,0,0,0,0,0,0,0,0,0,0,0,0],"split_type":[1,0,0,1,0,0,1,0,0,0,0,0,0,0,0,0,0,0,0,0,0,0,0,0,0,0,0,0,0,0,0],"sum_hessian":[1.9046365E4,1.1819145E4,7.2272207E3,7.669255E3,4.14989E3,3.2005483E3,4.026672E3,3.261816E3,4.407439E3,3.695043E3,4.5484692E2,2.2974695E3,9.0307904E2,3.2066736E3,8.1999854E2,2.9016611E3,3.601549E2,4.1308823E3,2.7655652E2,2.8143042E2,3.4136125E3,4.9515396E1,4.053315E2,1.1807928E3,1.1166766E3,2.857586E2,6.1732043E2,7.452347E1,3.1321501E3,5.269154E2,2.930831E2],"tree_param":{"num_deleted":"0","num_feature":"5","num_nodes":"31","size_leaf_vector":"0"}},{"base_weights":[-3.730653E-2,-8.511552E-2,4.39329E-2,-4.998839E-2,-2.684015E-1,2.7392384E-1,-1.4626305E-2,-1.3804366E-1,5.3864516E-2,3.5780373E-1,-3.067081E-1,1.3506764E-1,4.6166357E-1,-3.7571438E-2,2.4028623E-1,-2.0310204E-2,-7.085338E-4,4.173795E-2,3.7560095E-3,1.4989465E-1,2.250004E-2,-3.715275E-2,5.500303E-3,3.975868E-3,4.812736E-2,2.0171823E-2,6.317474E-2,-4.211394E-3,6.534342E-2,3.851609E-2,1.1192969E-3],"categories":[0,3,9,0,1,2,3,4,5,6,10],"categories_nodes":[1,2],"categories_segments":[0,3],"categories_sizes":[3,8],"default_left":[0,0,0,0,0,0,0,0,0,0,0,0,0,0,0,0,0,0,0,0,0,0,0,0,0,0,0,0,0,0,0],"id":19,"left_children":[1,3,5,7,9,11,13,15,17,19,21,23,25,27,29,-1,-1,-1,-1,-1,-1,-1,-1,-1,-1,-1,-1,-1,-1,-1,-1],"loss_changes":[7.325559E1,7.643015E1,9.4116234E1,9.1134415E1,4.5910294E1,3.6907776E1,3.2591595E1,4.594557E1,2.7088161E1,1.641285E1,4.22184E1,2.692694E1,2.6512375E1,1.6071898E1,1.5267975E1,0E0,0E0,0E0,0E0,0E0,0E0,0E0,0E0,0E0,0E0,0E0,0E0,0E0,0E0,0E0,0E0],"parents":[2147483647,0,0,1,1,2,2,3,3,4,4,5,5,6,6,7,7,8,8,9,9,10,10,11,11,12,12,13,13,14,14],"right_children":[2,4,6,8,10,12,14,16,18,20,22,24,26,28,30,-1,-1,-1,-1,-1,-1,-1,-1,-1,-1,-1,-1,-1,-1,-1,-1],"split_conditions":[7.6061213E-1,NaN,NaN,6.6908216E-1,5.256724E-1,4.365935E-1,7.586168E-1,4.9017996E-1,6.761905E-1,1.3866955E-1,6.906405E-1,7.652812E-1,6.928788E-2,1.1705427E0,8.340352E-1,-2.0310204E-2,-7.085338E-4,4.173795E-2,3.7560095E-3,1.4989465E-1,2.250004E-2,-3.715275E-2,5.500303E-3,3.975868E-3,4.812736E-2,2.0171823E-2,6.317474E-2,-4.211394E-3,6.534342E-2,3.851609E-2,1.1192969E-3],"split_indices":[2,3,3,4,4,0,0,0,4,0,0,4,1,4,0,0,0,0,0,0,0,0,0,0,0,0,0,0,0,0,0],"split_type":[0,1,1,0,0,0,0,0,0,0,0,0,0,0,0,0,0,0,0,0,0,0,0,0,0,0,0,0,0,0,0],"sum_hessian":[1.8859023E4,1.18722295E4,6.9867944E3,9.9639E3,1.908329E3,1.4171741E3,5.5696206E3,5.39188E3,4.5720205E3,1.0952711E2,1.7988019E3,8.1563385E2,6.0154016E2,5.1104707E3,4.5915E2,3.6019348E3,1.7899452E3,1.952061E2,4.3768145E3,1.0345351E1,9.9181755E1,1.5254167E3,2.7338513E2,6.404387E2,1.7519511E2,2.3878389E2,3.627563E2,5.078028E3,3.244268E1,2.8085858E2,1.782914E2],"tree_param":{"num_deleted":"0","num_feature":"5","num_nodes":"31","size_leaf_vector":"0"}},{"base_weights":[-3.1369284E-2,4.3184616E-2,-1.10369645E-1,-6.819603E-2,9.282687E-2,-1.3735646E-1,6.6068016E-2,-3.04545E-1,-3.669868E-2,7.098382E-2,3.3270586E-1,-1.7904428E-1,4.8753984E-2,1.2773286E-1,-3.7169558E-1,-5.9289183E-2,8.054587E-3,-2.512215E-3,-3.7645746E-2,1.422215E-2,4.333635E-3,1.5916552E-2,5.2865475E-2,-2.1644836E-2,-7.1248873E-3,-2.0604953E-2,1.3099523E-2,7.1543516E-3,6.9048285E-2,-4.6749465E-2,1.3499032E-1],"categories":[3,4,5,9,10],"categories_nodes":[0],"categories_segments":[0],"categories_sizes":[5],"default_left":[0,0,0,0,0,0,0,0,0,0,0,0,0,0,0,0,0,0,0,0,0,0,0,0,0,0,0,0,0,0,0],"id":20,"left_children":[1,3,5,7,9,11,13,15,17,19,21,23,25,27,29,-1,-1,-1,-1,-1,-1,-1,-1,-1,-1,-1,-1,-1,-1,-1,-1],"loss_changes":[1.1071211E2,5.347972E1,4.3464287E1,2.2188768E1,3.5029892E1,6.142517E1,3.2748886E1,3.8972107E1,1.0345038E1,1.2072899E1,1.8893028E1,2.6061615E1,3.0400448E1,3.3549835E1,2.5341993E1,0E0,0E0,0E0,0E0,0E0,0E0,0E0,0E0,0E0,0E0,0E0,0E0,0E0,0E0,0E0,0E0],"parents":[2147483647,0,0,1,1,2,2,3,3,4,4,5,5,6,6,7,7,8,8,9,9,10,10,11,11,12,12,13,13,14,14],"right_children":[2,4,6,8,10,12,14,16,18,20,22,24,26,28,30,-1,-1,-1,-1,-1,-1,-1,-1,-1,-1,-1,-1,-1,-1,-1,-1],"split_conditions":[NaN,4.4660732E-2,6.9628966E-1,1.217178E-2,7.586168E-1,1.2886631E-1,1.42054E-1,7.538334E-1,7.0927316E-1,6.5539443E-1,7.617403E-1,7.786069E-1,6.663369E-1,7.741936E-1,8.91275E-1,-5.9289183E-2,8.054587E-3,-2.512215E-3,-3.7645746E-2,1.422215E-2,4.333635E-3,1.5916552E-2,5.2865475E-2,-2.1644836E-2,-7.1248873E-3,-2.0604953E-2,1.3099523E-2,7.1543516E-3,6.9048285E-2,-4.6749465E-2,1.3499032E-1],"split_indices":[3,1,0,1,0,1,1,2,4,2,2,2,2,4,2,0,0,0,0,0,0,0,0,0,0,0,0,0,0,0,0],"split_type":[1,0,0,0,0,0,0,0,0,0,0,0,0,0,0,0,0,0,0,0,0,0,0,0,0,0,0,0,0,0,0],"sum_hessian":[1.87955E4,9.670114E3,9.125387E3,2.9811145E3,6.6889995E3,7.914982E3,1.2104048E3,3.495443E2,2.63157E3,6.13193E3,5.570693E2,6.466546E3,1.4484363E3,1.0615759E3,1.488289E2,1.9957083E2,1.4997348E2,2.5458982E3,8.567191E1,1.7132783E3,4.418652E3,2.9638818E2,2.6068112E2,4.799984E3,1.666562E3,3.530611E2,1.0953751E3,9.662274E2,9.534852E1,1.4167386E2,7.1550455E0],"tree_param":{"num_deleted":"0","num_feature":"5","num_nodes":"31","size_leaf_vector":"0"}},{"base_weights":[-2.5640808E-2,2.653703E-2,-1.10726774E-1,1.2178259E-1,2.5380088E-3,-1.5056334E-1,-4.6600774E-3,2.1519342E-1,-4.4234395E-1,-1.8261799E-1,4.1826524E-2,-6.472041E-2,-2.3319687E-1,2.558941E-1,-8.1191845E-2,5.546404E-2,1.1236632E-2,1.21997E-2,-5.5806857E-2,-5.5934754E-3,-4.7243208E-2,-1.2915434E-3,1.6241096E-2,4.3881256E-3,-6.1890334E-2,2.855279E-2,-2.7114594E-2,-1.3806935E-1,2.9162342E-2,3.9786723E-2,-1.4149345E-2],"categories":[3,4,9,10,6,0,1,2,3,4,5,6,8,9,10,7,9,3,4,10,4],"categories_nodes":[0,3,7,9,11,12,14],"categories_segments":[0,4,5,15,16,17,20],"categories_sizes":[4,1,10,1,1,3,1],"default_left":[0,0,0,0,0,0,0,0,0,0,0,0,0,0,0,0,0,0,0,0,0,0,0,0,0,0,0,0,0,0,0],"id":21,"left_children":[1,3,5,7,9,11,13,15,17,19,21,23,25,27,29,-1,-1,-1,-1,-1,-1,-1,-1,-1,-1,-1,-1,-1,-1,-1,-1],"loss_changes":[8.316536E1,2.6542912E1,3.0086761E1,1.2324672E2,6.748723E1,3.6704468E1,3.881009E1,6.9945625E1,2.1771996E1,5.959664E1,5.05212E1,1.5291734E2,5.1990448E1,2.6241545E1,4.3514023E1,0E0,0E0,0E0,0E0,0E0,0E0,0E0,0E0,0E0,0E0,0E0,0E0,0E0,0E0,0E0,0E0],"parents":[2147483647,0,0,1,1,2,2,3,3,4,4,5,5,6,6,7,7,8,8,9,9,10,10,11,11,12,12,13,13,14,14],"right_children":[2,4,6,8,10,12,14,16,18,20,22,24,26,28,30,-1,-1,-1,-1,-1,-1,-1,-1,-1,-1,-1,-1,-1,-1,-1,-1],"split_conditions":[NaN,6.317522E-1,7.786069E-1,NaN,6.817581E-1,6.6006863E-1,7.9530454E-1,NaN,2.0898301E-2,NaN,5.0470597E-1,NaN,NaN,1.04275495E-1,NaN,5.546404E-2,1.1236632E-2,1.21997E-2,-5.5806857E-2,-5.5934754E-3,-4.7243208E-2,-1.2915434E-3,1.6241096E-2,4.3881256E-3,-6.1890334E-2,2.855279E-2,-2.7114594E-2,-1.3806935E-1,2.9162342E-2,3.9786723E-2,-1.4149345E-2],"split_indices":[3,2,2,3,2,2,2,3,1,3,0,3,3,0,3,0,0,0,0,0,0,0,0,0,0,0,0,0,0,0,0],"split_type":[1,0,0,1,0,0,0,1,0,1,0,1,1,0,1,0,0,0,0,0,0,0,0,0,0,0,0,0,0,0,0],"sum_hessian":[1.8730955E4,1.1611218E4,7.119737E3,2.3360396E3,9.275179E3,5.175501E3,1.9442361E3,2.0047086E3,3.3133093E2,1.6229609E3,7.6522173E3,2.5393293E3,2.6361714E3,4.4088596E2,1.5033502E3,4.650658E2,1.5396428E3,5.637232E1,2.7495862E2,1.1301458E3,4.9281512E2,5.2635884E3,2.388629E3,2.1240132E3,4.1531607E2,1.79266E2,2.4569055E3,8.615342E0,4.322706E2,1.6745174E2,1.3358984E3],"tree_param":{"num_deleted":"0","num_feature":"5","num_nodes":"31","size_leaf_vector":"0"}},{"base_weights":[-2.3719301E-2,-6.726695E-2,4.9836412E-2,-2.8733844E-2,-2.329106E-1,2.4825639E-1,-2.4566872E-3,-2.683312E-3,-5.434654E-1,3.1215072E-1,-2.8057757E-1,1.6639164E-1,4.617225E-1,3.5952643E-2,-6.00628E-2,6.6684387E-3,-5.23373E-3,-1.0723237E-1,-2.9141609E-2,1.9286843E-2,1.3598949E-1,-2.1760697E-2,-4.1673716E-2,-7.851444E-3,2.8627355E-2,-1.4876907E-2,5.1870894E-2,-2.795261E-3,1.4157592E-2,-3.1899095E-2,-1.5590277E-3],"categories":[0,2,3,4,5,6,10,9,0,1,4,5,6,7,1,3,4,5,10],"categories_nodes":[2,3,4,7],"categories_segments":[0,7,8,14],"categories_sizes":[7,1,6,5],"default_left":[0,0,0,0,0,0,0,0,0,0,0,0,0,0,0,0,0,0,0,0,0,0,0,0,0,0,0,0,0,0,0],"id":22,"left_children":[1,3,5,7,9,11,13,15,17,19,21,23,25,27,29,-1,-1,-1,-1,-1,-1,-1,-1,-1,-1,-1,-1,-1,-1,-1,-1],"loss_changes":[6.0112637E1,7.523039E1,7.2414406E1,1.2824364E2,5.7882088E1,2.536145E1,1.2225309E1,3.1362421E1,6.1100174E1,2.2154032E1,1.745259E1,3.095961E1,1.4095421E1,2.2380009E1,2.5446795E1,0E0,0E0,0E0,0E0,0E0,0E0,0E0,0E0,0E0,0E0,0E0,0E0,0E0,0E0,0E0,0E0],"parents":[2147483647,0,0,1,1,2,2,3,3,4,4,5,5,6,6,7,7,8,8,9,9,10,10,11,11,12,12,13,13,14,14],"right_children":[2,4,6,8,10,12,14,16,18,20,22,24,26,28,30,-1,-1,-1,-1,-1,-1,-1,-1,-1,-1,-1,-1,-1,-1,-1,-1],"split_conditions":[7.6061213E-1,7.2042143E-1,NaN,NaN,NaN,1.4044261E-1,9.107748E-2,NaN,6.2089115E-1,7.5537074E-1,7.436657E-1,2.8412515E-1,1.7789987E-1,4.5659524E-1,7.832921E-1,6.6684387E-3,-5.23373E-3,-1.0723237E-1,-2.9141609E-2,1.9286843E-2,1.3598949E-1,-2.1760697E-2,-4.1673716E-2,-7.851444E-3,2.8627355E-2,-1.4876907E-2,5.1870894E-2,-2.795261E-3,1.4157592E-2,-3.1899095E-2,-1.5590277E-3],"split_indices":[2,2,3,3,3,1,1,3,2,2,2,0,0,0,2,0,0,0,0,0,0,0,0,0,0,0,0,0,0,0,0],"split_type":[0,0,1,1,1,0,0,1,0,0,0,0,0,0,0,0,0,0,0,0,0,0,0,0,0,0,0,0,0,0,0],"sum_hessian":[1.8764512E4,1.1786539E4,6.977973E3,9.563085E3,2.2234539E3,1.4546664E3,5.5233066E3,9.10337E3,4.5971576E2,1.7836305E2,2.0450908E3,1.0527239E3,4.0194254E2,3.314028E3,2.2092786E3,3.7976406E3,5.305729E3,1.4732953E2,3.1238623E2,1.6119554E2,1.7167513E1,1.4001516E3,6.449392E2,3.460747E2,7.066491E2,3.4178627E1,3.6776392E2,2.0652346E3,1.2487936E3,3.2293164E2,1.8863469E3],"tree_param":{"num_deleted":"0","num_feature":"5","num_nodes":"31","size_leaf_vector":"0"}},{"base_weights":[-2.348862E-2,1.8650142E-2,-9.272366E-2,-1.43492455E-2,6.583414E-2,-2.6285312E-1,-4.5658834E-2,3.6871634E-2,-3.063804E-1,2.8275025E-1,3.7240747E-2,-5.5524033E-1,-1.7667453E-1,2.7952215E-1,-6.708527E-2,1.09299354E-1,3.3243855E-3,-2.4361478E-2,-8.319607E-2,2.1358382E-2,5.5940177E-2,6.1027537E-4,2.535732E-2,-4.359102E-2,-1.1542051E-1,1.3208861E-2,-2.3929978E-2,-6.2993116E-4,4.2707935E-2,1.0775889E-2,-1.0791844E-2],"categories":[3,4,9,10],"categories_nodes":[0],"categories_segments":[0],"categories_sizes":[4],"default_left":[0,0,0,0,0,0,0,0,0,0,0,0,0,0,0,0,0,0,0,0,0,0,0,0,0,0,0,0,0,0,0],"id":23,"left_children":[1,3,5,7,9,11,13,15,17,19,21,23,25,27,29,-1,-1,-1,-1,-1,-1,-1,-1,-1,-1,-1,-1,-1,-1,-1,-1],"loss_changes":[5.4907158E1,1.8218163E1,5.7003437E1,1.0300716E2,2.9855434E1,3.8776245E1,3.888898E1,2.2411833E1,3.369606E1,1.0608742E1,2.8664799E1,2.4565926E1,2.3100765E1,1.455571E1,3.7384827E1,0E0,0E0,0E0,0E0,0E0,0E0,0E0,0E0,0E0,0E0,0E0,0E0,0E0,0E0,0E0,0E0],"parents":[2147483647,0,0,1,1,2,2,3,3,4,4,5,5,6,6,7,7,8,8,9,9,10,10,11,11,12,12,13,13,14,14],"right_children":[2,4,6,8,10,12,14,16,18,20,22,24,26,28,30,-1,-1,-1,-1,-1,-1,-1,-1,-1,-1,-1,-1,-1,-1,-1,-1],"split_conditions":[NaN,7.5537074E-1,2.1513273E-1,7.251129E-1,7.724636E-1,2.957984E-2,5.5093014E-1,4.7427294E-1,8.3189654E-1,6.218835E-1,6.9628966E-1,2.5123717E-2,5.4773873E-1,3.9022487E-1,5.169492E-1,1.09299354E-1,3.3243855E-3,-2.4361478E-2,-8.319607E-2,2.1358382E-2,5.5940177E-2,6.1027537E-4,2.535732E-2,-4.359102E-2,-1.1542051E-1,1.3208861E-2,-2.3929978E-2,-6.2993116E-4,4.2707935E-2,1.0775889E-2,-1.0791844E-2],"split_indices":[3,2,0,2,2,1,2,4,4,0,0,1,4,0,4,0,0,0,0,0,0,0,0,0,0,0,0,0,0,0,0],"split_type":[1,0,0,0,0,0,0,0,0,0,0,0,0,0,0,0,0,0,0,0,0,0,0,0,0,0,0,0,0,0,0],"sum_hessian":[1.8818479E4,1.169888E4,7.119599E3,6.884628E3,4.814252E3,1.5417853E3,5.577814E3,5.858031E3,1.0265972E3,5.5965924E2,4.254593E3,3.4974048E2,1.1920448E3,3.440625E2,5.2337515E3,1.902552E1,5.8390054E3,9.183857E2,1.08211494E2,4.4914038E2,1.1051886E2,3.720157E3,5.3443567E2,2.930789E2,5.6661568E1,2.008211E2,9.912237E2,1.174727E2,2.265898E2,9.905709E2,4.24318E3],"tree_param":{"num_deleted":"0","num_feature":"5","num_nodes":"31","size_leaf_vector":"0"}},{"base_weights":[-1.593958E-2,-2.6580026E-2,1.822087E-1,-4.2618643E-2,7.992727E-2,-8.5929996E-1,1.9794278E-1,3.4277854E-3,-1.12224616E-1,3.7945193E-1,1.20066E-2,1.8010719E-2,-1.6668522E-1,3.3604026E-1,-1.7175017E-1,1.2652797E-3,-3.0463917E-2,-3.120231E-2,-9.546018E-3,2.1939062E-2,6.26279E-2,-2.0567246E-2,5.3646313E-3,2.6634336E-2,4.9998846E-2,-5.1926553E-2,6.204889E-2],"categories":[2,3,4,9,10,0,1,3,4,5,6,8,9,10,0,7,9,10],"categories_nodes":[3,4,6],"categories_segments":[0,5,14],"categories_sizes":[5,9,4],"default_left":[0,0,0,0,0,0,0,0,0,0,0,0,0,0,0,0,0,0,0,0,0,0,0,0,0,0,0],"id":24,"left_children":[1,3,5,7,9,11,13,15,17,19,21,-1,-1,23,25,-1,-1,-1,-1,-1,-1,-1,-1,-1,-1,-1,-1],"loss_changes":[3.948855E1,3.0364584E1,1.5811743E1,4.9512745E1,4.732582E1,1.2380796E1,4.8104984E1,2.642918E1,2.0571571E1,1.6851322E1,1.7210142E1,0E0,0E0,7.6999283E0,7.096937E1,0E0,0E0,0E0,0E0,0E0,0E0,0E0,0E0,0E0,0E0,0E0,0E0],"parents":[2147483647,0,0,1,1,2,2,3,3,4,4,5,5,6,6,7,7,8,8,9,9,10,10,13,13,14,14],"right_children":[2,4,6,8,10,12,14,16,18,20,22,-1,-1,24,26,-1,-1,-1,-1,-1,-1,-1,-1,-1,-1,-1,-1],"split_conditions":[9.782178E-1,6.906405E-1,8.128712E-2,NaN,NaN,3.5790034E-2,NaN,9.100327E-1,1.3866955E-1,7.567392E-1,6.1473584E-1,1.8010719E-2,-1.6668522E-1,5.6700253E-1,7.6648337E-1,1.2652797E-3,-3.0463917E-2,-3.120231E-2,-9.546018E-3,2.1939062E-2,6.26279E-2,-2.0567246E-2,5.3646313E-3,2.6634336E-2,4.9998846E-2,-5.1926553E-2,6.204889E-2],"split_indices":[4,0,1,3,3,1,3,2,0,2,2,0,0,0,2,0,0,0,0,0,0,0,0,0,0,0,0],"split_type":[0,0,0,1,1,0,1,0,0,0,0,0,0,0,0,0,0,0,0,0,0,0,0,0,0,0,0],"sum_hessian":[1.8725979E4,1.7772473E4,9.535056E2,1.5446961E4,2.3255122E3,1.3392348E1,9.401132E2,9.297402E3,6.1495586E3,4.29013E2,1.8964991E3,6.195299E0,7.197049E0,6.8450854E2,2.5560469E2,9.02802E3,2.6938354E2,4.7468246E2,5.674876E3,2.613941E2,1.6761888E2,3.0389487E2,1.5926042E3,4.821597E2,2.0234886E2,1.7790938E2,7.769532E1],"tree_param":{"num_deleted":"0","num_feature":"5","num_nodes":"27","size_leaf_vector":"0"}},{"base_weights":[-1.6603408E-2,-4.2967528E-2,3.264442E-2,-5.4429423E-2,1.6489959E-1,6.935343E-1,2.7307445E-2,2.5722109E-2,-8.089014E-2,3.6673114E-1,-2.5497101E-2,9.5330507E-1,-8.050302E-2,9.4897114E-2,-3.841626E-2,2.4119113E-2,-6.540277E-3,-6.320615E-2,-7.6435893E-3,4.2836137E-2,-4.95236E-2,-1.6937917E-2,3.5669155E-2,-1.2975906E-2,1.16566256E-1,-3.2113243E-3,1.698229E-2,-6.2123346E-3,2.6564503E-2],"categories":[2,3,4,5,6,9,10,0,6,7,8,9,10,1,3,4,5,10],"categories_nodes":[3,4,6],"categories_segments":[0,7,13],"categories_sizes":[7,6,5],"default_left":[0,0,0,0,0,0,0,0,0,0,0,0,0,0,0,0,0,0,0,0,0,0,0,0,0,0,0,0,0],"id":25,"left_children":[1,3,5,7,9,11,13,15,17,19,21,23,-1,25,27,-1,-1,-1,-1,-1,-1,-1,-1,-1,-1,-1,-1,-1,-1],"loss_changes":[2.408089E1,2.8789675E1,2.2791426E1,2.4284424E1,2.4277605E1,2.091873E1,2.8506456E1,5.5825447E1,2.1084389E1,1.6500866E1,1.7981838E1,1.0403442E1,0E0,3.0110804E1,2.3471004E1,0E0,0E0,0E0,0E0,0E0,0E0,0E0,0E0,0E0,0E0,0E0,0E0,0E0,0E0],"parents":[2147483647,0,0,1,1,2,2,3,3,4,4,5,5,6,6,7,7,8,8,9,9,10,10,11,11,13,13,14,14],"right_children":[2,4,6,8,10,12,14,16,18,20,22,24,-1,26,28,-1,-1,-1,-1,-1,-1,-1,-1,-1,-1,-1,-1,-1,-1],"split_conditions":[4.8190656E-1,9.6646345E-1,7.376757E-3,NaN,NaN,5.256724E-1,NaN,6.3049376E-1,4.8100016E-1,8.0939114E-1,7.6648337E-1,5.382542E-1,-8.050302E-2,7.033232E-1,8.6112016E-1,2.4119113E-2,-6.540277E-3,-6.320615E-2,-7.6435893E-3,4.2836137E-2,-4.95236E-2,-1.6937917E-2,3.5669155E-2,-1.2975906E-2,1.16566256E-1,-3.2113243E-3,1.698229E-2,-6.2123346E-3,2.6564503E-2],"split_indices":[0,4,1,3,3,4,3,2,2,2,2,0,0,2,0,0,0,0,0,0,0,0,0,0,0,0,0,0,0],"split_type":[0,0,0,1,1,0,1,0,0,0,0,0,0,0,0,0,0,0,0,0,0,0,0,0,0,0,0,0,0],"sum_hessian":[1.8544855E4,1.2078781E4,6.466075E3,1.1448257E4,6.3052435E2,5.076511E1,6.41531E3,2.8414167E3,8.60684E3,3.0562158E2,3.2490277E2,4.3575336E1,7.1897736E0,3.162539E3,3.2527708E3,8.440275E2,1.9973892E3,6.786831E1,8.538972E3,2.8569742E2,1.9924183E1,2.3644533E2,8.845746E1,7.2070336E0,3.63683E1,1.1736311E3,1.988908E3,3.01824E3,2.3453076E2],"tree_param":{"num_deleted":"0","num_feature":"5","num_nodes":"29","size_leaf_vector":"0"}},{"base_weights":[-8.755464E-3,2.589521E-2,-6.645032E-2,-1.0957618E-3,8.55698E-2,-7.107656E-2,5.538738E-1,5.995988E-3,-4.7696772E-1,1.4570041E-1,2.3382772E-2,-1.5321809E-1,-1.0642259E-2,-1.2639566E-1,8.219622E-1,-3.1349675E-3,6.872379E-3,4.0692963E-2,-6.1796825E-2,2.1551121E-2,6.29011E-4,-3.017251E-2,4.3500876E-3,-2.0510415E-2,-2.2372105E-3,2.1760697E-2,-4.1922857E-3,1.0836311E-1,-2.4501141E-2],"categories":[3,4,9,10,0,3,4,6,9,10],"categories_nodes":[0,9],"categories_segments":[0,4],"categories_sizes":[4,6],"default_left":[0,0,0,0,0,0,0,0,0,0,0,0,0,0,0,0,0,0,0,0,0,0,0,0,0,0,0,0,0],"id":26,"left_children":[1,3,5,7,9,11,13,15,17,19,21,23,25,-1,27,-1,-1,-1,-1,-1,-1,-1,-1,-1,-1,-1,-1,-1,-1],"loss_changes":[3.7417465E1,1.8834923E1,2.019356E1,2.717935E1,1.3614874E1,3.4607742E1,2.6430038E1,1.8592167E1,1.4990091E1,1.8016804E1,1.1730678E1,2.0057892E1,2.8694765E1,0E0,1.3111542E1,0E0,0E0,0E0,0E0,0E0,0E0,0E0,0E0,0E0,0E0,0E0,0E0,0E0,0E0],"parents":[2147483647,0,0,1,1,2,2,3,3,4,4,5,5,6,6,7,7,8,8,9,9,10,10,11,11,12,12,14,14],"right_children":[2,4,6,8,10,12,14,16,18,20,22,24,26,-1,28,-1,-1,-1,-1,-1,-1,-1,-1,-1,-1,-1,-1,-1,-1],"split_conditions":[NaN,7.2557175E-1,8.6877584E-1,7.1847504E-1,3.7478238E-1,3.294323E-1,1.8830204E-1,4.623457E-1,1.743938E-1,NaN,4.0092626E-1,7.786069E-1,3.720837E-1,-1.2639566E-1,8.745159E-1,-3.1349675E-3,6.872379E-3,4.0692963E-2,-6.1796825E-2,2.1551121E-2,6.29011E-4,-3.017251E-2,4.3500876E-3,-2.0510415E-2,-2.2372105E-3,2.1760697E-2,-4.1922857E-3,1.0836311E-1,-2.4501141E-2],"split_indices":[3,4,2,4,0,0,0,0,0,3,0,2,0,0,2,0,0,0,0,0,0,0,0,0,0,0,0,0,0],"split_type":[1,0,0,0,0,0,0,0,0,1,0,0,0,0,0,0,0,0,0,0,0,0,0,0,0,0,0,0,0],"sum_hessian":[1.8714684E4,1.1692746E4,7.0219385E3,8.0518535E3,3.6408923E3,6.970837E3,5.1101513E1,7.934594E3,1.17259026E2,1.8503689E3,1.7905234E3,2.954111E3,4.0167258E3,6.090292E0,4.5011223E1,4.9738564E3,2.960738E3,1.5872465E1,1.0138656E2,1.2325928E3,6.1777625E2,1.03527336E2,1.6869961E3,2.1148962E3,8.3921466E2,4.834098E2,3.5333162E3,3.6133972E1,8.877252E0],"tree_param":{"num_deleted":"0","num_feature":"5","num_nodes":"29","size_leaf_vector":"0"}},{"base_weights":[-1.0402624E-2,-1.5286792E-2,2.6810455E-1,-7.532765E-2,2.456761E-3,3.2950488E-1,-2.5400826E-1,1.9958334E-2,-1.15470745E-1,2.5327802E-1,-4.3658325E-3,6.718955E-1,8.96685E-2,1.5961316E-1,-1.05220996E-1,-1.566617E-3,5.0207537E-2,-4.4496104E-2,-9.370768E-3,3.3035103E-2,-4.113516E-2,-2.0088218E-3,1.1819341E-2,1.08315945E-1,4.9334783E-2,2.6568377E-2,-8.576933E-3,-1.11087505E-2,5.8346547E-2],"categories":[1,5,7,8,9,10,0,4,1,2,4,5,6,7,8,9,10,0,2,3,4,5,6,7,10,0,1,2,3,4,5],"categories_nodes":[5,6,11,12,13],"categories_segments":[0,6,8,17,25],"categories_sizes":[6,2,9,8,6],"default_left":[0,0,0,0,0,0,0,0,0,0,0,0,0,0,0,0,0,0,0,0,0,0,0,0,0,0,0,0,0],"id":27,"left_children":[1,3,5,7,9,11,13,15,17,19,21,23,25,27,-1,-1,-1,-1,-1,-1,-1,-1,-1,-1,-1,-1,-1,-1,-1],"loss_changes":[2.5329412E1,1.9493582E1,1.037191E1,1.5968128E1,2.4172295E1,2.3556137E1,1.1503503E1,2.1272156E1,2.1018047E1,1.9296782E1,2.6501057E1,8.1534195E0,5.280937E0,2.7592435E0,0E0,0E0,0E0,0E0,0E0,0E0,0E0,0E0,0E0,0E0,0E0,0E0,0E0,0E0,0E0],"parents":[2147483647,0,0,1,1,2,2,3,3,4,4,5,5,6,6,7,7,8,8,9,9,10,10,11,11,12,12,13,13],"right_children":[2,4,6,8,10,12,14,16,18,20,22,24,26,28,-1,-1,-1,-1,-1,-1,-1,-1,-1,-1,-1,-1,-1,-1,-1],"split_conditions":[1.125E0,3.1189293E-2,7.0222366E-1,1.4310189E-2,3.327483E-2,NaN,NaN,1.396028E-2,1.3866955E-1,7.0222366E-1,7.1432483E-1,NaN,NaN,NaN,-1.05220996E-1,-1.566617E-3,5.0207537E-2,-4.4496104E-2,-9.370768E-3,3.3035103E-2,-4.113516E-2,-2.0088218E-3,1.1819341E-2,1.08315945E-1,4.9334783E-2,2.6568377E-2,-8.576933E-3,-1.11087505E-2,5.8346547E-2],"split_indices":[4,1,0,1,1,3,3,1,0,0,0,3,3,3,0,0,0,0,0,0,0,0,0,0,0,0,0,0,0],"split_type":[0,0,0,0,0,1,1,0,0,0,0,1,1,1,0,0,0,0,0,0,0,0,0,0,0,0,0,0,0],"sum_hessian":[1.8616777E4,1.8296852E4,3.19926E2,4.17299E3,1.4123861E4,2.865918E2,3.3334217E1,1.2370824E3,2.9359077E3,3.7305338E2,1.3750808E4,1.1731347E2,1.6927832E2,2.2483492E1,1.0850723E1,1.1528628E3,8.421962E1,1.8069907E2,2.7552087E3,3.3473874E2,3.831464E1,1.2188105E4,1.5627023E3,3.3979393E1,8.3334076E1,8.424332E1,8.5034996E1,1.4170905E1,8.312587E0],"tree_param":{"num_deleted":"0","num_feature":"5","num_nodes":"29","size_leaf_vector":"0"}},{"base_weights":[-8.826413E-3,-3.1610955E-2,6.3559115E-2,3.848039E-2,-4.8366588E-2,4.2128433E-2,4.2276153E-1,1.297935E-2,3.4199876E-1,-5.500477E-1,-4.6666186E-2,1.20900564E-1,-4.9582325E-2,6.138554E-1,6.898307E-2,2.6843876E-2,-3.0813871E-3,-1.0570796E-1,4.086281E-2,-3.1245936E-2,-1.478058E-1,-5.9404587E-3,3.7121659E-3,2.6895497E-2,3.346251E-3,-2.6764972E-2,1.2055942E-2,8.382084E-2,1.2720071E-2,-5.442804E-2,2.4258433E-2],"categories":[1,2,3,4,5,6,9,10,0,3,5,6,9,10,0,1,5,6,9],"categories_nodes":[1,5,13],"categories_segments":[0,8,14],"categories_sizes":[8,6,5],"default_left":[0,0,0,0,0,0,0,0,0,0,0,0,0,0,0,0,0,0,0,0,0,0,0,0,0,0,0,0,0,0,0],"id":28,"left_children":[1,3,5,7,9,11,13,15,17,19,21,23,25,27,29,-1,-1,-1,-1,-1,-1,-1,-1,-1,-1,-1,-1,-1,-1,-1,-1],"loss_changes":[3.062999E1,1.6590977E1,3.4209595E1,2.1093296E1,9.699633E0,3.032669E1,1.6874298E1,2.8150906E1,2.0122402E1,8.00867E0,1.2130306E1,2.9223335E1,7.201005E1,1.76184E1,9.595013E0,0E0,0E0,0E0,0E0,0E0,0E0,0E0,0E0,0E0,0E0,0E0,0E0,0E0,0E0,0E0,0E0],"parents":[2147483647,0,0,1,1,2,2,3,3,4,4,5,5,6,6,7,7,8,8,9,9,10,10,11,11,12,12,13,13,14,14],"right_children":[2,4,6,8,10,12,14,16,18,20,22,24,26,28,30,-1,-1,-1,-1,-1,-1,-1,-1,-1,-1,-1,-1,-1,-1,-1,-1],"split_conditions":[7.5916237E-1,NaN,8.0218744E-1,7.653106E-1,6.6145934E-2,NaN,8.915095E-1,6.160498E-1,1.3602294E-2,7.285208E-2,8.602879E-1,6.242434E-1,6.6100836E-1,NaN,1.6552271E-1,2.6843876E-2,-3.0813871E-3,-1.0570796E-1,4.086281E-2,-3.1245936E-2,-1.478058E-1,-5.9404587E-3,3.7121659E-3,2.6895497E-2,3.346251E-3,-2.6764972E-2,1.2055942E-2,8.382084E-2,1.2720071E-2,-5.442804E-2,2.4258433E-2],"split_indices":[4,3,0,0,0,3,4,2,1,1,2,2,2,3,1,0,0,0,0,0,0,0,0,0,0,0,0,0,0,0,0],"split_type":[0,1,0,0,0,1,0,0,0,0,0,0,0,1,0,0,0,0,0,0,0,0,0,0,0,0,0,0,0,0,0],"sum_hessian":[1.8569613E4,1.4124315E4,4.445299E3,2.7247935E3,1.1399521E4,4.1960703E3,2.4922809E2,2.5145671E3,2.1022643E2,3.7417694E1,1.13621045E4,2.2570923E3,1.9389781E3,1.613432E2,8.7884895E1,3.6723602E2,2.147331E3,8.880894E0,2.0134554E2,3.085494E1,6.5627565E0,9.86292E3,1.4991842E3,8.372847E2,1.4198076E3,8.495514E2,1.0894268E3,1.09938156E2,5.140504E1,1.8918434E1,6.896646E1],"tree_param":{"num_deleted":"0","num_feature":"5","num_nodes":"31","size_leaf_vector":"0"}},{"base_weights":[-7.541908E-3,2.8679922E-2,-4.6309624E-2,-2.7593056E-2,6.542991E-2,-7.859552E-2,2.721687E-2,6.7382224E-2,-2.2282313E-1,3.4495494E-1,1.1147126E-2,1.5998158E-1,-9.270434E-2,2.1367392E-1,-5.59607E-2,3.707946E-2,-1.409669E-3,-4.699959E-3,-4.2527836E-2,-2.4262683E-3,4.2296242E-2,-2.3145156E-3,9.11853E-3,3.0729225E-2,-1.9499706E-2,-7.5342194E-3,-2.5602603E-2,1.6213914E-2,6.717746E-2,2.6949871E-2,-8.6782975E-3],"categories":[0,3,4,5,9,0,1,2,3,4,5,6,8,9,10,7,0,9,0,4,5],"categories_nodes":[0,7,8,11,12,14],"categories_segments":[0,5,15,16,17,18],"categories_sizes":[5,10,1,1,1,3],"default_left":[0,0,0,0,0,0,0,0,0,0,0,0,0,0,0,0,0,0,0,0,0,0,0,0,0,0,0,0,0,0,0],"id":29,"left_children":[1,3,5,7,9,11,13,15,17,19,21,23,25,27,29,-1,-1,-1,-1,-1,-1,-1,-1,-1,-1,-1,-1,-1,-1,-1,-1],"loss_changes":[2.6115166E1,1.988493E1,2.1326448E1,7.04571E1,8.825175E1,2.1026615E1,4.2532356E1,6.3206417E1,4.4245716E1,2.725158E1,1.3373276E1,1.830503E1,1.6694885E1,1.9862583E1,1.9049864E1,0E0,0E0,0E0,0E0,0E0,0E0,0E0,0E0,0E0,0E0,0E0,0E0,0E0,0E0,0E0,0E0],"parents":[2147483647,0,0,1,1,2,2,3,3,4,4,5,5,6,6,7,7,8,8,9,9,10,10,11,11,12,12,13,13,14,14],"right_children":[2,4,6,8,10,12,14,16,18,20,22,24,26,28,30,-1,-1,-1,-1,-1,-1,-1,-1,-1,-1,-1,-1,-1,-1,-1,-1],"split_conditions":[NaN,7.026048E-1,7.6648337E-1,6.4111024E-1,7.251129E-1,5.426071E-1,7.9766124E-1,NaN,NaN,2.0492211E-1,5.0470597E-1,NaN,NaN,7.586168E-1,NaN,3.707946E-2,-1.409669E-3,-4.699959E-3,-4.2527836E-2,-2.4262683E-3,4.2296242E-2,-2.3145156E-3,9.11853E-3,3.0729225E-2,-1.9499706E-2,-7.5342194E-3,-2.5602603E-2,1.6213914E-2,6.717746E-2,2.6949871E-2,-8.6782975E-3],"split_indices":[3,2,2,2,2,2,2,3,3,0,0,3,3,0,3,0,0,0,0,0,0,0,0,0,0,0,0,0,0,0,0],"split_type":[1,0,0,0,0,0,0,1,1,0,0,1,1,0,1,0,0,0,0,0,0,0,0,0,0,0,0,0,0,0,0],"sum_hessian":[1.8595453E4,9.613519E3,8.981936E3,3.7980496E3,5.8154688E3,6.241284E3,2.7406516E3,2.5555054E3,1.2425442E3,9.448226E2,4.870646E3,3.479073E2,5.8933765E3,8.449592E2,1.8956925E3,5.4023175E2,2.0152737E3,6.656705E2,5.7687366E2,1.6492133E2,7.7990125E2,3.410242E3,1.4604043E3,2.4596849E2,1.0193879E2,5.3283955E3,5.649814E2,7.607332E2,8.4226E1,1.6332826E2,1.7323643E3],"tree_param":{"num_deleted":"0","num_feature":"5","num_nodes":"31","size_leaf_vector":"0"}},{"base_weights":[-7.1907E-4,-1.5527873E-2,7.424393E-2,2.6050562E-2,-7.128577E-2,-9.8486906E-1,7.9706736E-2,-4.861431E-1,3.3234123E-2,-1.3010022E-1,-2.7754832E-2,-1.7358379E-1,1.6718565E-2,5.764323E-1,6.3561894E-2,1.5608044E-2,-6.652742E-2,2.4493892E-2,1.1719008E-3,-1.0413906E-2,-6.9440454E-2,1.2912037E-2,-6.4854915E-3,7.577204E-3,8.441678E-2,9.883495E-3,-7.442865E-4],"categories":[1,2,3,4,9],"categories_nodes":[1],"categories_segments":[0],"categories_sizes":[5],"default_left":[0,0,0,0,0,0,0,0,0,0,0,0,0,0,0,0,0,0,0,0,0,0,0,0,0,0,0],"id":30,"left_children":[1,3,5,7,9,11,13,15,17,19,21,-1,-1,23,25,-1,-1,-1,-1,-1,-1,-1,-1,-1,-1,-1,-1],"loss_changes":[2.0656338E1,3.6023773E1,1.783773E1,3.2767822E1,1.6989979E1,1.3981985E1,2.4460426E1,1.427479E1,3.998529E1,4.1282745E1,2.2215511E1,0E0,0E0,1.2809006E1,7.4132977E0,0E0,0E0,0E0,0E0,0E0,0E0,0E0,0E0,0E0,0E0,0E0,0E0],"parents":[2147483647,0,0,1,1,2,2,3,3,4,4,5,5,6,6,7,7,8,8,9,9,10,10,13,13,14,14],"right_children":[2,4,6,8,10,12,14,16,18,20,22,-1,-1,24,26,-1,-1,-1,-1,-1,-1,-1,-1,-1,-1,-1,-1],"split_conditions":[8.15534E-1,NaN,4.7291707E-2,5.069292E-1,3.226711E-1,5.382542E-1,8.190709E-1,6.6052634E-1,6.160498E-1,3.0888736E-1,5.1442313E-1,-1.7358379E-1,1.6718565E-2,6.6278213E-1,7.2042143E-1,1.5608044E-2,-6.652742E-2,2.4493892E-2,1.1719008E-3,-1.0413906E-2,-6.9440454E-2,1.2912037E-2,-6.4854915E-3,7.577204E-3,8.441678E-2,9.883495E-3,-7.442865E-4],"split_indices":[4,3,1,2,0,0,4,4,2,0,4,0,0,2,2,0,0,0,0,0,0,0,0,0,0,0,0],"split_type":[0,1,0,0,0,0,0,0,0,0,0,0,0,0,0,0,0,0,0,0,0,0,0,0,0,0,0],"sum_hessian":[1.860539E4,1.5536898E4,3.068493E3,8.900423E3,6.636476E3,1.48257675E1,3.053667E3,1.22180504E2,8.778242E3,2.8218706E3,3.8146055E3,8.668475E0,6.157293E0,9.503505E1,2.958632E3,2.6674679E1,9.550583E1,8.088566E2,7.9693853E3,2.6988909E3,1.22979614E2,7.291144E2,3.0854912E3,3.3560516E1,6.1474533E1,1.9764156E3,9.822164E2],"tree_param":{"num_deleted":"0","num_feature":"5","num_nodes":"27","size_leaf_vector":"0"}},{"base_weights":[-1.1665469E-2,-3.0945549E-2,3.636515E-2,-6.364037E-2,1.5566588E-2,2.2064961E-2,2.8936327E-1,-5.5271477E-2,-5.8181024E-1,2.3985792E-2,-3.0558732E-1,7.343595E-2,-5.5528697E-2,-1.2479899E-1,3.690874E-1,-1.5488221E-2,-3.7609288E-3,-1.07179895E-1,-2.5196707E-2,1.2913114E-2,-1.7066511E-3,-2.1843372E-2,-1.168582E-1,1.0054666E-2,-3.560003E-2,6.9374703E-3,-1.1788189E-2,2.319934E-2,-1.272154E-1,1.0879296E-1,1.7637243E-2],"categories":[0,1,4,6,8,9,10,0,1,3,4,5,7,10,0,1,4,5,0,1,4,5,6,7,8,9],"categories_nodes":[9,11,12,13,14],"categories_segments":[0,5,7,14,18],"categories_sizes":[5,2,7,4,8],"default_left":[0,0,0,0,0,0,0,0,0,0,0,0,0,0,0,0,0,0,0,0,0,0,0,0,0,0,0,0,0,0,0],"id":31,"left_children":[1,3,5,7,9,11,13,15,17,19,21,23,25,27,29,-1,-1,-1,-1,-1,-1,-1,-1,-1,-1,-1,-1,-1,-1,-1,-1],"loss_changes":[1.7183666E1,2.0136263E1,1.9223724E1,3.3686195E1,1.4787382E1,2.006179E1,9.432533E0,1.3458401E1,1.968663E1,2.2998419E1,1.0252996E1,3.5288635E1,1.56231365E1,1.9386366E1,3.2867504E1,0E0,0E0,0E0,0E0,0E0,0E0,0E0,0E0,0E0,0E0,0E0,0E0,0E0,0E0,0E0,0E0],"parents":[2147483647,0,0,1,1,2,2,3,3,4,4,5,5,6,6,7,7,8,8,9,9,10,10,11,11,12,12,13,13,14,14],"right_children":[2,4,6,8,10,12,14,16,18,20,22,24,26,28,30,-1,-1,-1,-1,-1,-1,-1,-1,-1,-1,-1,-1,-1,-1,-1,-1],"split_conditions":[7.280702E-1,7.617403E-1,8.0218744E-1,1.0768579E-1,9.345268E-1,4.2806596E-1,9.50072E-2,5.1833737E-1,7.113924E-1,NaN,6.11452E-1,NaN,NaN,NaN,NaN,-1.5488221E-2,-3.7609288E-3,-1.07179895E-1,-2.5196707E-2,1.2913114E-2,-1.7066511E-3,-2.1843372E-2,-1.168582E-1,1.0054666E-2,-3.560003E-2,6.9374703E-3,-1.1788189E-2,2.319934E-2,-1.272154E-1,1.0879296E-1,1.7637243E-2],"split_indices":[4,2,0,1,2,0,1,4,4,3,4,3,3,3,3,0,0,0,0,0,0,0,0,0,0,0,0,0,0,0,0],"split_type":[0,0,0,0,0,0,0,0,0,1,0,1,1,1,1,0,0,0,0,0,0,0,0,0,0,0,0,0,0,0,0],"sum_hessian":[1.8553977E4,1.3239739E4,5.314238E3,7.7744614E3,5.465278E3,5.0309604E3,2.832773E2,7.651982E3,1.2247947E2,5.326565E3,1.3871313E2,3.0269907E3,2.0039697E3,4.563593E1,2.3764139E2,1.1512764E3,6.5007056E3,4.837219E1,7.4107285E1,1.495097E3,3.8314678E3,1.27127655E2,1.1585477E1,2.847962E3,1.7902861E2,6.672497E2,1.3367201E3,3.5419384E1,1.0216546E1,4.925838E1,1.88383E2],"tree_param":{"num_deleted":"0","num_feature":"5","num_nodes":"31","size_leaf_vector":"0"}},{"base_weights":[3.9800927E-3,-2.3194458E-2,4.985655E-2,-1.8265909E-1,-1.1252079E-2,7.4309455E-3,1.276533E-1,-7.8160316E-1,-9.9040054E-2,2.1355065E-2,-1.05567396E-1,2.3618167E-2,-7.956641E-1,3.360839E-1,6.557937E-2,-2.1943582E-2,-1.1480635E-1,-5.000319E-3,-5.85086E-2,4.3433635E-3,-2.7602995E-2,-1.1904873E-2,1.0727799E-1,3.414884E-2,1.3060573E-3,-1.1138687E-1,-3.3006817E-2,6.401353E-2,1.2083638E-2,4.3451034E-2,3.7736322E-3],"categories":[3,5,9,0,2,3,4,5,6,8,10],"categories_nodes":[4,6],"categories_segments":[0,3],"categories_sizes":[3,8],"default_left":[0,0,0,0,0,0,0,0,0,0,0,0,0,0,0,0,0,0,0,0,0,0,0,0,0,0,0,0,0,0,0],"id":32,"left_children":[1,3,5,7,9,11,13,15,17,19,21,23,25,27,29,-1,-1,-1,-1,-1,-1,-1,-1,-1,-1,-1,-1,-1,-1,-1,-1],"loss_changes":[2.3197084E1,2.2251719E1,2.2844784E1,4.0695072E1,3.343883E1,5.8260475E1,3.1580223E1,2.0264359E1,1.7024296E1,5.306442E1,4.4502205E1,1.4736946E1,1.2751041E1,3.6589996E1,1.932923E1,0E0,0E0,0E0,0E0,0E0,0E0,0E0,0E0,0E0,0E0,0E0,0E0,0E0,0E0,0E0,0E0],"parents":[2147483647,0,0,1,1,2,2,3,3,4,4,5,5,6,6,7,7,8,8,9,9,10,10,11,11,12,12,13,13,14,14],"right_children":[2,4,6,8,10,12,14,16,18,20,22,24,26,28,30,-1,-1,-1,-1,-1,-1,-1,-1,-1,-1,-1,-1,-1,-1,-1,-1],"split_conditions":[7.6061213E-1,5.076923E-1,1.0562611E-1,1.743938E-1,NaN,6.386768E-1,NaN,7.122992E-1,2.4304628E-2,7.406145E-1,7.5537074E-1,7.640056E-1,4.479546E-1,7.918372E-1,1.3637307E-1,-2.1943582E-2,-1.1480635E-1,-5.000319E-3,-5.85086E-2,4.3433635E-3,-2.7602995E-2,-1.1904873E-2,1.0727799E-1,3.414884E-2,1.3060573E-3,-1.1138687E-1,-3.3006817E-2,6.401353E-2,1.2083638E-2,4.3451034E-2,3.7736322E-3],"split_indices":[2,4,1,0,3,4,3,2,1,2,2,2,0,2,0,0,0,0,0,0,0,0,0,0,0,0,0,0,0,0,0],"split_type":[0,0,0,0,1,0,1,0,0,0,0,0,0,0,0,0,0,0,0,0,0,0,0,0,0,0,0,0,0,0,0],"sum_hessian":[1.8605277E4,1.1684532E4,6.920744E3,8.130963E2,1.0871437E4,4.4791724E3,2.441572E3,9.858773E1,7.1450854E2,8.0790737E3,2.7923625E3,4.391625E3,8.754722E1,5.59266E2,1.8823059E3,3.9536175E1,5.905155E1,6.5003033E2,6.4478264E1,7.521513E3,5.57561E2,2.7616655E3,3.069692E1,1.4016493E2,4.2514604E3,5.117801E1,3.6369205E1,2.3099553E2,3.2827048E2,1.3106317E2,1.7512428E3],"tree_param":{"num_deleted":"0","num_feature":"5","num_nodes":"31","size_leaf_vector":"0"}},{"base_weights":[-1.2338665E-2,-3.7834253E-2,4.8617456E-2,3.878133E-2,-5.877007E-2,1.03646815E-1,-2.5212105E-2,7.3924623E-3,2.4043055E-1,-2.0116337E-1,-4.684987E-2,1.705538E-1,-2.9422684E-2,-3.5975987E-1,8.343667E-3,2.1030253E-3,-1.375619E-1,5.929933E-2,1.3161256E-2,-2.884216E-2,6.363866E-2,7.4565443E-3,-6.07498E-3,2.9752774E-2,9.411729E-3,-3.0135784E-2,1.063789E-2,-1.7453147E-1,-2.5515739E-2,-1.8022528E-3,2.882112E-2],"categories":[2,3,4,5,6,8,9,10,0,6,8,9,10],"categories_nodes":[1,5],"categories_segments":[0,8],"categories_sizes":[8,5],"default_left":[0,0,0,0,0,0,0,0,0,0,0,0,0,0,0,0,0,0,0,0,0,0,0,0,0,0,0,0,0,0,0],"id":33,"left_children":[1,3,5,7,9,11,13,15,17,19,21,23,25,27,29,-1,-1,-1,-1,-1,-1,-1,-1,-1,-1,-1,-1,-1,-1,-1,-1],"loss_changes":[2.8715576E1,2.089894E1,2.214164E1,1.769899E1,1.7358334E1,2.780386E1,2.613599E1,4.5689823E1,1.4372E1,5.7926704E1,1.5941364E1,2.0138126E1,3.8641533E1,3.0313742E1,1.5624168E1,0E0,0E0,0E0,0E0,0E0,0E0,0E0,0E0,0E0,0E0,0E0,0E0,0E0,0E0,0E0,0E0],"parents":[2147483647,0,0,1,1,2,2,3,3,4,4,5,5,6,6,7,7,8,8,9,9,10,10,11,11,12,12,13,13,14,14],"right_children":[2,4,6,8,10,12,14,16,18,20,22,24,26,28,30,-1,-1,-1,-1,-1,-1,-1,-1,-1,-1,-1,-1,-1,-1,-1,-1],"split_conditions":[7.231503E-1,NaN,4.307881E-1,6.8001133E-1,1.452728E-1,NaN,4.596036E-1,9.345268E-1,6.2089115E-1,1.10735886E-1,1.4678682E-2,6.3544816E-1,6.377605E-1,7.666701E-2,2.544817E-1,2.1030253E-3,-1.375619E-1,5.929933E-2,1.3161256E-2,-2.884216E-2,6.363866E-2,7.4565443E-3,-6.07498E-3,2.9752774E-2,9.411729E-3,-3.0135784E-2,1.063789E-2,-1.7453147E-1,-2.5515739E-2,-1.8022528E-3,2.882112E-2],"split_indices":[4,3,0,0,0,3,0,2,2,1,1,2,2,1,1,0,0,0,0,0,0,0,0,0,0,0,0,0,0,0,0],"split_type":[0,1,0,0,0,1,0,0,0,0,0,0,0,0,0,0,0,0,0,0,0,0,0,0,0,0,0,0,0,0,0],"sum_hessian":[1.8474975E4,1.3026764E4,5.448212E3,2.7955327E3,1.023123E4,3.1213152E3,2.326897E3,2.4198877E3,3.7564487E2,7.8910223E2,9.442129E3,2.076816E3,1.0444991E3,2.112303E2,2.1156667E3,2.3972336E3,2.2654179E1,8.754754E1,2.8809732E2,7.15242E2,7.386023E1,9.694715E2,8.472657E3,7.793281E2,1.2974878E3,3.4747684E2,6.9702234E2,1.3726406E1,1.975039E2,1.9343666E3,1.8130019E2],"tree_param":{"num_deleted":"0","num_feature":"5","num_nodes":"31","size_leaf_vector":"0"}},{"base_weights":[-2.7390732E-3,2.5560006E-2,-3.8666353E-2,-6.3158E-3,8.50917E-2,2.3996683E-2,-8.448892E-2,-5.6343687E-1,-6.6107354E-4,4.138081E-1,6.0307223E-2,7.8620255E-2,-3.8199776E-1,4.0712088E-1,-1.2174169E-1,-2.1903806E-3,-1.02447964E-1,1.8825046E-3,-1.421604E-2,5.718288E-2,-1.9584475E-2,2.670679E-2,4.2079734E-3,2.4445577E-2,2.2557621E-4,2.5681768E-2,-5.110669E-2,2.3988241E-2,1.05573714E-1,-1.8109085E-2,-5.7463474E-3],"categories":[0,1,3,4,9,10,9,0,1,3,4,10,0,1,3,4,5,6,7,9,10,0,1,2,3,5,6,7,8,9,10],"categories_nodes":[0,5,6,10,11],"categories_segments":[0,6,7,12,21],"categories_sizes":[6,1,5,9,10],"default_left":[0,0,0,0,0,0,0,0,0,0,0,0,0,0,0,0,0,0,0,0,0,0,0,0,0,0,0,0,0,0,0],"id":34,"left_children":[1,3,5,7,9,11,13,15,17,19,21,23,25,27,29,-1,-1,-1,-1,-1,-1,-1,-1,-1,-1,-1,-1,-1,-1,-1,-1],"loss_changes":[1.8814392E1,1.9643927E1,2.3414207E1,2.124159E1,2.938511E1,7.642359E1,8.6305664E1,1.6892414E1,1.8410076E1,2.447818E1,1.2644046E1,3.8460686E1,3.3826973E1,3.5759113E1,1.6694473E1,0E0,0E0,0E0,0E0,0E0,0E0,0E0,0E0,0E0,0E0,0E0,0E0,0E0,0E0,0E0,0E0],"parents":[2147483647,0,0,1,1,2,2,3,3,4,4,5,5,6,6,7,7,8,8,9,9,10,10,11,11,12,12,13,13,14,14],"right_children":[2,4,6,8,10,12,14,16,18,20,22,24,26,28,30,-1,-1,-1,-1,-1,-1,-1,-1,-1,-1,-1,-1,-1,-1,-1,-1],"split_conditions":[NaN,4.8190656E-1,6.6278213E-1,4.8100016E-1,1.4310189E-2,NaN,NaN,5.2030616E-2,4.2262015E-1,7.517057E-1,NaN,NaN,2.2046894E-2,1.6328782E-1,6.815762E-2,-2.1903806E-3,-1.02447964E-1,1.8825046E-3,-1.421604E-2,5.718288E-2,-1.9584475E-2,2.670679E-2,4.2079734E-3,2.4445577E-2,2.2557621E-4,2.5681768E-2,-5.110669E-2,2.3988241E-2,1.05573714E-1,-1.8109085E-2,-5.7463474E-3],"split_indices":[3,0,2,2,1,3,3,1,0,0,3,3,1,1,1,0,0,0,0,0,0,0,0,0,0,0,0,0,0,0,0],"split_type":[1,0,0,0,0,1,1,0,0,0,1,1,0,0,0,0,0,0,0,0,0,0,0,0,0,0,0,0,0,0,0],"sum_hessian":[1.850322E4,1.035059E4,8.15263E3,6.741694E3,3.6088962E3,3.4437405E3,4.708889E3,6.674888E1,6.674945E3,2.5192465E2,3.3569714E3,3.0360664E3,4.076741E2,3.3099203E2,4.3778975E3,3.1176731E1,3.5572147E1,5.8677534E3,8.071916E2,2.0011685E2,5.1807804E1,2.708601E2,3.0861113E3,9.565632E2,2.0795034E3,6.835715E1,3.3931696E2,2.6423248E2,6.675955E1,2.2752776E3,2.1026196E3],"tree_param":{"num_deleted":"0","num_feature":"5","num_nodes":"31","size_leaf_vector":"0"}},{"base_weights":[-1.7496207E-3,1.9343948E-3,-2.1288033E-1,6.571118E-2,-1.6608141E-2,-7.229891E-1,-2.3030369E-2,2.6295308E-2,3.5530338E-1,-9.189429E-2,6.6649015E-3,-5.7520825E-1,-1.806454E-1,-1.765706E-1,3.942325E-1,-2.2942709E-2,4.0599406E-3,1.1856659E-2,4.7006384E-2,8.7564735E-4,-4.358956E-2,2.4521736E-2,-3.0473145E-4,1.7999506E-2,-7.789173E-2,-1.01606034E-1,-8.563752E-3,5.333699E-2,-5.738721E-2],"categories":[0,1,3,4,5,6,9,6,9,0,1,2,3,4,5,6,7,8,10],"categories_nodes":[1,9,10],"categories_segments":[0,7,9],"categories_sizes":[7,2,10],"default_left":[0,0,0,0,0,0,0,0,0,0,0,0,0,0,0,0,0,0,0,0,0,0,0,0,0,0,0,0,0],"id":35,"left_children":[1,3,5,7,9,11,13,15,17,19,21,23,-1,25,27,-1,-1,-1,-1,-1,-1,-1,-1,-1,-1,-1,-1,-1,-1],"loss_changes":[1.4325215E1,2.1408234E1,3.0571903E1,4.6535744E1,2.4574892E1,1.2672565E1,1.4882929E1,1.3142075E1,1.3214157E1,1.1467507E2,2.4824675E1,1.1959053E1,0E0,1.2868425E1,8.725403E0,0E0,0E0,0E0,0E0,0E0,0E0,0E0,0E0,0E0,0E0,0E0,0E0,0E0,0E0],"parents":[2147483647,0,0,1,1,2,2,3,3,4,4,5,5,6,6,7,7,8,8,9,9,10,10,11,11,13,13,14,14],"right_children":[2,4,6,8,10,12,14,16,18,20,22,24,-1,26,28,-1,-1,-1,-1,-1,-1,-1,-1,-1,-1,-1,-1,-1,-1],"split_conditions":[9.100327E-1,NaN,2.6061732E-1,8.081213E-1,6.4725894E-1,2.3634396E-1,6.495167E-1,1.3602294E-2,2.7316606E-1,NaN,NaN,2.2430541E-2,-1.806454E-1,1.7632842E-2,8.4279215E-1,-2.2942709E-2,4.0599406E-3,1.1856659E-2,4.7006384E-2,8.7564735E-4,-4.358956E-2,2.4521736E-2,-3.0473145E-4,1.7999506E-2,-7.789173E-2,-1.01606034E-1,-8.563752E-3,5.333699E-2,-5.738721E-2],"split_indices":[2,3,0,2,2,0,0,1,0,3,3,1,0,1,0,0,0,0,0,0,0,0,0,0,0,0,0,0,0],"split_type":[0,1,0,0,0,0,0,0,0,1,1,0,0,0,0,0,0,0,0,0,0,0,0,0,0,0,0,0,0],"sum_hessian":[1.8415871E4,1.8101018E4,3.1485345E2,4.076705E3,1.4024312E4,8.463609E1,2.3021735E2,3.589267E3,4.8743793E2,3.3109016E3,1.071341E4,7.582476E1,8.8113365E0,1.687129E2,6.1504448E1,1.8933737E2,3.3999297E3,1.598076E2,3.276303E2,2.562205E3,7.486967E2,4.181644E2,1.0295246E4,1.6132757E1,5.9692E1,1.5494518E1,1.5321838E2,5.4168354E1,7.336095E0],"tree_param":{"num_deleted":"0","num_feature":"5","num_nodes":"29","size_leaf_vector":"0"}},{"base_weights":[-1.2466088E-2,3.37599E-2,-3.3447403E-2,1.08194776E-1,-2.0774773E-1,3.3138156E-2,-9.362765E-2,2.1623416E-1,4.5329325E-2,5.3160917E-2,-3.4297472E-1,7.707751E-3,2.6838955E-1,8.2243215E-3,-1.2641786E-1,-9.012629E-2,2.3109633E-2,-2.395177E-3,1.2263507E-2,8.2794385E-4,5.6005348E-2,-2.9312987E-2,-6.888732E-2,1.2746534E-3,-1.0780205E-1,8.161566E-2,2.1136394E-2,-6.733369E-3,1.596649E-2,-8.330147E-2,-1.1414708E-2],"categories":[5,6,9,0,1,3,4,7,10,0,1,2,3,5,6,8,9,10,0,1,2,3,4,5,6,7,8,10],"categories_nodes":[1,2,3,12],"categories_segments":[0,3,9,18],"categories_sizes":[3,6,9,10],"default_left":[0,0,0,0,0,0,0,0,0,0,0,0,0,0,0,0,0,0,0,0,0,0,0,0,0,0,0,0,0,0,0],"id":36,"left_children":[1,3,5,7,9,11,13,15,17,19,21,23,25,27,29,-1,-1,-1,-1,-1,-1,-1,-1,-1,-1,-1,-1,-1,-1,-1,-1],"loss_changes":[1.7786938E1,1.02946335E2,5.0547813E1,2.9719898E1,4.762177E1,3.582675E1,2.212947E1,2.694522E1,1.4829808E1,1.0493339E1,1.5121887E1,2.9586918E1,1.8076263E1,1.8485361E1,4.3363388E1,0E0,0E0,0E0,0E0,0E0,0E0,0E0,0E0,0E0,0E0,0E0,0E0,0E0,0E0,0E0,0E0],"parents":[2147483647,0,0,1,1,2,2,3,3,4,4,5,5,6,6,7,7,8,8,9,9,10,10,11,11,12,12,13,13,14,14],"right_children":[2,4,6,8,10,12,14,16,18,20,22,24,26,28,30,-1,-1,-1,-1,-1,-1,-1,-1,-1,-1,-1,-1,-1,-1,-1,-1],"split_conditions":[6.591413E-1,NaN,NaN,NaN,3.877822E-2,8.5303515E-1,5.117925E-1,5.157385E-1,6.3058145E-2,3.6632665E-2,9.3704593E-1,2.1436305E-1,NaN,2.7598057E-2,2.1630824E-2,-9.012629E-2,2.3109633E-2,-2.395177E-3,1.2263507E-2,8.2794385E-4,5.6005348E-2,-2.9312987E-2,-6.888732E-2,1.2746534E-3,-1.0780205E-1,8.161566E-2,2.1136394E-2,-6.733369E-3,1.596649E-2,-8.330147E-2,-1.1414708E-2],"split_indices":[2,3,3,3,1,4,4,4,1,1,4,1,3,1,1,0,0,0,0,0,0,0,0,0,0,0,0,0,0,0,0],"split_type":[0,1,1,1,0,0,0,0,0,0,0,0,1,0,0,0,0,0,0,0,0,0,0,0,0,0,0,0,0,0,0],"sum_hessian":[1.8337113E4,5.7244375E3,1.2612676E4,4.376203E3,1.3482343E3,5.9879E3,6.6247764E3,1.6088406E3,2.7673628E3,4.6044772E2,8.8778656E2,5.404692E3,5.8320825E2,1.6135538E3,5.0112227E3,2.033317E1,1.5885073E3,1.4597926E3,1.3075702E3,4.239284E2,3.6519302E1,7.7758234E2,1.1020419E2,5.3807085E3,2.3983204E1,5.3735226E1,5.29473E2,1.076842E3,5.3671173E2,8.4397896E1,4.9268247E3],"tree_param":{"num_deleted":"0","num_feature":"5","num_nodes":"31","size_leaf_vector":"0"}},{"base_weights":[-6.5762377E-3,-5.411098E-2,4.627251E-3,4.4452947E-2,-1.0805592E-1,8.922581E-2,-1.0411971E-2,6.466747E-2,-8.593903E-1,7.626221E-2,-1.5256609E-1,3.789338E-2,3.7306285E-1,-3.1853244E-2,6.203194E-2,-9.245897E-3,1.794638E-2,-1.3312164E-1,-1.3004935E-2,1.1115184E-2,-6.039272E-2,7.420029E-4,-2.0966686E-2,-1.7344337E-2,1.3261226E-2,2.1946959E-3,6.780323E-2,-1.7859283E-3,-3.3370644E-2,3.86942E-2,-8.5842604E-4],"categories":[1,2,3,4,6,7,8],"categories_nodes":[4],"categories_segments":[0],"categories_sizes":[7],"default_left":[0,0,0,0,0,0,0,0,0,0,0,0,0,0,0,0,0,0,0,0,0,0,0,0,0,0,0,0,0,0,0],"id":37,"left_children":[1,3,5,7,9,11,13,15,17,19,21,23,25,27,29,-1,-1,-1,-1,-1,-1,-1,-1,-1,-1,-1,-1,-1,-1,-1,-1],"loss_changes":[9.82572E0,1.871592E1,1.8998337E1,2.2811287E1,1.8672718E1,3.2824734E1,1.969571E1,2.2007156E1,9.226814E0,1.0582852E1,1.6742157E1,3.8252335E1,3.693552E1,4.132221E1,6.644604E1,0E0,0E0,0E0,0E0,0E0,0E0,0E0,0E0,0E0,0E0,0E0,0E0,0E0,0E0,0E0,0E0],"parents":[2147483647,0,0,1,1,2,2,3,3,4,4,5,5,6,6,7,7,8,8,9,9,10,10,11,11,12,12,13,13,14,14],"right_children":[2,4,6,8,10,12,14,16,18,20,22,24,26,28,30,-1,-1,-1,-1,-1,-1,-1,-1,-1,-1,-1,-1,-1,-1,-1,-1],"split_conditions":[2.7598057E-2,1.4310189E-2,4.1007515E-2,6.4037126E-1,NaN,6.2406015E-1,8.081213E-1,1.057977E-2,1.217178E-2,2.680303E-2,6.4111024E-1,6.808882E-1,5.344275E-1,7.9647493E-1,8.2182056E-1,-9.245897E-3,1.794638E-2,-1.3312164E-1,-1.3004935E-2,1.1115184E-2,-6.039272E-2,7.420029E-4,-2.0966686E-2,-1.7344337E-2,1.3261226E-2,2.1946959E-3,6.780323E-2,-1.7859283E-3,-3.3370644E-2,3.86942E-2,-8.5842604E-4],"split_indices":[1,1,1,4,3,4,2,1,1,1,2,2,2,2,2,0,0,0,0,0,0,0,0,0,0,0,0,0,0,0,0],"split_type":[0,0,0,0,1,0,0,0,0,0,0,0,0,0,0,0,0,0,0,0,0,0,0,0,0,0,0,0,0,0,0],"sum_hessian":[1.8448682E4,3.518095E3,1.4930586E4,1.2444713E3,2.2736238E3,2.2528625E3,1.2677724E4,1.2181556E3,2.6315695E1,4.421115E2,1.8315122E3,1.9087883E3,3.4407422E2,9.782848E3,2.8948757E3,5.143451E2,7.038106E2,1.5477647E1,1.0838048E1,4.213361E2,2.0775421E1,4.819749E2,1.3495372E3,5.904795E2,1.3183088E3,1.6043497E2,1.8363925E2,9.35042E3,4.324278E2,5.1604364E2,2.378832E3],"tree_param":{"num_deleted":"0","num_feature":"5","num_nodes":"31","size_leaf_vector":"0"}},{"base_weights":[-1.1200095E-2,-4.0822715E-2,3.912845E-2,-2.6530227E-2,-2.6597208E-1,1.3881849E-1,-3.4999556E-4,-9.1151865E-3,-2.463645E-1,3.3071843E-1,-3.9368495E-1,3.7791803E-1,8.900871E-3,-1.4805391E-1,3.2437E-2,-5.9838384E-2,-5.3270307E-4,-3.8564976E-2,8.831871E-3,7.3091076E-3,7.962577E-2,-2.4123674E-2,-8.4197186E-2,1.2102443E-2,5.515603E-2,-4.674722E-3,2.6300138E-2,-3.664896E-3,-5.2879423E-2,2.6164E-2,-2.3937572E-3],"categories":[9,10,0,4,6,7,8,2,3,4,6,8,10,0,5,6,7],"categories_nodes":[3,4,5,13],"categories_segments":[0,2,7,13],"categories_sizes":[2,5,6,4],"default_left":[0,0,0,0,0,0,0,0,0,0,0,0,0,0,0,0,0,0,0,0,0,0,0,0,0,0,0,0,0,0,0],"id":38,"left_children":[1,3,5,7,9,11,13,15,17,19,21,23,25,27,29,-1,-1,-1,-1,-1,-1,-1,-1,-1,-1,-1,-1,-1,-1,-1,-1],"loss_changes":[2.7357801E1,3.716397E1,2.6758503E1,4.158508E1,5.2665077E1,5.990893E1,2.359561E1,2.2467566E1,3.720288E1,1.4583921E1,3.8635155E1,3.022216E1,1.769761E1,3.7522583E1,5.152661E1,0E0,0E0,0E0,0E0,0E0,0E0,0E0,0E0,0E0,0E0,0E0,0E0,0E0,0E0,0E0,0E0],"parents":[2147483647,0,0,1,1,2,2,3,3,4,4,5,5,6,6,7,7,8,8,9,9,10,10,11,11,12,12,13,13,14,14],"right_children":[2,4,6,8,10,12,14,16,18,20,22,24,26,28,30,-1,-1,-1,-1,-1,-1,-1,-1,-1,-1,-1,-1,-1,-1,-1,-1],"split_conditions":[7.6061213E-1,7.436657E-1,7.90617E-1,NaN,NaN,NaN,8.068469E-1,4.2791906E-1,6.50403E-1,7.5537074E-1,1.0768579E-1,6.928788E-2,7.8639627E-1,NaN,8.2182056E-1,-5.9838384E-2,-5.3270307E-4,-3.8564976E-2,8.831871E-3,7.3091076E-3,7.962577E-2,-2.4123674E-2,-8.4197186E-2,1.2102443E-2,5.515603E-2,-4.674722E-3,2.6300138E-2,-3.664896E-3,-5.2879423E-2,2.6164E-2,-2.3937572E-3],"split_indices":[2,2,2,3,3,3,2,2,2,2,1,1,2,3,2,0,0,0,0,0,0,0,0,0,0,0,0,0,0,0,0],"split_type":[0,0,0,1,1,1,0,0,0,0,0,0,0,1,0,0,0,0,0,0,0,0,0,0,0,0,0,0,0,0,0],"sum_hessian":[1.834824E4,1.1550172E4,6.7980674E3,1.0861783E4,6.883884E2,1.9277195E3,4.870348E3,1.006545E4,7.963329E2,1.2108316E2,5.6730524E2,6.780083E2,1.2497112E3,8.840822E2,3.9862659E3,6.3290573E1,1.000216E4,5.6220685E2,2.3412608E2,7.869223E1,4.2390926E1,4.244883E2,1.4281694E2,2.741364E2,4.0387192E2,1.0258629E3,2.2384825E2,6.8480414E2,1.9927806E2,7.8619183E2,3.200074E3],"tree_param":{"num_deleted":"0","num_feature":"5","num_nodes":"31","size_leaf_vector":"0"}},{"base_weights":[-2.38768E-3,-1.736463E-2,7.382476E-2,-9.1736056E-2,-2.5855162E-4,1.1361124E-1,-9.742632E-2,-7.361476E-2,-4.2959955E-1,-1.341394E0,1.2871547E-3,3.635059E-1,9.781882E-2,8.124265E-1,-1.2683481E-1,3.1742457E-2,-1.0301695E-2,-5.1685184E-2,7.4625954E-2,-6.9870524E-2,-1.7204033E-1,-2.072455E-3,4.9803373E-3,5.7515442E-2,-1.965313E-2,3.4289309E-3,1.4187164E-2,1.12233184E-1,2.031399E-2,-1.4847918E-2,9.383275E-2],"categories":[0,1,5,10,0,1,2,3,4,5,6,7,8],"categories_nodes":[2,7],"categories_segments":[0,4],"categories_sizes":[4,9],"default_left":[0,0,0,0,0,0,0,0,0,0,0,0,0,0,0,0,0,0,0,0,0,0,0,0,0,0,0,0,0,0,0],"id":39,"left_children":[1,3,5,7,9,11,13,15,17,19,21,23,25,27,29,-1,-1,-1,-1,-1,-1,-1,-1,-1,-1,-1,-1,-1,-1,-1,-1],"loss_changes":[2.1039515E1,1.9598383E1,2.063802E1,1.7605614E1,2.5966856E1,9.661217E0,1.5389101E1,3.1481318E1,1.540941E1,2.3105087E0,1.336286E1,1.738078E1,6.466772E0,3.1749554E0,1.2917683E1,0E0,0E0,0E0,0E0,0E0,0E0,0E0,0E0,0E0,0E0,0E0,0E0,0E0,0E0,0E0,0E0],"parents":[2147483647,0,0,1,1,2,2,3,3,4,4,5,5,6,6,7,7,8,8,9,9,10,10,11,11,12,12,13,13,14,14],"right_children":[2,4,6,8,10,12,14,16,18,20,22,24,26,28,30,-1,-1,-1,-1,-1,-1,-1,-1,-1,-1,-1,-1,-1,-1,-1,-1],"split_conditions":[6.495167E-1,2.7598057E-2,NaN,2.6384301E-2,4.3137255E-1,1.2880192E-2,6.5466964E-1,NaN,8.91275E-1,2.883764E-1,7.832921E-1,8.107898E-1,7.381681E-1,6.729572E-1,9.2249435E-1,3.1742457E-2,-1.0301695E-2,-5.1685184E-2,7.4625954E-2,-6.9870524E-2,-1.7204033E-1,-2.072455E-3,4.9803373E-3,5.7515442E-2,-1.965313E-2,3.4289309E-3,1.4187164E-2,1.12233184E-1,2.031399E-2,-1.4847918E-2,9.383275E-2],"split_indices":[0,1,3,1,4,1,0,3,2,0,2,0,0,2,2,0,0,0,0,0,0,0,0,0,0,0,0,0,0,0,0],"split_type":[0,0,1,0,0,0,0,1,0,0,0,0,0,0,0,0,0,0,0,0,0,0,0,0,0,0,0,0,0,0,0],"sum_hessian":[1.8430467E4,1.5404093E4,3.0263755E3,2.8797134E3,1.2524379E4,2.4560923E3,5.702832E2,2.7342783E3,1.4543501E2,1.3420286E1,1.2510959E4,1.4468117E2,2.3114111E3,1.7022053E1,5.5326117E2,1.9052766E2,2.5437507E3,1.3591049E2,9.524521E0,6.0332193E0,7.387067E0,8.606693E3,3.9042651E3,1.04980194E2,3.9700974E1,9.4720465E2,1.3642064E3,1.0724924E1,6.2971287E0,5.430861E2,1.0175043E1],"tree_param":{"num_deleted":"0","num_feature":"5","num_nodes":"31","size_leaf_vector":"0"}},{"base_weights":[1.1908039E-2,-1.607297E-2,3.7613668E-2,-1.4042938E-2,-8.0489767E-1,4.3497726E-2,-3.3730277E-1,3.806483E-3,-1.1981297E-1,2.623493E-2,-1.59286E-1,3.2536272E-2,2.2728917E-1,-8.461316E-1,-1.7808947E-1,1.3158525E-3,-1.6667718E-2,-1.4400566E-1,-9.972005E-3,2.0087777E-2,1.9497883E-3,-9.935688E-2,2.6679704E-2,-3.226235E-2,-1.810303E-1,8.019041E-2,-3.6484316E-2],"categories":[2,3,8,9],"categories_nodes":[3],"categories_segments":[0],"categories_sizes":[4],"default_left":[0,0,0,0,0,0,0,0,0,0,0,0,0,0,0,0,0,0,0,0,0,0,0,0,0,0,0],"id":40,"left_children":[1,3,5,7,9,11,13,15,17,-1,-1,19,21,23,25,-1,-1,-1,-1,-1,-1,-1,-1,-1,-1,-1,-1],"loss_changes":[1.3373835E1,1.4245562E1,2.139267E1,1.6767685E1,1.9621359E1,1.9215824E1,1.1989269E1,1.2119187E1,3.3875217E1,0E0,0E0,1.9763294E1,2.6160936E1,1.7308216E1,2.1413795E1,0E0,0E0,0E0,0E0,0E0,0E0,0E0,0E0,0E0,0E0,0E0,0E0],"parents":[2147483647,0,0,1,1,2,2,3,3,4,4,5,5,6,6,7,7,8,8,11,11,12,12,13,13,14,14],"right_children":[2,4,6,8,10,12,14,16,18,-1,-1,20,22,24,26,-1,-1,-1,-1,-1,-1,-1,-1,-1,-1,-1,-1],"split_conditions":[6.356172E-2,8.6797065E-1,9.100327E-1,NaN,2.680303E-2,8.851887E-1,8.795209E-2,5.9704863E-2,1.08041525E-1,2.623493E-2,-1.59286E-1,1.4094192E-1,1.2162777E-1,7.536543E-2,9.421711E-2,1.3158525E-3,-1.6667718E-2,-1.4400566E-1,-9.972005E-3,2.0087777E-2,1.9497883E-3,-9.935688E-2,2.6679704E-2,-3.226235E-2,-1.810303E-1,8.019041E-2,-3.6484316E-2],"split_indices":[1,4,2,3,1,2,1,1,0,0,0,0,0,1,1,0,0,0,0,0,0,0,0,0,0,0,0],"split_type":[0,0,0,1,0,0,0,0,0,0,0,0,0,0,0,0,0,0,0,0,0,0,0,0,0,0,0],"sum_hessian":[1.8591797E4,8.902093E3,9.689704E3,8.880258E3,2.183543E1,9.540851E3,1.4885323E2,7.5988613E3,1.2813962E3,9.557473E0,1.2277958E1,9.004966E3,5.3588556E2,3.4447666E1,1.1440556E2,7.204571E3,3.942907E2,1.814994E1,1.2632462E3,6.462812E2,8.358685E3,1.6041079E1,5.198445E2,2.3190647E1,1.1257021E1,1.7784924E1,9.662064E1],"tree_param":{"num_deleted":"0","num_feature":"5","num_nodes":"27","size_leaf_vector":"0"}},{"base_weights":[-1.5400366E-2,-7.309929E-2,2.2461581E-4,1.9977055E-2,-1.2972683E-1,1.228935E-2,-5.974132E-2,1.5373272E-1,-9.429406E-2,-2.82781E-1,-6.0644772E-2,1.1602861E-3,1.6253419E-1,-1.2493249E-1,7.177068E-2,4.229115E-2,5.4650004E-3,2.9139666E-2,-1.4379762E-2,-1.981345E-2,-4.789711E-2,-1.66489E-2,6.4943912E-3,-1.9919597E-2,7.8870973E-4,-1.9363051E-2,2.212935E-2,1.18303135E-1,-1.3713813E-2,3.9180096E-2,-8.65996E-3],"categories":[3,4,6,9,10,3,5,0,1,2,3,4,5,6,8,9,10],"categories_nodes":[1,2,7],"categories_segments":[0,5,7],"categories_sizes":[5,2,10],"default_left":[0,0,0,0,0,0,0,0,0,0,0,0,0,0,0,0,0,0,0,0,0,0,0,0,0,0,0,0,0,0,0],"id":41,"left_children":[1,3,5,7,9,11,13,15,17,19,21,23,25,27,29,-1,-1,-1,-1,-1,-1,-1,-1,-1,-1,-1,-1,-1,-1,-1,-1],"loss_changes":[1.6473518E1,2.0525553E1,1.0404085E1,2.2539848E1,2.5581299E1,2.0018074E1,2.0659737E1,1.8096241E1,1.5228161E1,1.2404163E1,2.2201866E1,1.5025579E1,1.7321798E1,2.5877476E1,4.052597E1,0E0,0E0,0E0,0E0,0E0,0E0,0E0,0E0,0E0,0E0,0E0,0E0,0E0,0E0,0E0,0E0],"parents":[2147483647,0,0,1,1,2,2,3,3,4,4,5,5,6,6,7,7,8,8,9,9,10,10,11,11,12,12,13,13,14,14],"right_children":[2,4,6,8,10,12,14,16,18,20,22,24,26,28,30,-1,-1,-1,-1,-1,-1,-1,-1,-1,-1,-1,-1,-1,-1,-1,-1],"split_conditions":[2.135272E-1,NaN,NaN,6.663369E-1,6.8713427E-1,8.8382924E-1,7.231503E-1,NaN,4.6590906E-1,7.304582E-1,5.9251106E-1,4.5098037E-1,2.6889265E-1,2.1513273E-1,3.6367297E-1,4.229115E-2,5.4650004E-3,2.9139666E-2,-1.4379762E-2,-1.981345E-2,-4.789711E-2,-1.66489E-2,6.4943912E-3,-1.9919597E-2,7.8870973E-4,-1.9363051E-2,2.212935E-2,1.18303135E-1,-1.3713813E-2,3.9180096E-2,-8.65996E-3],"split_indices":[0,3,3,2,2,2,4,3,4,4,4,4,0,0,0,0,0,0,0,0,0,0,0,0,0,0,0,0,0,0,0],"split_type":[0,1,1,0,0,0,0,1,0,0,0,0,0,0,0,0,0,0,0,0,0,0,0,0,0,0,0,0,0,0,0],"sum_hessian":[1.8271531E4,3.892794E3,1.4378737E4,1.4727473E3,2.4200466E3,1.1971041E4,2.4076963E3,6.7836633E2,7.94381E2,7.5164734E2,1.6683993E3,1.1146403E4,8.246381E2,1.6097733E3,7.979229E2,1.8163872E2,4.967276E2,8.9805405E1,7.0457556E2,5.264986E2,2.2514873E2,9.0519183E2,7.632075E2,3.6114627E2,1.0785257E4,1.16455765E2,7.081824E2,1.3996294E1,1.5957771E3,2.6365738E2,5.342655E2],"tree_param":{"num_deleted":"0","num_feature":"5","num_nodes":"31","size_leaf_vector":"0"}},{"base_weights":[5.378571E-3,2.128824E-2,-7.076438E-2,1.613038E-2,4.3880257E-1,-3.1067343E-2,-3.15994E-1,1.3449731E-2,4.5986956E-1,2.7616434E-2,7.224464E-1,-3.2349142E-1,4.4626533E-3,-4.028895E-1,3.931902E-1,5.1917923E-3,-1.0264349E-3,-7.984491E-2,6.6589676E-2,9.079744E-2,-4.2517558E-2,9.248791E-2,4.216448E-3,4.651661E-3,-5.7329595E-2,3.27011E-2,-3.0381652E-3,1.0691207E-2,-5.5215497E-2,-7.6555416E-2,6.633931E-2],"categories":[4,4,5,6,6,9],"categories_nodes":[2,9,11],"categories_segments":[0,1,4],"categories_sizes":[1,3,2],"default_left":[0,0,0,0,0,0,0,0,0,0,0,0,0,0,0,0,0,0,0,0,0,0,0,0,0,0,0,0,0,0,0],"id":42,"left_children":[1,3,5,7,9,11,13,15,17,19,21,23,25,27,29,-1,-1,-1,-1,-1,-1,-1,-1,-1,-1,-1,-1,-1,-1,-1,-1],"loss_changes":[2.2328207E1,3.2824375E1,3.1001577E1,1.7908726E1,2.167395E1,2.8499418E1,2.7502598E1,1.3657965E1,2.3969322E1,3.1068155E1,1.5113979E1,2.7494167E1,2.7508337E1,3.0176147E1,1.5830776E1,0E0,0E0,0E0,0E0,0E0,0E0,0E0,0E0,0E0,0E0,0E0,0E0,0E0,0E0,0E0,0E0],"parents":[2147483647,0,0,1,1,2,2,3,3,4,4,5,5,6,6,7,7,8,8,9,9,10,10,11,11,12,12,13,13,14,14],"right_children":[2,4,6,8,10,12,14,16,18,20,22,24,26,28,30,-1,-1,-1,-1,-1,-1,-1,-1,-1,-1,-1,-1,-1,-1,-1,-1],"split_conditions":[8.2182056E-1,8.1783843E-1,NaN,9.1740274E-1,6.356172E-2,8.351115E-1,8.6877584E-1,6.6006863E-1,5.9625185E-1,NaN,7.484663E-1,NaN,8.43158E-1,8.3189666E-1,4.7006646E-1,5.1917923E-3,-1.0264349E-3,-7.984491E-2,6.6589676E-2,9.079744E-2,-4.2517558E-2,9.248791E-2,4.216448E-3,4.651661E-3,-5.7329595E-2,3.27011E-2,-3.0381652E-3,1.0691207E-2,-5.5215497E-2,-7.6555416E-2,6.633931E-2],"split_indices":[2,2,3,0,1,2,2,2,2,3,4,3,2,2,4,0,0,0,0,0,0,0,0,0,0,0,0,0,0,0,0],"split_type":[0,0,1,0,0,0,0,0,0,1,0,1,0,0,0,0,0,0,0,0,0,0,0,0,0,0,0,0,0,0,0],"sum_hessian":[1.8429355E4,1.5244763E4,3.1845925E3,1.5059757E4,1.8500552E2,2.7418728E3,4.427195E2,1.4970351E4,8.9406296E1,7.597101E1,1.09034515E2,2.9617188E2,2.445701E3,3.9477954E2,4.7939976E1,5.7086997E3,9.261651E3,1.2174521E1,7.723177E1,2.5461414E1,5.0509594E1,8.375257E1,2.5281952E1,1.1969483E2,1.7647704E2,2.3762825E2,2.2080728E3,8.94739E1,3.0530566E2,8.718425E0,3.9221554E1],"tree_param":{"num_deleted":"0","num_feature":"5","num_nodes":"31","size_leaf_vector":"0"}},{"base_weights":[1.3964378E-3,-5.097932E-2,1.6711146E-2,2.3452133E-1,-6.750422E-2,4.2169726E-1,1.4585623E-2,8.2828194E-1,1.1739724E-1,-3.320028E-2,-2.2787139E-1,-7.689016E-2,5.410734E-1,1.0454758E-1,9.578095E-5,-1.1190186E-2,1.3132834E-1,-1.4543718E-1,1.7710967E-2,2.7340028E-2,-7.0736394E-3,1.2421855E-2,-3.619891E-2,-6.886194E-3,8.6848736E-2,4.2904686E-2,6.590406E-3,-8.072878E-2,1.9051645E-4],"categories":[0,2,4,5,6,7,8,9,10,1,2,3,9],"categories_nodes":[3,4],"categories_segments":[0,9],"categories_sizes":[9,4],"default_left":[0,0,0,0,0,0,0,0,0,0,0,0,0,0,0,0,0,0,0,0,0,0,0,0,0,0,0,0,0],"id":43,"left_children":[1,3,5,7,9,11,13,15,17,19,21,-1,23,25,27,-1,-1,-1,-1,-1,-1,-1,-1,-1,-1,-1,-1,-1,-1],"loss_changes":[1.4777381E1,1.9680485E1,1.2264428E1,1.5777939E1,2.1671911E1,1.0988717E1,1.8485867E1,1.7221638E1,1.8261724E1,3.7394413E1,3.2829185E1,0E0,1.3678644E1,2.4640944E1,1.7846128E1,0E0,0E0,0E0,0E0,0E0,0E0,0E0,0E0,0E0,0E0,0E0,0E0,0E0,0E0],"parents":[2147483647,0,0,1,1,2,2,3,3,4,4,5,5,6,6,7,7,8,8,9,9,10,10,12,12,13,13,14,14],"right_children":[2,4,6,8,10,12,14,16,18,20,22,-1,24,26,28,-1,-1,-1,-1,-1,-1,-1,-1,-1,-1,-1,-1,-1,-1],"split_conditions":[3.158263E-2,8.09467E-3,3.2021202E-2,NaN,NaN,4.680365E-1,5.452436E-1,5.9625185E-1,5.5509186E-1,6.075136E-1,2.3823395E-1,-7.689016E-2,3.4148812E-1,7.406145E-1,3.2426465E-2,-1.1190186E-2,1.3132834E-1,-1.4543718E-1,1.7710967E-2,2.7340028E-2,-7.0736394E-3,1.2421855E-2,-3.619891E-2,-6.886194E-3,8.6848736E-2,4.2904686E-2,6.590406E-3,-8.072878E-2,1.9051645E-4],"split_indices":[1,1,1,3,3,4,4,2,2,2,0,0,0,2,1,0,0,0,0,0,0,0,0,0,0,0,0,0,0],"split_type":[0,0,0,1,1,0,0,0,0,0,0,0,0,0,0,0,0,0,0,0,0,0,0,0,0,0,0,0,0],"sum_hessian":[1.8420855E4,4.167121E3,1.4253735E4,2.2727637E2,3.9398447E3,7.338789E1,1.4180348E4,3.6445263E1,1.908311E2,3.2465798E3,6.9326483E2,6.191902E0,6.719599E1,1.9662745E3,1.2214072E4,1.2664393E1,2.3780869E1,6.129599E0,1.847015E2,3.5342975E2,2.8931501E3,1.9125365E2,5.020112E2,2.374724E1,4.344875E1,2.0816432E2,1.7581102E3,2.6315683E1,1.2187757E4],"tree_param":{"num_deleted":"0","num_feature":"5","num_nodes":"29","size_leaf_vector":"0"}},{"base_weights":[1.3929658E-3,-1.6586458E-2,6.326029E-2,2.343964E-2,-4.062119E-2,7.5768046E-2,-5.0173306E-1,1.1888392E-1,-7.7657993E-3,-2.0330973E-1,-2.181771E-2,1.4838809E-1,1.9035319E-2,-8.395464E-1,4.1257071E-1,-9.961273E-3,3.3104476E-2,7.310949E-3,-6.232399E-3,3.2569764E-3,-5.294918E-2,-2.3576966E-2,-6.712927E-4,2.5551379E-2,4.8956224E-3,-8.6412085E-3,1.46225905E-2,-5.0579917E-2,-1.4812596E-1,1.13246106E-1,-8.343831E-2],"categories":[2,3,4,6,9,0,10,0,4,5,7,8,10],"categories_nodes":[1,2,5],"categories_segments":[0,5,7],"categories_sizes":[5,2,6],"default_left":[0,0,0,0,0,0,0,0,0,0,0,0,0,0,0,0,0,0,0,0,0,0,0,0,0,0,0,0,0,0,0],"id":44,